FANN_FLO_2.0
num_layers=42
learning_rate=0.700000
connection_rate=1.000000
shortcut_connections=1
learning_momentum=0.000000
training_algorithm=2
train_error_function=1
train_stop_function=0
cascade_output_change_fraction=0.010000
quickprop_decay=-0.000100
quickprop_mu=1.750000
rprop_increase_factor=1.200000
rprop_decrease_factor=0.500000
rprop_delta_min=0.000000
rprop_delta_max=50.000000
rprop_delta_zero=0.500000
cascade_output_stagnation_epochs=12
cascade_candidate_change_fraction=0.010000
cascade_candidate_stagnation_epochs=12
cascade_max_out_epochs=150
cascade_max_cand_epochs=150
cascade_num_candidate_groups=2
bit_fail_limit=3.49999994039535522461e-01
cascade_candidate_limit=1.00000000000000000000e+03
cascade_weight_multiplier=4.00000005960464477539e-01
cascade_activation_functions_count=6
cascade_activation_functions=3 5 7 8 10 11 
cascade_activation_steepnesses_count=4
cascade_activation_steepnesses=2.50000000000000000000e-01 5.00000000000000000000e-01 7.50000000000000000000e-01 1.00000000000000000000e+00 
layer_sizes=261 1 1 1 1 1 1 1 1 1 1 1 1 1 1 1 1 1 1 1 1 1 1 1 1 1 1 1 1 1 1 1 1 1 1 1 1 1 1 1 1 3 
neurons (num_inputs, activation_function, activation_steepness)=(0, 0, 0.00000000000000000000e+00) (0, 0, 0.00000000000000000000e+00) (0, 0, 0.00000000000000000000e+00) (0, 0, 0.00000000000000000000e+00) (0, 0, 0.00000000000000000000e+00) (0, 0, 0.00000000000000000000e+00) (0, 0, 0.00000000000000000000e+00) (0, 0, 0.00000000000000000000e+00) (0, 0, 0.00000000000000000000e+00) (0, 0, 0.00000000000000000000e+00) (0, 0, 0.00000000000000000000e+00) (0, 0, 0.00000000000000000000e+00) (0, 0, 0.00000000000000000000e+00) (0, 0, 0.00000000000000000000e+00) (0, 0, 0.00000000000000000000e+00) (0, 0, 0.00000000000000000000e+00) (0, 0, 0.00000000000000000000e+00) (0, 0, 0.00000000000000000000e+00) (0, 0, 0.00000000000000000000e+00) (0, 0, 0.00000000000000000000e+00) (0, 0, 0.00000000000000000000e+00) (0, 0, 0.00000000000000000000e+00) (0, 0, 0.00000000000000000000e+00) (0, 0, 0.00000000000000000000e+00) (0, 0, 0.00000000000000000000e+00) (0, 0, 0.00000000000000000000e+00) (0, 0, 0.00000000000000000000e+00) (0, 0, 0.00000000000000000000e+00) (0, 0, 0.00000000000000000000e+00) (0, 0, 0.00000000000000000000e+00) (0, 0, 0.00000000000000000000e+00) (0, 0, 0.00000000000000000000e+00) (0, 0, 0.00000000000000000000e+00) (0, 0, 0.00000000000000000000e+00) (0, 0, 0.00000000000000000000e+00) (0, 0, 0.00000000000000000000e+00) (0, 0, 0.00000000000000000000e+00) (0, 0, 0.00000000000000000000e+00) (0, 0, 0.00000000000000000000e+00) (0, 0, 0.00000000000000000000e+00) (0, 0, 0.00000000000000000000e+00) (0, 0, 0.00000000000000000000e+00) (0, 0, 0.00000000000000000000e+00) (0, 0, 0.00000000000000000000e+00) (0, 0, 0.00000000000000000000e+00) (0, 0, 0.00000000000000000000e+00) (0, 0, 0.00000000000000000000e+00) (0, 0, 0.00000000000000000000e+00) (0, 0, 0.00000000000000000000e+00) (0, 0, 0.00000000000000000000e+00) (0, 0, 0.00000000000000000000e+00) (0, 0, 0.00000000000000000000e+00) (0, 0, 0.00000000000000000000e+00) (0, 0, 0.00000000000000000000e+00) (0, 0, 0.00000000000000000000e+00) (0, 0, 0.00000000000000000000e+00) (0, 0, 0.00000000000000000000e+00) (0, 0, 0.00000000000000000000e+00) (0, 0, 0.00000000000000000000e+00) (0, 0, 0.00000000000000000000e+00) (0, 0, 0.00000000000000000000e+00) (0, 0, 0.00000000000000000000e+00) (0, 0, 0.00000000000000000000e+00) (0, 0, 0.00000000000000000000e+00) (0, 0, 0.00000000000000000000e+00) (0, 0, 0.00000000000000000000e+00) (0, 0, 0.00000000000000000000e+00) (0, 0, 0.00000000000000000000e+00) (0, 0, 0.00000000000000000000e+00) (0, 0, 0.00000000000000000000e+00) (0, 0, 0.00000000000000000000e+00) (0, 0, 0.00000000000000000000e+00) (0, 0, 0.00000000000000000000e+00) (0, 0, 0.00000000000000000000e+00) (0, 0, 0.00000000000000000000e+00) (0, 0, 0.00000000000000000000e+00) (0, 0, 0.00000000000000000000e+00) (0, 0, 0.00000000000000000000e+00) (0, 0, 0.00000000000000000000e+00) (0, 0, 0.00000000000000000000e+00) (0, 0, 0.00000000000000000000e+00) (0, 0, 0.00000000000000000000e+00) (0, 0, 0.00000000000000000000e+00) (0, 0, 0.00000000000000000000e+00) (0, 0, 0.00000000000000000000e+00) (0, 0, 0.00000000000000000000e+00) (0, 0, 0.00000000000000000000e+00) (0, 0, 0.00000000000000000000e+00) (0, 0, 0.00000000000000000000e+00) (0, 0, 0.00000000000000000000e+00) (0, 0, 0.00000000000000000000e+00) (0, 0, 0.00000000000000000000e+00) (0, 0, 0.00000000000000000000e+00) (0, 0, 0.00000000000000000000e+00) (0, 0, 0.00000000000000000000e+00) (0, 0, 0.00000000000000000000e+00) (0, 0, 0.00000000000000000000e+00) (0, 0, 0.00000000000000000000e+00) (0, 0, 0.00000000000000000000e+00) (0, 0, 0.00000000000000000000e+00) (0, 0, 0.00000000000000000000e+00) (0, 0, 0.00000000000000000000e+00) (0, 0, 0.00000000000000000000e+00) (0, 0, 0.00000000000000000000e+00) (0, 0, 0.00000000000000000000e+00) (0, 0, 0.00000000000000000000e+00) (0, 0, 0.00000000000000000000e+00) (0, 0, 0.00000000000000000000e+00) (0, 0, 0.00000000000000000000e+00) (0, 0, 0.00000000000000000000e+00) (0, 0, 0.00000000000000000000e+00) (0, 0, 0.00000000000000000000e+00) (0, 0, 0.00000000000000000000e+00) (0, 0, 0.00000000000000000000e+00) (0, 0, 0.00000000000000000000e+00) (0, 0, 0.00000000000000000000e+00) (0, 0, 0.00000000000000000000e+00) (0, 0, 0.00000000000000000000e+00) (0, 0, 0.00000000000000000000e+00) (0, 0, 0.00000000000000000000e+00) (0, 0, 0.00000000000000000000e+00) (0, 0, 0.00000000000000000000e+00) (0, 0, 0.00000000000000000000e+00) (0, 0, 0.00000000000000000000e+00) (0, 0, 0.00000000000000000000e+00) (0, 0, 0.00000000000000000000e+00) (0, 0, 0.00000000000000000000e+00) (0, 0, 0.00000000000000000000e+00) (0, 0, 0.00000000000000000000e+00) (0, 0, 0.00000000000000000000e+00) (0, 0, 0.00000000000000000000e+00) (0, 0, 0.00000000000000000000e+00) (0, 0, 0.00000000000000000000e+00) (0, 0, 0.00000000000000000000e+00) (0, 0, 0.00000000000000000000e+00) (0, 0, 0.00000000000000000000e+00) (0, 0, 0.00000000000000000000e+00) (0, 0, 0.00000000000000000000e+00) (0, 0, 0.00000000000000000000e+00) (0, 0, 0.00000000000000000000e+00) (0, 0, 0.00000000000000000000e+00) (0, 0, 0.00000000000000000000e+00) (0, 0, 0.00000000000000000000e+00) (0, 0, 0.00000000000000000000e+00) (0, 0, 0.00000000000000000000e+00) (0, 0, 0.00000000000000000000e+00) (0, 0, 0.00000000000000000000e+00) (0, 0, 0.00000000000000000000e+00) (0, 0, 0.00000000000000000000e+00) (0, 0, 0.00000000000000000000e+00) (0, 0, 0.00000000000000000000e+00) (0, 0, 0.00000000000000000000e+00) (0, 0, 0.00000000000000000000e+00) (0, 0, 0.00000000000000000000e+00) (0, 0, 0.00000000000000000000e+00) (0, 0, 0.00000000000000000000e+00) (0, 0, 0.00000000000000000000e+00) (0, 0, 0.00000000000000000000e+00) (0, 0, 0.00000000000000000000e+00) (0, 0, 0.00000000000000000000e+00) (0, 0, 0.00000000000000000000e+00) (0, 0, 0.00000000000000000000e+00) (0, 0, 0.00000000000000000000e+00) (0, 0, 0.00000000000000000000e+00) (0, 0, 0.00000000000000000000e+00) (0, 0, 0.00000000000000000000e+00) (0, 0, 0.00000000000000000000e+00) (0, 0, 0.00000000000000000000e+00) (0, 0, 0.00000000000000000000e+00) (0, 0, 0.00000000000000000000e+00) (0, 0, 0.00000000000000000000e+00) (0, 0, 0.00000000000000000000e+00) (0, 0, 0.00000000000000000000e+00) (0, 0, 0.00000000000000000000e+00) (0, 0, 0.00000000000000000000e+00) (0, 0, 0.00000000000000000000e+00) (0, 0, 0.00000000000000000000e+00) (0, 0, 0.00000000000000000000e+00) (0, 0, 0.00000000000000000000e+00) (0, 0, 0.00000000000000000000e+00) (0, 0, 0.00000000000000000000e+00) (0, 0, 0.00000000000000000000e+00) (0, 0, 0.00000000000000000000e+00) (0, 0, 0.00000000000000000000e+00) (0, 0, 0.00000000000000000000e+00) (0, 0, 0.00000000000000000000e+00) (0, 0, 0.00000000000000000000e+00) (0, 0, 0.00000000000000000000e+00) (0, 0, 0.00000000000000000000e+00) (0, 0, 0.00000000000000000000e+00) (0, 0, 0.00000000000000000000e+00) (0, 0, 0.00000000000000000000e+00) (0, 0, 0.00000000000000000000e+00) (0, 0, 0.00000000000000000000e+00) (0, 0, 0.00000000000000000000e+00) (0, 0, 0.00000000000000000000e+00) (0, 0, 0.00000000000000000000e+00) (0, 0, 0.00000000000000000000e+00) (0, 0, 0.00000000000000000000e+00) (0, 0, 0.00000000000000000000e+00) (0, 0, 0.00000000000000000000e+00) (0, 0, 0.00000000000000000000e+00) (0, 0, 0.00000000000000000000e+00) (0, 0, 0.00000000000000000000e+00) (0, 0, 0.00000000000000000000e+00) (0, 0, 0.00000000000000000000e+00) (0, 0, 0.00000000000000000000e+00) (0, 0, 0.00000000000000000000e+00) (0, 0, 0.00000000000000000000e+00) (0, 0, 0.00000000000000000000e+00) (0, 0, 0.00000000000000000000e+00) (0, 0, 0.00000000000000000000e+00) (0, 0, 0.00000000000000000000e+00) (0, 0, 0.00000000000000000000e+00) (0, 0, 0.00000000000000000000e+00) (0, 0, 0.00000000000000000000e+00) (0, 0, 0.00000000000000000000e+00) (0, 0, 0.00000000000000000000e+00) (0, 0, 0.00000000000000000000e+00) (0, 0, 0.00000000000000000000e+00) (0, 0, 0.00000000000000000000e+00) (0, 0, 0.00000000000000000000e+00) (0, 0, 0.00000000000000000000e+00) (0, 0, 0.00000000000000000000e+00) (0, 0, 0.00000000000000000000e+00) (0, 0, 0.00000000000000000000e+00) (0, 0, 0.00000000000000000000e+00) (0, 0, 0.00000000000000000000e+00) (0, 0, 0.00000000000000000000e+00) (0, 0, 0.00000000000000000000e+00) (0, 0, 0.00000000000000000000e+00) (0, 0, 0.00000000000000000000e+00) (0, 0, 0.00000000000000000000e+00) (0, 0, 0.00000000000000000000e+00) (0, 0, 0.00000000000000000000e+00) (0, 0, 0.00000000000000000000e+00) (0, 0, 0.00000000000000000000e+00) (0, 0, 0.00000000000000000000e+00) (0, 0, 0.00000000000000000000e+00) (0, 0, 0.00000000000000000000e+00) (0, 0, 0.00000000000000000000e+00) (0, 0, 0.00000000000000000000e+00) (0, 0, 0.00000000000000000000e+00) (0, 0, 0.00000000000000000000e+00) (0, 0, 0.00000000000000000000e+00) (0, 0, 0.00000000000000000000e+00) (0, 0, 0.00000000000000000000e+00) (0, 0, 0.00000000000000000000e+00) (0, 0, 0.00000000000000000000e+00) (0, 0, 0.00000000000000000000e+00) (0, 0, 0.00000000000000000000e+00) (0, 0, 0.00000000000000000000e+00) (0, 0, 0.00000000000000000000e+00) (0, 0, 0.00000000000000000000e+00) (0, 0, 0.00000000000000000000e+00) (0, 0, 0.00000000000000000000e+00) (0, 0, 0.00000000000000000000e+00) (0, 0, 0.00000000000000000000e+00) (0, 0, 0.00000000000000000000e+00) (0, 0, 0.00000000000000000000e+00) (0, 0, 0.00000000000000000000e+00) (261, 8, 7.50000000000000000000e-01) (262, 3, 1.00000000000000000000e+00) (263, 5, 1.00000000000000000000e+00) (264, 8, 7.50000000000000000000e-01) (265, 8, 2.50000000000000000000e-01) (266, 7, 1.00000000000000000000e+00) (267, 8, 1.00000000000000000000e+00) (268, 8, 5.00000000000000000000e-01) (269, 8, 5.00000000000000000000e-01) (270, 8, 1.00000000000000000000e+00) (271, 8, 1.00000000000000000000e+00) (272, 3, 7.50000000000000000000e-01) (273, 8, 1.00000000000000000000e+00) (274, 8, 2.50000000000000000000e-01) (275, 8, 5.00000000000000000000e-01) (276, 8, 5.00000000000000000000e-01) (277, 8, 5.00000000000000000000e-01) (278, 3, 7.50000000000000000000e-01) (279, 8, 5.00000000000000000000e-01) (280, 10, 7.50000000000000000000e-01) (281, 8, 5.00000000000000000000e-01) (282, 3, 7.50000000000000000000e-01) (283, 8, 7.50000000000000000000e-01) (284, 8, 5.00000000000000000000e-01) (285, 8, 7.50000000000000000000e-01) (286, 8, 2.50000000000000000000e-01) (287, 8, 7.50000000000000000000e-01) (288, 3, 5.00000000000000000000e-01) (289, 8, 1.00000000000000000000e+00) (290, 8, 7.50000000000000000000e-01) (291, 5, 5.00000000000000000000e-01) (292, 8, 5.00000000000000000000e-01) (293, 8, 1.00000000000000000000e+00) (294, 8, 7.50000000000000000000e-01) (295, 8, 2.50000000000000000000e-01) (296, 3, 5.00000000000000000000e-01) (297, 8, 7.50000000000000000000e-01) (298, 8, 5.00000000000000000000e-01) (299, 8, 1.00000000000000000000e+00) (300, 8, 5.00000000000000000000e-01) (301, 5, 5.00000000000000000000e-01) (301, 5, 5.00000000000000000000e-01) (301, 5, 5.00000000000000000000e-01) 
connections (connected_to_neuron, weight)=(0, 5.09761571884155273438e-01) (1, 5.91957330703735351562e-01) (2, 5.19807636737823486328e-01) (3, 3.88191461563110351562e-01) (4, 6.83853983879089355469e-01) (5, 4.35892850160598754883e-01) (6, 4.62103694677352905273e-01) (7, 6.90562307834625244141e-01) (8, 3.61620545387268066406e-01) (9, 7.08598554134368896484e-01) (10, 6.24320626258850097656e-01) (11, 4.51859205961227416992e-01) (12, 3.87766689062118530273e-01) (13, 4.02903497219085693359e-01) (14, 5.02478122711181640625e-01) (15, 5.38110494613647460938e-01) (16, -6.37027204036712646484e-01) (17, -5.23321092128753662109e-01) (18, -5.72507917881011962891e-01) (19, -6.16343498229980468750e-01) (20, 2.98093020915985107422e-01) (21, 4.71109688282012939453e-01) (22, 6.13258779048919677734e-02) (23, 6.75234477967023849487e-03) (24, 5.21051883697509765625e-01) (25, 2.15280756354331970215e-01) (26, 2.24634394049644470215e-01) (27, 5.75894176959991455078e-01) (28, 1.06540396809577941895e-01) (29, 5.71052610874176025391e-01) (30, 4.81173276901245117188e-01) (31, 1.27208605408668518066e-01) (32, 1.63062661886215209961e-01) (33, 8.22560414671897888184e-02) (34, 1.68107345700263977051e-01) (35, 2.21987217664718627930e-01) (36, 2.71230816841125488281e-01) (37, 4.63618099689483642578e-01) (38, 5.25767326354980468750e-01) (39, 4.22375738620758056641e-01) (40, -8.28674733638763427734e-02) (41, -2.67276346683502197266e-01) (42, -1.94115936756134033203e-02) (43, 1.83147251605987548828e-01) (44, -3.10519635677337646484e-01) (45, -6.75229132175445556641e-02) (46, -7.88221955299377441406e-02) (47, -3.20352196693420410156e-01) (48, 1.61019176244735717773e-01) (49, -3.61404776573181152344e-01) (50, -1.22129395604133605957e-01) (51, -6.37010345235466957092e-03) (52, -1.86258964240550994873e-02) (53, 1.42286017537117004395e-01) (54, 1.18483670055866241455e-01) (55, -4.78678010404109954834e-02) (56, -1.38520359992980957031e-01) (57, -2.84135609865188598633e-01) (58, -1.49882629513740539551e-01) (59, -2.18770340085029602051e-01) (60, 1.44764512777328491211e-01) (61, -2.23332494497299194336e-01) (62, 3.04976493120193481445e-01) (63, 3.51356744766235351562e-01) (64, -8.16077664494514465332e-02) (65, -2.12976876646280288696e-02) (66, 5.71769736707210540771e-02) (67, -1.79093658924102783203e-01) (68, 1.58407241106033325195e-01) (69, -1.98548346757888793945e-01) (70, 5.83525933325290679932e-02) (71, 1.56695276498794555664e-01) (72, -4.11705598235130310059e-02) (73, 1.71170920133590698242e-01) (74, 7.92619511485099792480e-02) (75, 1.20731599628925323486e-01) (76, 1.84955850243568420410e-01) (77, -1.14669568836688995361e-01) (78, 1.75634250044822692871e-02) (79, -7.49778598546981811523e-02) (80, -1.72671973705291748047e-01) (81, 5.36652542650699615479e-02) (82, -6.26584410667419433594e-01) (83, -8.48950266838073730469e-01) (84, 3.21240901947021484375e-01) (85, -7.88250923156738281250e-01) (86, -4.75141018629074096680e-01) (87, 3.74593138694763183594e-01) (88, -8.28778028488159179688e-01) (89, 4.29885745048522949219e-01) (90, 2.99837917089462280273e-01) (91, -6.67937219142913818359e-01) (92, -5.91437041759490966797e-01) (93, -7.17846930027008056641e-01) (94, -7.24425852298736572266e-01) (95, -5.34219443798065185547e-01) (96, -2.84973412752151489258e-01) (97, 2.24774196743965148926e-01) (98, 1.60230800509452819824e-01) (99, 2.80280038714408874512e-02) (100, -1.11627653241157531738e-01) (101, -2.74346135556697845459e-02) (102, -5.23729801177978515625e-01) (103, -2.95597404241561889648e-01) (104, -1.40182068571448326111e-02) (105, -5.47706186771392822266e-01) (106, -2.38226503133773803711e-01) (107, 1.40677049756050109863e-01) (108, -1.62027984857559204102e-01) (109, 2.54113405942916870117e-01) (110, 7.85387307405471801758e-02) (111, -2.92481064796447753906e-01) (112, -1.59374758601188659668e-01) (113, -1.42870694398880004883e-01) (114, -7.66648724675178527832e-02) (115, -2.72097498178482055664e-01) (116, -2.66840755939483642578e-01) (117, 5.20745962858200073242e-02) (118, 5.40026091039180755615e-02) (119, -9.36533510684967041016e-02) (120, 1.20166689157485961914e-01) (121, -6.25891447067260742188e-01) (122, 7.86111593246459960938e-01) (123, 9.16343808174133300781e-01) (124, -6.64407551288604736328e-01) (125, -8.34266841411590576172e-03) (126, 2.73434460163116455078e-01) (127, -6.73223018646240234375e-01) (128, 7.86018133163452148438e-01) (129, -7.26219892501831054688e-01) (130, -5.45152068138122558594e-01) (131, 6.77159726619720458984e-01) (132, 3.20615440607070922852e-01) (133, 7.75045394897460937500e-01) (134, 7.03642487525939941406e-01) (135, 5.55259287357330322266e-01) (136, 1.55330032110214233398e-01) (137, -6.73836946487426757812e-01) (138, -3.45300495624542236328e-01) (139, -4.91297811269760131836e-01) (140, 5.64923956990242004395e-02) (141, -1.07676036655902862549e-01) (142, -2.13757269084453582764e-02) (143, 1.10198132693767547607e-01) (144, -4.97339628636837005615e-02) (145, -4.83299523591995239258e-01) (146, 2.94871944934129714966e-02) (147, -5.32127059996128082275e-02) (148, -8.14989730715751647949e-02) (149, -3.34979332983493804932e-02) (150, 1.59407574683427810669e-02) (151, -1.61932900547981262207e-01) (152, -6.84565007686614990234e-01) (153, 3.04290223866701126099e-02) (154, -1.31367027759552001953e-01) (155, -9.57083627581596374512e-02) (156, -7.49834403395652770996e-02) (157, -1.34856104850769042969e-01) (158, 3.65581884980201721191e-02) (159, 5.91819733381271362305e-02) (160, -1.58994749188423156738e-01) (161, 3.08962732553482055664e-01) (162, -1.16611933708190917969e+00) (163, -1.12013292312622070312e+00) (164, 4.97453868389129638672e-01) (165, -6.72427952289581298828e-01) (166, -5.39277434349060058594e-01) (167, 5.12456893920898437500e-01) (168, -1.05269443988800048828e+00) (169, 6.03056252002716064453e-01) (170, 3.82396280765533447266e-01) (171, -1.04778873920440673828e+00) (172, -1.10929632186889648438e+00) (173, -9.28143322467803955078e-01) (174, -9.22542452812194824219e-01) (175, -9.63127911090850830078e-01) (176, -7.28545129299163818359e-01) (177, 3.72661322355270385742e-01) (178, 2.95822083950042724609e-01) (179, 1.62652194499969482422e-01) (180, 2.01059237122535705566e-01) (181, 3.73283587396144866943e-02) (182, 9.04772356152534484863e-02) (183, 2.21601486206054687500e-01) (184, 1.36129587888717651367e-01) (185, 1.33046582341194152832e-01) (186, -2.28117033839225769043e-02) (187, 1.60985961556434631348e-01) (188, 2.72334545850753784180e-01) (189, 1.70474767684936523438e-01) (190, 1.09843477606773376465e-01) (191, 1.16106122732162475586e-01) (192, -1.39505520462989807129e-01) (193, 2.58000224828720092773e-01) (194, 2.96639770269393920898e-01) (195, 5.02641871571540832520e-02) (196, 1.29903443157672882080e-02) (197, 1.70045837759971618652e-01) (198, 6.99668154120445251465e-02) (199, -2.64106746762990951538e-02) (200, 1.85964435338973999023e-01) (201, -4.35317546129226684570e-01) (202, 3.40799778699874877930e-01) (203, 5.29877960681915283203e-01) (204, -3.89751911163330078125e-01) (205, -6.29414916038513183594e-02) (206, 1.07410974800586700439e-01) (207, -4.29437160491943359375e-01) (208, 4.55674141645431518555e-01) (209, -4.66950267553329467773e-01) (210, -2.32319593429565429688e-01) (211, 2.69226461648941040039e-01) (212, -1.73683196306228637695e-01) (213, 4.61162656545639038086e-01) (214, 3.87410700321197509766e-01) (215, 2.24925294518470764160e-01) (216, 1.20473332703113555908e-01) (217, -4.29443985223770141602e-01) (218, -4.53519262373447418213e-02) (219, -1.37905851006507873535e-01) (220, 2.86908149719238281250e-01) (221, 2.64593362808227539062e-01) (222, -4.95372340083122253418e-02) (223, 4.52790856361389160156e-02) (224, 3.87151867151260375977e-01) (225, 2.01916452497243881226e-02) (226, 2.07991212606430053711e-01) (227, 3.93424928188323974609e-01) (228, 3.82926017045974731445e-02) (229, 5.03191173076629638672e-01) (230, 4.34877753257751464844e-01) (231, 2.51885596662759780884e-02) (232, -1.05055809020996093750e-01) (233, 1.06516703963279724121e-01) (234, 6.55806809663772583008e-02) (235, 7.63039663434028625488e-02) (236, 9.91645306348800659180e-02) (237, 2.30702579021453857422e-01) (238, 3.69192630052566528320e-01) (239, 4.14065003395080566406e-01) (240, 3.02135616540908813477e-01) (241, 5.42992234230041503906e-01) (242, -6.67601823806762695312e-02) (243, -4.54636174254119396210e-05) (244, 5.59947967529296875000e-01) (245, 2.29952931404113769531e-01) (246, 1.76227495074272155762e-01) (247, 6.26530051231384277344e-01) (248, 1.11546643078327178955e-01) (249, 7.14820623397827148438e-01) (250, 5.97953855991363525391e-01) (251, 7.43362829089164733887e-02) (252, 8.27491730451583862305e-02) (253, 8.60765650868415832520e-02) (254, 1.59473344683647155762e-01) (255, 7.02840760350227355957e-02) (256, 1.01439863443374633789e-01) (257, 5.15270948410034179688e-01) (258, 3.38557571172714233398e-01) (259, 4.21340793371200561523e-01) (260, -5.49291372299194335938e-01) (0, 3.16119223833084106445e-01) (1, -2.14662790298461914062e-01) (2, 4.70768183469772338867e-01) (3, 5.77626228332519531250e-01) (4, -1.25577658414840698242e-01) (5, -1.29469577223062515259e-02) (6, 1.62889063358306884766e-01) (7, -2.35101222991943359375e-01) (8, 3.71310472488403320312e-01) (9, -1.24568060040473937988e-01) (10, 2.39379350095987319946e-02) (11, 3.15838098526000976562e-01) (12, 9.17160809040069580078e-02) (13, 4.25745218992233276367e-01) (14, 5.25613546371459960938e-01) (15, 4.44571852684020996094e-01) (16, -2.35963964462280273438e+00) (17, -2.35474300384521484375e+00) (18, -2.00546121597290039062e+00) (19, -2.22642803192138671875e+00) (20, 4.72367376089096069336e-01) (21, 2.60394245386123657227e-01) (22, 3.60333979129791259766e-01) (23, 1.60922273993492126465e-01) (24, 4.85507369041442871094e-01) (25, -1.65350079536437988281e-01) (26, 1.45674884319305419922e-01) (27, 5.27787506580352783203e-01) (28, -6.82086450979113578796e-04) (29, 5.75761616230010986328e-01) (30, 3.87941151857376098633e-01) (31, 1.94588508456945419312e-02) (32, -1.93483009934425354004e-01) (33, 1.31951272487640380859e-01) (34, 4.03980910778045654297e-02) (35, 1.82893097400665283203e-01) (36, 3.17404657602310180664e-01) (37, 3.27962726354598999023e-01) (38, 3.17981809377670288086e-01) (39, 2.49394729733467102051e-01) (40, 3.03053677082061767578e-01) (41, 1.63495391607284545898e-01) (42, -2.79399275779724121094e-01) (43, -3.71740013360977172852e-01) (44, 5.28261780738830566406e-01) (45, -5.82202196121215820312e-01) (46, -5.47209009528160095215e-02) (47, 6.23510718345642089844e-01) (48, -2.72346168756484985352e-01) (49, 7.00299680233001708984e-01) (50, 4.58027124404907226562e-01) (51, -3.11561852693557739258e-01) (52, -1.78531184792518615723e-01) (53, -1.56645372509956359863e-01) (54, -6.90966024994850158691e-02) (55, -1.02453052997589111328e-01) (56, 7.27897807955741882324e-02) (57, 4.71864253282546997070e-01) (58, 4.47668552398681640625e-01) (59, 3.48508298397064208984e-01) (60, 3.53175029158592224121e-02) (61, -8.23744416236877441406e-01) (62, 1.75427824258804321289e-01) (63, 5.10532617568969726562e-01) (64, -8.26883792877197265625e-01) (65, -6.53307855129241943359e-01) (66, -2.13544946163892745972e-02) (67, -6.07876002788543701172e-01) (68, 4.19926375150680541992e-01) (69, -4.53786849975585937500e-01) (70, -3.54948461055755615234e-01) (71, 1.26770615577697753906e-01) (72, -1.95447981357574462891e-01) (73, 4.71498042345046997070e-01) (74, 3.27962934970855712891e-01) (75, -5.64111545681953430176e-02) (76, -1.94565802812576293945e-01) (77, -5.97642004489898681641e-01) (78, -3.73612165451049804688e-01) (79, -4.54578846693038940430e-01) (80, 1.95490270853042602539e-02) (81, -9.14872646331787109375e-01) (82, 2.29949116706848144531e-01) (83, 2.84128159284591674805e-01) (84, -6.15920722484588623047e-01) (85, -6.67420685291290283203e-01) (86, -1.53143540024757385254e-01) (87, -9.25387322902679443359e-01) (88, 6.57736733555793762207e-02) (89, -7.81265377998352050781e-01) (90, -4.10048633813858032227e-01) (91, -6.67736120522022247314e-03) (92, -7.52270162105560302734e-01) (93, 1.64489403367042541504e-01) (94, -3.21323331445455551147e-03) (95, -4.68962639570236206055e-02) (96, -8.78236368298530578613e-02) (97, -1.03862559795379638672e+00) (98, -1.96126177906990051270e-01) (99, -5.18572807312011718750e-01) (100, -1.87220931053161621094e-01) (101, -2.50410944223403930664e-01) (102, -1.57098793983459472656e+00) (103, -1.42859303951263427734e+00) (104, 2.55226939916610717773e-01) (105, -2.05707812309265136719e+00) (106, -9.77558672428131103516e-01) (107, 3.55185389518737792969e-01) (108, -1.50736451148986816406e+00) (109, 3.27535480260848999023e-01) (110, 9.87496003508567810059e-02) (111, -1.56182098388671875000e+00) (112, -4.34184326171875000000e+02) (113, -1.14827358722686767578e+00) (114, -1.24892807006835937500e+00) (115, -1.24644649028778076172e+00) (116, -7.62011289596557617188e-01) (117, 1.25348106026649475098e-01) (118, -1.21808340772986412048e-02) (119, -1.23462170362472534180e-01) (120, -5.23414850234985351562e-01) (121, -5.98980009555816650391e-01) (122, -1.77538168430328369141e+00) (123, -1.11886394023895263672e+00) (124, -3.98991882801055908203e-01) (125, -4.48182226562500000000e+03) (126, -9.66263294219970703125e-01) (127, -1.01353988051414489746e-01) (128, -7.30677783489227294922e-01) (129, -2.90120542049407958984e-02) (130, -4.26101744174957275391e-01) (131, -1.22742629051208496094e+00) (132, -2.63405346679687500000e+03) (133, -7.47410476207733154297e-01) (134, -5.51650881767272949219e-01) (135, -1.26304173469543457031e+00) (136, -9.61278140544891357422e-01) (137, -2.44074165821075439453e-01) (138, -3.11814695596694946289e-01) (139, -4.97101157903671264648e-01) (140, -3.58063578605651855469e-01) (141, -2.05043196678161621094e+00) (142, 1.10086388885974884033e-02) (143, 1.68615385890007019043e-01) (144, -2.07540369033813476562e+00) (145, -9.37726140022277832031e-01) (146, -3.92287462949752807617e-01) (147, -2.57530069351196289062e+00) (148, 2.19569534063339233398e-01) (149, -1.73584568500518798828e+00) (150, -1.15599143505096435547e+00) (151, 1.56660228967666625977e-02) (152, -4.48182275390625000000e+03) (153, 7.75292217731475830078e-02) (154, 1.74661532044410705566e-01) (155, -2.27327004075050354004e-01) (156, -4.78077143430709838867e-01) (157, -2.35102963447570800781e+00) (158, -1.14844632148742675781e+00) (159, -1.38930869102478027344e+00) (160, 1.61800637841224670410e-01) (161, -3.71944606304168701172e-01) (162, -4.53802019357681274414e-01) (163, -4.79727499186992645264e-02) (164, -1.17102093994617462158e-01) (165, -6.44683897495269775391e-01) (166, 7.64034688472747802734e-02) (167, -2.16079801321029663086e-01) (168, -1.24833025038242340088e-01) (169, -7.01127424836158752441e-02) (170, 3.61356809735298156738e-02) (171, -3.29354226589202880859e-01) (172, -4.48172949218750000000e+03) (173, -3.61448898911476135254e-02) (174, -5.18037565052509307861e-02) (175, -2.09517836570739746094e-01) (176, -2.42310166358947753906e-01) (177, -4.33821022510528564453e-01) (178, -5.30684255063533782959e-02) (179, 7.26093202829360961914e-02) (180, 1.12770587205886840820e-01) (181, 5.03957569599151611328e-01) (182, -1.68641841411590576172e+00) (183, -1.04995357990264892578e+00) (184, 6.04975581169128417969e-01) (185, -1.49925813078880310059e-01) (186, -1.53768479824066162109e-01) (187, 6.82322144508361816406e-01) (188, -7.72248268127441406250e-01) (189, 8.04025590419769287109e-01) (190, 5.98669588565826416016e-01) (191, -6.78829252719879150391e-01) (192, -4.48182128906250000000e+03) (193, -5.43909013271331787109e-01) (194, -5.55934071540832519531e-01) (195, -6.28628015518188476562e-01) (196, -3.29075574874877929688e-01) (197, 4.46471989154815673828e-01) (198, 2.90414392948150634766e-01) (199, 3.58201712369918823242e-01) (200, 4.49778102338314056396e-02) (201, -3.94169092178344726562e-02) (202, -6.16193525493144989014e-02) (203, 1.02846197783946990967e-01) (204, -9.21048000454902648926e-02) (205, 5.81960119307041168213e-02) (206, -1.39216646552085876465e-01) (207, -2.58034449070692062378e-02) (208, 2.29855388402938842773e-01) (209, 3.92949692904949188232e-02) (210, 4.01316136121749877930e-02) (211, 6.71200305223464965820e-02) (212, -3.65425348281860351562e-01) (213, 1.94205462932586669922e-01) (214, 2.72798269987106323242e-01) (215, -1.38017192482948303223e-01) (216, -2.00314939022064208984e-01) (217, -1.34360671043395996094e-01) (218, -1.67478267103433609009e-02) (219, -1.86525687575340270996e-01) (220, 1.15702621638774871826e-01) (221, -6.02572917938232421875e-01) (222, 2.70478129386901855469e-01) (223, 3.98294001817703247070e-01) (224, -4.11913126707077026367e-01) (225, -9.55488011240959167480e-02) (226, -6.31507188081741333008e-02) (227, -5.12274026870727539062e-01) (228, 3.89846295118331909180e-01) (229, -4.59694176912307739258e-01) (230, -1.60707399249076843262e-01) (231, 2.08289369940757751465e-01) (232, -2.81655073165893554688e-01) (233, 3.21809530258178710938e-01) (234, 2.67642825841903686523e-01) (235, 2.07899361848831176758e-01) (236, 8.90275761485099792480e-02) (237, -5.57218790054321289062e-01) (238, -2.46863767504692077637e-01) (239, -2.12255001068115234375e-01) (240, 2.91323959827423095703e-01) (241, 2.44962349534034729004e-01) (242, -2.63028442859649658203e-02) (243, -2.27228198200464248657e-02) (244, 3.24872374534606933594e-01) (245, -2.99961660057306289673e-02) (246, 1.18404708802700042725e-01) (247, 3.30414086580276489258e-01) (248, 3.82181741297245025635e-02) (249, 4.15991336107254028320e-01) (250, 3.65864694118499755859e-01) (251, 8.16168487071990966797e-02) (252, -1.13347835838794708252e-01) (253, 1.04855999350547790527e-01) (254, 1.48730993270874023438e-01) (255, 7.01333880424499511719e-02) (256, 9.81473699212074279785e-02) (257, 2.35495045781135559082e-01) (258, 2.32207775115966796875e-01) (259, 3.75849217176437377930e-01) (260, -7.52512514591217041016e-01) (261, -2.86951482295989990234e-01) (0, -6.67551457881927490234e-01) (1, -5.21614491939544677734e-01) (2, -3.29744428396224975586e-01) (3, -3.68061155080795288086e-01) (4, -6.89966261386871337891e-01) (5, -2.61757850646972656250e-01) (6, -4.37841057777404785156e-01) (7, -7.36989080905914306641e-01) (8, -2.33937352895736694336e-01) (9, -9.07982587814331054688e-01) (10, -7.78022587299346923828e-01) (11, -3.42668920755386352539e-01) (12, -3.36313188076019287109e-01) (13, -4.34967190027236938477e-01) (14, -6.75205409526824951172e-01) (15, -3.10326337814331054688e-01) (16, 2.61572051048278808594e+00) (17, 2.55610203742980957031e+00) (18, 2.57903671264648437500e+00) (19, 2.54284954071044921875e+00) (20, -4.46000576019287109375e-01) (21, -1.18964508175849914551e-01) (22, -2.94380843639373779297e-01) (23, -4.78730261325836181641e-01) (24, -2.18780070543289184570e-01) (25, 3.45946066081523895264e-02) (26, -1.58717289566993713379e-01) (27, -2.83681660890579223633e-01) (28, -3.26056241989135742188e-01) (29, -2.83428728580474853516e-01) (30, -2.77096331119537353516e-01) (31, -1.56808137893676757812e-01) (32, -2.26311087608337402344e-02) (33, -3.30794364213943481445e-01) (34, -3.70810866355895996094e-01) (35, -1.75384402275085449219e-01) (36, -1.75372317433357238770e-01) (37, -6.69141784310340881348e-02) (38, -2.97844886779785156250e-01) (39, -9.24569144845008850098e-02) (40, -4.05083209276199340820e-01) (41, 2.41365492343902587891e-01) (42, -3.64727109670639038086e-01) (43, -4.67742323875427246094e-01) (44, -5.46812862157821655273e-02) (45, 3.83668750524520874023e-01) (46, -4.94684427976608276367e-02) (47, -9.73338168114423751831e-03) (48, -2.16661185026168823242e-01) (49, -1.29978299140930175781e-01) (50, -2.31507658958435058594e-01) (51, -1.97075545787811279297e-01) (52, 2.40371584892272949219e-01) (53, -3.65158021450042724609e-01) (54, -2.67824798822402954102e-01) (55, -2.25557863712310791016e-01) (56, -1.89843818545341491699e-01) (57, 1.06969982385635375977e-01) (58, -2.08409130573272705078e-01) (59, 7.93249607086181640625e-02) (60, -3.86415064334869384766e-01) (61, -4.60088849067687988281e-02) (62, 4.51026372611522674561e-02) (63, 1.77881717681884765625e-01) (64, -4.14936542510986328125e-01) (65, 1.03572010993957519531e+00) (66, 2.54133343696594238281e-01) (67, -5.53153872489929199219e-01) (68, 4.92350161075592041016e-01) (69, -6.68237984180450439453e-01) (70, -4.88119065761566162109e-01) (71, 3.80244225263595581055e-01) (72, 4.50624972581863403320e-01) (73, 2.41141915321350097656e-01) (74, 2.98664182424545288086e-01) (75, 1.39414966106414794922e-01) (76, -6.73135917168110609055e-04) (77, -2.54423618316650390625e-01) (78, -6.05326771736145019531e-01) (79, -1.91594615578651428223e-01) (80, -3.56544882059097290039e-01) (81, 3.92873257398605346680e-01) (82, 2.26629912853240966797e-01) (83, 9.61595177650451660156e-02) (84, -4.45940718054771423340e-02) (85, 1.40700864791870117188e+00) (86, 4.19459193944931030273e-01) (87, -1.07236534357070922852e-01) (88, 2.76598781347274780273e-01) (89, -4.95795905590057373047e-01) (90, -2.63760387897491455078e-01) (91, 4.87884819507598876953e-01) (92, 3.02151888608932495117e-01) (93, -6.69482117518782615662e-03) (94, 9.66639965772628784180e-02) (95, 2.28845417499542236328e-01) (96, 3.28355610370635986328e-01) (97, 1.54988974332809448242e-01) (98, -1.25236630439758300781e-01) (99, 1.02583706378936767578e-01) (100, -1.33510410785675048828e-01) (101, 1.50735950469970703125e+00) (102, -1.02717429399490356445e-01) (103, -3.47642630338668823242e-01) (104, 1.32011067867279052734e+00) (105, 1.23822295665740966797e+00) (106, 2.80326366424560546875e-01) (107, 1.43146073818206787109e+00) (108, -1.37746199965476989746e-01) (109, 8.68405163288116455078e-01) (110, 7.19151079654693603516e-01) (111, 1.40127405524253845215e-01) (112, 7.84303128719329833984e-01) (113, -2.61558890342712402344e-01) (114, -1.56483948230743408203e-01) (115, 5.72083778679370880127e-02) (116, 5.07474005222320556641e-01) (117, 1.54378628730773925781e+00) (118, 5.41949152946472167969e-01) (119, 9.06601071357727050781e-01) (120, -2.59818792343139648438e-01) (121, 7.52811789512634277344e-01) (122, 4.10329490900039672852e-01) (123, -6.17072843015193939209e-02) (124, 3.69497567415237426758e-01) (125, 2.10379528999328613281e+00) (126, 4.78259414434432983398e-01) (127, 5.54919540882110595703e-01) (128, 3.47190171480178833008e-01) (129, 2.00328305363655090332e-01) (130, 2.14231282472610473633e-01) (131, 9.09335315227508544922e-01) (132, 2.20517969131469726562e+00) (133, 6.43283948302268981934e-02) (134, 3.52203875780105590820e-01) (135, 7.99133598804473876953e-01) (136, 6.93254232406616210938e-01) (137, 7.87760078907012939453e-01) (138, 1.44114241003990173340e-01) (139, 4.25074726343154907227e-01) (140, -1.29754811525344848633e-01) (141, -1.43378628417849540710e-02) (142, 2.61265587806701660156e+00) (143, 7.85194098949432373047e-01) (144, -3.12798202037811279297e-01) (145, 2.35141324996948242188e+00) (146, 8.07553470134735107422e-01) (147, -2.18904897570610046387e-01) (148, 9.25532937049865722656e-01) (149, -5.16145288944244384766e-01) (150, -3.72667282819747924805e-01) (151, 2.04705333709716796875e+00) (152, 3.85637378692626953125e+00) (153, 4.99773412942886352539e-01) (154, 6.63687825202941894531e-01) (155, 1.59076023101806640625e+00) (156, 1.20989704132080078125e+00) (157, 3.75765003263950347900e-02) (158, -1.23582728207111358643e-01) (159, -2.98380292952060699463e-02) (160, -4.93800133466720581055e-01) (161, 5.14998078346252441406e-01) (162, 3.54732960462570190430e-01) (163, -4.46232371032238006592e-02) (164, 3.55751186609268188477e-01) (165, 1.61511987447738647461e-01) (166, 1.70910924673080444336e-01) (167, 3.30447852611541748047e-01) (168, -2.17483103275299072266e-01) (169, -1.72235950827598571777e-01) (170, -1.90142542123794555664e-01) (171, 7.37904906272888183594e-02) (172, 1.69575858116149902344e+00) (173, -3.35001587867736816406e-01) (174, -3.12538832426071166992e-01) (175, 2.56037592887878417969e-01) (176, 3.63679170608520507812e-01) (177, 6.05490028858184814453e-01) (178, 1.98086500167846679688e-01) (179, 4.59227800369262695312e-01) (180, -4.23973917961120605469e-01) (181, 8.38497579097747802734e-01) (182, 2.09051687270402908325e-02) (183, -4.04321968555450439453e-01) (184, 5.85245430469512939453e-01) (185, 3.48332822322845458984e-01) (186, -2.78393328189849853516e-02) (187, 7.48644351959228515625e-01) (188, -5.89703798294067382812e-01) (189, 2.14849784970283508301e-01) (190, -1.78323492407798767090e-01) (191, -2.28051528334617614746e-01) (192, 1.55262029170989990234e+00) (193, -5.20337641239166259766e-01) (194, -5.72755753993988037109e-01) (195, -3.52881141006946563721e-02) (196, 2.13841646909713745117e-01) (197, 1.00020968914031982422e+00) (198, 1.44522696733474731445e-01) (199, 2.23176464438438415527e-01) (200, -4.61467742919921875000e-01) (201, -5.71608319878578186035e-02) (202, 5.02488672733306884766e-01) (203, 2.49863080680370330811e-02) (204, -2.97598093748092651367e-01) (205, 3.31408023834228515625e-01) (206, 4.80809342116117477417e-03) (207, -3.82136940956115722656e-01) (208, -1.51359885931015014648e-01) (209, -6.53205811977386474609e-01) (210, -6.46148085594177246094e-01) (211, 1.18090048432350158691e-01) (212, 1.03810679912567138672e+00) (213, -6.33374676108360290527e-02) (214, -1.14965796470642089844e-01) (215, 1.99655890464782714844e-01) (216, 2.06612169742584228516e-01) (217, 1.47981783375144004822e-02) (218, -2.52587109804153442383e-01) (219, -3.34169358015060424805e-01) (220, -3.62655013799667358398e-01) (221, -2.61319637298583984375e-01) (222, 6.38526201248168945312e-01) (223, 2.08976879715919494629e-01) (224, -5.19707977771759033203e-01) (225, 1.84586375951766967773e-01) (226, -1.67622342705726623535e-01) (227, -6.18443727493286132812e-01) (228, -1.07271112501621246338e-01) (229, -8.32797884941101074219e-01) (230, -6.78061783313751220703e-01) (231, 1.23515546321868896484e-01) (232, 5.72918415069580078125e-01) (233, -1.00171811878681182861e-01) (234, -1.66777685284614562988e-01) (235, 3.16437959671020507812e-01) (236, 2.97159194946289062500e-01) (237, -3.15458357334136962891e-01) (238, -2.98578500747680664062e-01) (239, -3.16459089517593383789e-01) (240, -3.15263301134109497070e-01) (241, 1.62428840994834899902e-01) (242, -2.52753775566816329956e-03) (243, -2.42516323924064636230e-01) (244, -2.19543263316154479980e-01) (245, 5.40663935244083404541e-02) (246, -7.83193409442901611328e-02) (247, -1.70759707689285278320e-01) (248, -3.97876977920532226562e-01) (249, -3.72338563203811645508e-01) (250, -3.58432412147521972656e-01) (251, -1.49201482534408569336e-01) (252, 2.94002562761306762695e-01) (253, -3.15892308950424194336e-01) (254, -3.69503915309906005859e-01) (255, -9.62437409907579421997e-03) (256, 6.20503462851047515869e-02) (257, -3.38124930858612060547e-02) (258, -3.10032200068235397339e-02) (259, 1.24651275109499692917e-03) (260, 4.86278802156448364258e-01) (261, 8.75814974308013916016e-01) (262, -2.01102886199951171875e+01) (0, 1.51766911149024963379e-01) (1, 3.80373746156692504883e-01) (2, -1.12961016595363616943e-01) (3, -3.45831103622913360596e-02) (4, 2.35990270972251892090e-01) (5, -1.69634535908699035645e-01) (6, 7.06088393926620483398e-02) (7, 2.92260944843292236328e-01) (8, -7.34947025775909423828e-02) (9, 2.36718028783798217773e-01) (10, 2.52902597188949584961e-01) (11, -1.03432230651378631592e-01) (12, -9.90480706095695495605e-02) (13, -3.27295437455177307129e-02) (14, -1.04804122447967529297e+00) (15, -1.27468276023864746094e+00) (16, 2.31153416633605957031e+00) (17, 2.24722266197204589844e+00) (18, 2.18728828430175781250e+00) (19, 2.25140309333801269531e+00) (20, 1.23690374195575714111e-01) (21, 2.52050340175628662109e-01) (22, -1.38220578432083129883e-01) (23, -1.79190337657928466797e-02) (24, 1.64818659424781799316e-01) (25, -2.20395565032958984375e-01) (26, -1.36644649319350719452e-03) (27, 2.10118517279624938965e-01) (28, -1.13956741988658905029e-01) (29, 1.84694781899452209473e-01) (30, 1.36238753795623779297e-01) (31, -2.32848405838012695312e-01) (32, -1.70433580875396728516e-01) (33, -1.27442613244056701660e-01) (34, -9.06767845153808593750e-02) (35, -1.22055664658546447754e-01) (36, -1.90462231636047363281e-01) (37, 6.02990761399269104004e-02) (38, 1.15909747779369354248e-01) (39, -4.75875660777091979980e-02) (40, 1.05983428657054901123e-01) (41, 2.96667844057083129883e-01) (42, -9.72848013043403625488e-02) (43, 4.92993295192718505859e-02) (44, 2.32596881687641143799e-02) (45, -2.25346490740776062012e-01) (46, 1.99750419706106185913e-02) (47, 2.71452404558658599854e-02) (48, -1.02675996720790863037e-01) (49, 1.95944964885711669922e-01) (50, 1.28248304128646850586e-01) (51, -1.31429150700569152832e-01) (52, -5.78835532069206237793e-02) (53, -3.41427922248840332031e-02) (54, -3.39733436703681945801e-02) (55, -5.46409636735916137695e-02) (56, -1.15443654358386993408e-01) (57, -8.92487838864326477051e-02) (58, 4.03433814644813537598e-02) (59, -3.26940938830375671387e-02) (60, 1.30379974842071533203e-01) (61, 2.57087111473083496094e-01) (62, 8.81248563528060913086e-02) (63, 1.12249791622161865234e-01) (64, -2.27594897150993347168e-02) (65, -8.72213840484619140625e-02) (66, 8.23776200413703918457e-02) (67, -2.59983509778976440430e-01) (68, 1.57333761453628540039e-02) (69, 4.46517802774906158447e-02) (70, 8.85117128491401672363e-02) (71, 5.88399767875671386719e-02) (72, 1.52933031320571899414e-01) (73, 8.12466293573379516602e-02) (74, 3.86853143572807312012e-02) (75, 9.91194546222686767578e-02) (76, -1.11390136182308197021e-01) (77, -3.32882046699523925781e-01) (78, -9.65555831789970397949e-02) (79, -1.59065246582031250000e-01) (80, 1.07007458806037902832e-01) (81, -7.70352780818939208984e-02) (82, 3.19747835397720336914e-01) (83, 1.67947947978973388672e-01) (84, -2.28910937905311584473e-01) (85, -5.69479586556553840637e-03) (86, 1.50188058614730834961e-01) (87, -4.90149825811386108398e-01) (88, 4.93806414306163787842e-02) (89, -1.69877618551254272461e-01) (90, 9.10996552556753158569e-03) (91, 2.44150698184967041016e-01) (92, 3.44156533479690551758e-01) (93, 6.87177553772926330566e-02) (94, 3.28221209347248077393e-02) (95, 1.56773343682289123535e-01) (96, -9.38154682517051696777e-02) (97, -5.08943080902099609375e-01) (98, -2.32524290680885314941e-01) (99, -2.26910755038261413574e-01) (100, 5.59314601123332977295e-02) (101, -2.40019351243972778320e-01) (102, 5.50328910350799560547e-01) (103, 1.89969718456268310547e-01) (104, -3.90670418739318847656e-01) (105, 5.29305577278137207031e-01) (106, 7.67232924699783325195e-02) (107, -6.66452288627624511719e-01) (108, 9.51210856437683105469e-02) (109, -2.83064275979995727539e-01) (110, -5.38312084972858428955e-02) (111, 4.97921854257583618164e-01) (112, 6.73444688320159912109e-01) (113, 1.56544834375381469727e-01) (114, 2.96530388295650482178e-02) (115, 3.01125019788742065430e-01) (116, -1.11204750835895538330e-01) (117, -6.44009709358215332031e-01) (118, -3.88324737548828125000e-01) (119, -3.19284141063690185547e-01) (120, 2.82453238964080810547e-01) (121, -1.97037845849990844727e-01) (122, 7.93279051780700683594e-01) (123, 3.10156524181365966797e-01) (124, -4.99636501073837280273e-01) (125, 9.05829489231109619141e-01) (126, 2.89331972599029541016e-01) (127, -8.18057119846343994141e-01) (128, 3.18222820758819580078e-01) (129, -3.90498101711273193359e-01) (130, -3.18089835345745086670e-02) (131, 7.97822594642639160156e-01) (132, 1.24928987026214599609e+00) (133, 2.78926491737365722656e-01) (134, 2.18070760369300842285e-01) (135, 4.76166546344757080078e-01) (136, 7.09298849105834960938e-02) (137, -7.76808857917785644531e-01) (138, -2.91930258274078369141e-01) (139, -3.81171524524688720703e-01) (140, 1.03045180439949035645e-01) (141, -3.12466740608215332031e-01) (142, 4.60186749696731567383e-01) (143, 3.01752746105194091797e-01) (144, -4.13850933313369750977e-01) (145, 5.32734990119934082031e-01) (146, 1.86902314424514770508e-01) (147, -7.03279197216033935547e-01) (148, 2.39258378744125366211e-01) (149, -3.63250881433486938477e-01) (150, -1.10898360610008239746e-01) (151, 4.21035587787628173828e-01) (152, 8.90007317066192626953e-01) (153, 2.54482656717300415039e-01) (154, 1.44024282693862915039e-01) (155, 3.15013945102691650391e-01) (156, 6.46426808089017868042e-04) (157, -6.89876616001129150391e-01) (158, -3.30528914928436279297e-01) (159, -3.33985716104507446289e-01) (160, 1.12836450338363647461e-01) (161, -7.00644031167030334473e-02) (162, 1.06271818280220031738e-01) (163, 1.50370433926582336426e-01) (164, -1.38412341475486755371e-01) (165, 1.23674318194389343262e-01) (166, 1.92228168249130249023e-01) (167, -3.23499828577041625977e-01) (168, 1.13966256380081176758e-01) (169, -8.78696367144584655762e-02) (170, 6.23264648020267486572e-02) (171, 8.65423753857612609863e-02) (172, 2.29421481490135192871e-01) (173, 1.69119119644165039062e-01) (174, 5.05606420338153839111e-02) (175, -3.77609860152006149292e-03) (176, -7.35790058970451354980e-02) (177, -3.48428547382354736328e-01) (178, -3.86432409286499023438e-02) (179, -7.91374891996383666992e-02) (180, 5.36595955491065979004e-02) (181, -4.08869683742523193359e-02) (182, -8.58837738633155822754e-02) (183, 9.97887551784515380859e-02) (184, 2.87013631314039230347e-02) (185, -5.24188950657844543457e-02) (186, 1.54889579862356185913e-02) (187, -6.98044821619987487793e-02) (188, 4.58919480443000793457e-02) (189, 1.20140053331851959229e-01) (190, 1.13078802824020385742e-01) (191, -1.01355515420436859131e-01) (192, 9.57954674959182739258e-02) (193, 1.15082219243049621582e-01) (194, 5.24119473993778228760e-02) (195, -9.99927371740341186523e-02) (196, -1.13840952515602111816e-01) (197, -1.52753978967666625977e-01) (198, -5.92080838978290557861e-02) (199, -4.26151305437088012695e-02) (200, 1.15705177187919616699e-01) (201, -4.24005202949047088623e-02) (202, -1.18857614696025848389e-01) (203, 7.31896460056304931641e-02) (204, 5.50008714199066162109e-02) (205, -2.70087271928787231445e-01) (206, 3.28191444277763366699e-02) (207, 1.05266660451889038086e-01) (208, 8.26306045055389404297e-02) (209, 1.88827544450759887695e-01) (210, 2.31817528605461120605e-01) (211, -1.09758265316486358643e-01) (212, -1.16511415690183639526e-02) (213, 1.41309440135955810547e-01) (214, 6.80614113807678222656e-02) (215, -9.85379517078399658203e-02) (216, -9.99692007899284362793e-02) (217, 6.19121547788381576538e-03) (218, 4.03975807130336761475e-02) (219, 1.58159695565700531006e-02) (220, 1.56940147280693054199e-01) (221, 1.29624813795089721680e-01) (222, -1.04394033551216125488e-01) (223, 4.07110378146171569824e-02) (224, 1.58962577581405639648e-01) (225, -2.77719646692276000977e-01) (226, 1.10508194193243980408e-02) (227, 2.40848317742347717285e-01) (228, 1.18955122306942939758e-02) (229, 2.54236787557601928711e-01) (230, 1.96046531200408935547e-01) (231, -1.59431353211402893066e-01) (232, -1.97725649923086166382e-02) (233, 5.11359758675098419189e-02) (234, 5.39917498826980590820e-02) (235, -9.30749624967575073242e-02) (236, -7.03606754541397094727e-02) (237, 9.45183485746383666992e-02) (238, 1.80174216628074645996e-01) (239, 1.09428420662879943848e-01) (240, 8.79616215825080871582e-02) (241, 1.90286919474601745605e-01) (242, -1.57503023743629455566e-01) (243, -1.30987577140331268311e-02) (244, 1.70098409056663513184e-01) (245, -2.94168055057525634766e-01) (246, 9.84600838273763656616e-03) (247, 2.49151587486267089844e-01) (248, -3.41321788728237152100e-02) (249, 2.21191897988319396973e-01) (250, 1.99520856142044067383e-01) (251, -1.51803433895111083984e-01) (252, -1.54337540268898010254e-01) (253, 1.20074991136789321899e-02) (254, 5.85680641233921051025e-02) (255, -1.38416364789009094238e-01) (256, -1.19678176939487457275e-01) (257, 8.85813683271408081055e-02) (258, 1.27225428819656372070e-01) (259, 7.77451619505882263184e-02) (260, 4.23973053693771362305e-02) (261, -2.31363564729690551758e-01) (262, 3.43954712152481079102e-01) (263, -8.63806605339050292969e-01) (0, 3.98723661899566650391e-01) (1, 3.99418711662292480469e-01) (2, 7.87496328353881835938e-01) (3, 4.70715165138244628906e-01) (4, 5.72180867195129394531e-01) (5, 7.40350306034088134766e-01) (6, 5.06010174751281738281e-01) (7, 3.35399031639099121094e-01) (8, 4.24658536911010742188e-01) (9, 3.03646057844161987305e-01) (10, 4.37004774808883666992e-01) (11, 5.07572948932647705078e-01) (12, 7.38390028476715087891e-01) (13, 4.41762536764144897461e-01) (14, 4.21709394454956054688e+00) (15, 3.46059918403625488281e+00) (16, -1.92248725891113281250e+00) (17, -1.98197662830352783203e+00) (18, -2.05725312232971191406e+00) (19, -1.94163823127746582031e+00) (20, 2.15125456452369689941e-01) (21, -1.60122200846672058105e-01) (22, 6.70193433761596679688e-01) (23, 7.48471558094024658203e-01) (24, -2.40574330091476440430e-01) (25, 7.56746768951416015625e-01) (26, 3.22140157222747802734e-01) (27, -3.93099099397659301758e-01) (28, 5.40868818759918212891e-01) (29, -3.35301458835601806641e-01) (30, -1.43963377922773361206e-03) (31, 4.27974313497543334961e-01) (32, 4.17006850242614746094e-01) (33, 4.50013637542724609375e-01) (34, 3.43384921550750732422e-01) (35, 2.50167042016983032227e-01) (36, 4.35417257249355316162e-02) (37, -5.05979955196380615234e-01) (38, -1.24337069690227508545e-01) (39, -7.20119029283523559570e-02) (40, 5.49649357795715332031e-01) (41, 3.48163843154907226562e-01) (42, 1.01888501644134521484e+00) (43, 1.00922381877899169922e+00) (44, -3.11840653419494628906e-01) (45, 1.00906169414520263672e+00) (46, 2.10424736142158508301e-01) (47, -3.92117112874984741211e-01) (48, 5.39741694927215576172e-01) (49, -5.49407815560698509216e-03) (50, 7.90342167019844055176e-02) (51, 5.36593854427337646484e-01) (52, 4.35511469841003417969e-01) (53, 9.32692527770996093750e-01) (54, 4.27485585212707519531e-01) (55, 5.55015206336975097656e-01) (56, 4.94746595621109008789e-01) (57, -4.52776044607162475586e-01) (58, -4.56580400466918945312e-01) (59, -1.88176482915878295898e-01) (60, 4.05584663152694702148e-01) (61, 9.17054042220115661621e-02) (62, 1.33917823433876037598e-01) (63, 1.10216271132230758667e-02) (64, 7.56869539618492126465e-02) (65, 4.55322206020355224609e-01) (66, -1.52271315455436706543e-01) (67, 1.48014603182673454285e-02) (68, -4.14308011531829833984e-02) (69, 4.83170360326766967773e-01) (70, 1.19104608893394470215e-01) (71, 3.21646928787231445312e-02) (72, 1.22099079191684722900e-01) (73, 2.89333257824182510376e-02) (74, -6.68485276401042938232e-03) (75, 1.91984698176383972168e-01) (76, 2.11273699998855590820e-01) (77, 3.16818468272686004639e-02) (78, -3.59764039516448974609e-01) (79, -1.38217523694038391113e-01) (80, 3.16114783287048339844e-01) (81, -4.48063671588897705078e-01) (82, 6.18100404739379882812e-01) (83, 6.01345360279083251953e-01) (84, -6.53208911418914794922e-01) (85, -4.18647974729537963867e-01) (86, -4.88347597420215606689e-02) (87, 6.12535104155540466309e-02) (88, 9.55037847161293029785e-02) (89, 2.47650638222694396973e-01) (90, -8.48619788885116577148e-02) (91, 3.07326614856719970703e-01) (92, 1.37339219450950622559e-01) (93, 2.41773620247840881348e-01) (94, 2.74086922407150268555e-01) (95, 1.61827534437179565430e-01) (96, 9.31354910135269165039e-02) (97, -8.99206921458244323730e-02) (98, -7.90256559848785400391e-01) (99, -3.59397381544113159180e-01) (100, 8.76156464219093322754e-02) (101, -1.63047289848327636719e+00) (102, 1.28765773773193359375e+00) (103, 1.07509076595306396484e+00) (104, -1.62846088409423828125e+00) (105, -4.86258208751678466797e-01) (106, -2.49676540493965148926e-01) (107, -1.46107757091522216797e+00) (108, 3.58149528503417968750e-01) (109, -1.18116533756256103516e+00) (110, -1.43673205375671386719e+00) (111, 5.55652916431427001953e-01) (112, 5.59922099113464355469e-01) (113, 4.58191454410552978516e-01) (114, 7.97652825713157653809e-02) (115, 1.75664871931076049805e-01) (116, -2.08350747823715209961e-01) (117, -1.49396133422851562500e+00) (118, -1.22444689273834228516e+00) (119, -1.48172926902770996094e+00) (120, 1.03519666194915771484e+00) (121, -1.65573525428771972656e+00) (122, 3.81648570299148559570e-01) (123, 8.11855137348175048828e-01) (124, -1.12367582321166992188e+00) (125, -1.89352184534072875977e-01) (126, -6.45905137062072753906e-01) (127, -1.07932114601135253906e+00) (128, -3.14148277044296264648e-01) (129, -5.38800001144409179688e-01) (130, -8.56041252613067626953e-01) (131, -5.02793669700622558594e-01) (132, 1.61900675296783447266e+00) (133, 3.69435548782348632812e-01) (134, -1.76404818892478942871e-01) (135, -6.97187304496765136719e-01) (136, -1.14872324466705322266e+00) (137, -1.43550968170166015625e+00) (138, -4.60999965667724609375e-01) (139, -1.18281304836273193359e+00) (140, 1.20889377593994140625e+00) (141, -4.47509557008743286133e-01) (142, 6.71238243579864501953e-01) (143, 1.11102688312530517578e+00) (144, -2.58040040731430053711e-01) (145, -8.52765440940856933594e-01) (146, -2.12886288762092590332e-01) (147, 3.02438706159591674805e-01) (148, 1.67862117290496826172e-01) (149, 9.50161933898925781250e-01) (150, 5.92045843601226806641e-01) (151, -2.97594130039215087891e-01) (152, -1.52915513515472412109e+00) (153, 6.45369887351989746094e-01) (154, 7.13994055986404418945e-02) (155, -4.72740322351455688477e-01) (156, -1.08054113388061523438e+00) (157, -3.81829053163528442383e-01) (158, -2.08759427070617675781e-01) (159, -5.41206002235412597656e-01) (160, 1.38173341751098632812e+00) (161, -4.13168728351593017578e-01) (162, 4.71242107450962066650e-02) (163, 9.26184475421905517578e-01) (164, -5.04890441894531250000e-01) (165, -1.78306519985198974609e+00) (166, -5.72744429111480712891e-01) (167, -5.60163632035255432129e-02) (168, 7.62764096260070800781e-01) (169, 4.99878466129302978516e-01) (170, 5.73401153087615966797e-01) (171, -4.19723898172378540039e-01) (172, -2.34493160247802734375e+00) (173, 1.37519478797912597656e+00) (174, 9.08622443675994873047e-01) (175, -1.04586684703826904297e+00) (176, -8.09535264968872070312e-01) (177, -3.61724555492401123047e-01) (178, -9.90792334079742431641e-01) (179, -3.74620079994201660156e-01) (180, 1.39656174182891845703e+00) (181, 5.06139621138572692871e-02) (182, -6.25958859920501708984e-01) (183, 5.73588848114013671875e-01) (184, 7.03602060675621032715e-02) (185, -1.68570089340209960938e+00) (186, -1.83014333248138427734e-01) (187, 2.54308760166168212891e-01) (188, 1.00355041027069091797e+00) (189, 9.70670998096466064453e-01) (190, 1.03132104873657226562e+00) (191, -2.96602338552474975586e-01) (192, -2.29682397842407226562e+00) (193, 1.15107917785644531250e+00) (194, 1.24072766304016113281e+00) (195, -6.78188860416412353516e-01) (196, -9.63620364665985107422e-01) (197, -3.87961894273757934570e-01) (198, 1.89156964421272277832e-01) (199, -1.71258404850959777832e-01) (200, 1.57598090171813964844e+00) (201, -1.51590481400489807129e-01) (202, -2.44175136089324951172e-01) (203, 6.35681867599487304688e-01) (204, 3.36893461644649505615e-02) (205, -1.02179579436779022217e-01) (206, 2.85756528377532958984e-01) (207, 3.08098830282688140869e-02) (208, 1.10578417778015136719e+00) (209, 9.75852727890014648438e-01) (210, 1.34107637405395507812e+00) (211, 1.02573521435260772705e-01) (212, -2.09135842323303222656e+00) (213, 9.94850933551788330078e-01) (214, 1.05583906173706054688e+00) (215, -1.04467816650867462158e-01) (216, -6.89862549304962158203e-01) (217, -7.22339630126953125000e-01) (218, 1.55675914138555526733e-02) (219, 2.48607516288757324219e-01) (220, 1.33251309394836425781e+00) (221, -3.40687036514282226562e-02) (222, -4.51342612504959106445e-01) (223, 5.65481603145599365234e-01) (224, 2.75357782840728759766e-01) (225, -5.20296320319175720215e-02) (226, 2.65630513429641723633e-01) (227, 1.97043269872665405273e-01) (228, 9.65294718742370605469e-01) (229, 1.08619272708892822266e+00) (230, 1.07515561580657958984e+00) (231, 1.48144215345382690430e-01) (232, -1.80753362178802490234e+00) (233, 9.37808692455291748047e-01) (234, 9.53219354152679443359e-01) (235, -1.74197003245353698730e-01) (236, -4.26799416542053222656e-01) (237, -4.26318526268005371094e-01) (238, 1.10037863254547119141e-01) (239, 4.53181713819503784180e-01) (240, 1.04064714908599853516e+00) (241, 7.52931758761405944824e-02) (242, -2.72278517484664916992e-01) (243, 5.15761315822601318359e-01) (244, 3.17620724439620971680e-01) (245, -4.60592843592166900635e-03) (246, 3.31534445285797119141e-02) (247, 5.45513331890106201172e-01) (248, 9.06719207763671875000e-01) (249, 1.00854158401489257812e+00) (250, 1.21094620227813720703e+00) (251, 3.23979169130325317383e-01) (252, -1.31166946887969970703e+00) (253, 9.27381217479705810547e-01) (254, 8.31166207790374755859e-01) (255, -2.04094871878623962402e-01) (256, -1.98108404874801635742e-01) (257, -8.06346535682678222656e-02) (258, 2.00797647237777709961e-01) (259, 3.40984076261520385742e-01) (260, -1.12743413448333740234e+00) (261, -1.56020462512969970703e+00) (262, 3.77614760398864746094e+00) (263, -7.92726576328277587891e-01) (264, 1.68770301342010498047e+00) (0, 4.27176244556903839111e-02) (1, -2.27184919640421867371e-03) (2, 5.73865398764610290527e-02) (3, 7.75579735636711120605e-02) (4, 2.31594424694776535034e-02) (5, 4.21432629227638244629e-02) (6, 1.36709302663803100586e-01) (7, -6.54062163084745407104e-03) (8, 6.98794648051261901855e-02) (9, 3.12591008841991424561e-02) (10, 4.06413525342941284180e-02) (11, 1.29915447905659675598e-02) (12, 6.61809444427490234375e-02) (13, 3.24204154312610626221e-02) (14, -6.52333736419677734375e-01) (15, -6.97120189666748046875e-01) (16, -5.41901588439941406250e-01) (17, -5.88965177536010742188e-01) (18, -5.91273784637451171875e-01) (19, -5.46689867973327636719e-01) (20, -9.25931334495544433594e-02) (21, -1.08047425746917724609e-01) (22, -1.27751052379608154297e-01) (23, -6.12474195659160614014e-02) (24, -1.14957690238952636719e-01) (25, -1.09317354857921600342e-01) (26, 1.82087346911430358887e-02) (27, -1.24546431005001068115e-01) (28, -6.23651444911956787109e-02) (29, -1.01135134696960449219e-01) (30, -4.12723198533058166504e-02) (31, -1.24094106256961822510e-01) (32, -4.83245812356472015381e-02) (33, -8.53579267859458923340e-02) (34, -7.21430033445358276367e-02) (35, -3.66696082055568695068e-02) (36, -1.19116134941577911377e-01) (37, -1.17530420422554016113e-01) (38, -1.10841676592826843262e-01) (39, -1.28414183855056762695e-01) (40, -1.25258147716522216797e-01) (41, -1.45844459533691406250e-01) (42, -1.20301082730293273926e-01) (43, -1.49188444018363952637e-01) (44, -1.99884086847305297852e-01) (45, -1.51777490973472595215e-01) (46, -3.70468758046627044678e-02) (47, -1.80342480540275573730e-01) (48, -1.33332550525665283203e-01) (49, -1.61191791296005249023e-01) (50, -1.16177327930927276611e-01) (51, -1.76847800612449645996e-01) (52, -6.83840140700340270996e-02) (53, -1.42931446433067321777e-01) (54, -1.43403768539428710938e-01) (55, -8.67090001702308654785e-02) (56, -1.61165758967399597168e-01) (57, -1.84759452939033508301e-01) (58, -2.06110700964927673340e-01) (59, -1.72771871089935302734e-01) (60, -2.16559141874313354492e-01) (61, -2.67032057046890258789e-01) (62, -1.88623145222663879395e-01) (63, -1.82736292481422424316e-01) (64, -2.98345178365707397461e-01) (65, -2.23048314452171325684e-01) (66, -6.49440512061119079590e-02) (67, -3.49374949932098388672e-01) (68, -1.24630562961101531982e-01) (69, -2.82832026481628417969e-01) (70, -2.18984887003898620605e-01) (71, -2.50064998865127563477e-01) (72, -7.56893828511238098145e-02) (73, -1.72517180442810058594e-01) (74, -1.53668612241744995117e-01) (75, -1.55945852398872375488e-01) (76, -2.53461599349975585938e-01) (77, -2.97211408615112304688e-01) (78, -2.81521737575531005859e-01) (79, -2.25408107042312622070e-01) (80, -3.22743207216262817383e-01) (81, -4.23228442668914794922e-01) (82, -1.78824424743652343750e-01) (83, -2.54295885562896728516e-01) (84, -4.34577643871307373047e-01) (85, -2.32853427529335021973e-01) (86, -1.38954967260360717773e-01) (87, -5.43188750743865966797e-01) (88, -2.35956504940986633301e-01) (89, -4.60059046745300292969e-01) (90, -3.97553443908691406250e-01) (91, -1.97958931326866149902e-01) (92, -1.74506902694702148438e-01) (93, -2.61441081762313842773e-01) (94, -2.72160828113555908203e-01) (95, -2.06464141607284545898e-01) (96, -2.70092636346817016602e-01) (97, -4.86444562673568725586e-01) (98, -4.84470695257186889648e-01) (99, -4.13923799991607666016e-01) (100, -5.33937931060791015625e-01) (101, -6.58801853656768798828e-01) (102, -3.79254460334777832031e-01) (103, -5.06079673767089843750e-01) (104, -6.47694706916809082031e-01) (105, -3.74652206897735595703e-01) (106, -3.92481327056884765625e-01) (107, -7.47947037220001220703e-01) (108, -5.06772041320800781250e-01) (109, -5.92951953411102294922e-01) (110, -4.75608021020889282227e-01) (111, -4.28775697946548461914e-01) (112, -3.51568907499313354492e-01) (113, -5.32146215438842773438e-01) (114, -5.37313461303710937500e-01) (115, -4.29960608482360839844e-01) (116, -4.84049081802368164062e-01) (117, -6.61489725112915039062e-01) (118, -8.05436611175537109375e-01) (119, -6.30863189697265625000e-01) (120, 1.74473851919174194336e-01) (121, 5.13432472944259643555e-02) (122, 3.36289823055267333984e-01) (123, 1.48194208741188049316e-01) (124, -2.09237672388553619385e-02) (125, 4.54644113779067993164e-01) (126, 2.76167809963226318359e-01) (127, -7.70409256219863891602e-02) (128, 1.24124333262443542480e-01) (129, 5.08057326078414916992e-02) (130, 2.71344155073165893555e-01) (131, 3.36313188076019287109e-01) (132, 3.87505084276199340820e-01) (133, 6.23638406395912170410e-02) (134, 6.34328499436378479004e-02) (135, 2.82947748899459838867e-01) (136, 2.05591708421707153320e-01) (137, -1.04995518922805786133e-02) (138, -9.26115289330482482910e-02) (139, -8.64697918295860290527e-02) (140, -5.10077595710754394531e-01) (141, -8.17531287670135498047e-01) (142, -3.53920251131057739258e-01) (143, -4.23631072044372558594e-01) (144, -7.30702936649322509766e-01) (145, -2.76647716760635375977e-01) (146, -3.35345804691314697266e-01) (147, -7.13660180568695068359e-01) (148, -4.15977388620376586914e-01) (149, -7.02951788902282714844e-01) (150, -5.50995171070098876953e-01) (151, -4.11313384771347045898e-01) (152, -1.09822385013103485107e-01) (153, -4.81937497854232788086e-01) (154, -5.02753436565399169922e-01) (155, -3.58329832553863525391e-01) (156, -4.11672264337539672852e-01) (157, -6.49239242076873779297e-01) (158, -7.32858479022979736328e-01) (159, -7.18409657478332519531e-01) (160, -5.27668058872222900391e-01) (161, -6.10860526561737060547e-01) (162, -2.99835979938507080078e-01) (163, -2.72155821323394775391e-01) (164, -6.40435159206390380859e-01) (165, -3.19664567708969116211e-01) (166, -3.11659336090087890625e-01) (167, -6.28764569759368896484e-01) (168, -3.56656908988952636719e-01) (169, -6.35884225368499755859e-01) (170, -4.87457185983657836914e-01) (171, -3.53965520858764648438e-01) (172, -1.71013817191123962402e-01) (173, -4.35141623020172119141e-01) (174, -4.56098675727844238281e-01) (175, -3.25156539678573608398e-01) (176, -3.62860590219497680664e-01) (177, -5.84587693214416503906e-01) (178, -6.13998711109161376953e-01) (179, -6.61061465740203857422e-01) (180, -3.04984956979751586914e-01) (181, -2.55678236484527587891e-01) (182, -1.09276369214057922363e-01) (183, -8.75113084912300109863e-02) (184, -3.56910198926925659180e-01) (185, -1.91173091530799865723e-01) (186, -6.40281662344932556152e-02) (187, -3.82157385349273681641e-01) (188, -2.22613513469696044922e-01) (189, -3.72751027345657348633e-01) (190, -2.83566534519195556641e-01) (191, -2.00407296419143676758e-01) (192, 5.24320080876350402832e-03) (193, -1.82980000972747802734e-01) (194, -2.94643193483352661133e-01) (195, -1.37705817818641662598e-01) (196, -1.52749553322792053223e-01) (197, -2.63779610395431518555e-01) (198, -3.59696626663208007812e-01) (199, -3.00258040428161621094e-01) (200, -1.88317477703094482422e-01) (201, -7.56105706095695495605e-02) (202, -5.06760664284229278564e-02) (203, -5.43358027935028076172e-02) (204, -1.44908353686332702637e-01) (205, -2.20084220170974731445e-01) (206, 5.39518222212791442871e-02) (207, -8.63720625638961791992e-02) (208, -1.02887742221355438232e-01) (209, -1.40731722116470336914e-01) (210, -1.11461825668811798096e-01) (211, -1.54870718717575073242e-01) (212, -6.96173403412103652954e-03) (213, -7.86502584815025329590e-02) (214, -1.13878309726715087891e-01) (215, -2.56302561610937118530e-02) (216, -6.15652762353420257568e-02) (217, -8.54206308722496032715e-02) (218, -1.62183448672294616699e-01) (219, -1.52595654129981994629e-01) (220, -7.29480981826782226562e-02) (221, 2.88333091884851455688e-02) (222, 2.80188228935003280640e-02) (223, 1.72487702220678329468e-02) (224, -8.34567770361900329590e-02) (225, -6.50376453995704650879e-02) (226, 1.37257173657417297363e-01) (227, -2.04594973474740982056e-02) (228, -1.52767952531576156616e-02) (229, -5.80071322619915008545e-02) (230, -4.49871234595775604248e-02) (231, -6.53463676571846008301e-02) (232, 7.35907331109046936035e-02) (233, 1.58345252275466918945e-02) (234, -3.79458032548427581787e-02) (235, 2.95116696506738662720e-02) (236, -1.88629049807786941528e-02) (237, -9.75499022752046585083e-03) (238, -8.54927450418472290039e-02) (239, -7.18380808830261230469e-02) (240, -1.91568046808242797852e-01) (241, -1.14006519317626953125e-01) (242, -6.75898119807243347168e-02) (243, -8.26290175318717956543e-02) (244, -1.92830026149749755859e-01) (245, -1.43641248345375061035e-01) (246, 6.17062859237194061279e-03) (247, -1.67077675461769104004e-01) (248, -1.24545328319072723389e-01) (249, -1.93959712982177734375e-01) (250, -2.30594187974929809570e-01) (251, -1.61997511982917785645e-01) (252, -6.71495348215103149414e-02) (253, -9.80059355497360229492e-02) (254, -1.28003597259521484375e-01) (255, -9.99549627304077148438e-02) (256, -1.42329946160316467285e-01) (257, -1.55981332063674926758e-01) (258, -1.68890491127967834473e-01) (259, -1.62106394767761230469e-01) (260, 6.11184537410736083984e-01) (261, 6.75617009401321411133e-02) (262, -1.48203089833259582520e-01) (263, -2.97269541770219802856e-02) (264, 6.83701969683170318604e-03) (265, 1.08198739588260650635e-01) (0, 2.35427021980285644531e-01) (1, 1.97211623191833496094e-01) (2, 6.23344369232654571533e-02) (3, 1.23599611222743988037e-01) (4, 2.25680887699127197266e-01) (5, -4.93643023073673248291e-02) (6, 6.02971464395523071289e-02) (7, 2.03762322664260864258e-01) (8, 1.19457736611366271973e-01) (9, 2.66276866197586059570e-01) (10, 1.82214975357055664062e-01) (11, 1.10228069126605987549e-01) (12, 9.90383177995681762695e-02) (13, 1.63906127214431762695e-01) (14, 8.14923197031021118164e-02) (15, 1.28180205821990966797e-01) (16, 5.81708610057830810547e-01) (17, 9.51572000980377197266e-01) (18, 6.29296362400054931641e-01) (19, 1.05892324447631835938e+00) (20, 1.73764109611511230469e-01) (21, -8.56162235140800476074e-03) (22, 1.31753772497177124023e-01) (23, 3.12641829252243041992e-01) (24, -7.55607411265373229980e-02) (25, -9.87041518092155456543e-02) (26, 7.01230913400650024414e-02) (27, -1.61338090896606445312e-01) (28, 1.86062455177307128906e-01) (29, -8.33521336317062377930e-02) (30, -1.45382329821586608887e-01) (31, 4.50103394687175750732e-02) (32, 1.50484032928943634033e-04) (33, 2.38568812608718872070e-01) (34, 1.53868287801742553711e-01) (35, 1.02987386286258697510e-01) (36, 3.14816683530807495117e-02) (37, -1.31596386432647705078e-01) (38, -2.58552040904760360718e-02) (39, -1.08868069946765899658e-01) (40, 2.35718712210655212402e-01) (41, -9.27096307277679443359e-02) (42, 1.02289937436580657959e-01) (43, 1.38681679964065551758e-01) (44, 1.14396281540393829346e-01) (45, -1.77056491374969482422e-01) (46, 1.29022551700472831726e-02) (47, 1.90275147557258605957e-01) (48, -7.20924325287342071533e-03) (49, 1.55887261033058166504e-01) (50, 1.36080458760261535645e-01) (51, -5.12818507850170135498e-02) (52, -7.15500414371490478516e-02) (53, 5.52918128669261932373e-02) (54, -1.61028690636157989502e-02) (55, -4.92559187114238739014e-03) (56, 5.66656738519668579102e-02) (57, 1.50202542543411254883e-01) (58, 5.38612231612205505371e-02) (59, 3.95746082067489624023e-02) (60, 1.28174617886543273926e-01) (61, -3.69434058666229248047e-02) (62, -2.56212711334228515625e-01) (63, -2.26712137460708618164e-01) (64, 2.46622353792190551758e-01) (65, -2.88145512342453002930e-01) (66, -5.76795376837253570557e-02) (67, 3.08307170867919921875e-01) (68, -2.82337039709091186523e-01) (69, 3.75392287969589233398e-01) (70, 2.52574294805526733398e-01) (71, -2.00873479247093200684e-01) (72, -2.73667275905609130859e-01) (73, -1.72746658325195312500e-01) (74, -1.80109113454818725586e-01) (75, -1.86601474881172180176e-01) (76, -9.98905375599861145020e-02) (77, 2.39908069372177124023e-01) (78, 1.50923952460289001465e-01) (79, 6.08894452452659606934e-02) (80, 4.35147061944007873535e-02) (81, 4.12921011447906494141e-02) (82, -2.13929206132888793945e-01) (83, 1.03039406239986419678e-01) (84, -1.16708435118198394775e-01) (85, -1.64041489362716674805e-01) (86, 3.08193508535623550415e-02) (87, -8.63975137472152709961e-02) (88, 1.32308900356292724609e-01) (89, -2.70027089864015579224e-02) (90, 1.41864782199263572693e-03) (91, -1.29300981760025024414e-01) (92, -1.25036969780921936035e-01) (93, 1.42213195562362670898e-01) (94, 1.55664831399917602539e-01) (95, -1.56241744756698608398e-01) (96, -1.67798236012458801270e-01) (97, -1.37813553214073181152e-01) (98, 1.62648811936378479004e-01) (99, 4.98193316161632537842e-03) (100, 1.00722022354602813721e-01) (101, -4.03070509433746337891e-01) (102, 1.21822759509086608887e-01) (103, 5.12106478214263916016e-01) (104, -3.77279847860336303711e-01) (105, 1.28205120563507080078e-01) (106, 1.30802750587463378906e-01) (107, -4.98632401227951049805e-01) (108, 3.82706582546234130859e-01) (109, -4.23648685216903686523e-01) (110, -1.86284005641937255859e-01) (111, 1.17408595979213714600e-01) (112, -8.17224755883216857910e-02) (113, 3.79735559225082397461e-01) (114, 3.27590048313140869141e-01) (115, 6.28802180290222167969e-02) (116, -5.43563738465309143066e-02) (117, -4.57804590463638305664e-01) (118, -3.47011655569076538086e-01) (119, -2.21479117870330810547e-01) (120, -9.09549817442893981934e-02) (121, -1.00571803748607635498e-01) (122, -2.25808009505271911621e-01) (123, -2.41018012166023254395e-01) (124, -1.41660673543810844421e-02) (125, 7.87357017397880554199e-02) (126, 5.66547550261020660400e-02) (127, -1.73825696110725402832e-02) (128, -9.25539061427116394043e-02) (129, 1.50605794042348861694e-02) (130, 2.36859709024429321289e-01) (131, -6.40097558498382568359e-02) (132, -3.45737367868423461914e-01) (133, -1.13380238413810729980e-01) (134, -1.12964786589145660400e-01) (135, -7.86058083176612854004e-02) (136, -4.89879623055458068848e-02) (137, -9.24777314066886901855e-02) (138, -2.51040816307067871094e-01) (139, 2.88209551945328712463e-03) (140, -1.04892976582050323486e-01) (141, 3.42039614915847778320e-01) (142, -5.04941642284393310547e-01) (143, -5.51896333694458007812e-01) (144, 4.43245828151702880859e-01) (145, 3.54215502738952636719e-01) (146, -2.42264300584793090820e-01) (147, 4.89678859710693359375e-01) (148, -4.23036813735961914062e-01) (149, 5.56313097476959228516e-01) (150, 3.78238379955291748047e-01) (151, -3.62704545259475708008e-01) (152, -1.43086314201354980469e-01) (153, -4.38084810972213745117e-01) (154, -3.71306061744689941406e-01) (155, -3.79973560571670532227e-01) (156, -2.47945651412010192871e-01) (157, 4.03538495302200317383e-01) (158, 4.25703525543212890625e-02) (159, 1.38453766703605651855e-01) (160, -8.48997980356216430664e-02) (161, -2.49873683787882328033e-03) (162, -1.31008520722389221191e-01) (163, -5.52550293505191802979e-02) (164, 9.65989567339420318604e-03) (165, 2.46435198932886123657e-02) (166, -5.37146143615245819092e-02) (167, -9.48141962289810180664e-02) (168, 1.04978695511817932129e-01) (169, -1.24094560742378234863e-01) (170, -8.12636539340019226074e-02) (171, -1.02158719673752784729e-02) (172, 5.09906530380249023438e-01) (173, -6.64853453636169433594e-02) (174, 5.78602179884910583496e-02) (175, 3.70625853538513183594e-02) (176, -3.39588187634944915771e-02) (177, 1.81963052600622177124e-02) (178, -4.49260696768760681152e-05) (179, 6.54826918616890907288e-03) (180, -1.29762902855873107910e-01) (181, -3.24643522500991821289e-01) (182, 3.26388806104660034180e-01) (183, 4.25612628459930419922e-01) (184, -3.30897718667984008789e-01) (185, 1.76047161221504211426e-01) (186, 2.21256092190742492676e-01) (187, -3.84526431560516357422e-01) (188, 2.19673812389373779297e-01) (189, -4.41393375396728515625e-01) (190, -3.44643920660018920898e-01) (191, 2.78172910213470458984e-01) (192, 3.37428450584411621094e-01) (193, 2.39448115229606628418e-01) (194, 9.62385535240173339844e-02) (195, 2.15288847684860229492e-01) (196, 1.49775266647338867188e-01) (197, -3.34607422351837158203e-01) (198, -2.34962165355682373047e-01) (199, -1.81178852915763854980e-01) (200, 2.17554811388254165649e-02) (201, 1.76484376192092895508e-01) (202, 2.17606350779533386230e-02) (203, -5.59000112116336822510e-03) (204, 2.67995148897171020508e-01) (205, 8.23927447199821472168e-02) (206, 1.67428657412528991699e-01) (207, 2.25801497697830200195e-01) (208, -3.59182171523571014404e-02) (209, 2.23820447921752929688e-01) (210, 1.80791527032852172852e-01) (211, 9.22618340700864791870e-03) (212, 2.16195940971374511719e-01) (213, 5.51815778017044067383e-02) (214, 1.79112434852868318558e-03) (215, 7.48041123151779174805e-02) (216, 1.61930114030838012695e-01) (217, 1.92201852798461914062e-01) (218, 1.77632257342338562012e-01) (219, 2.52894341945648193359e-01) (220, -5.81819899380207061768e-02) (221, 2.53106951713562011719e-01) (222, 1.80173963308334350586e-02) (223, -5.63864372670650482178e-02) (224, 2.98716664314270019531e-01) (225, 8.27574506402015686035e-02) (226, -5.41051961481571197510e-02) (227, 3.28234553337097167969e-01) (228, -7.96701014041900634766e-02) (229, 2.98278003931045532227e-01) (230, 1.54633164405822753906e-01) (231, -4.52480427920818328857e-02) (232, 2.10775822401046752930e-01) (233, -1.08147621154785156250e-01) (234, -7.93607831001281738281e-02) (235, 1.64593178778886795044e-02) (236, 1.04972049593925476074e-01) (237, 2.46949121356010437012e-01) (238, 1.24508991837501525879e-01) (239, 1.11992977559566497803e-01) (240, -5.20616807043552398682e-02) (241, -3.50254513323307037354e-02) (242, 1.92517116665840148926e-01) (243, 2.08854436874389648438e-01) (244, -1.03857532143592834473e-01) (245, 6.95300996303558349609e-02) (246, 2.03725509345531463623e-03) (247, -3.66985201835632324219e-02) (248, 2.16231912374496459961e-01) (249, -1.80541619658470153809e-01) (250, -1.99060022830963134766e-01) (251, 1.16367667913436889648e-01) (252, 2.04020649194717407227e-01) (253, 1.69666722416877746582e-01) (254, 1.42971038818359375000e-01) (255, 1.45710945129394531250e-01) (256, 9.31056365370750427246e-02) (257, 1.91839840263128280640e-02) (258, 6.05271607637405395508e-02) (259, -7.85228908061981201172e-02) (260, -2.08572208881378173828e-01) (261, 1.42908647656440734863e-01) (262, 2.23552870750427246094e+00) (263, -3.66856396198272705078e-01) (264, -1.22615203261375427246e-01) (265, -1.31005421280860900879e-01) (266, -9.79309916496276855469e-01) (0, -3.67976166307926177979e-02) (1, -6.00647747516632080078e-01) (2, 2.18046039342880249023e-01) (3, 1.25606343150138854980e-01) (4, -3.29165339469909667969e-01) (5, 6.43403008580207824707e-02) (6, 3.09109035879373550415e-02) (7, -5.92508435249328613281e-01) (8, 1.76918476819992065430e-01) (9, -3.45386743545532226562e-01) (10, -1.88774242997169494629e-01) (11, 1.24338865280151367188e-01) (12, 6.90174326300621032715e-02) (13, 1.15308783948421478271e-01) (14, 6.83736622333526611328e-01) (15, 1.10057401657104492188e+00) (16, -2.39055752754211425781e+00) (17, -2.27301311492919921875e+00) (18, -2.59338617324829101562e+00) (19, -2.18501305580139160156e+00) (20, -1.74759387969970703125e-01) (21, -6.06312751770019531250e-01) (22, 2.56153136491775512695e-01) (23, -4.16212424170225858688e-04) (24, -4.64918166399002075195e-01) (25, 4.88896220922470092773e-01) (26, -1.83745697140693664551e-01) (27, -7.63144195079803466797e-01) (28, 2.35930144786834716797e-01) (29, -5.56307017803192138672e-01) (30, -2.28676050901412963867e-01) (31, 3.67954671382904052734e-01) (32, 3.94101530313491821289e-01) (33, 3.26976478099822998047e-01) (34, 1.43770813941955566406e-01) (35, 3.78431439399719238281e-01) (36, 1.63786306977272033691e-01) (37, -3.58803838491439819336e-01) (38, -5.71369707584381103516e-01) (39, -2.22959235310554504395e-01) (40, -1.46989107131958007812e-01) (41, -3.67743134498596191406e-01) (42, 3.79583328962326049805e-01) (43, -9.29636508226394653320e-02) (44, -3.78165721893310546875e-01) (45, 6.41480624675750732422e-01) (46, 1.65123760700225830078e-01) (47, -4.74977284669876098633e-01) (48, 2.68660515546798706055e-01) (49, -5.74986040592193603516e-01) (50, -3.94704699516296386719e-01) (51, 3.09188336133956909180e-01) (52, 1.06207087635993957520e-01) (53, 1.03956982493400573730e-01) (54, 1.41113921999931335449e-01) (55, 2.13080450892448425293e-01) (56, 5.12309148907661437988e-02) (57, -1.82052165269851684570e-01) (58, -4.86211776733398437500e-01) (59, -2.71332144737243652344e-01) (60, -2.23205715417861938477e-01) (61, -2.92730391025543212891e-01) (62, 3.35121512413024902344e-01) (63, -9.55325588583946228027e-02) (64, -4.02299255132675170898e-01) (65, 7.97535181045532226562e-01) (66, 2.04458236694335937500e-01) (67, -1.92698001861572265625e-01) (68, 2.89711087942123413086e-01) (69, -3.96650195121765136719e-01) (70, -2.61847823858261108398e-01) (71, 4.74097877740859985352e-01) (72, -2.43531242012977600098e-02) (73, 8.45591425895690917969e-02) (74, 1.96702346205711364746e-01) (75, 2.14671388268470764160e-01) (76, 4.87378537654876708984e-01) (77, 6.52508139610290527344e-02) (78, -1.38330861926078796387e-01) (79, -2.13227584958076477051e-01) (80, -1.98799878358840942383e-01) (81, -1.51643022894859313965e-01) (82, -3.90856951475143432617e-01) (83, -3.53574246168136596680e-01) (84, 1.99912309646606445312e-01) (85, -1.61665603518486022949e-02) (86, -2.14639194309711456299e-02) (87, 4.21191722154617309570e-01) (88, 2.03125149011611938477e-01) (89, 2.41184219717979431152e-01) (90, 7.62498527765274047852e-02) (91, -3.12846183776855468750e-01) (92, -3.38027745485305786133e-01) (93, -7.30607658624649047852e-02) (94, 8.90113487839698791504e-02) (95, -3.23529899120330810547e-01) (96, 2.38338172435760498047e-01) (97, 4.35126006603240966797e-01) (98, 3.80583167076110839844e-01) (99, 2.75453478097915649414e-01) (100, -3.21095377206802368164e-01) (101, -8.24839398264884948730e-02) (102, -8.69940578937530517578e-01) (103, 3.74305546283721923828e-02) (104, 2.62076035141944885254e-02) (105, -1.30510246753692626953e+00) (106, -4.70167910680174827576e-03) (107, 8.08556437492370605469e-01) (108, 2.82732069492340087891e-01) (109, 3.11270475387573242188e-01) (110, -1.00387215614318847656e-01) (111, -7.18595743179321289062e-01) (112, -4.62996989488601684570e-01) (113, -7.93083012104034423828e-03) (114, 2.04969868063926696777e-01) (115, -4.89102542400360107422e-01) (116, -2.19926256686449050903e-02) (117, 8.86596083641052246094e-01) (118, 1.74115240573883056641e-01) (119, 2.47109770774841308594e-01) (120, -2.09257647395133972168e-01) (121, 6.20803475379943847656e-01) (122, -1.09649240970611572266e+00) (123, -3.59559386968612670898e-01) (124, 8.01360249519348144531e-01) (125, -1.02758824825286865234e+00) (126, -4.27533000707626342773e-01) (127, 1.24007546901702880859e+00) (128, -6.29786431789398193359e-01) (129, 8.27576637268066406250e-01) (130, 2.47641310095787048340e-01) (131, -1.01321184635162353516e+00) (132, 2.10039949417114257812e+00) (133, -7.46479690074920654297e-01) (134, -2.96282887458801269531e-01) (135, -8.26820015907287597656e-01) (136, -1.50827273726463317871e-01) (137, 1.19927620887756347656e+00) (138, 4.92091298103332519531e-01) (139, 5.69562435150146484375e-01) (140, -4.13614541292190551758e-01) (141, -1.62955433130264282227e-01) (142, -2.19785213470458984375e-01) (143, -2.01433688402175903320e-01) (144, -2.72015482187271118164e-01) (145, -8.00677895545959472656e-01) (146, 2.55181074142456054688e-01) (147, 3.82299095392227172852e-01) (148, 2.86076869815587997437e-03) (149, -1.33394941687583923340e-01) (150, -4.50730994343757629395e-02) (151, -2.42811471223831176758e-01) (152, -1.24938690662384033203e+00) (153, -1.66801005601882934570e-01) (154, 2.64161944389343261719e-01) (155, -3.56909692287445068359e-01) (156, 1.08348704874515533447e-01) (157, 4.37678724527359008789e-01) (158, -4.85293000936508178711e-01) (159, -4.78094220161437988281e-02) (160, -6.91642239689826965332e-02) (161, 1.87275707721710205078e-02) (162, -2.84669011831283569336e-01) (163, -3.23113530874252319336e-01) (164, 3.08234810829162597656e-01) (165, -2.53470335155725479126e-03) (166, -1.37907177209854125977e-01) (167, 5.27009248733520507812e-01) (168, -7.26382732391357421875e-02) (169, 2.49959900975227355957e-01) (170, -6.57503008842468261719e-02) (171, -2.63020426034927368164e-01) (172, 2.29464024305343627930e-02) (173, -2.12735414505004882812e-01) (174, 4.33779396116733551025e-02) (175, -1.03672586381435394287e-01) (176, -3.45599427819252014160e-02) (177, 4.54684346914291381836e-01) (178, 1.47155016660690307617e-01) (179, 8.17221552133560180664e-02) (180, -2.29483712464570999146e-02) (181, 1.57481312751770019531e-01) (182, 2.77628362178802490234e-01) (183, -1.06731183826923370361e-01) (184, 4.00961153209209442139e-02) (185, 3.84054571390151977539e-01) (186, 1.82727836072444915771e-02) (187, 6.32600188255310058594e-02) (188, 3.63206788897514343262e-02) (189, -1.50331646203994750977e-01) (190, -1.43281280994415283203e-01) (191, 9.03895795345306396484e-02) (192, 3.38202893733978271484e-01) (193, -2.71401524543762207031e-01) (194, 5.32893911004066467285e-02) (195, 2.08074033260345458984e-01) (196, 1.37506037950515747070e-01) (197, 2.40094766020774841309e-01) (198, -1.87980934977531433105e-01) (199, 1.78587675094604492188e-01) (200, -9.20859426259994506836e-02) (201, 1.92123502492904663086e-01) (202, 7.54514157772064208984e-01) (203, 1.83254972100257873535e-01) (204, -1.42459973692893981934e-01) (205, 4.58479374647140502930e-01) (206, -3.45605239272117614746e-02) (207, -2.84414380788803100586e-01) (208, 9.01144295930862426758e-02) (209, -3.33076745271682739258e-01) (210, -2.62294352054595947266e-01) (211, 2.50585764646530151367e-01) (212, 5.60519039630889892578e-01) (213, -2.94745191931724548340e-02) (214, 3.87677401304244995117e-02) (215, 2.31928199529647827148e-01) (216, 1.07695221900939941406e-01) (217, -8.16667973995208740234e-02) (218, -1.52627751231193542480e-01) (219, 6.27093389630317687988e-03) (220, -1.02654993534088134766e-01) (221, -1.32747158408164978027e-01) (222, 3.26123565435409545898e-01) (223, -2.09038071334362030029e-02) (224, -9.91616323590278625488e-02) (225, 4.27680730819702148438e-01) (226, 7.82041698694229125977e-02) (227, -3.85267674922943115234e-01) (228, 1.36395946145057678223e-01) (229, -4.89152610301971435547e-01) (230, -2.80936688184738159180e-01) (231, 2.75865048170089721680e-01) (232, 2.26839840412139892578e-01) (233, 1.99501998722553253174e-02) (234, 4.17535305023193359375e-02) (235, 2.78979837894439697266e-01) (236, 1.69026732444763183594e-01) (237, -2.21258178353309631348e-01) (238, -4.39196676015853881836e-01) (239, -1.74022749066352844238e-01) (240, -1.03783316910266876221e-01) (241, -2.71092563867568969727e-01) (242, 2.68123120069503784180e-01) (243, 1.29326388239860534668e-01) (244, -2.07470148801803588867e-01) (245, 3.19599837064743041992e-01) (246, 1.29069671034812927246e-01) (247, -4.43672806024551391602e-01) (248, 1.40031427145004272461e-01) (249, -4.33770328760147094727e-01) (250, -3.18866819143295288086e-01) (251, 3.05206865072250366211e-01) (252, 1.35763257741928100586e-01) (253, 1.21438056230545043945e-01) (254, 1.27414703369140625000e-01) (255, 2.63124495744705200195e-01) (256, 1.85831889510154724121e-01) (257, -3.03273141384124755859e-01) (258, -4.09280925989151000977e-01) (259, -5.57104088366031646729e-02) (260, -1.29802944138646125793e-03) (261, 3.11893075704574584961e-01) (262, -7.09287285804748535156e-01) (263, -2.84481465816497802734e-01) (264, -1.84155374765396118164e-01) (265, 2.85715423524379730225e-02) (266, -2.21629905700683593750e+00) (267, 4.55448269844055175781e-01) (0, -5.57082533836364746094e-01) (1, -5.73550760746002197266e-01) (2, -4.24555301666259765625e-01) (3, -5.91314375400543212891e-01) (4, -5.12500762939453125000e-01) (5, -3.40015083551406860352e-01) (6, -3.24974656105041503906e-01) (7, -5.47269701957702636719e-01) (8, -5.34818232059478759766e-01) (9, -5.68716704845428466797e-01) (10, -4.75990802049636840820e-01) (11, -4.46872204542160034180e-01) (12, -4.84821051359176635742e-01) (13, -4.97487217187881469727e-01) (14, 2.34649944305419921875e+00) (15, 2.38635301589965820312e+00) (16, 2.47082662582397460938e+00) (17, 2.51802802085876464844e+00) (18, 2.55915117263793945312e+00) (19, 2.47993803024291992188e+00) (20, -2.46556580066680908203e-01) (21, -4.75594222545623779297e-01) (22, -1.20033666491508483887e-01) (23, -1.74295186996459960938e-01) (24, -2.67439961433410644531e-01) (25, 9.09662712365388870239e-03) (26, 1.37134671211242675781e-01) (27, -3.40425729751586914062e-01) (28, -2.09556967020034790039e-01) (29, -3.36561948060989379883e-01) (30, -2.88876235485076904297e-01) (31, -1.15735843777656555176e-01) (32, -1.28832310438156127930e-01) (33, -2.03004151582717895508e-01) (34, -2.12602645158767700195e-01) (35, -1.46333977580070495605e-01) (36, -1.17107972502708435059e-01) (37, -2.73491173982620239258e-01) (38, -3.22376161813735961914e-01) (39, -1.92548140883445739746e-01) (40, -2.05082848668098449707e-01) (41, -3.34166437387466430664e-01) (42, -8.72787311673164367676e-02) (43, -1.75232559442520141602e-01) (44, -2.53222048282623291016e-01) (45, 4.12389338016510009766e-02) (46, 2.23971232771873474121e-01) (47, -1.85311526060104370117e-01) (48, -1.87579855322837829590e-01) (49, -3.12892645597457885742e-01) (50, -2.86376863718032836914e-01) (51, -1.43844783306121826172e-01) (52, -1.92414954304695129395e-01) (53, -1.39654308557510375977e-01) (54, -2.08708778023719787598e-01) (55, -1.53482288122177124023e-01) (56, -1.50308296084403991699e-01) (57, -1.70284658670425415039e-01) (58, -1.64051100611686706543e-01) (59, -1.58287107944488525391e-01) (60, -1.44282802939414978027e-01) (61, -1.86216756701469421387e-01) (62, -1.66393429040908813477e-01) (63, -2.62187212705612182617e-01) (64, -7.48495757579803466797e-02) (65, -1.20059913024306297302e-02) (66, 3.52619260549545288086e-01) (67, 3.86351533234119415283e-02) (68, -2.48019695281982421875e-01) (69, -1.62148535251617431641e-01) (70, -1.01097680628299713135e-01) (71, -1.68908491730690002441e-01) (72, -3.34465205669403076172e-01) (73, -2.14621648192405700684e-01) (74, -1.90190777182579040527e-01) (75, -1.66455149650573730469e-01) (76, -7.79080614447593688965e-02) (77, 3.82401384413242340088e-02) (78, 7.94378966093063354492e-02) (79, -3.81498597562313079834e-02) (80, 3.71690131723880767822e-02) (81, -1.22469961643218994141e-01) (82, -4.13978070020675659180e-01) (83, -2.18354612588882446289e-01) (84, 6.82386606931686401367e-02) (85, -3.01770269870758056641e-01) (86, 2.52739876508712768555e-01) (87, 3.55894953012466430664e-01) (88, -3.27241867780685424805e-01) (89, 1.69542655348777770996e-01) (90, 1.25397264957427978516e-01) (91, -4.14629578590393066406e-01) (92, -6.09781146049499511719e-01) (93, -2.27282866835594177246e-01) (94, -1.90233185887336730957e-01) (95, -3.37762624025344848633e-01) (96, -1.44104018807411193848e-01) (97, 2.24004745483398437500e-01) (98, 4.57303673028945922852e-01) (99, 6.71008229255676269531e-02) (100, 1.92550465464591979980e-01) (101, -4.50465530157089233398e-02) (102, -5.25070428848266601562e-01) (103, 3.65462712943553924561e-02) (104, 2.88909673690795898438e-01) (105, -7.28674829006195068359e-01) (106, 2.67370671033859252930e-01) (107, 6.66599035263061523438e-01) (108, -1.32644817233085632324e-01) (109, 4.59907680749893188477e-01) (110, 1.03346455097198486328e+00) (111, -5.57282626628875732422e-01) (112, -7.71370172500610351562e-01) (113, -2.20247078686952590942e-02) (114, 2.50263344496488571167e-02) (115, -3.05898010730743408203e-01) (116, -6.34717345237731933594e-02) (117, 5.71762442588806152344e-01) (118, 6.37588083744049072266e-01) (119, 3.17132949829101562500e-01) (120, 4.30353790521621704102e-01) (121, 1.55183717608451843262e-01) (122, -6.63737356662750244141e-01) (123, 1.46635726094245910645e-01) (124, 7.23862171173095703125e-01) (125, -7.48527169227600097656e-01) (126, 3.21032196283340454102e-01) (127, 1.06456077098846435547e+00) (128, -5.85892237722873687744e-02) (129, 8.09217154979705810547e-01) (130, 1.14818167686462402344e+00) (131, -5.55036783218383789062e-01) (132, -1.35452198982238769531e+00) (133, 2.15575750917196273804e-03) (134, 9.38050001859664916992e-02) (135, -2.83155024051666259766e-01) (136, 6.05744011700153350830e-02) (137, 9.47160243988037109375e-01) (138, 7.75241553783416748047e-01) (139, 5.78683376312255859375e-01) (140, 3.67855817079544067383e-01) (141, 1.38333931565284729004e-01) (142, -4.92042511701583862305e-01) (143, -1.47538697347044944763e-02) (144, 4.21024829149246215820e-01) (145, -4.56098109483718872070e-01) (146, 3.47763687372207641602e-01) (147, 6.96465492248535156250e-01) (148, -1.40908703207969665527e-01) (149, 6.56699419021606445312e-01) (150, 6.31597399711608886719e-01) (151, -3.04645955562591552734e-01) (152, -1.40702688694000244141e+00) (153, 6.79210796952247619629e-02) (154, 5.32400002703070640564e-03) (155, -2.51484751701354980469e-01) (156, -7.69348666071891784668e-02) (157, 6.27604126930236816406e-01) (158, 3.04067790508270263672e-01) (159, 3.69906663894653320312e-01) (160, 1.21969677507877349854e-01) (161, 2.44654361158609390259e-02) (162, -5.31684696674346923828e-01) (163, -2.05047905445098876953e-01) (164, 2.76850670576095581055e-01) (165, -2.49417960643768310547e-01) (166, 3.42712372541427612305e-01) (167, 3.52262169122695922852e-01) (168, -1.26151159405708312988e-01) (169, 4.43646162748336791992e-01) (170, 4.60395246744155883789e-01) (171, -2.41091802716255187988e-01) (172, -9.52766954898834228516e-01) (173, -5.79087845981121063232e-02) (174, -2.37316940911114215851e-04) (175, -2.58972823619842529297e-01) (176, -1.36616706848144531250e-01) (177, 2.16292098164558410645e-01) (178, 9.52392518520355224609e-02) (179, 2.21375361084938049316e-01) (180, -1.47307030856609344482e-02) (181, -2.12846860289573669434e-01) (182, -3.95417809486389160156e-01) (183, -3.25796872377395629883e-01) (184, 2.18099337071180343628e-02) (185, -1.70504644513130187988e-01) (186, 2.78629362583160400391e-01) (187, 5.66627085208892822266e-02) (188, -1.97012975811958312988e-01) (189, 1.65986284613609313965e-01) (190, 1.30877032876014709473e-01) (191, -2.20102131366729736328e-01) (192, -7.14724719524383544922e-01) (193, -1.59397527575492858887e-01) (194, -1.35606780648231506348e-01) (195, -2.73452639579772949219e-01) (196, -2.38623872399330139160e-01) (197, -6.97175487875938415527e-02) (198, -1.28138810396194458008e-01) (199, -1.03549018502235412598e-01) (200, -9.70834400504827499390e-03) (201, -1.91025033593177795410e-01) (202, -1.43725782632827758789e-01) (203, -1.57555848360061645508e-01) (204, -8.09646844863891601562e-02) (205, -3.90983512625098228455e-03) (206, 4.84409928321838378906e-01) (207, -1.74204275012016296387e-01) (208, -3.70485242456197738647e-04) (209, -6.41743764281272888184e-02) (210, -4.59403777495026588440e-03) (211, 5.76996535528451204300e-04) (212, -4.19574797153472900391e-01) (213, -4.86103929579257965088e-02) (214, -7.23509956151247024536e-03) (215, -8.03272575139999389648e-02) (216, -1.57165989279747009277e-01) (217, -2.03309863805770874023e-01) (218, -2.26071268320083618164e-01) (219, -8.21278616786003112793e-02) (220, -1.11071102321147918701e-01) (221, -2.42226228117942810059e-01) (222, -1.54249504208564758301e-01) (223, -2.18641847372055053711e-01) (224, -1.22249640524387359619e-01) (225, -3.86971756815910339355e-02) (226, 4.87070292234420776367e-01) (227, -2.20472022891044616699e-01) (228, -3.67887876927852630615e-02) (229, -1.20171464979648590088e-01) (230, -4.07984293997287750244e-02) (231, -3.83339077234268188477e-02) (232, -2.34569683670997619629e-01) (233, -1.27670481801033020020e-01) (234, -7.95914754271507263184e-02) (235, -8.54725912213325500488e-02) (236, -1.70878723263740539551e-01) (237, -1.99629724025726318359e-01) (238, -2.17844218015670776367e-01) (239, -1.48613542318344116211e-01) (240, -9.87148880958557128906e-02) (241, -2.88851290941238403320e-01) (242, -1.72065734863281250000e-01) (243, -1.80337011814117431641e-01) (244, -1.58006206154823303223e-01) (245, -4.25213202834129333496e-02) (246, 3.30114364624023437500e-01) (247, -2.24752426147460937500e-01) (248, -4.27706576883792877197e-02) (249, -1.29908233880996704102e-01) (250, -1.81603789329528808594e-01) (251, -7.14390426874160766602e-02) (252, -2.09138110280036926270e-01) (253, -1.69134765863418579102e-01) (254, -1.07765719294548034668e-01) (255, -1.44665107131004333496e-01) (256, -2.25747272372245788574e-01) (257, -1.99852809309959411621e-01) (258, -1.33871734142303466797e-01) (259, -9.34581905603408813477e-02) (260, -6.20536729693412780762e-02) (261, -1.25269591808319091797e-01) (262, 1.08800172805786132812e+00) (263, -2.39553049206733703613e-01) (264, 2.21940547227859497070e-01) (265, -4.06199395656585693359e-02) (266, 3.48616027832031250000e+00) (267, -1.82936847209930419922e-01) (268, -3.13462138175964355469e-01) (0, -1.35800257325172424316e-01) (1, 2.59557124227285385132e-02) (2, 7.83841088414192199707e-02) (3, -6.76393657922744750977e-02) (4, -1.23150512576103210449e-01) (5, 3.40186029672622680664e-01) (6, 8.02327226847410202026e-03) (7, -9.18977260589599609375e-02) (8, 3.40017080307006835938e-02) (9, -2.38727271556854248047e-01) (10, -9.75947976112365722656e-02) (11, 1.07814230024814605713e-01) (12, 1.03111602365970611572e-01) (13, -5.86410202085971832275e-02) (14, -6.37935474514961242676e-02) (15, 1.58726841211318969727e-01) (16, -1.13253921270370483398e-01) (17, 2.42278397083282470703e-01) (18, 1.24070800840854644775e-01) (19, 7.47626945376396179199e-02) (20, -1.78036689758300781250e-01) (21, 1.02580763399600982666e-01) (22, -9.95301827788352966309e-02) (23, -1.61262229084968566895e-01) (24, 3.15688364207744598389e-02) (25, 2.60269731283187866211e-01) (26, 3.11598256230354309082e-02) (27, 9.03581827878952026367e-02) (28, -9.47873145341873168945e-02) (29, -6.40651956200599670410e-02) (30, 1.84829756617546081543e-02) (31, 4.63127568364143371582e-02) (32, 7.15891495347023010254e-02) (33, -6.91140368580818176270e-02) (34, -6.87387585639953613281e-03) (35, 2.55094468593597412109e-02) (36, 9.89872664213180541992e-02) (37, 2.01498761773109436035e-01) (38, 1.18784509599208831787e-01) (39, 9.21243950724601745605e-02) (40, -9.64492335915565490723e-02) (41, 2.52588540315628051758e-01) (42, -1.34629502892494201660e-01) (43, -1.45832642912864685059e-01) (44, 2.74600178003311157227e-01) (45, -6.21131546795368194580e-02) (46, 1.33548393845558166504e-01) (47, 4.35950309038162231445e-01) (48, -7.35378786921501159668e-02) (49, 2.34230130910873413086e-01) (50, 5.96854910254478454590e-02) (51, -8.58644768595695495605e-02) (52, -5.57970181107521057129e-02) (53, -1.11427612602710723877e-01) (54, 5.84998819977045059204e-03) (55, -4.47536036372184753418e-02) (56, 2.23486125469207763672e-01) (57, 4.69239860773086547852e-01) (58, 3.67223978042602539062e-01) (59, 3.25322449207305908203e-01) (60, -4.37410697340965270996e-02) (61, 3.29290837049484252930e-01) (62, -3.70963424444198608398e-01) (63, -1.57198980450630187988e-01) (64, 4.25178825855255126953e-01) (65, -3.87366026639938354492e-01) (66, 9.85703542828559875488e-02) (67, 5.54714560508728027344e-01) (68, -1.45242989063262939453e-01) (69, 4.48940187692642211914e-01) (70, 2.34947815537452697754e-01) (71, -3.75514209270477294922e-01) (72, -1.98455974459648132324e-01) (73, -1.56359061598777770996e-01) (74, -4.58889901638031005859e-02) (75, -1.59414127469062805176e-01) (76, 1.61511123180389404297e-01) (77, 5.53109943866729736328e-01) (78, 4.34540599584579467773e-01) (79, 4.27421241998672485352e-01) (80, -7.35816955566406250000e-02) (81, 3.06342959403991699219e-01) (82, -4.54212367534637451172e-01) (83, -5.24831004440784454346e-02) (84, 3.34195226430892944336e-01) (85, -4.36266601085662841797e-01) (86, 3.20653095841407775879e-02) (87, 4.68667417764663696289e-01) (88, -3.08893829584121704102e-01) (89, 3.69816035032272338867e-01) (90, 1.20708607137203216553e-01) (91, -4.26853537559509277344e-01) (92, -3.55199664831161499023e-01) (93, -2.32789501547813415527e-01) (94, -1.37483134865760803223e-01) (95, -1.51185140013694763184e-01) (96, 9.08838883042335510254e-02) (97, 4.76173192262649536133e-01) (98, 3.31078588962554931641e-01) (99, 3.17143440246582031250e-01) (100, 1.79589599370956420898e-01) (101, 2.93860793113708496094e-01) (102, -9.56213250756263732910e-02) (103, 2.36833944916725158691e-01) (104, 4.69444334506988525391e-01) (105, 1.61839630454778671265e-02) (106, 1.13977260887622833252e-01) (107, 4.86287236213684082031e-01) (108, -5.37684373557567596436e-02) (109, 4.03429895639419555664e-01) (110, 2.26752728223800659180e-01) (111, -1.21065735816955566406e-01) (112, -1.04953430593013763428e-01) (113, 7.18017816543579101562e-02) (114, 6.63267672061920166016e-02) (115, 1.01236931979656219482e-01) (116, 7.12196752429008483887e-02) (117, 4.65081900358200073242e-01) (118, 2.99807101488113403320e-01) (119, 3.45821887254714965820e-01) (120, -1.31832912564277648926e-01) (121, -9.06864851713180541992e-02) (122, 2.86205053329467773438e-01) (123, -8.17450359463691711426e-02) (124, -1.06489427387714385986e-01) (125, 1.27171024680137634277e-01) (126, -8.00897479057312011719e-02) (127, -1.63735717535018920898e-01) (128, -2.42482751607894897461e-01) (129, -2.60062426328659057617e-01) (130, -1.63924887776374816895e-01) (131, 8.59253332018852233887e-02) (132, 2.63513326644897460938e-01) (133, -1.67027920484542846680e-01) (134, -1.54331400990486145020e-01) (135, 9.18049588799476623535e-02) (136, -1.57753705978393554688e-01) (137, -1.63304075598716735840e-01) (138, -1.06831222772598266602e-01) (139, -1.71693518757820129395e-01) (140, 7.09683820605278015137e-02) (141, -1.30874767899513244629e-01) (142, 5.94815135002136230469e-01) (143, 1.20285838842391967773e-01) (144, -2.06985667347908020020e-01) (145, 5.73315382003784179688e-01) (146, 3.87878157198429107666e-02) (147, -3.33775520324707031250e-01) (148, 7.92503952980041503906e-02) (149, -3.18219780921936035156e-01) (150, -1.30781605839729309082e-01) (151, 3.90768736600875854492e-01) (152, 7.48004674911499023438e-01) (153, 6.13328851759433746338e-02) (154, -4.97098173946142196655e-03) (155, 2.87061512470245361328e-01) (156, 2.68675629049539566040e-02) (157, -2.62299418449401855469e-01) (158, -6.84560090303421020508e-02) (159, -1.92969635128974914551e-01) (160, 5.01793343573808670044e-03) (161, -4.47555035352706909180e-01) (162, 5.58959782123565673828e-01) (163, 1.76632195711135864258e-01) (164, -5.26473760604858398438e-01) (165, 4.46567773818969726562e-01) (166, -1.00172981619834899902e-01) (167, -6.62571072578430175781e-01) (168, 1.61076765507459640503e-02) (169, -5.34921228885650634766e-01) (170, -4.13972914218902587891e-01) (171, 3.14477950334548950195e-01) (172, 5.76052367687225341797e-01) (173, 1.98027808219194412231e-02) (174, -8.60030874609947204590e-02) (175, 2.31056928634643554688e-01) (176, -6.74829185009002685547e-02) (177, -5.78550994396209716797e-01) (178, -2.76939064264297485352e-01) (179, -4.30987834930419921875e-01) (180, 1.34094199165701866150e-02) (181, -3.66597652435302734375e-01) (182, 4.25724387168884277344e-01) (183, 2.29769647121429443359e-01) (184, -3.92424464225769042969e-01) (185, 3.77219498157501220703e-01) (186, 4.18555140495300292969e-02) (187, -5.88739812374114990234e-01) (188, 6.38922825455665588379e-02) (189, -4.31333243846893310547e-01) (190, -3.67896258831024169922e-01) (191, 3.30107748508453369141e-01) (192, 3.41082483530044555664e-01) (193, 1.52881190180778503418e-01) (194, 3.92163246870040893555e-02) (195, 3.01074862480163574219e-01) 