FANN_FLO_2.0
num_layers=42
learning_rate=0.700000
connection_rate=1.000000
shortcut_connections=1
learning_momentum=0.000000
training_algorithm=2
train_error_function=1
train_stop_function=0
cascade_output_change_fraction=0.010000
quickprop_decay=-0.000100
quickprop_mu=1.750000
rprop_increase_factor=1.200000
rprop_decrease_factor=0.500000
rprop_delta_min=0.000000
rprop_delta_max=50.000000
rprop_delta_zero=0.500000
cascade_output_stagnation_epochs=12
cascade_candidate_change_fraction=0.010000
cascade_candidate_stagnation_epochs=12
cascade_max_out_epochs=150
cascade_max_cand_epochs=150
cascade_num_candidate_groups=2
bit_fail_limit=3.49999994039535522461e-01
cascade_candidate_limit=1.00000000000000000000e+03
cascade_weight_multiplier=4.00000005960464477539e-01
cascade_activation_functions_count=6
cascade_activation_functions=3 5 7 8 10 11 
cascade_activation_steepnesses_count=4
cascade_activation_steepnesses=2.50000000000000000000e-01 5.00000000000000000000e-01 7.50000000000000000000e-01 1.00000000000000000000e+00 
layer_sizes=261 1 1 1 1 1 1 1 1 1 1 1 1 1 1 1 1 1 1 1 1 1 1 1 1 1 1 1 1 1 1 1 1 1 1 1 1 1 1 1 1 3 
neurons (num_inputs, activation_function, activation_steepness)=(0, 0, 0.00000000000000000000e+00) (0, 0, 0.00000000000000000000e+00) (0, 0, 0.00000000000000000000e+00) (0, 0, 0.00000000000000000000e+00) (0, 0, 0.00000000000000000000e+00) (0, 0, 0.00000000000000000000e+00) (0, 0, 0.00000000000000000000e+00) (0, 0, 0.00000000000000000000e+00) (0, 0, 0.00000000000000000000e+00) (0, 0, 0.00000000000000000000e+00) (0, 0, 0.00000000000000000000e+00) (0, 0, 0.00000000000000000000e+00) (0, 0, 0.00000000000000000000e+00) (0, 0, 0.00000000000000000000e+00) (0, 0, 0.00000000000000000000e+00) (0, 0, 0.00000000000000000000e+00) (0, 0, 0.00000000000000000000e+00) (0, 0, 0.00000000000000000000e+00) (0, 0, 0.00000000000000000000e+00) (0, 0, 0.00000000000000000000e+00) (0, 0, 0.00000000000000000000e+00) (0, 0, 0.00000000000000000000e+00) (0, 0, 0.00000000000000000000e+00) (0, 0, 0.00000000000000000000e+00) (0, 0, 0.00000000000000000000e+00) (0, 0, 0.00000000000000000000e+00) (0, 0, 0.00000000000000000000e+00) (0, 0, 0.00000000000000000000e+00) (0, 0, 0.00000000000000000000e+00) (0, 0, 0.00000000000000000000e+00) (0, 0, 0.00000000000000000000e+00) (0, 0, 0.00000000000000000000e+00) (0, 0, 0.00000000000000000000e+00) (0, 0, 0.00000000000000000000e+00) (0, 0, 0.00000000000000000000e+00) (0, 0, 0.00000000000000000000e+00) (0, 0, 0.00000000000000000000e+00) (0, 0, 0.00000000000000000000e+00) (0, 0, 0.00000000000000000000e+00) (0, 0, 0.00000000000000000000e+00) (0, 0, 0.00000000000000000000e+00) (0, 0, 0.00000000000000000000e+00) (0, 0, 0.00000000000000000000e+00) (0, 0, 0.00000000000000000000e+00) (0, 0, 0.00000000000000000000e+00) (0, 0, 0.00000000000000000000e+00) (0, 0, 0.00000000000000000000e+00) (0, 0, 0.00000000000000000000e+00) (0, 0, 0.00000000000000000000e+00) (0, 0, 0.00000000000000000000e+00) (0, 0, 0.00000000000000000000e+00) (0, 0, 0.00000000000000000000e+00) (0, 0, 0.00000000000000000000e+00) (0, 0, 0.00000000000000000000e+00) (0, 0, 0.00000000000000000000e+00) (0, 0, 0.00000000000000000000e+00) (0, 0, 0.00000000000000000000e+00) (0, 0, 0.00000000000000000000e+00) (0, 0, 0.00000000000000000000e+00) (0, 0, 0.00000000000000000000e+00) (0, 0, 0.00000000000000000000e+00) (0, 0, 0.00000000000000000000e+00) (0, 0, 0.00000000000000000000e+00) (0, 0, 0.00000000000000000000e+00) (0, 0, 0.00000000000000000000e+00) (0, 0, 0.00000000000000000000e+00) (0, 0, 0.00000000000000000000e+00) (0, 0, 0.00000000000000000000e+00) (0, 0, 0.00000000000000000000e+00) (0, 0, 0.00000000000000000000e+00) (0, 0, 0.00000000000000000000e+00) (0, 0, 0.00000000000000000000e+00) (0, 0, 0.00000000000000000000e+00) (0, 0, 0.00000000000000000000e+00) (0, 0, 0.00000000000000000000e+00) (0, 0, 0.00000000000000000000e+00) (0, 0, 0.00000000000000000000e+00) (0, 0, 0.00000000000000000000e+00) (0, 0, 0.00000000000000000000e+00) (0, 0, 0.00000000000000000000e+00) (0, 0, 0.00000000000000000000e+00) (0, 0, 0.00000000000000000000e+00) (0, 0, 0.00000000000000000000e+00) (0, 0, 0.00000000000000000000e+00) (0, 0, 0.00000000000000000000e+00) (0, 0, 0.00000000000000000000e+00) (0, 0, 0.00000000000000000000e+00) (0, 0, 0.00000000000000000000e+00) (0, 0, 0.00000000000000000000e+00) (0, 0, 0.00000000000000000000e+00) (0, 0, 0.00000000000000000000e+00) (0, 0, 0.00000000000000000000e+00) (0, 0, 0.00000000000000000000e+00) (0, 0, 0.00000000000000000000e+00) (0, 0, 0.00000000000000000000e+00) (0, 0, 0.00000000000000000000e+00) (0, 0, 0.00000000000000000000e+00) (0, 0, 0.00000000000000000000e+00) (0, 0, 0.00000000000000000000e+00) (0, 0, 0.00000000000000000000e+00) (0, 0, 0.00000000000000000000e+00) (0, 0, 0.00000000000000000000e+00) (0, 0, 0.00000000000000000000e+00) (0, 0, 0.00000000000000000000e+00) (0, 0, 0.00000000000000000000e+00) (0, 0, 0.00000000000000000000e+00) (0, 0, 0.00000000000000000000e+00) (0, 0, 0.00000000000000000000e+00) (0, 0, 0.00000000000000000000e+00) (0, 0, 0.00000000000000000000e+00) (0, 0, 0.00000000000000000000e+00) (0, 0, 0.00000000000000000000e+00) (0, 0, 0.00000000000000000000e+00) (0, 0, 0.00000000000000000000e+00) (0, 0, 0.00000000000000000000e+00) (0, 0, 0.00000000000000000000e+00) (0, 0, 0.00000000000000000000e+00) (0, 0, 0.00000000000000000000e+00) (0, 0, 0.00000000000000000000e+00) (0, 0, 0.00000000000000000000e+00) (0, 0, 0.00000000000000000000e+00) (0, 0, 0.00000000000000000000e+00) (0, 0, 0.00000000000000000000e+00) (0, 0, 0.00000000000000000000e+00) (0, 0, 0.00000000000000000000e+00) (0, 0, 0.00000000000000000000e+00) (0, 0, 0.00000000000000000000e+00) (0, 0, 0.00000000000000000000e+00) (0, 0, 0.00000000000000000000e+00) (0, 0, 0.00000000000000000000e+00) (0, 0, 0.00000000000000000000e+00) (0, 0, 0.00000000000000000000e+00) (0, 0, 0.00000000000000000000e+00) (0, 0, 0.00000000000000000000e+00) (0, 0, 0.00000000000000000000e+00) (0, 0, 0.00000000000000000000e+00) (0, 0, 0.00000000000000000000e+00) (0, 0, 0.00000000000000000000e+00) (0, 0, 0.00000000000000000000e+00) (0, 0, 0.00000000000000000000e+00) (0, 0, 0.00000000000000000000e+00) (0, 0, 0.00000000000000000000e+00) (0, 0, 0.00000000000000000000e+00) (0, 0, 0.00000000000000000000e+00) (0, 0, 0.00000000000000000000e+00) (0, 0, 0.00000000000000000000e+00) (0, 0, 0.00000000000000000000e+00) (0, 0, 0.00000000000000000000e+00) (0, 0, 0.00000000000000000000e+00) (0, 0, 0.00000000000000000000e+00) (0, 0, 0.00000000000000000000e+00) (0, 0, 0.00000000000000000000e+00) (0, 0, 0.00000000000000000000e+00) (0, 0, 0.00000000000000000000e+00) (0, 0, 0.00000000000000000000e+00) (0, 0, 0.00000000000000000000e+00) (0, 0, 0.00000000000000000000e+00) (0, 0, 0.00000000000000000000e+00) (0, 0, 0.00000000000000000000e+00) (0, 0, 0.00000000000000000000e+00) (0, 0, 0.00000000000000000000e+00) (0, 0, 0.00000000000000000000e+00) (0, 0, 0.00000000000000000000e+00) (0, 0, 0.00000000000000000000e+00) (0, 0, 0.00000000000000000000e+00) (0, 0, 0.00000000000000000000e+00) (0, 0, 0.00000000000000000000e+00) (0, 0, 0.00000000000000000000e+00) (0, 0, 0.00000000000000000000e+00) (0, 0, 0.00000000000000000000e+00) (0, 0, 0.00000000000000000000e+00) (0, 0, 0.00000000000000000000e+00) (0, 0, 0.00000000000000000000e+00) (0, 0, 0.00000000000000000000e+00) (0, 0, 0.00000000000000000000e+00) (0, 0, 0.00000000000000000000e+00) (0, 0, 0.00000000000000000000e+00) (0, 0, 0.00000000000000000000e+00) (0, 0, 0.00000000000000000000e+00) (0, 0, 0.00000000000000000000e+00) (0, 0, 0.00000000000000000000e+00) (0, 0, 0.00000000000000000000e+00) (0, 0, 0.00000000000000000000e+00) (0, 0, 0.00000000000000000000e+00) (0, 0, 0.00000000000000000000e+00) (0, 0, 0.00000000000000000000e+00) (0, 0, 0.00000000000000000000e+00) (0, 0, 0.00000000000000000000e+00) (0, 0, 0.00000000000000000000e+00) (0, 0, 0.00000000000000000000e+00) (0, 0, 0.00000000000000000000e+00) (0, 0, 0.00000000000000000000e+00) (0, 0, 0.00000000000000000000e+00) (0, 0, 0.00000000000000000000e+00) (0, 0, 0.00000000000000000000e+00) (0, 0, 0.00000000000000000000e+00) (0, 0, 0.00000000000000000000e+00) (0, 0, 0.00000000000000000000e+00) (0, 0, 0.00000000000000000000e+00) (0, 0, 0.00000000000000000000e+00) (0, 0, 0.00000000000000000000e+00) (0, 0, 0.00000000000000000000e+00) (0, 0, 0.00000000000000000000e+00) (0, 0, 0.00000000000000000000e+00) (0, 0, 0.00000000000000000000e+00) (0, 0, 0.00000000000000000000e+00) (0, 0, 0.00000000000000000000e+00) (0, 0, 0.00000000000000000000e+00) (0, 0, 0.00000000000000000000e+00) (0, 0, 0.00000000000000000000e+00) (0, 0, 0.00000000000000000000e+00) (0, 0, 0.00000000000000000000e+00) (0, 0, 0.00000000000000000000e+00) (0, 0, 0.00000000000000000000e+00) (0, 0, 0.00000000000000000000e+00) (0, 0, 0.00000000000000000000e+00) (0, 0, 0.00000000000000000000e+00) (0, 0, 0.00000000000000000000e+00) (0, 0, 0.00000000000000000000e+00) (0, 0, 0.00000000000000000000e+00) (0, 0, 0.00000000000000000000e+00) (0, 0, 0.00000000000000000000e+00) (0, 0, 0.00000000000000000000e+00) (0, 0, 0.00000000000000000000e+00) (0, 0, 0.00000000000000000000e+00) (0, 0, 0.00000000000000000000e+00) (0, 0, 0.00000000000000000000e+00) (0, 0, 0.00000000000000000000e+00) (0, 0, 0.00000000000000000000e+00) (0, 0, 0.00000000000000000000e+00) (0, 0, 0.00000000000000000000e+00) (0, 0, 0.00000000000000000000e+00) (0, 0, 0.00000000000000000000e+00) (0, 0, 0.00000000000000000000e+00) (0, 0, 0.00000000000000000000e+00) (0, 0, 0.00000000000000000000e+00) (0, 0, 0.00000000000000000000e+00) (0, 0, 0.00000000000000000000e+00) (0, 0, 0.00000000000000000000e+00) (0, 0, 0.00000000000000000000e+00) (0, 0, 0.00000000000000000000e+00) (0, 0, 0.00000000000000000000e+00) (0, 0, 0.00000000000000000000e+00) (0, 0, 0.00000000000000000000e+00) (0, 0, 0.00000000000000000000e+00) (0, 0, 0.00000000000000000000e+00) (0, 0, 0.00000000000000000000e+00) (0, 0, 0.00000000000000000000e+00) (0, 0, 0.00000000000000000000e+00) (0, 0, 0.00000000000000000000e+00) (0, 0, 0.00000000000000000000e+00) (0, 0, 0.00000000000000000000e+00) (0, 0, 0.00000000000000000000e+00) (0, 0, 0.00000000000000000000e+00) (0, 0, 0.00000000000000000000e+00) (0, 0, 0.00000000000000000000e+00) (0, 0, 0.00000000000000000000e+00) (0, 0, 0.00000000000000000000e+00) (0, 0, 0.00000000000000000000e+00) (0, 0, 0.00000000000000000000e+00) (0, 0, 0.00000000000000000000e+00) (261, 8, 2.50000000000000000000e-01) (262, 8, 7.50000000000000000000e-01) (263, 8, 5.00000000000000000000e-01) (264, 8, 7.50000000000000000000e-01) (265, 8, 1.00000000000000000000e+00) (266, 8, 1.00000000000000000000e+00) (267, 8, 7.50000000000000000000e-01) (268, 8, 2.50000000000000000000e-01) (269, 8, 1.00000000000000000000e+00) (270, 8, 1.00000000000000000000e+00) (271, 8, 5.00000000000000000000e-01) (272, 8, 2.50000000000000000000e-01) (273, 8, 1.00000000000000000000e+00) (274, 3, 1.00000000000000000000e+00) (275, 8, 5.00000000000000000000e-01) (276, 8, 1.00000000000000000000e+00) (277, 8, 7.50000000000000000000e-01) (278, 8, 2.50000000000000000000e-01) (279, 8, 1.00000000000000000000e+00) (280, 8, 7.50000000000000000000e-01) (281, 8, 5.00000000000000000000e-01) (282, 8, 2.50000000000000000000e-01) (283, 8, 5.00000000000000000000e-01) (284, 3, 1.00000000000000000000e+00) (285, 8, 1.00000000000000000000e+00) (286, 8, 5.00000000000000000000e-01) (287, 8, 1.00000000000000000000e+00) (288, 3, 5.00000000000000000000e-01) (289, 8, 2.50000000000000000000e-01) (290, 8, 1.00000000000000000000e+00) (291, 8, 5.00000000000000000000e-01) (292, 3, 7.50000000000000000000e-01) (293, 8, 5.00000000000000000000e-01) (294, 8, 1.00000000000000000000e+00) (295, 8, 2.50000000000000000000e-01) (296, 8, 1.00000000000000000000e+00) (297, 8, 5.00000000000000000000e-01) (298, 8, 7.50000000000000000000e-01) (299, 8, 5.00000000000000000000e-01) (300, 11, 5.00000000000000000000e-01) (301, 5, 5.00000000000000000000e-01) (301, 5, 5.00000000000000000000e-01) (301, 5, 5.00000000000000000000e-01) 
connections (connected_to_neuron, weight)=(0, -3.33305150270462036133e-01) (1, -3.64392220973968505859e-01) (2, -3.65560024976730346680e-01) (3, -3.53592634201049804688e-01) (4, -3.84009063243865966797e-01) (5, -3.75439256429672241211e-01) (6, -3.44408124685287475586e-01) (7, -3.52624237537384033203e-01) (8, -3.73181402683258056641e-01) (9, -3.65950047969818115234e-01) (10, -3.47566694021224975586e-01) (11, -3.85402172803878784180e-01) (12, -3.82815390825271606445e-01) (13, -3.38114500045776367188e-01) (14, -3.94400328397750854492e-01) (15, -3.56679916381835937500e-01) (16, -3.45790684223175048828e-01) (17, -3.87373417615890502930e-01) (18, -3.92369687557220458984e-01) (19, -3.99853706359863281250e-01) (20, -3.20020556449890136719e-01) (21, -3.27793836593627929688e-01) (22, -3.23514431715011596680e-01) (23, -3.20036083459854125977e-01) (24, -3.11442792415618896484e-01) (25, -3.28014761209487915039e-01) (26, -3.09763461351394653320e-01) (27, -3.02417844533920288086e-01) (28, -3.11536580324172973633e-01) (29, -3.19025695323944091797e-01) (30, -3.34464341402053833008e-01) (31, -3.19844335317611694336e-01) (32, -3.23494493961334228516e-01) (33, -3.25966238975524902344e-01) (34, -3.26456934213638305664e-01) (35, -3.06753367185592651367e-01) (36, -3.17433416843414306641e-01) (37, -3.20963621139526367188e-01) (38, -3.29492747783660888672e-01) (39, -3.06439578533172607422e-01) (40, -2.82755374908447265625e-01) (41, -2.71656334400177001953e-01) (42, -2.66328364610671997070e-01) (43, -2.83874630928039550781e-01) (44, -2.79545545578002929688e-01) (45, -2.78779476881027221680e-01) (46, -2.67805516719818115234e-01) (47, -2.75423973798751831055e-01) (48, -2.81632870435714721680e-01) (49, -2.68970817327499389648e-01) (50, -3.44450771808624267578e-01) (51, -2.76141375303268432617e-01) (52, -2.72129088640213012695e-01) (53, -2.82239168882369995117e-01) (54, -2.85732805728912353516e-01) (55, -2.85530537366867065430e-01) (56, -2.77687966823577880859e-01) (57, -2.74215370416641235352e-01) (58, -2.75318831205368041992e-01) (59, -2.66513437032699584961e-01) (60, -2.57156759500503540039e-01) (61, -2.59271770715713500977e-01) (62, -2.54100352525711059570e-01) (63, -2.54376202821731567383e-01) (64, -2.49776497483253479004e-01) (65, -2.58341699838638305664e-01) (66, -2.49890014529228210449e-01) (67, -2.63474047183990478516e-01) (68, -2.62961775064468383789e-01) (69, -2.53594964742660522461e-01) (70, -3.46503376960754394531e-01) (71, -2.52865463495254516602e-01) (72, -2.46478140354156494141e-01) (73, -2.57896989583969116211e-01) (74, -2.57630884647369384766e-01) (75, -2.66840785741806030273e-01) (76, -2.53661125898361206055e-01) (77, -2.55902528762817382812e-01) (78, -2.56700783967971801758e-01) (79, -2.48745694756507873535e-01) (80, -2.24748268723487854004e-01) (81, -2.21407651901245117188e-01) (82, -2.05174401402473449707e-01) (83, -2.18343004584312438965e-01) (84, -2.21429780125617980957e-01) (85, -2.14387536048889160156e-01) (86, -2.12937727570533752441e-01) (87, -2.25034907460212707520e-01) (88, -2.29751169681549072266e-01) (89, -2.28325977921485900879e-01) (90, -3.38168174028396606445e-01) (91, -2.10262447595596313477e-01) (92, -2.07110926508903503418e-01) (93, -2.17097416520118713379e-01) (94, -2.20418408513069152832e-01) (95, -2.29185044765472412109e-01) (96, -2.14359194040298461914e-01) (97, -2.23141580820083618164e-01) (98, -2.19763725996017456055e-01) (99, -2.13012009859085083008e-01) (100, -2.10590362548828125000e-01) (101, -2.09893494844436645508e-01) (102, -1.78703650832176208496e-01) (103, -2.09792703390121459961e-01) (104, -1.97559103369712829590e-01) (105, -1.83887600898742675781e-01) (106, -2.01285094022750854492e-01) (107, -2.14117810130119323730e-01) (108, -2.08124265074729919434e-01) (109, -2.06869646906852722168e-01) (110, -3.26753288507461547852e-01) (111, -1.79000198841094970703e-01) (112, -1.73647552728652954102e-01) (113, -2.06759437918663024902e-01) (114, -2.02036663889884948730e-01) (115, -2.14287698268890380859e-01) (116, -1.97580918669700622559e-01) (117, -2.03550860285758972168e-01) (118, -2.03990712761878967285e-01) (119, -2.00345069169998168945e-01) (120, -1.58105522394180297852e-01) (121, -1.62634626030921936035e-01) (122, -7.92578682303428649902e-02) (123, -1.79297998547554016113e-01) (124, -1.16880200803279876709e-01) (125, -7.69502148032188415527e-02) (126, -1.27776890993118286133e-01) (127, -1.28919005393981933594e-01) (128, -1.42451778054237365723e-01) (129, -1.28536388278007507324e-01) (130, -2.70611017942428588867e-01) (131, -1.22897058725357055664e-01) (132, -5.63694238662719726562e-02) (133, -1.40176191926002502441e-01) (134, -1.14591561257839202881e-01) (135, -1.35071009397506713867e-01) (136, -1.13974772393703460693e-01) (137, -1.24973505735397338867e-01) (138, -1.21989712119102478027e-01) (139, -1.29324898123741149902e-01) (140, -2.00471043586730957031e-01) (141, -2.09812447428703308105e-01) (142, -1.59016355872154235840e-01) (143, -1.96529045701026916504e-01) (144, -1.97453558444976806641e-01) (145, -1.45813882350921630859e-01) (146, -2.03589633107185363770e-01) (147, -1.96534886956214904785e-01) (148, -2.06237718462944030762e-01) (149, -2.03466072678565979004e-01) (150, -2.13173449039459228516e-01) (151, -1.72296062111854553223e-01) (152, -1.35845392942428588867e-01) (153, -2.15740889310836791992e-01) (154, -1.98195964097976684570e-01) (155, -2.01695904135704040527e-01) (156, -1.90618708729743957520e-01) (157, -1.90973550081253051758e-01) (158, -1.93851441144943237305e-01) (159, -1.92559912800788879395e-01) (160, -2.30401769280433654785e-01) (161, -2.32577234506607055664e-01) (162, -2.00554609298706054688e-01) (163, -2.23304152488708496094e-01) (164, -2.25736066699028015137e-01) (165, -2.09983497858047485352e-01) (166, -2.28970751166343688965e-01) (167, -2.29458749294281005859e-01) (168, -2.31283366680145263672e-01) (169, -2.40760549902915954590e-01) (170, -2.38205507397651672363e-01) (171, -2.08407163619995117188e-01) (172, -1.91040873527526855469e-01) (173, -2.36710175871849060059e-01) (174, -2.36181259155273437500e-01) (175, -2.18719780445098876953e-01) (176, -2.18798041343688964844e-01) (177, -2.25235059857368469238e-01) (178, -2.26800531148910522461e-01) (179, -2.27436587214469909668e-01) (180, -2.76314079761505126953e-01) (181, -2.76128590106964111328e-01) (182, -2.50001162290573120117e-01) (183, -2.59970366954803466797e-01) (184, -2.68047064542770385742e-01) (185, -2.59902119636535644531e-01) (186, -2.64640122652053833008e-01) (187, -2.74751752614974975586e-01) (188, -2.83381789922714233398e-01) (189, -2.77900546789169311523e-01) (190, -2.82974600791931152344e-01) (191, -2.73488074541091918945e-01) (192, -2.43429839611053466797e-01) (193, -2.79938340187072753906e-01) (194, -2.82036066055297851562e-01) (195, -2.61738121509552001953e-01) (196, -2.66497433185577392578e-01) (197, -2.63919830322265625000e-01) (198, -2.67011404037475585938e-01) (199, -2.62443810701370239258e-01) (200, -2.59089767932891845703e-01) (201, -2.56950676441192626953e-01) (202, -2.50001311302185058594e-01) (203, -2.51665830612182617188e-01) (204, -2.53030687570571899414e-01) (205, -2.53529340028762817383e-01) (206, -2.48998060822486877441e-01) (207, -2.52285301685333251953e-01) (208, -2.66223549842834472656e-01) (209, -2.55963176488876342773e-01) (210, -2.53925681114196777344e-01) (211, -2.57043629884719848633e-01) (212, -2.41813287138938903809e-01) (213, -2.62712329626083374023e-01) (214, -2.63127535581588745117e-01) (215, -2.54052191972732543945e-01) (216, -2.53515243530273437500e-01) (217, -2.46079921722412109375e-01) (218, -2.48320519924163818359e-01) (219, -2.50867515802383422852e-01) (220, -2.89686918258666992188e-01) (221, -2.95794636011123657227e-01) (222, -2.81164199113845825195e-01) (223, -2.91891783475875854492e-01) (224, -2.89838552474975585938e-01) (225, -2.86756783723831176758e-01) (226, -2.79030829668045043945e-01) (227, -2.92034864425659179688e-01) (228, -2.92663931846618652344e-01) (229, -2.95147180557250976562e-01) (230, -2.83781707286834716797e-01) (231, -2.86318928003311157227e-01) (232, -2.80366301536560058594e-01) (233, -3.02304565906524658203e-01) (234, -2.96660393476486206055e-01) (235, -2.80928999185562133789e-01) (236, -2.87870407104492187500e-01) (237, -2.83395260572433471680e-01) (238, -2.84460067749023437500e-01) (239, -2.82080918550491333008e-01) (240, -2.83426016569137573242e-01) (241, -2.81704992055892944336e-01) (242, -2.73351281881332397461e-01) (243, -2.72220224142074584961e-01) (244, -2.80631035566329956055e-01) (245, -2.74983674287796020508e-01) (246, -2.75315791368484497070e-01) (247, -2.78058767318725585938e-01) (248, -2.77306795120239257812e-01) (249, -2.76008069515228271484e-01) (250, -2.80125617980957031250e-01) (251, -2.78400748968124389648e-01) (252, -2.79578447341918945312e-01) (253, -2.81894326210021972656e-01) (254, -2.79286950826644897461e-01) (255, -2.79828667640686035156e-01) (256, -2.77567833662033081055e-01) (257, -2.79748141765594482422e-01) (258, -2.76837617158889770508e-01) (259, -2.76920408010482788086e-01) (260, -1.07127346098423004150e-01) (0, 3.39091986417770385742e-01) (1, 5.52416443824768066406e-01) (2, 3.42691391706466674805e-02) (3, 1.64977341890335083008e-01) (4, 4.68217909336090087891e-01) (5, 5.01510724425315856934e-02) (6, 2.22899183630943298340e-01) (7, 5.23049831390380859375e-01) (8, 6.22870214283466339111e-02) (9, 4.40601885318756103516e-01) (10, 4.26504641771316528320e-01) (11, 7.86240845918655395508e-02) (12, 8.72988179326057434082e-02) (13, 1.47380515933036804199e-01) (14, -3.07757019996643066406e-01) (15, -5.34433722496032714844e-01) (16, 2.38102054595947265625e+00) (17, 2.36021637916564941406e+00) (18, 9.17151451110839843750e-01) (19, 2.36415529251098632812e+00) (20, 2.26327732205390930176e-01) (21, 2.65823394060134887695e-01) (22, -4.48355264961719512939e-02) (23, 1.41414985060691833496e-01) (24, 3.18475782871246337891e-01) (25, -3.47250521183013916016e-01) (26, 7.60584399104118347168e-02) (27, 3.92387211322784423828e-01) (28, -6.78397566080093383789e-02) (29, 3.25998216867446899414e-01) (30, 2.22048088908195495605e-01) (31, -2.51133441925048828125e-01) (32, -3.09845864772796630859e-01) (33, -5.75905032455921173096e-02) (34, -2.58951149880886077881e-02) (35, -1.43170222640037536621e-01) (36, -6.73036202788352966309e-02) (37, 2.01775029301643371582e-01) (38, 3.17394703626632690430e-01) (39, 1.02605357766151428223e-01) (40, 7.00630769133567810059e-02) (41, 7.36176967620849609375e-02) (42, -3.51250529289245605469e-01) (43, -1.12589225172996520996e-01) (44, 2.26342380046844482422e-01) (45, -6.96388602256774902344e-01) (46, -1.97116941213607788086e-01) (47, 3.28397512435913085938e-01) (48, -4.30339038372039794922e-01) (49, 3.69003951549530029297e-01) (50, 2.10198327898979187012e-01) (51, -4.00172412395477294922e-01) (52, -3.94195556640625000000e-01) (53, -2.16916218400001525879e-01) (54, -2.39288106560707092285e-01) (55, -2.25312843918800354004e-01) (56, -1.51423990726470947266e-01) (57, 9.79307815432548522949e-02) (58, 1.87036365270614624023e-01) (59, -1.10416524112224578857e-02) (60, 1.36514574289321899414e-01) (61, 1.85923472046852111816e-01) (62, -2.09332272410392761230e-01) (63, -6.60235248506069183350e-03) (64, 1.07292093336582183838e-01) (65, -7.00661003589630126953e-01) (66, -8.64170640707015991211e-02) (67, -9.41626541316509246826e-03) (68, -2.32926487922668457031e-01) (69, 2.58260041475296020508e-01) (70, 2.01134249567985534668e-01) (71, -3.18839013576507568359e-01) (72, -1.97646424174308776855e-01) (73, -5.29013574123382568359e-02) (74, -1.48322105407714843750e-01) (75, -1.95496916770935058594e-01) (76, -3.25666248798370361328e-01) (77, -2.30648994445800781250e-01) (78, 9.91141423583030700684e-02) (79, -6.69716522097587585449e-02) (80, 2.15463459491729736328e-01) (81, -1.70927062630653381348e-01) (82, 3.25069874525070190430e-01) (83, 3.88799875974655151367e-01) (84, -2.56603837013244628906e-01) (85, -2.57869750261306762695e-01) (86, 9.20196399092674255371e-02) (87, -4.60125297307968139648e-01) (88, 9.31571051478385925293e-02) (89, -1.64993748068809509277e-01) (90, -9.49226692318916320801e-03) (91, 1.79405704140663146973e-01) (92, 1.05005346238613128662e-01) (93, 2.32728600502014160156e-01) (94, 1.04752860963344573975e-01) (95, 2.25203335285186767578e-01) (96, -1.87292560935020446777e-01) (97, -5.78138649463653564453e-01) (98, -1.60171300172805786133e-01) (99, -3.16790312528610229492e-01) (100, 2.78054445981979370117e-01) (101, -1.29044458270072937012e-01) (102, 4.78363245725631713867e-01) (103, 2.03673020005226135254e-01) (104, -1.11399836838245391846e-01) (105, 4.63003993034362792969e-01) (106, 5.16272755339741706848e-03) (107, -4.95385587215423583984e-01) (108, 4.39231730997562408447e-02) (109, -1.50696754455566406250e-01) (110, 1.38511329889297485352e-01) (111, 2.99118250608444213867e-01) (112, 3.16419094800949096680e-01) (113, 2.12291315197944641113e-01) (114, 8.47437325865030288696e-03) (115, 2.00258508324623107910e-01) (116, -2.31292769312858581543e-01) (117, -5.85306107997894287109e-01) (118, -1.97885185480117797852e-01) (119, -2.51457840204238891602e-01) (120, 3.21804374456405639648e-01) (121, -6.03561639785766601562e-01) (122, 1.22657763957977294922e+00) (123, 7.99370169639587402344e-01) (124, -6.43354952335357666016e-01) (125, 1.02283060550689697266e+00) (126, 4.07979905605316162109e-01) (127, -7.95309066772460937500e-01) (128, 7.82948017120361328125e-01) (129, -4.90801841020584106445e-01) (130, -1.31422981619834899902e-01) (131, 1.12230277061462402344e+00) (132, 1.23416972160339355469e+00) (133, 8.40441703796386718750e-01) (134, 5.15677392482757568359e-01) (135, 8.37641537189483642578e-01) (136, -1.16387233138084411621e-01) (137, -8.10003578662872314453e-01) (138, -4.48223143815994262695e-01) (139, -5.96903562545776367188e-01) (140, 2.07156240940093994141e-01) (141, -3.84177297353744506836e-01) (142, 2.38044947385787963867e-01) (143, 2.01834350824356079102e-01) (144, -2.49739721417427062988e-01) (145, 4.34058725833892822266e-01) (146, -2.58775670081377029419e-02) (147, -5.91772913932800292969e-01) (148, 2.24222451448440551758e-01) (149, -1.59888729453086853027e-01) (150, 4.93160635232925415039e-03) (151, 2.51362264156341552734e-01) (152, 8.01278650760650634766e-01) (153, 2.14966759085655212402e-01) (154, 7.11667463183403015137e-02) (155, 1.23744130134582519531e-01) (156, -1.76012188196182250977e-01) (157, -6.74781084060668945312e-01) (158, -1.87056720256805419922e-01) (159, -3.44565421342849731445e-01) (160, 5.44130466878414154053e-02) (161, -3.87092709541320800781e-01) (162, 1.80233672261238098145e-01) (163, 3.68776381015777587891e-01) (164, -4.64906692504882812500e-01) (165, -6.65280520915985107422e-02) (166, 1.04757204651832580566e-01) (167, -6.01801216602325439453e-01) (168, 3.44259768724441528320e-01) (169, -2.92958348989486694336e-01) (170, -1.14822827279567718506e-01) (171, 2.28890433907508850098e-01) (172, -4.33527082204818725586e-02) (173, 2.65895694494247436523e-01) (174, 1.75859436392784118652e-01) (175, 1.46595358848571777344e-01) (176, -1.31992697715759277344e-01) (177, -6.93449795246124267578e-01) (178, -3.47710102796554565430e-01) (179, -3.49301189184188842773e-01) (180, 9.42291691899299621582e-02) (181, -1.51533558964729309082e-01) (182, -2.83008903264999389648e-01) (183, 7.44536817073822021484e-02) (184, 8.11418145895004272461e-02) (185, -3.41440409421920776367e-01) (186, 3.45118008553981781006e-02) (187, -7.49338939785957336426e-02) (188, 3.32014970481395721436e-02) (189, 2.38445490598678588867e-01) (190, 2.29502886533737182617e-01) (191, -1.26253828406333923340e-01) (192, -3.28130930662155151367e-01) (193, 1.16385571658611297607e-01) (194, -1.38225033879280090332e-02) (195, -1.89925447106361389160e-01) (196, -1.52877092361450195312e-01) (197, -2.89270102977752685547e-01) (198, 4.10630702972412109375e-02) (199, -4.94197718799114227295e-02) (200, 4.03191708028316497803e-02) (201, -7.16862007975578308105e-02) (202, -5.08558988571166992188e-01) (203, -1.38489767909049987793e-01) (204, 1.82027935981750488281e-01) (205, -4.52065259218215942383e-01) (206, -7.30435550212860107422e-03) (207, 2.88936853408813476562e-01) (208, -7.43805151432752609253e-03) (209, 3.95616948604583740234e-01) (210, 3.03683340549468994141e-01) (211, -2.11885049939155578613e-01) (212, -4.33588653802871704102e-01) (213, 2.21323966979980468750e-03) (214, 1.70625769533216953278e-03) (215, -2.78246760368347167969e-01) (216, -1.86047390103340148926e-01) (217, 8.51919427514076232910e-02) (218, 7.35353976488113403320e-02) (219, 2.75914333760738372803e-02) (220, 1.38533398509025573730e-01) (221, 5.28942085802555084229e-02) (222, -2.69335746765136718750e-01) (223, 1.51631766930222511292e-02) (224, 1.49479568004608154297e-01) (225, -3.73550713062286376953e-01) (226, -1.30939241498708724976e-02) (227, 2.93616056442260742188e-01) (228, 5.00394180417060852051e-02) (229, 3.36267441511154174805e-01) (230, 2.23170518875122070312e-01) (231, -2.02220216393470764160e-01) (232, -2.30479419231414794922e-01) (233, 5.91289736330509185791e-02) (234, 6.27461373805999755859e-02) (235, -1.91453143954277038574e-01) (236, -1.42300814390182495117e-01) (237, 1.25722661614418029785e-01) (238, 1.80855751037597656250e-01) (239, 1.17589652538299560547e-01) (240, 3.46719771623611450195e-02) (241, 1.02618083357810974121e-01) (242, -2.27549433708190917969e-01) (243, -8.78865346312522888184e-02) (244, 1.32694974541664123535e-01) (245, -3.48795324563980102539e-01) (246, -3.37575711309909820557e-02) (247, 2.27845758199691772461e-01) (248, -5.14724329113960266113e-02) (249, 2.69894927740097045898e-01) (250, 1.89441442489624023438e-01) (251, -1.92235335707664489746e-01) (252, -2.62235850095748901367e-01) (253, -1.47531982511281967163e-02) (254, -7.77308177202939987183e-03) (255, -2.29061901569366455078e-01) (256, -2.28412121534347534180e-01) (257, 8.63242372870445251465e-02) (258, 1.21010296046733856201e-01) (259, 1.14667704328894615173e-02) (260, -5.41971623897552490234e-02) (261, 7.60119259357452392578e-01) (0, 5.39927482604980468750e-01) (1, 1.65787532925605773926e-01) (2, 3.66851985454559326172e-01) (3, 5.43121039867401123047e-01) (4, 4.00515466928482055664e-01) (5, -1.78601652383804321289e-01) (6, 2.00803294777870178223e-01) (7, 4.40314382314682006836e-01) (8, 2.02946916222572326660e-01) (9, 5.18381118774414062500e-01) (10, 5.34339785575866699219e-01) (11, 2.27667003870010375977e-01) (12, 9.84611883759498596191e-02) (13, 4.67424482107162475586e-01) (14, 1.23457431793212890625e+00) (15, 6.93291664123535156250e-01) (16, -1.33355176448822021484e+00) (17, -1.34862172603607177734e+00) (18, -1.79430186748504638672e+00) (19, -1.36442935466766357422e+00) (20, 4.70922201871871948242e-01) (21, -6.10978901386260986328e-02) (22, 2.06001922488212585449e-01) (23, 4.34167265892028808594e-01) (24, 3.12425076961517333984e-01) (25, -4.93776530027389526367e-01) (26, -1.64269860833883285522e-02) (27, 3.73894274234771728516e-01) (28, 1.35319143533706665039e-01) (29, 4.30915057659149169922e-01) (30, 2.47991159558296203613e-01) (31, -7.53986015915870666504e-02) (32, -2.81487077474594116211e-01) (33, 1.74284636974334716797e-01) (34, 1.28568559885025024414e-01) (35, 6.40345960855484008789e-02) (36, 9.37471762299537658691e-02) (37, 4.46261502802371978760e-02) (38, 2.62735545635223388672e-01) (39, -2.52610817551612854004e-02) (40, 3.56562823057174682617e-01) (41, -2.69696921110153198242e-01) (42, 8.16835090517997741699e-02) (43, 3.12333673238754272461e-01) (44, 1.10036045312881469727e-01) (45, -8.55842947959899902344e-01) (46, -2.54169434309005737305e-01) (47, 2.51464724540710449219e-01) (48, -3.00774667412042617798e-02) (49, 4.24700140953063964844e-01) (50, 2.24484071135520935059e-01) (51, -2.09215387701988220215e-01) (52, -4.90042507648468017578e-01) (53, 2.32422739267349243164e-01) (54, 8.65006223320960998535e-02) (55, -6.70594200491905212402e-02) (56, -5.52946552634239196777e-02) (57, -3.91404330730438232422e-02) (58, 6.73504993319511413574e-02) (59, -1.21125482022762298584e-01) (60, 4.81444746255874633789e-01) (61, -3.70989292860031127930e-01) (62, 1.42610505223274230957e-01) (63, 3.69738668203353881836e-01) (64, 6.12945780158042907715e-02) (65, -1.13279986381530761719e+00) (66, -2.45181769132614135742e-01) (67, 2.08449646830558776855e-01) (68, 2.04149726778268814087e-03) (69, 4.60146218538284301758e-01) (70, 2.17443048954010009766e-01) (71, -1.86024963855743408203e-01) (72, -5.64370274543762207031e-01) (73, 2.65063524246215820312e-01) (74, 1.21454231441020965576e-01) (75, -9.58589911460876464844e-02) (76, -5.71566261351108551025e-02) (77, -1.27673357725143432617e-01) (78, 2.39336848258972167969e-01) (79, -6.90514519810676574707e-02) (80, 4.86436486244201660156e-01) (81, -6.04068338871002197266e-01) (82, 1.06704935431480407715e-01) (83, 3.87644916772842407227e-01) (84, -9.94194969534873962402e-02) (85, -1.55860638618469238281e+00) (86, -3.85735481977462768555e-01) (87, -2.96035711653530597687e-03) (88, -5.37826195359230041504e-02) (89, 3.49682301282882690430e-01) (90, 1.81023165583610534668e-01) (91, -3.25694680213928222656e-01) (92, -6.80221259593963623047e-01) (93, 2.44103491306304931641e-01) (94, 5.65963163971900939941e-02) (95, -2.07706183195114135742e-01) (96, -3.00854742527008056641e-01) (97, -3.42623382806777954102e-01) (98, 1.15490406751632690430e-01) (99, -1.86970725655555725098e-01) (100, 6.74889981746673583984e-01) (101, -5.20815074443817138672e-01) (102, 2.35394939780235290527e-01) (103, 6.19947552680969238281e-01) (104, 4.81512285768985748291e-02) (105, -1.39502704143524169922e+00) (106, -1.06044009327888488770e-01) (107, 1.12503461539745330811e-01) (108, 2.50796318054199218750e-01) (109, 4.96146470308303833008e-01) (110, 3.12075585126876831055e-01) (111, -2.25971534848213195801e-01) (112, -6.18225574493408203125e-01) (113, 4.81946527957916259766e-01) (114, 2.72134691476821899414e-01) (115, -4.00848910212516784668e-02) (116, -2.58075356483459472656e-01) (117, -2.35089778900146484375e-01) (118, 3.81514012813568115234e-01) (119, -1.22494712471961975098e-01) (120, 4.30444508790969848633e-01) (121, -7.94329524040222167969e-01) (122, 5.33328950405120849609e-02) (123, 4.43398684263229370117e-01) (124, -5.78939914703369140625e-02) (125, -1.39517664909362792969e+00) (126, -4.38431739807128906250e-01) (127, 7.91407898068428039551e-02) (128, 1.94728180766105651855e-01) (129, 4.51584398746490478516e-01) (130, 1.84017792344093322754e-01) (131, -3.22272062301635742188e-01) (132, -9.61915671825408935547e-01) (133, 3.87283235788345336914e-01) (134, 1.87487602233886718750e-01) (135, -4.97706890106201171875e-01) (136, -1.01208829879760742188e+00) (137, -2.89391040802001953125e-01) (138, 6.71982616186141967773e-02) (139, -2.77132719755172729492e-01) (140, 6.74889445304870605469e-01) (141, -3.44664156436920166016e-01) (142, -3.22536408901214599609e-01) (143, 5.31634867191314697266e-01) (144, 9.08681526780128479004e-02) (145, -1.03952443599700927734e+00) (146, -6.42402842640876770020e-02) (147, 1.07428908348083496094e-01) (148, 4.15030539035797119141e-01) (149, 5.70341885089874267578e-01) (150, 5.45516014099121093750e-01) (151, -2.62266367673873901367e-01) (152, -1.61548256874084472656e+00) (153, 5.52533626556396484375e-01) (154, 3.77183258533477783203e-01) (155, -3.80623400211334228516e-01) (156, -5.84116458892822265625e-01) (157, -2.60499179363250732422e-01) (158, 1.05081751942634582520e-01) (159, 3.43991443514823913574e-04) (160, 5.80702960491180419922e-01) (161, -2.55156517028808593750e-01) (162, -5.47051727771759033203e-01) (163, 2.58835852146148681641e-01) (164, 1.24769508838653564453e-01) (165, -6.74946963787078857422e-01) (166, -5.68511225283145904541e-02) (167, 1.79362505674362182617e-01) (168, 3.73873084783554077148e-01) (169, 6.29136204719543457031e-01) (170, 5.69041788578033447266e-01) (171, -1.65889427065849304199e-01) (172, -1.78798234462738037109e+00) (173, 5.49289286136627197266e-01) (174, 3.67099970579147338867e-01) (175, -3.95546793937683105469e-01) (176, -5.46097278594970703125e-01) (177, -2.84458130598068237305e-01) (178, 2.38684508949518203735e-02) (179, 2.97950990498065948486e-02) (180, 7.28088498115539550781e-01) (181, 5.11813946068286895752e-02) (182, -4.06977474689483642578e-01) (183, 3.36673676967620849609e-01) (184, 3.61918658018112182617e-01) (185, -2.61278003454208374023e-01) (186, 1.90005034208297729492e-01) (187, 3.84957224130630493164e-01) (188, 5.92710733413696289062e-01) (189, 8.56555283069610595703e-01) (190, 8.28356683254241943359e-01) (191, 9.72657352685928344727e-02) (192, -1.34236836433410644531e+00) (193, 6.19040846824645996094e-01) (194, 6.04714035987854003906e-01) (195, -1.51744902133941650391e-01) (196, -2.93271660804748535156e-01) (197, -9.89604070782661437988e-02) (198, 2.93235391378402709961e-01) (199, 3.45583379268646240234e-01) (200, 3.86603385210037231445e-01) (201, -1.98361843824386596680e-01) (202, -4.34085845947265625000e-01) (203, 1.43896073102951049805e-01) (204, 2.82311122864484786987e-02) (205, -3.98263692855834960938e-01) (206, -1.20721675455570220947e-01) (207, 1.37728825211524963379e-01) (208, 3.66935312747955322266e-01) (209, 5.30659317970275878906e-01) (210, 5.02140402793884277344e-01) (211, -1.26713722944259643555e-01) (212, -1.06661474704742431641e+00) (213, 2.48493179678916931152e-01) (214, 3.35424810647964477539e-01) (215, -2.96508461236953735352e-01) (216, -4.61343288421630859375e-01) (217, -3.20241361856460571289e-01) (218, 1.64863113313913345337e-02) (219, 5.71779571473598480225e-02) (220, 2.37833604216575622559e-01) (221, -2.75816112756729125977e-01) (222, -4.57200378179550170898e-01) (223, 8.76981206238269805908e-03) (224, 2.61053629219532012939e-02) (225, -4.31241452693939208984e-01) (226, -1.84795364737510681152e-01) (227, 6.94752484560012817383e-02) (228, 2.13877379894256591797e-01) (229, 3.87682318687438964844e-01) (230, 3.45036983489990234375e-01) (231, -1.88180044293403625488e-01) (232, -8.39279890060424804688e-01) (233, 1.06728501617908477783e-01) (234, 1.37695223093032836914e-01) (235, -3.05876195430755615234e-01) (236, -4.40681219100952148438e-01) (237, -2.71521836519241333008e-01) (238, -1.48730516433715820312e-01) (239, 9.84332710504531860352e-03) (240, 1.67960017919540405273e-01) (241, -1.24671556055545806885e-01) (242, -3.67643922567367553711e-01) (243, -1.49094983935356140137e-02) (244, 1.35128244757652282715e-01) (245, -3.23889285326004028320e-01) (246, -1.56320959329605102539e-01) (247, 1.71363011002540588379e-01) (248, 1.63739323616027832031e-01) (249, 4.13660973310470581055e-01) (250, 3.81908714771270751953e-01) (251, -1.38370484113693237305e-01) (252, -6.02893531322479248047e-01) (253, 6.02652318775653839111e-02) (254, 1.02993212640285491943e-01) (255, -2.79089897871017456055e-01) (256, -3.71155321598052978516e-01) (257, -9.24156010150909423828e-02) (258, -1.61927312612533569336e-01) (259, 6.71516731381416320801e-02) (260, 1.63674488663673400879e-01) (261, -3.10346984863281250000e+00) (262, 7.81343102455139160156e-01) (0, 5.25954186916351318359e-01) (1, 5.18197357654571533203e-01) (2, 5.02164959907531738281e-01) (3, 5.62524974346160888672e-01) (4, 4.54299539327621459961e-01) (5, 3.71871709823608398438e-01) (6, 5.91668248176574707031e-01) (7, 4.54478561878204345703e-01) (8, 6.10950350761413574219e-01) (9, 5.00524938106536865234e-01) (10, 4.48873937129974365234e-01) (11, 4.54297065734863281250e-01) (12, 5.88660538196563720703e-01) (13, 4.91199553012847900391e-01) (14, -9.85553801059722900391e-01) (15, -9.93630528450012207031e-01) (16, -1.13638925552368164062e+00) (17, -1.17804408073425292969e+00) (18, -1.17578864097595214844e+00) (19, -1.14359080791473388672e+00) (20, 2.99101956188678741455e-02) (21, 1.65225341916084289551e-01) (22, -7.53108859062194824219e-02) (23, -8.22250638157129287720e-03) (24, -5.49211762845516204834e-02) (25, -8.07725265622138977051e-02) (26, 1.10603757202625274658e-01) (27, -5.76170384883880615234e-02) (28, 6.00181631743907928467e-02) (29, 1.06124691665172576904e-02) (30, 1.64844110608100891113e-01) (31, -2.17384146526455879211e-03) (32, 1.61531895399093627930e-01) (33, 6.77608400583267211914e-02) (34, 1.13583512604236602783e-01) (35, 1.05404175817966461182e-01) (36, -4.14702072739601135254e-02) (37, 3.92114706337451934814e-02) (38, -4.62761484086513519287e-02) (39, -4.21195151284337043762e-03) (40, 8.22333842515945434570e-02) (41, 1.41224011778831481934e-01) (42, 6.63067176938056945801e-02) (43, 4.91577163338661193848e-02) (44, -3.69309969246387481689e-02) (45, 4.48953323066234588623e-02) (46, 2.23320707678794860840e-01) (47, -1.03794507682323455811e-01) (48, 1.42856433987617492676e-01) (49, -1.69546715915203094482e-02) (50, 1.07288107275962829590e-01) (51, 8.77443552017211914062e-02) (52, 2.51044750213623046875e-01) (53, 2.44209077209234237671e-02) (54, 1.37088075280189514160e-01) (55, 1.17066293954849243164e-01) (56, -3.03283594548702239990e-02) (57, -8.78402292728424072266e-02) (58, -1.32308334112167358398e-01) (59, -6.65918807499110698700e-04) (60, 6.76623061299324035645e-02) (61, 1.03504881262779235840e-01) (62, 1.60815417766571044922e-01) (63, 8.65328758955001831055e-02) (64, -1.35171875357627868652e-01) (65, 1.51355817914009094238e-01) (66, 2.76743859052658081055e-01) (67, -2.94742316007614135742e-01) (68, 2.30015575885772705078e-01) (69, -1.07222616672515869141e-01) (70, 3.24693806469440460205e-02) (71, 1.30088761448860168457e-01) (72, 3.72445672750473022461e-01) (73, 1.05145581066608428955e-01) (74, 1.99002638459205627441e-01) (75, 1.59446537494659423828e-01) (76, -1.06216398999094963074e-02) (77, -1.85672581195831298828e-01) (78, -2.84321367740631103516e-01) (79, -4.59800399839878082275e-02) (80, -1.55943498015403747559e-01) (81, -1.51816934347152709961e-01) (82, 2.42982864379882812500e-01) (83, 2.55621932446956634521e-02) (84, -3.92035812139511108398e-01) (85, 2.52875655889511108398e-01) (86, 1.85416176915168762207e-01) (87, -6.62845194339752197266e-01) (88, 1.92151188850402832031e-01) (89, -4.66442495584487915039e-01) (90, -2.29464352130889892578e-01) (91, 2.35768601298332214355e-01) (92, 3.95412057638168334961e-01) (93, -7.13622337207198143005e-03) (94, 3.60694751143455505371e-02) (95, 1.40731781721115112305e-01) (96, -1.19618177413940429688e-02) (97, -4.93133068084716796875e-01) (98, -6.09797179698944091797e-01) (99, -2.40595638751983642578e-01) (100, -1.95309311151504516602e-01) (101, -1.94103702902793884277e-01) (102, 3.67656767368316650391e-01) (103, -4.59003821015357971191e-02) (104, -5.37627995014190673828e-01) (105, 6.15423321723937988281e-01) (106, 1.23638063669204711914e-01) (107, -7.97940194606781005859e-01) (108, 6.33324310183525085449e-02) (109, -5.03083467483520507812e-01) (110, -2.03533053398132324219e-01) (111, 4.02212888002395629883e-01) (112, 6.35606884956359863281e-01) (113, -7.30467289686203002930e-02) (114, -9.04096364974975585938e-02) (115, 1.66234672069549560547e-01) (116, -5.14272833243012428284e-03) (117, -6.37647092342376708984e-01) (118, -8.49330484867095947266e-01) (119, -3.80273461341857910156e-01) (120, 2.28077569045126438141e-03) (121, -6.52227699756622314453e-02) (122, 7.17849850654602050781e-01) (123, 1.23598031699657440186e-01) (124, -6.46665871143341064453e-01) (125, 9.44627702236175537109e-01) (126, 2.60477423667907714844e-01) (127, -8.31780731678009033203e-01) (128, 1.97246491909027099609e-01) (129, -6.04637086391448974609e-01) (130, 9.84812900424003601074e-03) (131, 7.96709597110748291016e-01) (132, 1.02642035484313964844e+00) (133, 1.55570711940526962280e-02) (134, -4.62584756314754486084e-03) (135, 4.90701645612716674805e-01) (136, 2.59756296873092651367e-01) (137, -6.65644466876983642578e-01) (138, -7.43946909904479980469e-01) (139, -5.74918508529663085938e-01) (140, -3.61083567142486572266e-01) (141, -4.88173842430114746094e-01) (142, 4.11802768707275390625e-01) (143, -2.50201709568500518799e-02) (144, -6.79229080677032470703e-01) (145, 5.12045145034790039062e-01) (146, 1.01798057556152343750e-01) (147, -8.32938730716705322266e-01) (148, 1.10176295042037963867e-01) (149, -7.86041736602783203125e-01) (150, -4.91789042949676513672e-01) (151, 3.16697895526885986328e-01) (152, 1.03050291538238525391e+00) (153, -1.80130153894424438477e-01) (154, -7.92791247367858886719e-02) (155, 2.47626557946205139160e-01) (156, 1.24541692435741424561e-01) (157, -6.92745983600616455078e-01) (158, -5.90743184089660644531e-01) (159, -6.05924904346466064453e-01) (160, -3.30413877964019775391e-01) (161, -2.17879548668861389160e-01) (162, 3.80773484706878662109e-01) (163, 1.91239431500434875488e-01) (164, -5.01655817031860351562e-01) (165, 2.33348906040191650391e-01) (166, 7.66488835215568542480e-02) (167, -5.42984068393707275391e-01) (168, 5.59023879468441009521e-02) (169, -6.45903766155242919922e-01) (170, -4.13887679576873779297e-01) (171, 1.55901476740837097168e-01) (172, 8.37145090103149414062e-01) (173, -1.26686364412307739258e-01) (174, -8.93286168575286865234e-02) (175, 1.51631638407707214355e-01) (176, 1.04801453649997711182e-01) (177, -3.37098479270935058594e-01) (178, -3.50483000278472900391e-01) (179, -3.88494014739990234375e-01) (180, -2.20601215958595275879e-01) (181, 2.78507405892014503479e-03) (182, 3.70883375406265258789e-01) (183, 2.52957701683044433594e-01) (184, -2.69399434328079223633e-01) (185, 1.37701839208602905273e-01) (186, 1.72598838806152343750e-01) (187, -3.03160637617111206055e-01) (188, 2.23115738481283187866e-03) (189, -4.31195735931396484375e-01) (190, -3.13367456197738647461e-01) (191, 1.01624019443988800049e-01) (192, 7.28414535522460937500e-01) (193, 3.66967283189296722412e-02) (194, -8.32198485732078552246e-02) (195, 1.94041013717651367188e-01) (196, 1.87149077653884887695e-01) (197, -8.21857601404190063477e-02) (198, -1.34642273187637329102e-01) (199, -1.54472425580024719238e-01) (200, -1.08873739838600158691e-01) (201, 1.40813857316970825195e-01) (202, 2.47112795710563659668e-01) (203, 1.57024160027503967285e-01) (204, -1.69962309300899505615e-02) (205, -5.12848086655139923096e-02) (206, 2.53118306398391723633e-01) (207, 6.83327615261077880859e-02) (208, 2.55676209926605224609e-02) (209, -8.84408280253410339355e-02) (210, -9.66004654765129089355e-02) (211, 3.59957572072744369507e-03) (212, 5.14798521995544433594e-01) (213, 1.03889800608158111572e-01) (214, 8.40848870575428009033e-03) (215, 1.96804299950599670410e-01) (216, 2.03549355268478393555e-01) (217, 1.56956553459167480469e-01) (218, 3.49427647888660430908e-02) (219, 2.76833605021238327026e-02) (220, 3.69700789451599121094e-02) (221, 2.88947105407714843750e-01) (222, 2.78414875268936157227e-01) (223, 2.06509009003639221191e-01) (224, 7.78520330786705017090e-02) (225, 6.42246752977371215820e-02) (226, 2.58663624525070190430e-01) (227, 1.33387371897697448730e-01) (228, 6.39973729848861694336e-02) (229, 4.64949151501059532166e-03) (230, -1.24249998480081558228e-02) (231, 6.30788356065750122070e-02) (232, 4.33786243200302124023e-01) (233, 1.64025753736495971680e-01) (234, 8.10871720314025878906e-02) (235, 1.59470990300178527832e-01) (236, 2.18841850757598876953e-01) (237, 1.94251030683517456055e-01) (238, 1.69960945844650268555e-01) (239, 9.31840017437934875488e-02) (240, -5.44347278773784637451e-02) (241, 2.18350902199745178223e-01) (242, 1.92644566297531127930e-01) (243, 1.34815663099288940430e-01) (244, -1.37134762480854988098e-02) (245, -1.89670324325561523438e-02) (246, 1.43177956342697143555e-01) (247, 2.30607874691486358643e-02) (248, 1.83303505182266235352e-02) (249, -1.76229715347290039062e-01) (250, -6.71046376228332519531e-02) (251, 3.08268330991268157959e-02) (252, 2.38668665289878845215e-01) (253, 1.06366947293281555176e-01) (254, 1.80894788354635238647e-03) (255, 8.61665233969688415527e-02) (256, 1.24975070357322692871e-01) (257, 4.96279485523700714111e-02) (258, 5.60638532042503356934e-02) (259, -5.56582398712635040283e-02) (260, 1.35556966066360473633e-01) (261, 2.81246113777160644531e+00) (262, -1.04332067072391510010e-01) (263, 2.90018141269683837891e-01) (0, 4.26306389272212982178e-02) (1, -1.07635460793972015381e-01) (2, 1.44510835409164428711e-01) (3, 1.78493574261665344238e-01) (4, -8.86841118335723876953e-02) (5, 7.66031444072723388672e-03) (6, 4.30186763405799865723e-02) (7, -9.02642160654067993164e-02) (8, 7.41665661334991455078e-02) (9, -1.24871738255023956299e-01) (10, -6.28527849912643432617e-02) (11, 5.69720268249511718750e-02) (12, -1.53127154335379600525e-02) (13, 1.13498553633689880371e-01) (14, 8.26715081930160522461e-02) (15, 1.01511348038911819458e-02) (16, -6.21780157089233398438e-01) (17, -5.85298776626586914062e-01) (18, -5.60269653797149658203e-01) (19, -5.90719461441040039062e-01) (20, -9.63292724918574094772e-04) (21, 5.53233586251735687256e-02) (22, -1.01211220026016235352e-01) (23, -2.16078668832778930664e-01) (24, 1.64345756173133850098e-01) (25, -1.20746977627277374268e-01) (26, -9.61313918232917785645e-02) (27, 1.87340766191482543945e-01) (28, -1.99299558997154235840e-01) (29, 1.92116200923919677734e-01) (30, 1.34567782282829284668e-01) (31, -1.09090462327003479004e-01) (32, -1.49887442588806152344e-01) (33, -1.67755901813507080078e-01) (34, -1.74114942550659179688e-01) (35, -7.82161056995391845703e-02) (36, -3.06880590505897998810e-03) (37, 9.89034548401832580566e-02) (38, 7.62451440095901489258e-02) (39, 8.03030803799629211426e-02) (40, -1.73691865056753158569e-02) (41, 2.00050696730613708496e-01) (42, -1.63990348577499389648e-01) (43, -1.53131008148193359375e-01) (44, 1.24138951301574707031e-01) (45, -1.03858029469847679138e-02) (46, -4.53253625892102718353e-04) (47, 1.68788567185401916504e-01) (48, -5.74393644928932189941e-02) (49, 1.98081910610198974609e-01) (50, 9.33912545442581176758e-02) (51, -9.24046114087104797363e-02) (52, -3.23495944030582904816e-03) (53, -6.40314519405364990234e-02) (54, -5.61647908762097358704e-03) (55, -3.61777991056442260742e-02) (56, -3.11104673892259597778e-02) (57, 1.17793917655944824219e-01) (58, 1.42587497830390930176e-01) (59, 1.02596677839756011963e-01) (60, 5.49235306680202484131e-02) (61, -1.78249970078468322754e-01) (62, 2.13725596666336059570e-01) (63, 4.31808948516845703125e-01) (64, -2.54472523927688598633e-01) (65, 2.18884095549583435059e-01) (66, 1.09168432652950286865e-01) (67, -3.32550734281539916992e-01) (68, 3.71538758277893066406e-01) (69, -3.29199045896530151367e-01) (70, -1.77443683147430419922e-01) (71, 2.20034867525100708008e-01) (72, 1.15087524056434631348e-01) (73, 3.57599169015884399414e-01) (74, 3.10964643955230712891e-01) (75, 1.53706967830657958984e-01) (76, 3.66614162921905517578e-02) (77, -2.72569864988327026367e-01) (78, -1.50688737630844116211e-01) (79, -1.51297956705093383789e-01) (80, 7.80696272850036621094e-02) (81, -1.23612880706787109375e-01) (82, 1.97337448596954345703e-01) (83, 9.20222848653793334961e-02) (84, -1.90988229587674140930e-03) (85, 8.85433703660964965820e-02) (86, 5.64156146720051765442e-03) (87, -1.17451667785644531250e-01) (88, -7.40966480225324630737e-03) (89, -1.29075676202774047852e-01) (90, -1.94022916257381439209e-02) (91, 1.21156387031078338623e-01) (92, -1.27208858728408813477e-01) (93, 6.66000321507453918457e-03) (94, -5.21213039755821228027e-02) (95, 5.68801946938037872314e-02) (96, 1.01729087531566619873e-01) (97, -6.54052868485450744629e-02) (98, -5.86069710552692413330e-02) (99, -4.75087873637676239014e-02) (100, 2.39189788699150085449e-01) (101, 6.40720665454864501953e-01) (102, -2.18055486679077148438e-01) (103, -3.99934738874435424805e-01) (104, 7.11174011230468750000e-01) (105, -1.31844997406005859375e-01) (106, -8.20260792970657348633e-02) (107, 7.44156956672668457031e-01) (108, -3.51657003164291381836e-01) (109, 7.81634688377380371094e-01) (110, 6.31374299526214599609e-01) (111, -2.08926692605018615723e-01) (112, -5.19570633769035339355e-02) (113, -3.04360479116439819336e-01) (114, -2.97403961420059204102e-01) (115, -1.41749620437622070312e-01) (116, 9.39054787158966064453e-02) (117, 6.89948081970214843750e-01) (118, 5.18331289291381835938e-01) (119, 4.91615384817123413086e-01) (120, -1.26328971236944198608e-02) (121, -4.83442097902297973633e-02) (122, -1.41919434070587158203e-01) (123, -3.48119921982288360596e-02) (124, -4.40422855317592620850e-02) (125, -7.40442499518394470215e-02) (126, -1.00118756294250488281e-01) (127, 3.32666896283626556396e-02) (128, 8.68667140603065490723e-02) (129, 8.39840173721313476562e-02) (130, -1.99734009802341461182e-02) (131, -7.89596699178218841553e-03) (132, 2.96972990036010742188e-01) (133, 2.35262736678123474121e-02) (134, 1.24520078301429748535e-01) (135, -4.09124642610549926758e-02) (136, -8.65964666008949279785e-02) (137, 3.93980778753757476807e-02) (138, 2.26795487105846405029e-02) (139, -7.85048604011535644531e-02) (140, -1.19406871497631072998e-01) (141, -6.58754825592041015625e-01) (142, 5.00769674777984619141e-01) (143, 5.56060075759887695312e-01) (144, -7.01562225818634033203e-01) (145, -2.73532979190349578857e-03) (146, 7.97522068023681640625e-02) (147, -7.06339836120605468750e-01) (148, 4.79142606258392333984e-01) (149, -7.40744113922119140625e-01) (150, -6.20907723903656005859e-01) (151, 4.25016015768051147461e-01) (152, 1.57619774341583251953e-01) (153, 3.95111411809921264648e-01) (154, 3.84463936090469360352e-01) (155, 3.89517247676849365234e-01) (156, 1.21574603021144866943e-01) (157, -6.76698505878448486328e-01) (158, -5.00374555587768554688e-01) (159, -5.06443738937377929688e-01) (160, -7.61139988899230957031e-02) (161, -1.69837195426225662231e-02) (162, -1.68888449668884277344e-01) (163, -1.19683749973773956299e-01) (164, -1.85833778232336044312e-02) (165, -2.75985687971115112305e-01) (166, -2.07381900399923324585e-02) (167, 3.46588194370269775391e-02) (168, -2.23368644714355468750e-01) (169, 2.73335166275501251221e-02) (170, 3.32179628312587738037e-02) (171, -2.10805147886276245117e-01) (172, -4.88169342279434204102e-01) (173, -1.18062183260917663574e-01) (174, -1.94876611232757568359e-01) (175, -1.75990656018257141113e-01) (176, -8.71511846780776977539e-02) (177, -6.54286518692970275879e-02) (178, -1.72665063291788101196e-02) (179, 4.15300168097019195557e-02) (180, -1.31264133378863334656e-02) (181, 3.88970732688903808594e-01) (182, -4.42787736654281616211e-01) (183, -4.82485920190811157227e-01) (184, 4.30625140666961669922e-01) (185, -9.17302519083023071289e-02) (186, -1.96923702955245971680e-01) (187, 5.06160795688629150391e-01) (188, -3.66704195737838745117e-01) (189, 5.46873509883880615234e-01) (190, 3.64045560359954833984e-01) (191, -3.22756767272949218750e-01) (192, -1.95213526487350463867e-01) (193, -3.64908486604690551758e-01) (194, -3.14673662185668945312e-01) (195, -3.16095829010009765625e-01) (196, -1.98921605944633483887e-01) (197, 4.33477133512496948242e-01) (198, 1.56711190938949584961e-01) (199, 1.93442448973655700684e-01) (200, -8.09235125780105590820e-02) (201, -1.78573116660118103027e-01) (202, 2.23989896476268768311e-02) (203, 4.40699942409992218018e-02) (204, -2.16070666909217834473e-01) (205, -4.10427302122116088867e-02) (206, -1.32168814539909362793e-01) (207, -2.25323200225830078125e-01) (208, 5.83706274628639221191e-02) (209, -2.28742107748985290527e-01) (210, -2.26054430007934570312e-01) (211, -2.17813625931739807129e-02) (212, -5.97770884633064270020e-02) (213, -3.35534010082483291626e-03) (214, 5.03149181604385375977e-02) (215, -6.24658316373825073242e-02) (216, -1.28718137741088867188e-01) (217, -1.50884062051773071289e-01) (218, -2.17300698161125183105e-01) (219, -2.58501350879669189453e-01) (220, 2.70607545971870422363e-02) (221, -2.34405964612960815430e-01) (222, 1.58797249197959899902e-01) (223, 2.13179036974906921387e-01) (224, -2.22120076417922973633e-01) (225, -6.42250329256057739258e-02) (226, -2.76802456937730312347e-04) (227, -2.80523210763931274414e-01) (228, 1.25337734818458557129e-01) (229, -3.36721241474151611328e-01) (230, -2.16531410813331604004e-01) (231, 6.86006098985671997070e-02) (232, -5.27570135891437530518e-02) (233, 1.33313789963722229004e-01) (234, 8.59198942780494689941e-02) (235, 9.08331498503684997559e-02) (236, 3.54296602308750152588e-02) (237, -2.39015087485313415527e-01) (238, -9.59326326847076416016e-02) (239, -1.09542407095432281494e-01) (240, 1.36194989085197448730e-01) (241, 2.20284819602966308594e-01) (242, -5.03139458596706390381e-02) (243, -7.22866579890251159668e-02) (244, 2.51959055662155151367e-01) (245, 4.55039739608764648438e-02) (246, 9.94242876768112182617e-02) (247, 2.39764750003814697266e-01) (248, -7.40127414464950561523e-02) (249, 2.95857787132263183594e-01) (250, 2.38880604505538940430e-01) (251, -1.27570033073425292969e-02) (252, 2.45714653283357620239e-02) (253, -1.39104239642620086670e-02) (254, -1.26258544623851776123e-02) (255, 1.45857948809862136841e-02) (256, 6.91303834319114685059e-02) (257, 1.77444517612457275391e-01) (258, 1.52480930089950561523e-01) (259, 2.72456884384155273438e-01) (260, 1.17063568904995918274e-02) (261, -4.78000700473785400391e-01) (262, 4.52240370213985443115e-02) (263, 8.82699415087699890137e-02) (264, -2.97516994178295135498e-02) (0, -6.82204142212867736816e-02) (1, 6.61602318286895751953e-02) (2, -1.26079395413398742676e-01) (3, -2.37430095672607421875e-01) (4, 1.06539182364940643311e-01) (5, -1.18635028600692749023e-01) (6, -1.27404361963272094727e-01) (7, 1.32283255457878112793e-01) (8, -2.39691138267517089844e-01) (9, 1.21847704052925109863e-01) (10, 3.94096300005912780762e-02) (11, -1.58199444413185119629e-01) (12, -2.02820003032684326172e-01) (13, -1.97308272123336791992e-01) (14, -2.43250384926795959473e-01) (15, -1.37640237808227539062e-01) (16, -6.72763526439666748047e-01) (17, -6.42552196979522705078e-01) (18, -7.23418593406677246094e-01) (19, -6.16313397884368896484e-01) (20, 8.04089680314064025879e-02) (21, 2.64031499624252319336e-01) (22, -1.08410619199275970459e-01) (23, -1.11769258975982666016e-01) (24, 2.70358562469482421875e-01) (25, 7.03567117452621459961e-02) (26, 6.99055343866348266602e-02) (27, 3.38122159242630004883e-01) (28, -4.82434071600437164307e-02) (29, 3.19269299507141113281e-01) (30, 1.65122255682945251465e-01) (31, -2.57982816547155380249e-02) (32, 3.64371314644813537598e-02) (33, -4.96526323258876800537e-02) (34, 1.81056689471006393433e-02) (35, 5.41270636022090911865e-02) (36, 7.15759918093681335449e-02) (37, 2.53333359956741333008e-01) (38, 3.00850093364715576172e-01) (39, 2.41367563605308532715e-01) (40, 5.08920289576053619385e-02) (41, -5.91460652649402618408e-02) (42, 1.38484254479408264160e-01) (43, 3.00863474607467651367e-01) (44, -1.07040807604789733887e-01) (45, 1.40750914812088012695e-01) (46, 1.15414269268512725830e-01) (47, -1.56751245260238647461e-01) (48, 2.55990266799926757812e-01) (49, -1.81935444474220275879e-01) (50, -9.44579318165779113770e-02) (51, 1.40382751822471618652e-01) (52, 1.11151874065399169922e-01) (53, 2.29188904166221618652e-01) (54, 2.34835132956504821777e-01) (55, 1.08820959925651550293e-01) (56, 4.30830381810665130615e-02) (57, -1.06787964701652526855e-01) (58, -3.04560940712690353394e-02) (59, -4.97659407556056976318e-02) (60, 1.28453508019447326660e-01) (61, -6.19603767991065979004e-02) (62, 1.82626217603683471680e-01) (63, 2.01811239123344421387e-01) (64, 3.58378253877162933350e-02) (65, 5.47204576432704925537e-02) (66, 5.21767884492874145508e-02) (67, -6.95624127984046936035e-02) (68, 7.39569216966629028320e-02) (69, -6.17388412356376647949e-02) (70, 3.71512882411479949951e-02) (71, 1.04571029543876647949e-01) (72, -1.05091705918312072754e-02) (73, 8.64539146423339843750e-02) (74, 2.00966689735651016235e-02) (75, 9.68435108661651611328e-02) (76, 1.27312660217285156250e-01) (77, -1.11793670803308486938e-02) (78, 4.73463386297225952148e-02) (79, -9.78814065456390380859e-03) (80, -2.17799432575702667236e-02) (81, 3.70114266872406005859e-01) (82, -3.81281495094299316406e-01) (83, -5.77655315399169921875e-01) (84, 4.17833954095840454102e-01) (85, -3.58814686536788940430e-01) (86, -2.30300888419151306152e-01) (87, 4.27947193384170532227e-01) (88, -5.63201963901519775391e-01) (89, 4.80242192745208740234e-01) (90, 2.74542272090911865234e-01) (91, -4.00581240653991699219e-01) (92, -2.61315315961837768555e-01) (93, -4.80830699205398559570e-01) (94, -4.86283391714096069336e-01) (95, -2.63263791799545288086e-01) (96, -9.05811712145805358887e-02) (97, 3.28186303377151489258e-01) (98, 3.27351808547973632812e-01) (99, 1.86110541224479675293e-01) (100, -1.60145794507116079330e-03) (101, 1.40248581767082214355e-01) (102, -2.38778322935104370117e-01) (103, -1.03408381342887878418e-01) (104, 6.66645392775535583496e-02) (105, -5.74673898518085479736e-02) (106, -4.89748492836952209473e-02) (107, 1.23307235538959503174e-01) (108, 1.73205714672803878784e-02) (109, 1.95900797843933105469e-01) (110, 5.86750395596027374268e-02) (111, -3.93455624580383300781e-02) (112, 1.75462335348129272461e-01) (113, 1.38647779822349548340e-02) (114, 7.08865374326705932617e-02) (115, -4.23136055469512939453e-02) (116, -9.40295010805130004883e-02) (117, 9.84054207801818847656e-02) (118, 1.48576989769935607910e-01) (119, 3.02434116601943969727e-02) (120, 5.48319332301616668701e-02) (121, -3.09287875890731811523e-01) (122, 5.73745131492614746094e-01) (123, 6.05235874652862548828e-01) (124, -3.25266182422637939453e-01) (125, 7.48027190566062927246e-02) (126, 1.97135463356971740723e-01) (127, -3.76974761486053466797e-01) (128, 4.97003614902496337891e-01) (129, -4.02977317571640014648e-01) (130, -3.02884131669998168945e-01) (131, 4.44086432456970214844e-01) (132, 2.67413496971130371094e-01) (133, 4.39918547868728637695e-01) (134, 4.23960596323013305664e-01) (135, 4.15362715721130371094e-01) (136, 3.09417545795440673828e-01) (137, -3.28114420175552368164e-01) (138, -7.55592063069343566895e-02) (139, -1.48589298129081726074e-01) (140, 1.24522730708122253418e-01) (141, 1.04890167713165283203e-01) (142, 4.69803437590599060059e-02) (143, 6.20817877352237701416e-02) (144, 1.46217361092567443848e-01) (145, -1.30668237805366516113e-01) (146, 9.17819887399673461914e-02) (147, 1.15944035351276397705e-01) (148, -8.03085416555404663086e-02) (149, 1.17657773196697235107e-01) (150, 1.35645627975463867188e-01) (151, -9.38200801610946655273e-02) (152, -1.98790490627288818359e-01) (153, 2.18861307948827743530e-02) (154, -9.94223281741142272949e-02) (155, -2.99845449626445770264e-02) (156, 5.89751265943050384521e-02) (157, 8.03227648138999938965e-02) (158, 1.97393432259559631348e-01) (159, 1.60859465599060058594e-01) (160, 1.12595044076442718506e-01) (161, 5.30087769031524658203e-01) (162, -5.33998370170593261719e-01) (163, -5.25864660739898681641e-01) (164, 6.12585306167602539062e-01) (165, -1.39839276671409606934e-01) (166, -1.72600731253623962402e-01) (167, 6.32010936737060546875e-01) (168, -4.77009356021881103516e-01) (169, 6.91927611827850341797e-01) (170, 5.55169999599456787109e-01) (171, -4.51984912157058715820e-01) (172, -3.37747514247894287109e-01) (173, -4.08369719982147216797e-01) (174, -4.16339039802551269531e-01) (175, -3.68110686540603637695e-01) (176, -1.80390387773513793945e-01) (177, 5.78521847724914550781e-01) (178, 4.87530529499053955078e-01) (179, 3.72358471155166625977e-01) (180, -3.69365513324737548828e-03) (181, -1.66350618004798889160e-01) (182, 2.25788708776235580444e-02) (183, 1.04883760213851928711e-01) (184, -8.21512490510940551758e-02) (185, -1.42724830657243728638e-02) (186, -1.32128596305847167969e-01) (187, -1.33417427539825439453e-01) (188, 1.11696943640708923340e-01) (189, -1.13287836313247680664e-01) (190, -1.18049189448356628418e-01) (191, 9.06518660485744476318e-03) (192, -6.39052167534828186035e-02) (193, 7.89654701948165893555e-02) (194, 1.14358246326446533203e-01) (195, -2.15644314885139465332e-02) (196, -6.41984939575195312500e-02) (197, -5.82674816250801086426e-02) (198, -1.15796528756618499756e-01) (199, -1.84385821223258972168e-01) (200, 6.83457925915718078613e-02) (201, -3.16819906234741210938e-01) (202, 2.06627503037452697754e-01) (203, 3.41081798076629638672e-01) (204, -2.87808865308761596680e-01) (205, -8.76035988330841064453e-02) (206, 5.26561029255390167236e-02) (207, -3.45251590013504028320e-01) (208, 2.69760519266128540039e-01) (209, -3.68009656667709350586e-01) (210, -2.18315139412879943848e-01) (211, 1.48779243230819702148e-01) (212, -1.01659029722213745117e-01) (213, 2.76251554489135742188e-01) (214, 2.07446500658988952637e-01) (215, 1.31063446402549743652e-01) (216, 8.70257988572120666504e-02) (217, -3.22366058826446533203e-01) (218, -9.47353467345237731934e-02) (219, -1.06805682182312011719e-01) (220, 5.64645342528820037842e-02) (221, 1.42894580960273742676e-01) (222, -2.23953098058700561523e-01) (223, -1.93548128008842468262e-01) (224, 2.12043792009353637695e-01) (225, -1.01063042879104614258e-01) (226, 3.01621425896883010864e-02) (227, 2.11310148239135742188e-01) (228, -1.85984060168266296387e-01) (229, 2.85493075847625732422e-01) (230, 2.12016865611076354980e-01) (231, -1.60972774028778076172e-01) (232, -1.73790097236633300781e-01) (233, -1.35405316948890686035e-01) (234, -1.46040394902229309082e-01) (235, -1.04570239782333374023e-01) (236, -6.08424209058284759521e-02) (237, 1.12157404422760009766e-01) (238, 1.53844818472862243652e-01) (239, 1.97618827223777770996e-01) (240, -2.01330333948135375977e-02) (241, 1.74584850668907165527e-01) (242, -2.31199771165847778320e-01) (243, -2.05427482724189758301e-01) (244, 2.07334741950035095215e-01) (245, -1.07512148097157478333e-02) (246, -1.13756254315376281738e-01) (247, 2.82281100749969482422e-01) (248, -1.26138091087341308594e-01) (249, 3.20216596126556396484e-01) (250, 2.17046484351158142090e-01) (251, -1.56756252050399780273e-01) (252, -1.04628913104534149170e-01) (253, -1.66152924299240112305e-01) (254, -1.03192746639251708984e-01) (255, -1.44246071577072143555e-01) (256, -1.09655268490314483643e-01) (257, 2.06438988447189331055e-01) (258, 3.26413251459598541260e-02) (259, 9.45120379328727722168e-02) (260, -1.61862432956695556641e-01) (261, -6.27674043178558349609e-01) (262, -1.29427213687449693680e-03) (263, 8.71738940477371215820e-02) (264, -4.98757883906364440918e-02) (265, -3.97181212902069091797e-02) (0, -2.06584706902503967285e-01) (1, 8.14873203635215759277e-02) (2, -2.07978829741477966309e-01) (3, -1.98627203702926635742e-01) (4, -1.41313895583152770996e-02) (5, -4.82227727770805358887e-02) (6, -1.01414129137992858887e-01) (7, -8.59978701919317245483e-03) (8, -9.83795300126075744629e-02) (9, -7.25873112678527832031e-02) (10, -5.96087761223316192627e-02) (11, -9.45077240467071533203e-02) (12, -5.35375550389289855957e-02) (13, -1.78544163703918457031e-01) (14, -7.21807241439819335938e-01) (15, -4.76054370403289794922e-01) (16, 1.33433938026428222656e+00) (17, 1.33360993862152099609e+00) (18, 1.40520584583282470703e+00) (19, 1.30468606948852539062e+00) (20, -2.59810835123062133789e-01) (21, -3.28220077790319919586e-03) (22, -2.08115547895431518555e-01) (23, -1.85450896620750427246e-01) (24, -4.67280931770801544189e-02) (25, 3.09017989784479141235e-02) (26, -6.06986805796623229980e-02) (27, -8.19841623306274414062e-02) (28, -1.15104898810386657715e-01) (29, -8.90952497720718383789e-02) (30, -4.75901402533054351807e-02) (31, -1.39331184327602386475e-02) (32, 5.43511323630809783936e-02) (33, -1.33340060710906982422e-01) (34, -7.52175226807594299316e-02) (35, -8.15850198268890380859e-02) (36, -1.27710342407226562500e-01) (37, 3.32175963558256626129e-03) (38, -5.11535676196217536926e-03) (39, -1.28897754475474357605e-02) (40, -2.73041307926177978516e-01) (41, 1.00630506873130798340e-01) (42, -1.37478977441787719727e-01) (43, -1.28259524703025817871e-01) (44, -4.32680919766426086426e-02) (45, 1.69133663177490234375e-01) (46, -5.44246062636375427246e-02) (47, -6.58780112862586975098e-02) (48, -5.70729449391365051270e-02) (49, -1.88540861010551452637e-01) (50, -1.37564048171043395996e-01) (51, -1.22400803957134485245e-03) (52, 4.31597493588924407959e-02) (53, -1.40082925558090209961e-01) (54, -7.14458823204040527344e-02) (55, -4.60402220487594604492e-02) (56, -8.81172865629196166992e-02) (57, -2.27443370968103408813e-02) (58, -7.16752782464027404785e-02) (59, -1.06227044016122817993e-02) (60, -2.83796459436416625977e-01) (61, 1.98828876018524169922e-01) (62, -1.48982882499694824219e-01) (63, -2.30427652597427368164e-01) (64, -3.39195993728935718536e-03) (65, 2.30853706598281860352e-01) (66, -5.08692450821399688721e-02) (67, -8.83715972304344177246e-02) (68, -1.42141982913017272949e-01) (69, -1.52348563075065612793e-01) (70, -1.37490361928939819336e-01) (71, -9.29481014609336853027e-02) (72, 5.46708963811397552490e-02) (73, -2.11522102355957031250e-01) (74, -1.46966189146041870117e-01) (75, -7.59255513548851013184e-02) (76, -9.57967191934585571289e-02) (77, -1.10136615112423896790e-02) (78, -1.22503198683261871338e-01) (79, 3.36855761706829071045e-02) (80, -3.03135424852371215820e-01) (81, 2.93151378631591796875e-01) (82, -1.52411594986915588379e-01) (83, -2.50877916812896728516e-01) (84, 3.81028801202774047852e-02) (85, 3.97781431674957275391e-01) (86, -2.72400509566068649292e-02) (87, -1.38667048886418342590e-02) (88, -9.71632674336433410645e-02) (89, -7.93863832950592041016e-02) (90, -7.85960555076599121094e-02) (91, -7.04227201640605926514e-03) (92, 2.20939829945564270020e-01) (93, -2.37594157457351684570e-01) (94, -1.12181536853313446045e-01) (95, -5.75694255530834197998e-02) (96, -6.86720535159111022949e-02) (97, 8.10691788792610168457e-02) (98, 8.09910241514444351196e-03) (99, -8.37453268468379974365e-03) (100, -3.71110290288925170898e-01) (101, 3.08333456516265869141e-01) (102, -3.33649143576622009277e-02) (103, -1.59907385706901550293e-01) (104, 6.83733522891998291016e-02) (105, 4.16054755449295043945e-01) (106, 4.20759394764900207520e-02) (107, -1.85118466615676879883e-02) (108, -3.48533652722835540771e-02) (109, -1.04238487780094146729e-01) (110, 1.31496582180261611938e-02) (111, 6.16227164864540100098e-02) (112, 4.14246439933776855469e-01) (113, -1.51542887091636657715e-01) (114, -7.21298605203628540039e-02) (115, 4.34936098754405975342e-02) (116, -2.61137969791889190674e-02) (117, 1.20795138180255889893e-01) (118, 4.20390479266643524170e-02) (119, 5.70371113717555999756e-02) (120, -3.97834181785583496094e-01) (121, 1.72463759779930114746e-01) (122, 1.51490762829780578613e-01) (123, -1.51060163974761962891e-01) (124, -4.15652170777320861816e-02) (125, 3.45917999744415283203e-01) (126, -6.96591753512620925903e-03) (127, -1.12314999103546142578e-01) (128, -9.38584804534912109375e-02) (129, -2.49061197042465209961e-01) (130, -1.49582609534263610840e-01) (131, 1.50264665484428405762e-01) (132, 6.17695450782775878906e-01) (133, -2.36584603786468505859e-01) (134, -1.58828958868980407715e-01) (135, 2.01573565602302551270e-01) (136, 8.50026458501815795898e-02) (137, 1.55377639457583427429e-02) (138, -7.45992884039878845215e-02) (139, -6.19747936725616455078e-02) (140, -5.15174508094787597656e-01) (141, 1.04077637195587158203e-01) (142, 1.12543836236000061035e-01) (143, -1.71697452664375305176e-01) (144, -6.39363750815391540527e-02) (145, 3.13473403453826904297e-01) (146, 2.30141393840312957764e-02) (147, -1.39695212244987487793e-01) (148, -1.71374127268791198730e-01) (149, -3.16309869289398193359e-01) (150, -2.12691500782966613770e-01) (151, 8.71110036969184875488e-02) (152, 6.02134585380554199219e-01) (153, -2.28521540760993957520e-01) (154, -1.90954610705375671387e-01) (155, 1.23112611472606658936e-01) (156, 6.14916272461414337158e-02) (157, 2.79857292771339416504e-02) (158, -6.23567812144756317139e-02) (159, -5.42836561799049377441e-02) (160, -4.31203246116638183594e-01) (161, 1.09994463622570037842e-01) (162, 9.84921306371688842773e-02) (163, -1.27012550830841064453e-01) (164, 1.60124264657497406006e-02) (165, 2.19798833131790161133e-01) (166, -6.07300065457820892334e-02) (167, 1.23500358313322067261e-02) (168, -1.93423733115196228027e-01) (169, -1.99561432003974914551e-01) (170, -1.82710498571395874023e-01) (171, -7.38114677369594573975e-03) (172, 7.83236145973205566406e-01) (173, -2.17005819082260131836e-01) (174, -2.21967861056327819824e-01) (175, 6.34566843509674072266e-02) (176, 2.98830978572368621826e-02) (177, 1.40908330678939819336e-01) (178, 6.67446628212928771973e-02) (179, -3.65609042346477508545e-02) (180, -3.00400644540786743164e-01) (181, 7.90462419390678405762e-02) (182, 1.50764450430870056152e-01) (183, -7.04503208398818969727e-02) (184, 3.69298346340656280518e-02) (185, 1.10325053334236145020e-01) (186, -6.03408068418502807617e-02) (187, 4.58638630807399749756e-02) (188, -2.14008748531341552734e-01) (189, -1.56457453966140747070e-01) (190, -2.33402207493782043457e-01) (191, -3.82793880999088287354e-02) (192, 6.32658362388610839844e-01) (193, -1.74680218100547790527e-01) (194, -2.06308692693710327148e-01) (195, 7.02974572777748107910e-02) (196, 7.00301006436347961426e-02) (197, 1.55028358101844787598e-01) (198, 1.67661849409341812134e-02) (199, -2.70281266421079635620e-02) (200, -2.28104799985885620117e-01) (201, 1.35831488296389579773e-03) (202, 9.94583144783973693848e-02) (203, -7.50813111662864685059e-02) (204, -2.01922655105590820312e-02) (205, 6.53692036867141723633e-02) (206, -4.29904796183109283447e-02) (207, -6.47644996643066406250e-02) (208, -1.87851279973983764648e-01) (209, -2.31188938021659851074e-01) (210, -2.61040031909942626953e-01) (211, -6.53253570199012756348e-02) (212, 3.95156353712081909180e-01) (213, -1.96996077895164489746e-01) (214, -2.19067737460136413574e-01) (215, 4.01707272976636886597e-03) (216, 5.24989254772663116455e-02) (217, 9.26509574055671691895e-02) (218, -8.87516513466835021973e-02) (219, -4.72096391022205352783e-02) (220, -1.33460372686386108398e-01) (221, 5.62873817980289459229e-02) (222, 1.11830808222293853760e-01) (223, -2.85266223363578319550e-03) (224, 1.66995674371719360352e-02) (225, 7.40872696042060852051e-02) (226, 2.63474360108375549316e-02) (227, -3.83345782756805419922e-02) (228, -1.76363959908485412598e-01) (229, -1.65475398302078247070e-01) (230, -1.43317937850952148438e-01) (231, -4.25578951835632324219e-02) (232, 3.44653666019439697266e-01) (233, -1.49433508515357971191e-01) (234, -1.27845585346221923828e-01) (235, 5.95874525606632232666e-02) (236, 1.28454849123954772949e-01) (237, 1.11461997032165527344e-01) (238, -1.78413279354572296143e-02) (239, 3.87855470180511474609e-02) (240, -1.40979394316673278809e-01) (241, 1.42431363463401794434e-01) (242, 6.13281913101673126221e-02) (243, -3.26643809676170349121e-02) (244, -2.71077714860439300537e-02) (245, 4.01396639645099639893e-02) (246, -6.51124166324734687805e-04) (247, -1.71019323170185089111e-02) (248, -1.41308248043060302734e-01) (249, -1.26637786626815795898e-01) (250, -5.77908419072628021240e-02) (251, -3.60603332519531250000e-02) (252, 2.22142338752746582031e-01) (253, -1.34766653180122375488e-01) (254, -1.19132980704307556152e-01) (255, 3.58221642673015594482e-02) (256, 6.35225400328636169434e-02) (257, 5.02490438520908355713e-02) (258, -7.05069489777088165283e-03) (259, 6.94718360900878906250e-02) (260, -8.28518811613321304321e-03) (261, 1.09200024604797363281e+00) (262, -1.05136536061763763428e-01) (263, 2.40364402532577514648e-01) (264, -1.69556424021720886230e-01) (265, 9.83250021934509277344e-01) (266, 8.61334145069122314453e-01) (0, -9.77738618850708007812e-01) (1, -1.52385807037353515625e+00) (2, -1.16553410887718200684e-01) (3, -3.43345224857330322266e-01) (4, -9.89700734615325927734e-01) (5, 4.06094998121261596680e-01) (6, -2.42044344544410705566e-01) (7, -1.19315719604492187500e+00) (8, 1.90182346850633621216e-02) (9, -1.18811905384063720703e+00) (10, -1.25269198417663574219e+00) (11, -2.21500068902969360352e-01) (12, 1.80421099066734313965e-01) (13, -4.12928730249404907227e-01) (14, 4.24822187423706054688e+00) (15, 4.89220046997070312500e+00) (16, 2.86203694343566894531e+00) (17, 2.99604201316833496094e+00) (18, 3.60794472694396972656e+00) (19, 2.84855341911315917969e+00) (20, -7.92938053607940673828e-01) (21, -9.51748967170715332031e-01) (22, -3.27824540436267852783e-02) (23, -2.39151716232299804688e-01) (24, -4.50424432754516601562e-01) (25, 3.78512442111968994141e-01) (26, -6.76418468356132507324e-02) (27, -5.51684141159057617188e-01) (28, 1.52205660939216613770e-01) (29, -6.76760256290435791016e-01) (30, -3.96494477987289428711e-01) (31, 1.74365863204002380371e-01) (32, 3.54200214147567749023e-01) (33, 6.81174844503402709961e-02) (34, 2.13802121579647064209e-02) (35, 1.44716560840606689453e-01) (36, 2.23511591553688049316e-01) (37, -5.86768388748168945312e-02) (38, -4.48943912982940673828e-01) (39, 4.70444336533546447754e-02) (40, -6.51378512382507324219e-01) (41, -8.58752727508544921875e-01) (42, -1.61424010992050170898e-01) (43, -4.15092915296554565430e-01) (44, -3.60390767455101013184e-02) (45, 4.20485407114028930664e-01) (46, -3.47797647118568420410e-02) (47, 2.18622475862503051758e-01) (48, 1.89682304859161376953e-01) (49, -5.64024209976196289062e-01) (50, -3.75076979398727416992e-01) (51, -1.11183114349842071533e-01) (52, 1.18998840451240539551e-01) (53, -2.70813941955566406250e-01) (54, -3.83534133434295654297e-02) (55, -3.01894973963499069214e-02) (56, 1.70541375875473022461e-01) (57, 5.04111468791961669922e-01) (58, -2.22152143716812133789e-01) (59, 2.15493246912956237793e-01) (60, -5.08291780948638916016e-01) (61, -2.16678261756896972656e-01) (62, -7.30879426002502441406e-01) (63, -4.95376110076904296875e-01) (64, 6.36280655860900878906e-01) (65, -4.30551311001181602478e-03) (66, -8.50800331681966781616e-03) (67, 9.32027518749237060547e-01) (68, 3.62097322940826416016e-02) (69, 1.05911187827587127686e-01) (70, 7.11700245738029479980e-02) (71, -5.58842599391937255859e-01) (72, -2.99112498760223388672e-01) (73, -2.93368190526962280273e-01) (74, -6.63015320897102355957e-02) (75, -5.48756361007690429688e-01) (76, 1.14936955273151397705e-01) (77, 1.20507872104644775391e+00) (78, 4.54931020736694335938e-01) (79, 7.86609351634979248047e-01) (80, -6.64159715175628662109e-01) (81, 9.41206157207489013672e-01) (82, -8.78784477710723876953e-01) (83, -3.20274621248245239258e-01) (84, 6.72434151172637939453e-01) (85, -1.78275436162948608398e-01) (86, 1.92976221442222595215e-01) (87, 1.32351756095886230469e+00) (88, 9.23091843724250793457e-02) (89, 4.00972723960876464844e-01) (90, 2.12090127170085906982e-02) (91, -5.90441226959228515625e-01) (92, -5.85467457771301269531e-01) (93, -1.96337103843688964844e-01) (94, -1.14958219230175018311e-01) (95, -2.90118455886840820312e-01) (96, 2.50163733959197998047e-01) (97, 1.64665806293487548828e+00) (98, 9.76015999913215637207e-02) (99, 6.73208534717559814453e-01) (100, -7.80929267406463623047e-01) (101, 1.12735712528228759766e+00) (102, -1.71637058258056640625e+00) (103, -9.14603769779205322266e-01) (104, 1.30568552017211914062e+00) (105, -4.21789109706878662109e-01) (106, -3.55994969606399536133e-01) (107, 1.87411558628082275391e+00) (108, -5.40549397468566894531e-01) (109, 6.06981158256530761719e-01) (110, 4.57032859325408935547e-01) (111, -1.54990160465240478516e+00) (112, -1.38075363636016845703e+00) (113, -8.15490305423736572266e-01) (114, -4.51540112495422363281e-01) (115, -1.06356287002563476562e+00) (116, 3.89403365552425384521e-02) (117, 2.03949666023254394531e+00) (118, 3.61489206552505493164e-01) (119, 9.04410362243652343750e-01) (120, -9.78217422962188720703e-01) (121, -5.34899353981018066406e-01) (122, -6.47076606750488281250e-01) (123, -3.18916887044906616211e-01) (124, 2.93112456798553466797e-01) (125, -1.80292904376983642578e-01) (126, 2.28058308362960815430e-01) (127, 1.62699043750762939453e+00) (128, -5.81698827445507049561e-02) (129, 7.41068497300148010254e-02) (130, -1.14439494907855987549e-01) (131, -6.18097901344299316406e-01) (132, -9.43040907382965087891e-01) (133, -2.46415168046951293945e-01) (134, 1.99234182946383953094e-03) (135, 3.46413105726242065430e-01) (136, 2.42377221584320068359e-01) (137, 1.79988121986389160156e+00) (138, -1.89497202634811401367e-01) (139, 4.08178940415382385254e-02) (140, -1.16886448860168457031e+00) (141, 2.74753905832767486572e-02) (142, -1.41241401433944702148e-01) (143, -8.37872207164764404297e-01) (144, 4.86474990844726562500e-01) (145, -7.73189142346382141113e-02) (146, -6.39901161193847656250e-01) (147, 1.41267240047454833984e+00) (148, -4.95242834091186523438e-01) (149, 2.61649906635284423828e-01) (150, -2.12427049875259399414e-01) (151, -3.17946106195449829102e-01) (152, 6.66299939155578613281e-01) (153, -1.03156554698944091797e+00) (154, -8.16011905670166015625e-01) (155, -1.35617166757583618164e-01) (156, 1.50941714644432067871e-01) (157, 1.63924586772918701172e+00) (158, 1.16042561829090118408e-01) (159, -1.35310709476470947266e-01) (160, -8.97948205471038818359e-01) (161, -1.17188565433025360107e-01) (162, 7.20864295959472656250e-01) (163, -1.31600007414817810059e-01) (164, -4.10353660583496093750e-01) (165, -5.66678456962108612061e-02) (166, -2.10327297449111938477e-01) (167, 4.72528398036956787109e-01) (168, -1.50941550731658935547e-01) (169, -4.89464461803436279297e-01) (170, -7.96924829483032226562e-01) (171, 2.85855650901794433594e-01) (172, 1.79509127140045166016e+00) (173, -7.33926057815551757812e-01) (174, -3.11054497957229614258e-01) (175, 6.66327297687530517578e-01) (176, 3.94879817962646484375e-01) (177, 8.18758487701416015625e-01) (178, -4.95248407125473022461e-01) (179, -5.27505517005920410156e-01) (180, -7.49442458152770996094e-01) (181, 7.36477822065353393555e-02) (182, 8.95366966724395751953e-01) (183, -7.25908651947975158691e-02) (184, -3.70393425226211547852e-01) (185, 3.27608942985534667969e-01) (186, 8.80158096551895141602e-02) (187, -1.67267858982086181641e-01) (188, -3.99904072284698486328e-01) (189, -7.41633296012878417969e-01) (190, -8.94691824913024902344e-01) (191, 3.07999789714813232422e-01) (192, 1.15836250782012939453e+00) (193, -6.89024806022644042969e-01) (194, -6.23589694499969482422e-01) (195, 6.19735419750213623047e-01) (196, 3.82472932338714599609e-01) (197, 1.90767854452133178711e-01) (198, -2.78760761022567749023e-01) (199, -5.52694976329803466797e-01) (200, -7.94562876224517822266e-01) (201, -2.83508419990539550781e-01) (202, 5.19872844219207763672e-01) (203, -3.40889960527420043945e-01) (204, -6.05582416057586669922e-01) (205, 8.44541192054748535156e-01) (206, 1.27830997109413146973e-01) (207, -6.38926923274993896484e-01) (208, -3.57111275196075439453e-01) (209, -9.73108708858489990234e-01) (210, -1.02147924900054931641e+00) (211, 4.07078742980957031250e-01) (212, 6.73372328281402587891e-01) (213, -4.64079856872558593750e-01) (214, -3.49723249673843383789e-01) (215, 3.95716816186904907227e-01) (216, 4.89784896373748779297e-01) (217, -1.27196356654167175293e-01) (218, -1.66631996631622314453e-01) (219, -3.89685004949569702148e-01) (220, -7.51695632934570312500e-01) (221, -6.25557422637939453125e-01) (222, 5.71528673171997070312e-01) (223, -1.46760687232017517090e-01) (224, -7.90814757347106933594e-01) (225, 7.59171724319458007812e-01) (226, 8.29810425639152526855e-02) (227, -8.38617146015167236328e-01) (228, -2.83435851335525512695e-01) (229, -9.22391653060913085938e-01) (230, -8.10521364212036132812e-01) (231, 3.07872503995895385742e-01) (232, 5.45123040676116943359e-01) (233, -2.84652680158615112305e-01) (234, -3.72374981641769409180e-01) (235, 4.51909303665161132812e-01) (236, 3.86374086141586303711e-01) (237, -1.78271025419235229492e-01) (238, -3.39610219001770019531e-01) (239, -3.39614510536193847656e-01) (240, -6.57941937446594238281e-01) (241, -4.97363567352294921875e-01) (242, 5.24578094482421875000e-01) (243, -1.17277637124061584473e-01) (244, -6.34410738945007324219e-01) (245, 7.54228949546813964844e-01) (246, 8.45082178711891174316e-02) (247, -7.70175218582153320312e-01) (248, -2.36212506890296936035e-01) (249, -8.43501091003417968750e-01) (250, -7.87404596805572509766e-01) (251, 1.22529119253158569336e-01) (252, 6.66341781616210937500e-01) (253, -1.95152193307876586914e-01) (254, -5.31163275241851806641e-01) (255, 3.73899638652801513672e-01) (256, 2.71155953407287597656e-01) (257, -1.73144698143005371094e-01) (258, -1.45939230918884277344e-01) (259, -3.95582824945449829102e-01) (260, -2.01869770884513854980e-01) (261, 5.15745639801025390625e-01) (262, -6.50694072246551513672e-01) (263, 5.42982220649719238281e-01) (264, 1.71001386642456054688e+00) (265, 1.79841530323028564453e+00) (266, 1.71037077903747558594e+00) (267, 6.22418880462646484375e-01) (0, -1.18450764566659927368e-02) (1, 1.04922600090503692627e-01) (2, 1.45714402198791503906e-01) (3, 1.41117591410875320435e-02) (4, -1.54527630656957626343e-02) (5, 3.50144684314727783203e-01) (6, 6.28010854125022888184e-02) (7, 2.80661340802907943726e-02) (8, 8.23117122054100036621e-02) (9, -8.60184058547019958496e-02) (10, 2.02405098825693130493e-02) (11, 1.79374903440475463867e-01) (12, 1.54177680611610412598e-01) (13, 1.28664150834083557129e-02) (14, -8.90238136053085327148e-02) (15, -4.24448475241661071777e-02) (16, -2.37018436193466186523e-01) (17, -2.07027327269315719604e-03) (18, 2.43549853563308715820e-01) (19, -2.92137414216995239258e-01) (20, -2.61799674481153488159e-02) (21, 2.43608742952346801758e-01) (22, -8.95369239151477813721e-03) (23, -7.80825614929199218750e-02) (24, 1.45429119467735290527e-01) (25, 2.77695417404174804688e-01) (26, 1.14450506865978240967e-01) (27, 2.29853540658950805664e-01) (28, -1.41943348571658134460e-02) (29, 8.39367732405662536621e-02) (30, 1.13206796348094940186e-01) (31, 7.47939050197601318359e-02) (32, 9.02403518557548522949e-02) (33, -4.24183644354343414307e-02) (34, 3.88202629983425140381e-02) (35, 6.03399574756622314453e-02) (36, 1.44201353192329406738e-01) (37, 2.61336624622344970703e-01) (38, 1.90048307180404663086e-01) (39, 1.64558753371238708496e-01) (40, -1.33116403594613075256e-02) (41, 3.43207508325576782227e-01) (42, -1.22945010662078857422e-01) (43, -1.27379313111305236816e-01) (44, 3.08708846569061279297e-01) (45, -1.48005068302154541016e-01) (46, 1.41310259699821472168e-01) (47, 4.30959314107894897461e-01) (48, -9.17780324816703796387e-02) (49, 2.99584925174713134766e-01) (50, 1.47513657808303833008e-01) (51, -1.25630393624305725098e-01) (52, -8.89808684587478637695e-02) (53, -9.29085239768028259277e-02) (54, 9.32220742106437683105e-03) (55, -3.51214222609996795654e-02) (56, 2.06703513860702514648e-01) (57, 4.40571576356887817383e-01) (58, 3.99052500724792480469e-01) (59, 3.28235000371932983398e-01) (60, -5.06400428712368011475e-02) (61, 1.13789848983287811279e-01) (62, -4.22834098339080810547e-01) (63, -1.71939387917518615723e-01) (64, 2.76890903711318969727e-01) (65, -5.00584959983825683594e-01) (66, -1.58597193658351898193e-02) (67, 4.11956876516342163086e-01) (68, -2.49530792236328125000e-01) (69, 3.46730053424835205078e-01) (70, 1.62351399660110473633e-01) (71, -4.15176033973693847656e-01) (72, -3.04525792598724365234e-01) (73, -2.06361770629882812500e-01) (74, -1.05308510363101959229e-01) (75, -1.96896463632583618164e-01) (76, 6.49109929800033569336e-02) (77, 3.91440570354461669922e-01) (78, 3.43346267938613891602e-01) (79, 2.23196595907211303711e-01) (80, -2.49923858791589736938e-03) (81, 2.77289003133773803711e-01) (82, -4.40578728914260864258e-01) (83, -1.24785713851451873779e-01) (84, 3.37014138698577880859e-01) (85, -4.75168198347091674805e-01) (86, -5.24778440594673156738e-02) (87, 4.26312416791915893555e-01) (88, -3.56396526098251342773e-01) (89, 3.93750160932540893555e-01) (90, 1.53183981776237487793e-01) (91, -4.32962536811828613281e-01) (92, -2.69157767295837402344e-01) (93, -2.46675729751586914062e-01) (94, -1.95222839713096618652e-01) (95, -1.96093752980232238770e-01) (96, -9.66260733548551797867e-04) (97, 3.97068679332733154297e-01) (98, 2.57835388183593750000e-01) (99, 2.66177624464035034180e-01) (100, 1.11196823418140411377e-01) (101, 8.77184346318244934082e-02) (102, -2.31004402041435241699e-01) (103, 8.93992185592651367188e-02) (104, 1.92688509821891784668e-01) (105, -2.39476099610328674316e-01) (106, -3.28464210033416748047e-02) (107, 2.07532733678817749023e-01) (108, -1.99010774493217468262e-01) (109, 1.96219295263290405273e-01) (110, 9.03427675366401672363e-02) (111, -2.15517163276672363281e-01) (112, -1.61390811204910278320e-01) (113, -7.75142237544059753418e-02) (114, -6.46900162100791931152e-02) (115, -9.25108604133129119873e-03) (116, -1.22761197388172149658e-01) (117, 1.49015516042709350586e-01) (118, 1.01683534681797027588e-01) (119, 1.08342096209526062012e-01) (120, 1.98995798826217651367e-01) (121, 1.69890135526657104492e-01) (122, 3.97481262683868408203e-01) (123, 1.02694660425186157227e-01) (124, 1.13453224301338195801e-01) (125, 2.34307795763015747070e-01) (126, 3.73502373695373535156e-02) (127, -4.98153418302536010742e-02) (128, -7.98477604985237121582e-02) (129, -2.53519527614116668701e-02) (130, 1.14884749054908752441e-01) (131, 2.12666749954223632812e-01) (132, 4.11672085523605346680e-01) (133, 5.77421151101589202881e-02) (134, 1.20847206562757492065e-02) (135, 1.77219763398170471191e-01) (136, -3.38876107707619667053e-03) (137, -7.03652277588844299316e-02) (138, 1.62070959806442260742e-01) (139, 2.38425154238939285278e-02) (140, 2.41935640573501586914e-01) (141, -1.01675376296043395996e-01) (142, 6.36106789112091064453e-01) (143, 2.16866284608840942383e-01) (144, -2.37175673246383666992e-01) (145, 5.19839167594909667969e-01) (146, 1.05687409639358520508e-01) (147, -3.85920196771621704102e-01) (148, 1.74922779202461242676e-01) (149, -2.90074706077575683594e-01) (150, -7.17276781797409057617e-02) (151, 5.24041354656219482422e-01) (152, 5.54398298263549804688e-01) (153, 2.07362860441207885742e-01) (154, 1.27518787980079650879e-01) (155, 3.52846980094909667969e-01) (156, 5.60763329267501831055e-02) (157, -3.23976874351501464844e-01) (158, -8.71779024600982666016e-03) (159, -1.50879144668579101562e-01) (160, 1.71581551432609558105e-01) (161, -3.99643540382385253906e-01) (162, 5.08649766445159912109e-01) (163, 1.55351355671882629395e-01) (164, -4.45335924625396728516e-01) (165, 4.87424582242965698242e-01) (166, -6.10916316509246826172e-02) (167, -5.99766671657562255859e-01) (168, 5.08900396525859832764e-02) (169, -4.01904731988906860352e-01) (170, -2.31742531061172485352e-01) (171, 3.26211035251617431641e-01) (172, 3.86425137519836425781e-01) (173, 1.23073488473892211914e-01) (174, -3.17220650613307952881e-02) (175, 2.15533480048179626465e-01) (176, -7.79449790716171264648e-02) (177, -5.63306450843811035156e-01) (178, -9.89750474691390991211e-02) (179, -3.31019669771194458008e-01) (180, 3.66950333118438720703e-02) (181, -3.81961882114410400391e-01) (182, 2.96879231929779052734e-01) (183, 1.73663452267646789551e-01) (184, -4.34265911579132080078e-01) (185, 2.91383653879165649414e-01) (186, 2.10761558264493942261e-02) (187, -6.09858334064483642578e-01) (188, 1.03693261742591857910e-01) (189, -4.19424235820770263672e-01) (190, -2.87752777338027954102e-01) (191, 2.92018026113510131836e-01) (192, 2.39970356225967407227e-01) (193, 1.22771039605140686035e-01) (194, 7.20169469714164733887e-02) (195, 2.11313843727111816406e-01) (196, -1.89088881015777587891e-02) (197, -5.81600129604339599609e-01) (198, -2.37058296799659729004e-01) (199, -3.91149103641510009766e-01) (200, 2.77094393968582153320e-02) (201, -2.36773431301116943359e-01) (202, 1.24324690550565719604e-02) (203, 6.02800622582435607910e-02) (204, -3.11397254467010498047e-01) (205, 1.38201117515563964844e-01) (206, -7.69161283969879150391e-02) (207, -4.14115250110626220703e-01) (208, -2.16990914195775985718e-02) (209, -2.00800284743309020996e-01) (210, -9.96490195393562316895e-02) (211, 7.35545679926872253418e-02) (212, -1.36285603046417236328e-01) (213, 4.24923673272132873535e-02) (214, -6.28519281744956970215e-02) (215, 4.15974669158458709717e-02) (216, -6.95224031805992126465e-02) (217, -4.27169829607009887695e-01) (218, -1.23027890920639038086e-01) (219, -2.96655356884002685547e-01) (220, 8.97361636161804199219e-02) (221, -7.28893205523490905762e-02) (222, -1.10367305576801300049e-01) (223, 1.82195246219635009766e-01) (224, -1.32004544138908386230e-01) (225, -4.97135333716869354248e-03) (226, 1.07000671327114105225e-01) (227, -1.47822707891464233398e-01) (228, 8.45213979482650756836e-02) (229, 1.42965074628591537476e-02) (230, 1.46378889679908752441e-01) (231, 5.62117807567119598389e-02) (232, -2.61965602636337280273e-01) (233, 2.24706619977951049805e-01) (234, 9.98183861374855041504e-02) (235, 4.11915667355060577393e-02) (236, 5.38200102746486663818e-02) (237, -1.80087774991989135742e-01) (238, 9.52880736440420150757e-03) (239, -9.05966237187385559082e-02) (240, 7.98659622669219970703e-02) (241, -1.82372778654098510742e-02) (242, -2.11416006088256835938e-01) (243, 7.46408030390739440918e-02) (244, -1.88710093498229980469e-02) (245, -1.74992844462394714355e-01) (246, 1.80388707667589187622e-02) (247, 5.37521019577980041504e-02) (248, 1.17280520498752593994e-02) (249, 1.68205901980400085449e-01) (250, 1.97204783558845520020e-01) (251, -1.14735260605812072754e-01) (252, -3.21060299873352050781e-01) (253, 1.06573827564716339111e-01) (254, -3.32330539822578430176e-03) (255, -7.22540915012359619141e-02) (256, 1.74023257568478584290e-03) (257, -3.93360368907451629639e-02) (258, 7.04653710126876831055e-02) (259, 4.15934436023235321045e-02) (260, -4.56719994544982910156e-02) (261, 2.55048453807830810547e-01) (262, 1.27367982640862464905e-02) (263, 1.17280741687864065170e-03) (264, -6.22350536286830902100e-02) (265, -1.40166595578193664551e-01) (266, -1.45255893468856811523e-01) (267, -1.89272407442331314087e-02) (268, -9.55632030963897705078e-02) (0, -2.72531241178512573242e-01) (1, -3.82898688316345214844e-01) (2, -1.93170547485351562500e-01) (3, -2.45916649699211120605e-01) (4, -3.63179028034210205078e-01) (5, -1.62440195679664611816e-01) (6, -2.63511300086975097656e-01) (7, -3.94405364990234375000e-01) (8, -2.18071475625038146973e-01) (9, -3.70234996080398559570e-01) (10, -3.42712342739105224609e-01) (11, -2.16186791658401489258e-01) (12, -1.95726588368415832520e-01) (13, -2.01776653528213500977e-01) (14, 9.39930140972137451172e-01) (15, 1.01066017150878906250e+00) (16, 7.85278558731079101562e-01) (17, 8.07389259338378906250e-01) (18, 1.07429587841033935547e+00) (19, 7.67976582050323486328e-01) (20, -1.69121176004409790039e-01) (21, -2.66391754150390625000e-01) (22, -8.33247676491737365723e-02) (23, -1.51072010397911071777e-01) (24, -2.00565010309219360352e-01) (25, 7.61054903268814086914e-02) (26, -1.66704252362251281738e-01) (27, -2.53938496112823486328e-01) (28, -1.18324734270572662354e-01) (29, -1.95772379636764526367e-01) (30, -1.23567879199981689453e-01) (31, 8.71352031826972961426e-02) (32, 6.21504187583923339844e-02) (33, -2.23006978631019592285e-02) (34, -3.56101095676422119141e-02) (35, 3.97511646151542663574e-02) (36, 1.47982947528362274170e-02) (37, -1.14772357046604156494e-01) (38, -1.62892907857894897461e-01) (39, -5.09644672274589538574e-02) (40, -1.34956061840057373047e-01) (41, -2.10667118430137634277e-01) (42, 1.15765566006302833557e-02) (43, -1.04507692158222198486e-01) (44, -1.59055069088935852051e-01) (45, 1.86461806297302246094e-01) (46, -9.27439555525779724121e-02) (47, -1.72962799668312072754e-01) (48, -3.13888117671012878418e-02) (49, -2.12106093764305114746e-01) (50, -2.06394389271736145020e-01) (51, 6.32604211568832397461e-02) (52, -1.31110856309533119202e-02) (53, -7.41423368453979492188e-02) (54, -4.78285737335681915283e-02) (55, -3.78965921700000762939e-02) (56, -2.15428434312343597412e-02) (57, -1.10194951295852661133e-01) (58, -9.96221825480461120605e-02) (59, -6.63827434182167053223e-02) (60, -2.45304442942142486572e-02) (61, -1.71641465276479721069e-02) (62, -1.25313820317387580872e-02) (63, -9.04333665966987609863e-02) (64, 6.04760646820068359375e-03) (65, 2.26110368967056274414e-01) (66, -1.51312043890357017517e-02) (67, 2.63003315776586532593e-02) (68, -4.79513145983219146729e-02) (69, -3.92407402396202087402e-02) (70, -9.73642319440841674805e-02) (71, 5.57430833578109741211e-03) (72, -6.58809095621109008789e-02) (73, -7.65017420053482055664e-02) (74, 3.10964998789131641388e-04) (75, -4.86815422773361206055e-02) (76, 6.62101730704307556152e-02) (77, 8.40232893824577331543e-02) (78, 2.05813106149435043335e-02) (79, 1.12847700715065002441e-01) (80, 9.90860834717750549316e-02) (81, 1.84557586908340454102e-01) (82, -6.03421330451965332031e-02) (83, 2.29892204515635967255e-03) (84, 1.43730759620666503906e-01) (85, 3.13214994966983795166e-02) (86, 8.03902931511402130127e-03) (87, 2.61359006166458129883e-01) (88, 1.91692579537630081177e-02) (89, 1.71747684478759765625e-01) (90, 6.16172850131988525391e-02) (91, -4.40028496086597442627e-02) (92, -7.13621675968170166016e-02) (93, 2.02111564576625823975e-02) (94, 8.52755084633827209473e-02) (95, -3.24377380311489105225e-02) (96, 1.23990364372730255127e-01) (97, 3.16123604774475097656e-01) (98, 2.38288357853889465332e-01) (99, 2.66609698534011840820e-01) (100, 1.57566890120506286621e-01) (101, 2.41849347949028015137e-01) (102, -7.55354762077331542969e-02) (103, 1.27306699752807617188e-01) (104, 1.83772280812263488770e-01) (105, -1.88985705375671386719e-01) (106, 9.11934226751327514648e-02) (107, 3.07529300451278686523e-01) (108, 1.25061601400375366211e-01) (109, 2.04976275563240051270e-01) (110, 7.80206844210624694824e-02) (111, -7.33798295259475708008e-02) (112, -1.90502792596817016602e-01) (113, 1.07973605394363403320e-01) (114, 1.96127593517303466797e-01) (115, -2.23781149834394454956e-02) (116, 1.59349516034126281738e-01) (117, 3.11510592699050903320e-01) (118, 3.09174865484237670898e-01) (119, 3.03248047828674316406e-01) (120, 1.16629630327224731445e-01) (121, 2.20339179039001464844e-01) (122, -3.73217254877090454102e-01) (123, -4.89037111401557922363e-02) (124, 2.33510807156562805176e-01) (125, -5.70677638053894042969e-01) (126, -3.92118655145168304443e-02) (127, 4.62991267442703247070e-01) (128, -5.43062649667263031006e-02) (129, 2.82082647085189819336e-01) (130, 9.01308506727218627930e-02) (131, -4.13586348295211791992e-01) (132, -5.70826053619384765625e-01) (133, -5.92570081353187561035e-02) (134, 8.64116996526718139648e-02) (135, -2.22290143370628356934e-01) (136, 1.05972267687320709229e-01) (137, 4.40781414508819580078e-01) (138, 3.67440909147262573242e-01) (139, 2.50330537557601928711e-01) (140, 1.39308750629425048828e-01) (141, 2.04318121075630187988e-01) (142, -8.92823413014411926270e-02) (143, 6.73252195119857788086e-02) (144, 1.75435647368431091309e-01) (145, -2.65568733215332031250e-01) (146, 6.30377512425184249878e-03) (147, 3.14249664545059204102e-01) (148, 1.54257956892251968384e-02) (149, 1.90737321972846984863e-01) (150, 1.40269577503204345703e-01) (151, -7.62033760547637939453e-02) (152, -8.13574492931365966797e-01) (153, 6.87358453869819641113e-02) (154, 9.52697321772575378418e-02) (155, -7.20920115709304809570e-02) (156, 1.13068267703056335449e-01) (157, 2.80961900949478149414e-01) (158, 1.75650298595428466797e-01) (159, 2.38938227295875549316e-01) (160, 1.29757478833198547363e-01) (161, 1.09627701342105865479e-01) (162, -2.50544939190149307251e-02) (163, 2.15205107815563678741e-03) (164, 1.12377189099788665771e-01) (165, 6.23279996216297149658e-02) (166, -5.90976979583501815796e-03) (167, 1.94553881883621215820e-01) (168, 1.83728465344756841660e-03) (169, 1.27411618828773498535e-01) (170, 7.79525116086006164551e-02) (171, 8.06382857263088226318e-03) (172, -3.71580451726913452148e-01) (173, 5.85137009620666503906e-02) (174, 1.06504335999488830566e-01) (175, -4.49205795302987098694e-03) (176, 6.20333179831504821777e-02) (177, 1.90318629145622253418e-01) (178, 8.52417498826980590820e-02) (179, 1.78630426526069641113e-01) (180, -6.12532766535878181458e-03) (181, 2.48966198414564132690e-02) (182, -6.99903294444084167480e-02) (183, -1.61226183176040649414e-01) (184, -5.81158399581909179688e-02) (185, 4.80888187885284423828e-02) (186, -1.62139445543289184570e-01) (187, -2.05280203372240066528e-02) (188, -1.04352213442325592041e-01) (189, -6.13227710127830505371e-02) (190, -1.04332968592643737793e-01) (191, -4.56161499023437500000e-02) (192, -2.79933929443359375000e-01) (193, -1.06335029006004333496e-01) (194, 