FANN_FLO_2.0
num_layers=42
learning_rate=0.700000
connection_rate=1.000000
shortcut_connections=1
learning_momentum=0.000000
training_algorithm=2
train_error_function=1
train_stop_function=0
cascade_output_change_fraction=0.010000
quickprop_decay=-0.000100
quickprop_mu=1.750000
rprop_increase_factor=1.200000
rprop_decrease_factor=0.500000
rprop_delta_min=0.000000
rprop_delta_max=50.000000
rprop_delta_zero=0.500000
cascade_output_stagnation_epochs=12
cascade_candidate_change_fraction=0.010000
cascade_candidate_stagnation_epochs=12
cascade_max_out_epochs=150
cascade_max_cand_epochs=150
cascade_num_candidate_groups=2
bit_fail_limit=3.49999994039535522461e-01
cascade_candidate_limit=1.00000000000000000000e+03
cascade_weight_multiplier=4.00000005960464477539e-01
cascade_activation_functions_count=6
cascade_activation_functions=3 5 7 8 10 11 
cascade_activation_steepnesses_count=4
cascade_activation_steepnesses=2.50000000000000000000e-01 5.00000000000000000000e-01 7.50000000000000000000e-01 1.00000000000000000000e+00 
layer_sizes=261 1 1 1 1 1 1 1 1 1 1 1 1 1 1 1 1 1 1 1 1 1 1 1 1 1 1 1 1 1 1 1 1 1 1 1 1 1 1 1 1 3 
neurons (num_inputs, activation_function, activation_steepness)=(0, 0, 0.00000000000000000000e+00) (0, 0, 0.00000000000000000000e+00) (0, 0, 0.00000000000000000000e+00) (0, 0, 0.00000000000000000000e+00) (0, 0, 0.00000000000000000000e+00) (0, 0, 0.00000000000000000000e+00) (0, 0, 0.00000000000000000000e+00) (0, 0, 0.00000000000000000000e+00) (0, 0, 0.00000000000000000000e+00) (0, 0, 0.00000000000000000000e+00) (0, 0, 0.00000000000000000000e+00) (0, 0, 0.00000000000000000000e+00) (0, 0, 0.00000000000000000000e+00) (0, 0, 0.00000000000000000000e+00) (0, 0, 0.00000000000000000000e+00) (0, 0, 0.00000000000000000000e+00) (0, 0, 0.00000000000000000000e+00) (0, 0, 0.00000000000000000000e+00) (0, 0, 0.00000000000000000000e+00) (0, 0, 0.00000000000000000000e+00) (0, 0, 0.00000000000000000000e+00) (0, 0, 0.00000000000000000000e+00) (0, 0, 0.00000000000000000000e+00) (0, 0, 0.00000000000000000000e+00) (0, 0, 0.00000000000000000000e+00) (0, 0, 0.00000000000000000000e+00) (0, 0, 0.00000000000000000000e+00) (0, 0, 0.00000000000000000000e+00) (0, 0, 0.00000000000000000000e+00) (0, 0, 0.00000000000000000000e+00) (0, 0, 0.00000000000000000000e+00) (0, 0, 0.00000000000000000000e+00) (0, 0, 0.00000000000000000000e+00) (0, 0, 0.00000000000000000000e+00) (0, 0, 0.00000000000000000000e+00) (0, 0, 0.00000000000000000000e+00) (0, 0, 0.00000000000000000000e+00) (0, 0, 0.00000000000000000000e+00) (0, 0, 0.00000000000000000000e+00) (0, 0, 0.00000000000000000000e+00) (0, 0, 0.00000000000000000000e+00) (0, 0, 0.00000000000000000000e+00) (0, 0, 0.00000000000000000000e+00) (0, 0, 0.00000000000000000000e+00) (0, 0, 0.00000000000000000000e+00) (0, 0, 0.00000000000000000000e+00) (0, 0, 0.00000000000000000000e+00) (0, 0, 0.00000000000000000000e+00) (0, 0, 0.00000000000000000000e+00) (0, 0, 0.00000000000000000000e+00) (0, 0, 0.00000000000000000000e+00) (0, 0, 0.00000000000000000000e+00) (0, 0, 0.00000000000000000000e+00) (0, 0, 0.00000000000000000000e+00) (0, 0, 0.00000000000000000000e+00) (0, 0, 0.00000000000000000000e+00) (0, 0, 0.00000000000000000000e+00) (0, 0, 0.00000000000000000000e+00) (0, 0, 0.00000000000000000000e+00) (0, 0, 0.00000000000000000000e+00) (0, 0, 0.00000000000000000000e+00) (0, 0, 0.00000000000000000000e+00) (0, 0, 0.00000000000000000000e+00) (0, 0, 0.00000000000000000000e+00) (0, 0, 0.00000000000000000000e+00) (0, 0, 0.00000000000000000000e+00) (0, 0, 0.00000000000000000000e+00) (0, 0, 0.00000000000000000000e+00) (0, 0, 0.00000000000000000000e+00) (0, 0, 0.00000000000000000000e+00) (0, 0, 0.00000000000000000000e+00) (0, 0, 0.00000000000000000000e+00) (0, 0, 0.00000000000000000000e+00) (0, 0, 0.00000000000000000000e+00) (0, 0, 0.00000000000000000000e+00) (0, 0, 0.00000000000000000000e+00) (0, 0, 0.00000000000000000000e+00) (0, 0, 0.00000000000000000000e+00) (0, 0, 0.00000000000000000000e+00) (0, 0, 0.00000000000000000000e+00) (0, 0, 0.00000000000000000000e+00) (0, 0, 0.00000000000000000000e+00) (0, 0, 0.00000000000000000000e+00) (0, 0, 0.00000000000000000000e+00) (0, 0, 0.00000000000000000000e+00) (0, 0, 0.00000000000000000000e+00) (0, 0, 0.00000000000000000000e+00) (0, 0, 0.00000000000000000000e+00) (0, 0, 0.00000000000000000000e+00) (0, 0, 0.00000000000000000000e+00) (0, 0, 0.00000000000000000000e+00) (0, 0, 0.00000000000000000000e+00) (0, 0, 0.00000000000000000000e+00) (0, 0, 0.00000000000000000000e+00) (0, 0, 0.00000000000000000000e+00) (0, 0, 0.00000000000000000000e+00) (0, 0, 0.00000000000000000000e+00) (0, 0, 0.00000000000000000000e+00) (0, 0, 0.00000000000000000000e+00) (0, 0, 0.00000000000000000000e+00) (0, 0, 0.00000000000000000000e+00) (0, 0, 0.00000000000000000000e+00) (0, 0, 0.00000000000000000000e+00) (0, 0, 0.00000000000000000000e+00) (0, 0, 0.00000000000000000000e+00) (0, 0, 0.00000000000000000000e+00) (0, 0, 0.00000000000000000000e+00) (0, 0, 0.00000000000000000000e+00) (0, 0, 0.00000000000000000000e+00) (0, 0, 0.00000000000000000000e+00) (0, 0, 0.00000000000000000000e+00) (0, 0, 0.00000000000000000000e+00) (0, 0, 0.00000000000000000000e+00) (0, 0, 0.00000000000000000000e+00) (0, 0, 0.00000000000000000000e+00) (0, 0, 0.00000000000000000000e+00) (0, 0, 0.00000000000000000000e+00) (0, 0, 0.00000000000000000000e+00) (0, 0, 0.00000000000000000000e+00) (0, 0, 0.00000000000000000000e+00) (0, 0, 0.00000000000000000000e+00) (0, 0, 0.00000000000000000000e+00) (0, 0, 0.00000000000000000000e+00) (0, 0, 0.00000000000000000000e+00) (0, 0, 0.00000000000000000000e+00) (0, 0, 0.00000000000000000000e+00) (0, 0, 0.00000000000000000000e+00) (0, 0, 0.00000000000000000000e+00) (0, 0, 0.00000000000000000000e+00) (0, 0, 0.00000000000000000000e+00) (0, 0, 0.00000000000000000000e+00) (0, 0, 0.00000000000000000000e+00) (0, 0, 0.00000000000000000000e+00) (0, 0, 0.00000000000000000000e+00) (0, 0, 0.00000000000000000000e+00) (0, 0, 0.00000000000000000000e+00) (0, 0, 0.00000000000000000000e+00) (0, 0, 0.00000000000000000000e+00) (0, 0, 0.00000000000000000000e+00) (0, 0, 0.00000000000000000000e+00) (0, 0, 0.00000000000000000000e+00) (0, 0, 0.00000000000000000000e+00) (0, 0, 0.00000000000000000000e+00) (0, 0, 0.00000000000000000000e+00) (0, 0, 0.00000000000000000000e+00) (0, 0, 0.00000000000000000000e+00) (0, 0, 0.00000000000000000000e+00) (0, 0, 0.00000000000000000000e+00) (0, 0, 0.00000000000000000000e+00) (0, 0, 0.00000000000000000000e+00) (0, 0, 0.00000000000000000000e+00) (0, 0, 0.00000000000000000000e+00) (0, 0, 0.00000000000000000000e+00) (0, 0, 0.00000000000000000000e+00) (0, 0, 0.00000000000000000000e+00) (0, 0, 0.00000000000000000000e+00) (0, 0, 0.00000000000000000000e+00) (0, 0, 0.00000000000000000000e+00) (0, 0, 0.00000000000000000000e+00) (0, 0, 0.00000000000000000000e+00) (0, 0, 0.00000000000000000000e+00) (0, 0, 0.00000000000000000000e+00) (0, 0, 0.00000000000000000000e+00) (0, 0, 0.00000000000000000000e+00) (0, 0, 0.00000000000000000000e+00) (0, 0, 0.00000000000000000000e+00) (0, 0, 0.00000000000000000000e+00) (0, 0, 0.00000000000000000000e+00) (0, 0, 0.00000000000000000000e+00) (0, 0, 0.00000000000000000000e+00) (0, 0, 0.00000000000000000000e+00) (0, 0, 0.00000000000000000000e+00) (0, 0, 0.00000000000000000000e+00) (0, 0, 0.00000000000000000000e+00) (0, 0, 0.00000000000000000000e+00) (0, 0, 0.00000000000000000000e+00) (0, 0, 0.00000000000000000000e+00) (0, 0, 0.00000000000000000000e+00) (0, 0, 0.00000000000000000000e+00) (0, 0, 0.00000000000000000000e+00) (0, 0, 0.00000000000000000000e+00) (0, 0, 0.00000000000000000000e+00) (0, 0, 0.00000000000000000000e+00) (0, 0, 0.00000000000000000000e+00) (0, 0, 0.00000000000000000000e+00) (0, 0, 0.00000000000000000000e+00) (0, 0, 0.00000000000000000000e+00) (0, 0, 0.00000000000000000000e+00) (0, 0, 0.00000000000000000000e+00) (0, 0, 0.00000000000000000000e+00) (0, 0, 0.00000000000000000000e+00) (0, 0, 0.00000000000000000000e+00) (0, 0, 0.00000000000000000000e+00) (0, 0, 0.00000000000000000000e+00) (0, 0, 0.00000000000000000000e+00) (0, 0, 0.00000000000000000000e+00) (0, 0, 0.00000000000000000000e+00) (0, 0, 0.00000000000000000000e+00) (0, 0, 0.00000000000000000000e+00) (0, 0, 0.00000000000000000000e+00) (0, 0, 0.00000000000000000000e+00) (0, 0, 0.00000000000000000000e+00) (0, 0, 0.00000000000000000000e+00) (0, 0, 0.00000000000000000000e+00) (0, 0, 0.00000000000000000000e+00) (0, 0, 0.00000000000000000000e+00) (0, 0, 0.00000000000000000000e+00) (0, 0, 0.00000000000000000000e+00) (0, 0, 0.00000000000000000000e+00) (0, 0, 0.00000000000000000000e+00) (0, 0, 0.00000000000000000000e+00) (0, 0, 0.00000000000000000000e+00) (0, 0, 0.00000000000000000000e+00) (0, 0, 0.00000000000000000000e+00) (0, 0, 0.00000000000000000000e+00) (0, 0, 0.00000000000000000000e+00) (0, 0, 0.00000000000000000000e+00) (0, 0, 0.00000000000000000000e+00) (0, 0, 0.00000000000000000000e+00) (0, 0, 0.00000000000000000000e+00) (0, 0, 0.00000000000000000000e+00) (0, 0, 0.00000000000000000000e+00) (0, 0, 0.00000000000000000000e+00) (0, 0, 0.00000000000000000000e+00) (0, 0, 0.00000000000000000000e+00) (0, 0, 0.00000000000000000000e+00) (0, 0, 0.00000000000000000000e+00) (0, 0, 0.00000000000000000000e+00) (0, 0, 0.00000000000000000000e+00) (0, 0, 0.00000000000000000000e+00) (0, 0, 0.00000000000000000000e+00) (0, 0, 0.00000000000000000000e+00) (0, 0, 0.00000000000000000000e+00) (0, 0, 0.00000000000000000000e+00) (0, 0, 0.00000000000000000000e+00) (0, 0, 0.00000000000000000000e+00) (0, 0, 0.00000000000000000000e+00) (0, 0, 0.00000000000000000000e+00) (0, 0, 0.00000000000000000000e+00) (0, 0, 0.00000000000000000000e+00) (0, 0, 0.00000000000000000000e+00) (0, 0, 0.00000000000000000000e+00) (0, 0, 0.00000000000000000000e+00) (0, 0, 0.00000000000000000000e+00) (0, 0, 0.00000000000000000000e+00) (0, 0, 0.00000000000000000000e+00) (0, 0, 0.00000000000000000000e+00) (0, 0, 0.00000000000000000000e+00) (0, 0, 0.00000000000000000000e+00) (0, 0, 0.00000000000000000000e+00) (0, 0, 0.00000000000000000000e+00) (0, 0, 0.00000000000000000000e+00) (0, 0, 0.00000000000000000000e+00) (0, 0, 0.00000000000000000000e+00) (0, 0, 0.00000000000000000000e+00) (0, 0, 0.00000000000000000000e+00) (0, 0, 0.00000000000000000000e+00) (0, 0, 0.00000000000000000000e+00) (0, 0, 0.00000000000000000000e+00) (0, 0, 0.00000000000000000000e+00) (0, 0, 0.00000000000000000000e+00) (261, 8, 2.50000000000000000000e-01) (262, 8, 7.50000000000000000000e-01) (263, 8, 5.00000000000000000000e-01) (264, 8, 7.50000000000000000000e-01) (265, 10, 1.00000000000000000000e+00) (266, 8, 2.50000000000000000000e-01) (267, 8, 1.00000000000000000000e+00) (268, 3, 5.00000000000000000000e-01) (269, 3, 7.50000000000000000000e-01) (270, 3, 7.50000000000000000000e-01) (271, 8, 7.50000000000000000000e-01) (272, 8, 7.50000000000000000000e-01) (273, 3, 7.50000000000000000000e-01) (274, 8, 2.50000000000000000000e-01) (275, 3, 1.00000000000000000000e+00) (276, 8, 2.50000000000000000000e-01) (277, 8, 5.00000000000000000000e-01) (278, 10, 5.00000000000000000000e-01) (279, 8, 5.00000000000000000000e-01) (280, 8, 2.50000000000000000000e-01) (281, 8, 7.50000000000000000000e-01) (282, 3, 1.00000000000000000000e+00) (283, 8, 7.50000000000000000000e-01) (284, 8, 2.50000000000000000000e-01) (285, 8, 1.00000000000000000000e+00) (286, 8, 1.00000000000000000000e+00) (287, 8, 7.50000000000000000000e-01) (288, 10, 1.00000000000000000000e+00) (289, 8, 5.00000000000000000000e-01) (290, 8, 2.50000000000000000000e-01) (291, 8, 2.50000000000000000000e-01) (292, 8, 7.50000000000000000000e-01) (293, 8, 5.00000000000000000000e-01) (294, 3, 7.50000000000000000000e-01) (295, 10, 1.00000000000000000000e+00) (296, 8, 1.00000000000000000000e+00) (297, 8, 5.00000000000000000000e-01) (298, 8, 1.00000000000000000000e+00) (299, 8, 2.50000000000000000000e-01) (300, 8, 1.00000000000000000000e+00) (301, 5, 5.00000000000000000000e-01) (301, 5, 5.00000000000000000000e-01) (301, 5, 5.00000000000000000000e-01) 
connections (connected_to_neuron, weight)=(0, -2.90896803140640258789e-01) (1, -3.02406132221221923828e-01) (2, -3.14836740493774414062e-01) (3, -3.05528908967971801758e-01) (4, -3.12444448471069335938e-01) (5, -3.02016675472259521484e-01) (6, -2.87226080894470214844e-01) (7, -3.34537476301193237305e-01) (8, -3.23202520608901977539e-01) (9, -3.30906599760055541992e-01) (10, -2.99070626497268676758e-01) (11, -3.04350286722183227539e-01) (12, -3.46925258636474609375e-01) (13, -3.29553693532943725586e-01) (14, -3.50112736225128173828e-01) (15, -3.28676193952560424805e-01) (16, -3.30693900585174560547e-01) (17, -3.16833466291427612305e-01) (18, -3.33644300699234008789e-01) (19, -3.22583615779876708984e-01) (20, -3.22746604681015014648e-01) (21, -3.44452857971191406250e-01) (22, -3.04775208234786987305e-01) (23, -3.40464979410171508789e-01) (24, -3.04269015789031982422e-01) (25, -3.22091013193130493164e-01) (26, -2.97812789678573608398e-01) (27, -3.13725322484970092773e-01) (28, -3.16123664379119873047e-01) (29, -3.01097840070724487305e-01) (30, -3.39868187904357910156e-01) (31, -3.12187135219573974609e-01) (32, -3.36848139762878417969e-01) (33, -3.11050087213516235352e-01) (34, -3.45026999711990356445e-01) (35, -3.22066843509674072266e-01) (36, -3.31575691699981689453e-01) (37, -3.14399242401123046875e-01) (38, -3.32455635070800781250e-01) (39, -3.01234781742095947266e-01) (40, -2.82808840274810791016e-01) (41, -2.84580916166305541992e-01) (42, -2.72946894168853759766e-01) (43, -2.79369413852691650391e-01) (44, -2.79076725244522094727e-01) (45, -2.73089855909347534180e-01) (46, -2.64244556427001953125e-01) (47, -2.88826227188110351562e-01) (48, -2.72191345691680908203e-01) (49, -2.84270584583282470703e-01) (50, -3.34433317184448242188e-01) (51, -2.61152744293212890625e-01) (52, -2.79870897531509399414e-01) (53, -2.79092341661453247070e-01) (54, -2.79778361320495605469e-01) (55, -2.79556214809417724609e-01) (56, -2.77155548334121704102e-01) (57, -2.85497128963470458984e-01) (58, -2.80129700899124145508e-01) (59, -2.76323616504669189453e-01) (60, -2.73854762315750122070e-01) (61, -2.64912396669387817383e-01) (62, -2.51558870077133178711e-01) (63, -2.67184227705001831055e-01) (64, -2.58625715970993041992e-01) (65, -2.64052599668502807617e-01) (66, -2.54840403795242309570e-01) (67, -2.75398582220077514648e-01) (68, -2.73794710636138916016e-01) (69, -2.66487479209899902344e-01) (70, -3.38097363710403442383e-01) (71, -2.53384619951248168945e-01) (72, -2.45534420013427734375e-01) (73, -2.64564424753189086914e-01) (74, -2.66393989324569702148e-01) (75, -2.68929690122604370117e-01) (76, -2.64216750860214233398e-01) (77, -2.67222732305526733398e-01) (78, -2.69926309585571289062e-01) (79, -2.54255890846252441406e-01) (80, -2.47118785977363586426e-01) (81, -2.52033501863479614258e-01) (82, -2.28619754314422607422e-01) (83, -2.44114220142364501953e-01) (84, -2.43992850184440612793e-01) (85, -2.32388228178024291992e-01) (86, -2.33902156352996826172e-01) (87, -2.54396438598632812500e-01) (88, -2.43799790740013122559e-01) (89, -2.52022624015808105469e-01) (90, -3.59302461147308349609e-01) (91, -2.31133118271827697754e-01) (92, -2.28876441717147827148e-01) (93, -2.44945243000984191895e-01) (94, -2.44708657264709472656e-01) (95, -2.54316210746765136719e-01) (96, -2.42284178733825683594e-01) (97, -2.53700822591781616211e-01) (98, -2.53378540277481079102e-01) (99, -2.40911185741424560547e-01) (100, -2.02746033668518066406e-01) (101, -2.04585433006286621094e-01) (102, -1.83067470788955688477e-01) (103, -1.95015579462051391602e-01) (104, -1.96024537086486816406e-01) (105, -1.73437118530273437500e-01) (106, -2.00549408793449401855e-01) (107, -2.07358375191688537598e-01) (108, -1.99638307094573974609e-01) (109, -2.07778468728065490723e-01) (110, -3.25584560632705688477e-01) (111, -1.89803615212440490723e-01) (112, -1.65053799748420715332e-01) (113, -2.04517662525177001953e-01) (114, -1.94771900773048400879e-01) (115, -2.06801488995552062988e-01) (116, -1.93446993827819824219e-01) (117, -2.02508851885795593262e-01) (118, -2.02024564146995544434e-01) (119, -1.99768796563148498535e-01) (120, -1.14388480782508850098e-01) (121, -1.06437079608440399170e-01) (122, -6.34464323520660400391e-02) (123, -1.05685986578464508057e-01) (124, -9.55632105469703674316e-02) (125, -7.53857642412185668945e-02) (126, -9.85966324806213378906e-02) (127, -1.03017114102840423584e-01) (128, -1.11746415495872497559e-01) (129, -1.05228967964649200439e-01) (130, -2.39314883947372436523e-01) (131, -6.99441581964492797852e-02) (132, -5.42782954871654510498e-02) (133, -1.03027410805225372314e-01) (134, -1.27795115113258361816e-01) (135, -1.01085253059864044189e-01) (136, -8.15702304244041442871e-02) (137, -9.77860540151596069336e-02) (138, -9.89287868142127990723e-02) (139, -9.36587154865264892578e-02) (140, -2.03061521053314208984e-01) (141, -2.19832450151443481445e-01) (142, -1.63996428251266479492e-01) (143, -2.01615512371063232422e-01) (144, -2.02131420373916625977e-01) (145, -1.53409138321876525879e-01) (146, -2.03539967536926269531e-01) (147, -2.04350411891937255859e-01) (148, -2.07280397415161132812e-01) (149, -2.06967830657958984375e-01) (150, -2.20290869474411010742e-01) (151, -1.76836609840393066406e-01) (152, -1.29431754350662231445e-01) (153, -2.07510128617286682129e-01) (154, -2.11210861802101135254e-01) (155, -1.94829657673835754395e-01) (156, -1.89784720540046691895e-01) (157, -2.04772308468818664551e-01) (158, -1.96872368454933166504e-01) (159, -2.00264662504196166992e-01) (160, -2.14647546410560607910e-01) (161, -2.18514665961265563965e-01) (162, -1.79552361369132995605e-01) (163, -1.90863043069839477539e-01) (164, -2.07882717251777648926e-01) (165, -1.72127574682235717773e-01) (166, -2.05600395798683166504e-01) (167, -2.12663054466247558594e-01) (168, -2.14125812053680419922e-01) (169, -2.23290219902992248535e-01) (170, -2.21163660287857055664e-01) (171, -1.87904551625251770020e-01) (172, -1.66663587093353271484e-01) (173, -2.19426527619361877441e-01) (174, -2.08558797836303710938e-01) (175, -2.01614886522293090820e-01) (176, -1.94590330123901367188e-01) (177, -2.09735140204429626465e-01) (178, -2.01327487826347351074e-01) (179, -2.11739346385002136230e-01) (180, -2.40644454956054687500e-01) (181, -2.44605794548988342285e-01) (182, -2.23720833659172058105e-01) (183, -2.34855636954307556152e-01) (184, -2.37346529960632324219e-01) (185, -2.37287655472755432129e-01) (186, -2.38274946808815002441e-01) (187, -2.53553152084350585938e-01) (188, -2.54343658685684204102e-01) (189, -2.42920339107513427734e-01) (190, -2.56186991930007934570e-01) (191, -2.39387243986129760742e-01) (192, -2.14349374175071716309e-01) (193, -2.53704428672790527344e-01) (194, -2.52616852521896362305e-01) (195, -2.42094516754150390625e-01) (196, -2.32353955507278442383e-01) (197, -2.29332864284515380859e-01) (198, -2.39157021045684814453e-01) (199, -2.30455562472343444824e-01) (200, -2.92272716760635375977e-01) (201, -2.83852845430374145508e-01) (202, -2.71625190973281860352e-01) (203, -2.81366616487503051758e-01) (204, -2.77281075716018676758e-01) (205, -2.81748920679092407227e-01) (206, -2.71828353404998779297e-01) (207, -2.77676194906234741211e-01) (208, -2.90948122739791870117e-01) (209, -2.85878032445907592773e-01) (210, -2.82711446285247802734e-01) (211, -2.83042818307876586914e-01) (212, -2.68908143043518066406e-01) (213, -2.95869559049606323242e-01) (214, -2.88297861814498901367e-01) (215, -2.78528749942779541016e-01) (216, -2.87235915660858154297e-01) (217, -2.74787068367004394531e-01) (218, -2.74481713771820068359e-01) (219, -2.76375323534011840820e-01) (220, -2.80278712511062622070e-01) (221, -2.73002773523330688477e-01) (222, -2.60251224040985107422e-01) (223, -2.70301818847656250000e-01) (224, -2.67221659421920776367e-01) (225, -2.69406884908676147461e-01) (226, -2.62636035680770874023e-01) (227, -2.61560648679733276367e-01) (228, -2.81620621681213378906e-01) (229, -2.71879851818084716797e-01) (230, -2.70634084939956665039e-01) (231, -2.66645938158035278320e-01) (232, -2.62531191110610961914e-01) (233, -2.82133787870407104492e-01) (234, -2.64116406440734863281e-01) (235, -2.71650552749633789062e-01) (236, -2.49825030565261840820e-01) (237, -2.63708233833312988281e-01) (238, -2.66731768846511840820e-01) (239, -2.65655338764190673828e-01) (240, -2.83141285181045532227e-01) (241, -2.84739702939987182617e-01) (242, -2.61236429214477539062e-01) (243, -2.68040955066680908203e-01) (244, -2.88245260715484619141e-01) (245, -2.86884874105453491211e-01) (246, -2.60535210371017456055e-01) (247, -2.93188989162445068359e-01) (248, -2.90338337421417236328e-01) (249, -2.93288141489028930664e-01) (250, -2.92783766984939575195e-01) (251, -2.90323287248611450195e-01) (252, -2.59548813104629516602e-01) (253, -2.86120325326919555664e-01) (254, -2.78236687183380126953e-01) (255, -2.80975222587585449219e-01) (256, -2.72353172302246093750e-01) (257, -2.86052376031875610352e-01) (258, -2.79978185892105102539e-01) (259, -2.83009260892868041992e-01) (260, -1.66599631309509277344e-01) (0, 3.40580880641937255859e-01) (1, 2.13165581226348876953e-02) (2, 2.17297658324241638184e-01) (3, 3.25329661369323730469e-01) (4, 2.25972101092338562012e-01) (5, -1.61517113447189331055e-01) (6, 1.00215889513492584229e-01) (7, 1.77388265728950500488e-01) (8, 1.27370566129684448242e-01) (9, 2.95489221811294555664e-01) (10, 2.69875854253768920898e-01) (11, 1.46044135093688964844e-01) (12, 4.80657219886779785156e-02) (13, 2.41756603121757507324e-01) (14, 4.91449624300003051758e-01) (15, 1.83920860290527343750e-01) (16, -1.19498491287231445312e+00) (17, -1.17255425453186035156e+00) (18, -1.14808177947998046875e+00) (19, -1.19678282737731933594e+00) (20, 2.84463524818420410156e-01) (21, -8.27517434954643249512e-02) (22, 1.33813798427581787109e-01) (23, 2.37983360886573791504e-01) (24, 1.71846300363540649414e-01) (25, -4.24062877893447875977e-01) (26, -4.38488274812698364258e-02) (27, 1.91103592514991760254e-01) (28, 8.44482034444808959961e-02) (29, 2.76689529418945312500e-01) (30, 1.21275015175342559814e-01) (31, -7.40077644586563110352e-02) (32, -2.34925985336303710938e-01) (33, 1.32107824087142944336e-01) (34, 5.96220493316650390625e-02) (35, -1.64255709387362003326e-03) (36, 4.18505445122718811035e-02) (37, 9.40898247063159942627e-03) (38, 1.25794619321823120117e-01) (39, -2.01769191771745681763e-02) (40, 2.84333765506744384766e-01) (41, -1.55680224299430847168e-01) (42, 9.68144536018371582031e-02) (43, 2.59819835424423217773e-01) (44, 1.16265304386615753174e-01) (45, -6.01594388484954833984e-01) (46, -1.02092795073986053467e-01) (47, 1.97080880403518676758e-01) (48, 3.95114347338676452637e-02) (49, 3.01305025815963745117e-01) (50, 1.91766336560249328613e-01) (51, -1.02614179253578186035e-01) (52, -2.87673562765121459961e-01) (53, 2.08526805043220520020e-01) (54, 1.19476206600666046143e-01) (55, 1.20269395411014556885e-02) (56, 1.87319088727235794067e-02) (57, 3.36333177983760833740e-02) (58, 7.51521959900856018066e-02) (59, -3.56063172221183776855e-02) (60, 3.12000781297683715820e-01) (61, -2.15879514813423156738e-01) (62, 9.63087156414985656738e-02) (63, 2.58080571889877319336e-01) (64, 8.26864168047904968262e-02) (65, -7.99968838691711425781e-01) (66, -1.33904352784156799316e-01) (67, 1.83231040835380554199e-01) (68, 2.78944764286279678345e-02) (69, 3.20548057556152343750e-01) (70, 1.96653738617897033691e-01) (71, -1.27344354987144470215e-01) (72, -3.55266928672790527344e-01) (73, 2.05488368868827819824e-01) (74, 1.02120876312255859375e-01) (75, -3.60076501965522766113e-02) (76, -1.75597257912158966064e-02) (77, -8.12863372266292572021e-03) (78, 1.66923031210899353027e-01) (79, 1.77589943632483482361e-03) (80, 4.03884261846542358398e-01) (81, -3.17895621061325073242e-01) (82, 1.27072364091873168945e-01) (83, 3.27492892742156982422e-01) (84, 3.61163616180419921875e-02) (85, -9.08112168312072753906e-01) (86, -1.65768817067146301270e-01) (87, 9.23192724585533142090e-02) (88, 8.89587029814720153809e-02) (89, 3.11399757862091064453e-01) (90, 2.37114489078521728516e-01) (91, -1.36431410908699035645e-01) (92, -3.95874053239822387695e-01) (93, 2.55570143461227416992e-01) (94, 1.67084068059921264648e-01) (95, -4.52469624578952789307e-02) (96, -9.07728448510169982910e-02) (97, -1.24136142432689666748e-01) (98, 2.17298060655593872070e-01) (99, -2.89794560521841049194e-02) (100, 3.78745675086975097656e-01) (101, -3.52132439613342285156e-01) (102, 3.64132747054100036621e-02) (103, 3.36487919092178344727e-01) (104, 2.26949602365493774414e-02) (105, -1.00889503955841064453e+00) (106, -1.49310350418090820312e-01) (107, 6.08185715973377227783e-02) (108, 1.19429849088191986084e-01) (109, 2.69773751497268676758e-01) (110, 1.60588845610618591309e-01) (111, -2.43158906698226928711e-01) (112, -6.28167986869812011719e-01) (113, 2.63546973466873168945e-01) (114, 1.78477272391319274902e-01) (115, -1.16873830556869506836e-01) (116, -1.96261122822761535645e-01) (117, -1.83963641524314880371e-01) (118, 1.93911194801330566406e-01) (119, -8.22046548128128051758e-02) (120, 4.51683908700942993164e-01) (121, -3.01198303699493408203e-01) (122, -1.60639464855194091797e-01) (123, 4.32846456766128540039e-01) (124, 1.25471770763397216797e-01) (125, -1.07497537136077880859e+00) (126, -9.59547236561775207520e-02) (127, 1.37751057744026184082e-01) (128, 2.49057635664939880371e-01) (129, 3.91545832157135009766e-01) (130, 2.70318537950515747070e-01) (131, -3.09292078018188476562e-01) (132, -9.76861953735351562500e-01) (133, 3.83675724267959594727e-01) (134, 2.67629981040954589844e-01) (135, -2.94749051332473754883e-01) (136, -3.24399858713150024414e-01) (137, -7.52466917037963867188e-02) (138, 2.24105104804039001465e-01) (139, 1.72117110341787338257e-02) (140, 4.67122018337249755859e-01) (141, -1.31616726517677307129e-01) (142, -2.36496761441230773926e-01) (143, 3.50680172443389892578e-01) (144, 1.84953048825263977051e-01) (145, -7.58192300796508789062e-01) (146, 1.56771857291460037231e-04) (147, 1.35695576667785644531e-01) (148, 3.13055008649826049805e-01) (149, 4.16373491287231445312e-01) (150, 3.78152579069137573242e-01) (151, -1.46419987082481384277e-01) (152, -1.20650959014892578125e+00) (153, 3.96728545427322387695e-01) (154, 2.87243723869323730469e-01) (155, -1.98954269289970397949e-01) (156, -2.89978235960006713867e-01) (157, -1.00576974451541900635e-01) (158, 1.50559112429618835449e-01) (159, 6.45174309611320495605e-02) (160, 4.02538895606994628906e-01) (161, -1.22457794845104217529e-01) (162, -2.65789568424224853516e-01) (163, 2.20388427376747131348e-01) (164, 1.31177663803100585938e-01) (165, -3.06997954845428466797e-01) (166, 5.50575144588947296143e-02) (167, 1.10665008425712585449e-01) (168, 2.87935733795166015625e-01) (169, 4.09357249736785888672e-01) (170, 3.97178292274475097656e-01) (171, -2.57996711879968643188e-02) (172, -1.04056215286254882812e+00) (173, 3.85026454925537109375e-01) (174, 3.12380135059356689453e-01) (175, -1.49694636464118957520e-01) (176, -2.22105011343955993652e-01) (177, -1.74692705273628234863e-01) (178, 9.04433801770210266113e-02) (179, 6.73092976212501525879e-02) (180, 3.26145052909851074219e-01) (181, -9.03265550732612609863e-02) (182, -3.47625702619552612305e-01) (183, 1.04192763566970825195e-01) (184, 1.05058655142784118652e-01) (185, -2.55636930465698242188e-01) (186, 2.82878838479518890381e-02) (187, 1.23390443623065948486e-01) (188, 2.48648792505264282227e-01) (189, 3.98527592420578002930e-01) (190, 3.83148252964019775391e-01) (191, -3.79788801074028015137e-02) (192, -9.47498798370361328125e-01) (193, 2.55497843027114868164e-01) (194, 2.46657997369766235352e-01) (195, -1.76459982991218566895e-01) (196, -2.54653632640838623047e-01) (197, -1.67085260152816772461e-01) (198, 1.05552330613136291504e-01) (199, 1.24770425260066986084e-01) (200, 2.46325775980949401855e-01) (201, -7.45435431599617004395e-02) (202, -2.69427567720413208008e-01) (203, 1.24124467372894287109e-01) (204, 1.05451576411724090576e-01) (205, -2.15836539864540100098e-01) (206, -1.34855089709162712097e-02) (207, 1.49055227637290954590e-01) (208, 2.56569236516952514648e-01) (209, 3.75243097543716430664e-01) (210, 3.31855267286300659180e-01) (211, -4.69231344759464263916e-02) (212, -6.26824617385864257812e-01) (213, 2.05778881907463073730e-01) (214, 2.40503370761871337891e-01) (215, -1.49205043911933898926e-01) (216, -2.27608129382133483887e-01) (217, -1.19740776717662811279e-01) (218, 6.19281232357025146484e-02) (219, 1.23357072472572326660e-01) (220, 1.43741384148597717285e-01) (221, -1.36479586362838745117e-01) (222, -2.27631717920303344727e-01) (223, 4.81316670775413513184e-02) (224, 8.37638601660728454590e-02) (225, -2.17811882495880126953e-01) (226, -4.92865256965160369873e-02) (227, 8.90856236219406127930e-02) (228, 1.79427117109298706055e-01) (229, 2.68825262784957885742e-01) (230, 2.42830649018287658691e-01) (231, -7.35977068543434143066e-02) (232, -4.39918220043182373047e-01) (233, 1.04083053767681121826e-01) (234, 1.32787510752677917480e-01) (235, -1.43998473882675170898e-01) (236, -2.00863286852836608887e-01) (237, -1.16418734192848205566e-01) (238, -6.65371194481849670410e-02) (239, 7.38234594464302062988e-02) (240, 1.31997868418693542480e-01) (241, -9.63151603937149047852e-02) (242, -1.43267706036567687988e-01) (243, 6.11510165035724639893e-02) (244, 1.09721317887306213379e-01) (245, -1.45361170172691345215e-01) (246, -2.12000422179698944092e-02) (247, 8.19210484623908996582e-02) (248, 1.59671291708946228027e-01) (249, 2.30882301926612854004e-01) (250, 1.95437923073768615723e-01) (251, -2.54180915653705596924e-02) (252, -2.73327976465225219727e-01) (253, 6.55827671289443969727e-02) (254, 1.03871792554855346680e-01) (255, -1.13414429128170013428e-01) (256, -1.44405975937843322754e-01) (257, -3.49714010953903198242e-02) (258, -1.04556113481521606445e-01) (259, 8.08204263448715209961e-02) (260, 2.38867606967687606812e-02) (261, -2.14092707633972167969e+00) (0, -2.50619083642959594727e-01) (1, -3.95850121974945068359e-01) (2, -2.43952691555023193359e-01) (3, -7.67543613910675048828e-02) (4, -4.65830326080322265625e-01) (5, -1.85942053794860839844e-01) (6, -1.82441338896751403809e-01) (7, -4.39918428659439086914e-01) (8, -1.10104326158761978149e-02) (9, -4.52912122011184692383e-01) (10, -3.67709517478942871094e-01) (11, -1.63408577442169189453e-01) (12, -5.31298071146011352539e-02) (13, -5.19124865531921386719e-02) (14, -1.55147477984428405762e-01) (15, -2.86612898111343383789e-01) (16, 1.13402807712554931641e+00) (17, 1.10588085651397705078e+00) (18, 1.09868228435516357422e+00) (19, 1.11932373046875000000e+00) (20, -2.77374275028705596924e-02) (21, -3.47079932689666748047e-01) (22, 2.88290411233901977539e-01) (23, 3.76526057720184326172e-01) (24, -3.75513762235641479492e-01) (25, -2.58066058158874511719e-02) (26, 4.23030704259872436523e-02) (27, -5.04165291786193847656e-01) (28, 2.22471117973327636719e-01) (29, -4.62683320045471191406e-01) (30, -2.66490548849105834961e-01) (31, 1.43306165933609008789e-01) (32, 5.62652088701725006104e-02) (33, 2.62222111225128173828e-01) (34, 1.12520664930343627930e-01) (35, 1.19367605075240135193e-02) (36, -1.74904558807611465454e-02) (37, -3.44857215881347656250e-01) (38, -4.07963246107101440430e-01) (39, -3.22364926338195800781e-01) (40, -4.52487077564001083374e-03) (41, 1.40516161918640136719e-01) (42, -1.68425142765045166016e-01) (43, -3.97165626287460327148e-01) (44, 3.19245189428329467773e-01) (45, -1.99679240584373474121e-01) (46, -1.21006786823272705078e-01) (47, 3.40568423271179199219e-01) (48, -4.17880356311798095703e-01) (49, 4.06319200992584228516e-01) (50, 1.86110034584999084473e-01) (51, -1.84636056423187255859e-01) (52, -1.93505182862281799316e-01) (53, -3.73022615909576416016e-01) (54, -3.45058858394622802734e-01) (55, -1.23841129243373870850e-01) (56, 2.74409633129835128784e-02) (57, 2.44543373584747314453e-01) (58, 1.21949031949043273926e-01) (59, 1.13364964723587036133e-01) (60, -1.61662653088569641113e-01) (61, 2.97628492116928100586e-01) (62, -4.42876011133193969727e-01) (63, -4.74799424409866333008e-01) (64, 1.36420339345932006836e-01) (65, -1.58731326460838317871e-01) (66, -1.21618695557117462158e-01) (67, 3.00677567720413208008e-01) (68, -2.51672267913818359375e-01) (69, 3.49753767251968383789e-01) (70, 6.60960078239440917969e-02) (71, -2.87575066089630126953e-01) (72, -2.28819511830806732178e-02) (73, -2.54907816648483276367e-01) (74, -1.33026182651519775391e-01) (75, -1.96901351213455200195e-01) (76, -2.65681624412536621094e-01) (77, 1.79675802588462829590e-01) (78, 2.50180810689926147461e-02) (79, 1.11584544181823730469e-01) (80, -8.78731384873390197754e-02) (81, -6.32932484149932861328e-01) (82, 4.28660929203033447266e-01) (83, 8.09209585189819335938e-01) (84, -8.67788791656494140625e-01) (85, 5.17821848392486572266e-01) (86, 2.46789067983627319336e-01) (87, -9.60264384746551513672e-01) (88, 7.89529204368591308594e-01) (89, -1.00040793418884277344e+00) (90, -6.02993249893188476562e-01) (91, 5.07394969463348388672e-01) (92, 3.45828503370285034180e-01) (93, 6.66842520236968994141e-01) (94, 6.34049296379089355469e-01) (95, 3.55939984321594238281e-01) (96, -1.69505383819341659546e-02) (97, -7.51640200614929199219e-01) (98, -6.02173209190368652344e-01) (99, -4.71039384603500366211e-01) (100, 1.87526717782020568848e-01) (101, -1.24382264912128448486e-01) (102, 7.01336860656738281250e-01) (103, 4.15285229682922363281e-01) (104, -5.05609065294265747070e-02) (105, 4.71472382545471191406e-01) (106, 3.00672829151153564453e-01) (107, -2.67728805541992187500e-01) (108, 1.99811816215515136719e-01) (109, -3.80644172430038452148e-01) (110, -6.75529241561889648438e-02) (111, 3.75518977642059326172e-01) (112, -7.01389368623495101929e-03) (113, 2.29866936802864074707e-01) (114, 7.03071653842926025391e-02) (115, 3.29950511455535888672e-01) (116, 2.84047514200210571289e-01) (117, -1.64242193102836608887e-01) (118, -1.40240669250488281250e-01) (119, 5.60643188655376434326e-02) (120, 5.95101248472929000854e-03) (121, 9.83796536922454833984e-01) (122, -1.17806184291839599609e+00) (123, -1.26803326606750488281e+00) (124, 1.06641018390655517578e+00) (125, -4.03911054134368896484e-01) (126, -3.45730245113372802734e-01) (127, 1.06469237804412841797e+00) (128, -1.11594641208648681641e+00) (129, 1.12745475769042968750e+00) (130, 9.83466148376464843750e-01) (131, -1.06914877891540527344e+00) (132, -9.10719335079193115234e-01) (133, -1.01456153392791748047e+00) (134, -9.58651125431060791016e-01) (135, -9.48384523391723632812e-01) (136, -2.81956195831298828125e-01) (137, 1.08670258522033691406e+00) (138, 6.21964871883392333984e-01) (139, 8.06642532348632812500e-01) (140, -1.79028660058975219727e-01) (141, 4.76772971451282501221e-02) (142, -2.34011605381965637207e-01) (143, -2.86021292209625244141e-01) (144, 5.73243806138634681702e-03) (145, 3.77999037504196166992e-01) (146, -1.68897256255149841309e-01) (147, 2.85420585423707962036e-02) (148, -1.16118639707565307617e-02) (149, 3.56302671134471893311e-02) (150, -4.04770337045192718506e-02) (151, 2.06425227224826812744e-02) (152, 3.48160743713378906250e-01) (153, -1.70569717884063720703e-01) (154, 4.33087348937988281250e-02) (155, -7.92394652962684631348e-02) (156, -1.10683023929595947266e-01) (157, 1.02316848933696746826e-01) (158, -1.10126338899135589600e-01) (159, -1.47389769554138183594e-01) (160, 1.10604710876941680908e-01) (161, -7.54478514194488525391e-01) (162, 1.41437339782714843750e+00) (163, 1.37893903255462646484e+00) (164, -9.01966631412506103516e-01) (165, 6.88310146331787109375e-01) (166, 6.31538093090057373047e-01) (167, -9.29977059364318847656e-01) (168, 1.38378512859344482422e+00) (169, -1.05412828922271728516e+00) (170, -7.24985897541046142578e-01) (171, 1.30089795589447021484e+00) (172, 1.12342011928558349609e+00) (173, 1.11778068542480468750e+00) (174, 1.20843970775604248047e+00) (175, 1.15851294994354248047e+00) (176, 7.51847028732299804688e-01) (177, -7.74171531200408935547e-01) (178, -6.02910399436950683594e-01) (179, -4.49847370386123657227e-01) (180, -2.76605248451232910156e-01) (181, -1.11659958958625793457e-01) (182, -1.80986896157264709473e-01) (183, -3.02558094263076782227e-01) (184, -2.07556307315826416016e-01) (185, -2.68931329250335693359e-01) (186, 3.26662845909595489502e-02) (187, -2.12491214275360107422e-01) (188, -3.68100345134735107422e-01) (189, -2.45532661676406860352e-01) (190, -1.09559237957000732422e-01) (191, -1.63373142480850219727e-01) (192, -1.22387237846851348877e-01) (193, -3.16663593053817749023e-01) (194, -4.32494640350341796875e-01) (195, -1.07630550861358642578e-01) (196, -4.93989735841751098633e-02) (197, -3.17011207342147827148e-01) (198, -1.28172755241394042969e-01) (199, 9.27611347287893295288e-03) (200, 1.64487391710281372070e-01) (201, 9.97199416160583496094e-01) (202, -1.64615333080291748047e-01) (203, -4.05944198369979858398e-01) (204, 9.60755050182342529297e-01) (205, 3.88039410114288330078e-01) (206, 2.06474900245666503906e-01) (207, 1.02731037139892578125e+00) (208, -2.76192247867584228516e-01) (209, 1.08353281021118164062e+00) (210, 7.54458785057067871094e-01) (211, -3.29379513859748840332e-02) (212, 4.75633800029754638672e-01) (213, -2.64294594526290893555e-01) (214, -1.03494487702846527100e-01) (215, 6.18901569396257400513e-03) (216, 1.44601121544837951660e-01) (217, 9.71302390098571777344e-01) (218, 4.50187265872955322266e-01) (219, 5.77162623405456542969e-01) (220, -6.22868388891220092773e-02) (221, -1.40579864382743835449e-01) (222, 3.20551931858062744141e-01) (223, 2.33380749821662902832e-01) (224, -2.14586138725280761719e-01) (225, 2.61114120483398437500e-01) (226, -1.21900280937552452087e-02) (227, -2.34949097037315368652e-01) (228, 2.57797896862030029297e-01) (229, -3.50300759077072143555e-01) (230, -3.07117104530334472656e-01) (231, 2.30881273746490478516e-01) (232, 3.66447091102600097656e-01) (233, 1.62616401910781860352e-01) (234, 2.30375573039054870605e-01) (235, 1.61318689584732055664e-01) (236, 1.21136702597141265869e-01) (237, -4.57315035164356231689e-02) (238, -1.83528974652290344238e-01) (239, -2.59389758110046386719e-01) (240, -3.21365855634212493896e-02) (241, -3.71515631675720214844e-01) (242, 4.51208829879760742188e-01) (243, 3.50044667720794677734e-01) (244, -4.02118414640426635742e-01) (245, 3.93748097121715545654e-02) (246, 1.64840817451477050781e-01) (247, -4.79809612035751342773e-01) (248, 2.40631312131881713867e-01) (249, -5.99531412124633789062e-01) (250, -3.92299205064773559570e-01) (251, 2.47084662318229675293e-01) (252, 1.83697074651718139648e-01) (253, 2.74627923965454101562e-01) (254, 1.48243770003318786621e-01) (255, 2.42386206984519958496e-01) (256, 2.17968240380287170410e-01) (257, -3.52857917547225952148e-01) (258, -1.46702319383621215820e-01) (259, -2.29834064841270446777e-01) (260, -2.68133562058210372925e-02) (261, 1.19241607189178466797e+00) (262, -2.84282535314559936523e-01) (0, 3.64519596099853515625e-01) (1, 5.78850030899047851562e-01) (2, -2.17046421021223068237e-02) (3, 1.37200936675071716309e-01) (4, 5.30907988548278808594e-01) (5, -7.04815238714218139648e-02) (6, 2.15905100107192993164e-01) (7, 5.70708453655242919922e-01) (8, -6.29882840439677238464e-03) (9, 5.29119849205017089844e-01) (10, 5.09465575218200683594e-01) (11, 6.15689568221569061279e-02) (12, 2.73199137300252914429e-02) (13, 1.28421932458877563477e-01) (14, -6.31264925003051757812e-01) (15, -9.36762690544128417969e-01) (16, 2.13208341598510742188e+00) (17, 2.32988643646240234375e+00) (18, 2.05239558219909667969e+00) (19, 2.27228116989135742188e+00) (20, 2.90633231401443481445e-01) (21, 3.81302058696746826172e-01) (22, -8.88924226164817810059e-02) (23, 1.14364847540855407715e-01) (24, 3.78439635038375854492e-01) (25, -3.14727067947387695312e-01) (26, 1.05125859379768371582e-01) (27, 4.51888829469680786133e-01) (28, -1.04255355894565582275e-01) (29, 3.61402273178100585938e-01) (30, 2.65823334455490112305e-01) (31, -2.88416832685470581055e-01) (32, -2.60498672723770141602e-01) (33, -8.59944075345993041992e-02) (34, -3.29477451741695404053e-02) (35, -1.05056360363960266113e-01) (36, -8.67251083254814147949e-02) (37, 1.69830471277236938477e-01) (38, 3.19669663906097412109e-01) (39, 2.88707669824361801147e-02) (40, 2.48344287276268005371e-01) (41, 3.34760963916778564453e-01) (42, -1.32222205400466918945e-01) (43, 9.63880717754364013672e-02) (44, 2.64586865901947021484e-01) (45, -4.80160951614379882812e-01) (46, -1.00526716560125350952e-02) (47, 2.66971915960311889648e-01) (48, -1.96079671382904052734e-01) (49, 4.55780625343322753906e-01) (50, 3.28393310308456420898e-01) (51, -2.29024007916450500488e-01) (52, -1.75785601139068603516e-01) (53, -5.01656904816627502441e-02) (54, -6.39202222228050231934e-02) (55, -8.27623680233955383301e-02) (56, -1.07810504734516143799e-01) (57, 4.49651479721069335938e-02) (58, 2.76155650615692138672e-01) (59, 8.70956256985664367676e-02) (60, 2.44718030095100402832e-01) (61, 1.50447756052017211914e-01) (62, 1.02354109287261962891e-01) (63, 2.37055093050003051758e-01) (64, 4.83749359846115112305e-02) (65, -4.43312257528305053711e-01) (66, 7.38149136304855346680e-02) (67, -1.33868485689163208008e-01) (68, -1.66075490415096282959e-02) (69, 1.91219985485076904297e-01) (70, 1.55050367116928100586e-01) (71, -2.45285015553236007690e-02) (72, 3.58042232692241668701e-02) (73, 1.51017397642135620117e-01) (74, 2.18663197010755538940e-02) (75, 8.21341499686241149902e-02) (76, -1.57582566142082214355e-01) (77, -3.47848266363143920898e-01) (78, 5.69424442946910858154e-02) (79, -1.31019636988639831543e-01) (80, 2.05812543630599975586e-01) (81, -1.90533161163330078125e-01) (82, 2.83797234296798706055e-01) (83, 1.81926250457763671875e-01) (84, -2.70521223545074462891e-01) (85, -3.76502752304077148438e-01) (86, -7.29230232536792755127e-04) (87, -6.40374958515167236328e-01) (88, -3.60476747155189514160e-02) (89, -1.63236305117607116699e-01) (90, 1.91863644868135452271e-02) (91, 1.66048243641853332520e-01) (92, 1.35739549994468688965e-01) (93, 9.42649990320205688477e-02) (94, -2.62232008390128612518e-03) (95, 1.09878115355968475342e-01) (96, -3.01517724990844726562e-01) (97, -7.44823396205902099609e-01) (98, -1.80516913533210754395e-01) (99, -3.63259017467498779297e-01) (100, 2.81882166862487792969e-01) (101, -4.43565219640731811523e-01) (102, 7.89312243461608886719e-01) (103, 4.87899154424667358398e-01) (104, -5.15327572822570800781e-01) (105, 3.92213851213455200195e-01) (106, 1.23438462615013122559e-01) (107, -8.02749931812286376953e-01) (108, 2.75892406702041625977e-01) (109, -3.28311383724212646484e-01) (110, -9.92154255509376525879e-02) (111, 6.56140625476837158203e-01) (112, 6.71067059040069580078e-01) (113, 4.35727775096893310547e-01) (114, 1.79077476263046264648e-01) (115, 5.23442566394805908203e-01) (116, -2.10840255022048950195e-01) (117, -8.44865143299102783203e-01) (118, -4.37155395746231079102e-01) (119, -4.75511848926544189453e-01) (120, 3.75363111495971679688e-01) (121, -3.89852136373519897461e-01) (122, 6.27782046794891357422e-01) (123, 2.09672942757606506348e-01) (124, -5.61970651149749755859e-01) (125, 5.43031454086303710938e-01) (126, 1.49459958076477050781e-01) (127, -9.25158619880676269531e-01) (128, 2.23263487219810485840e-01) (129, -4.12767022848129272461e-01) (130, -1.66439376771450042725e-02) (131, 6.19191050529479980469e-01) (132, 7.39394187927246093750e-01) (133, 3.03039938211441040039e-01) (134, 7.80136063694953918457e-02) (135, 3.01521390676498413086e-01) (136, -1.27988666296005249023e-01) (137, -9.67554628849029541016e-01) (138, -2.86399543285369873047e-01) (139, -4.86994445323944091797e-01) (140, 1.55818074941635131836e-01) (141, -4.79141920804977416992e-01) (142, 4.65206861495971679688e-01) (143, 3.92497777938842773438e-01) (144, -5.40589451789855957031e-01) (145, 2.91744947433471679688e-01) (146, 7.61890113353729248047e-02) (147, -8.32303941249847412109e-01) (148, 3.43690872192382812500e-01) (149, -4.02464270591735839844e-01) (150, -1.30492225289344787598e-01) (151, 4.13508296012878417969e-01) (152, 5.00711858272552490234e-01) (153, 3.42643886804580688477e-01) (154, 2.47175350785255432129e-01) (155, 2.50280708074569702148e-01) (156, -2.37994700670242309570e-01) (157, -9.05776977539062500000e-01) (158, -4.21600967645645141602e-01) (159, -5.11914074420928955078e-01) (160, 2.60945707559585571289e-01) (161, -1.92734643816947937012e-01) (162, -1.69067010283470153809e-02) (163, 1.70952886343002319336e-01) (164, -2.23288074135780334473e-01) (165, 7.99474641680717468262e-02) (166, 1.48526087403297424316e-01) (167, -5.00893533229827880859e-01) (168, 1.62769794464111328125e-01) (169, -4.99361045658588409424e-02) (170, 1.59537956118583679199e-01) (171, 7.86289051175117492676e-02) (172, -1.62017524242401123047e-01) (173, 1.96115285158157348633e-01) (174, 7.74973407387733459473e-02) (175, -3.01726702600717544556e-02) (176, -2.01525568962097167969e-01) (177, -6.32300496101379394531e-01) (178, -6.29898682236671447754e-02) (179, -1.36664986610412597656e-01) (180, 1.04867130517959594727e-01) (181, -1.22228518128395080566e-01) (182, -2.16564193367958068848e-01) (183, 1.60045266151428222656e-01) (184, 2.54444647580385208130e-02) (185, -2.09985226392745971680e-01) (186, 4.17369827628135681152e-02) (187, -5.04543110728263854980e-02) (188, 1.04001998901367187500e-01) (189, 2.71389156579971313477e-01) (190, 2.83017963171005249023e-01) (191, -1.18371404707431793213e-01) (192, -2.61691719293594360352e-01) (193, 2.16478750109672546387e-01) (194, 8.29403921961784362793e-02) (195, -1.53080299496650695801e-01) (196, -1.69254854321479797363e-01) (197, -2.77832776308059692383e-01) (198, -7.06136971712112426758e-02) (199, -6.11918047070503234863e-02) (200, 1.40869498252868652344e-01) (201, -9.32643413543701171875e-02) (202, -4.29191052913665771484e-01) (203, -5.52857927978038787842e-02) (204, 8.43207091093063354492e-02) (205, -5.05996942520141601562e-01) (206, -5.39101064205169677734e-02) (207, 1.87191158533096313477e-01) (208, 2.55467053502798080444e-02) (209, 3.32312315702438354492e-01) (210, 3.86289626359939575195e-01) (211, -2.43281304836273193359e-01) (212, -3.77859801054000854492e-01) (213, 8.10004845261573791504e-02) (214, 3.08538731187582015991e-02) (215, -2.82059639692306518555e-01) (216, -2.74130463600158691406e-01) (217, -4.22550290822982788086e-02) (218, 1.06472745537757873535e-01) (219, 2.12540812790393829346e-02) (220, 1.94074079394340515137e-01) (221, 1.41835734248161315918e-01) (222, -3.10176402330398559570e-01) (223, -1.58017314970493316650e-02) (224, 2.52395868301391601562e-01) (225, -4.23381596803665161133e-01) (226, -7.93497450649738311768e-03) (227, 3.85678499937057495117e-01) (228, 2.95803137123584747314e-03) (229, 4.56000745296478271484e-01) (230, 3.57916653156280517578e-01) (231, -2.33283892273902893066e-01) (232, -2.15187400579452514648e-01) (233, 3.23255732655525207520e-02) (234, 4.07680980861186981201e-02) (235, -2.30027467012405395508e-01) (236, -1.87913060188293457031e-01) (237, 1.46092921495437622070e-01) (238, 2.40392461419105529785e-01) (239, 1.43763467669486999512e-01) (240, 1.26844808459281921387e-01) (241, 1.64503619074821472168e-01) (242, -2.39412873983383178711e-01) (243, -4.97869774699211120605e-02) (244, 2.08179056644439697266e-01) (245, -3.99023324251174926758e-01) (246, -2.22483742982149124146e-02) (247, 3.32318484783172607422e-01) (248, 4.69652190804481506348e-03) (249, 3.75639170408248901367e-01) (250, 2.90922999382019042969e-01) (251, -1.79915681481361389160e-01) (252, -2.68923461437225341797e-01) (253, 6.05227518826723098755e-03) (254, 7.59087130427360534668e-02) (255, -2.17980206012725830078e-01) (256, -1.99503928422927856445e-01) (257, 1.10301107168197631836e-01) (258, 1.65754333138465881348e-01) (259, 8.76071527600288391113e-02) (260, -1.65329314768314361572e-02) (261, 6.91806912422180175781e-01) (262, -3.17737668752670288086e-01) (263, -4.69424903392791748047e-01) (0, 2.41112321615219116211e-01) (1, -2.51784145832061767578e-01) (2, -6.01741492748260498047e-01) (3, -1.27519667148590087891e+00) (4, 8.09636294841766357422e-01) (5, -2.11136132478713989258e-01) (6, -1.51607915759086608887e-01) (7, 4.57960247993469238281e-01) (8, -7.78503119945526123047e-01) (9, 7.96943426132202148438e-01) (10, 3.46855968236923217773e-01) (11, -5.32938897609710693359e-01) (12, -3.16835820674896240234e-01) (13, -8.44828248023986816406e-01) (14, 2.09055513143539428711e-01) (15, -3.38170141601562500000e+03) (16, -1.38734765625000000000e+03) (17, -7.53812988281250000000e+02) (18, -7.53882324218750000000e+02) (19, -6.85593994140625000000e+02) (20, -3.50973874330520629883e-01) (21, -1.09892117977142333984e+00) (22, 1.89717009663581848145e-01) (23, 4.15381252765655517578e-01) (24, -1.31283617019653320312e+00) (25, -7.55271613597869873047e-02) (26, -2.28257209062576293945e-01) (27, -1.63267803192138671875e+00) (28, 4.84619915485382080078e-01) (29, -1.37857723236083984375e+00) (30, -9.38393950462341308594e-01) (31, 5.62756657600402832031e-01) (32, 1.94116547703742980957e-01) (33, 5.92048645019531250000e-01) (34, 3.23420763015747070312e-01) (35, -1.48815717548131942749e-02) (36, -1.82300075888633728027e-01) (37, -1.20847392082214355469e+00) (38, -5.94529986381530761719e-01) (39, -8.41584265232086181641e-01) (40, 1.08395330607891082764e-02) (41, -2.58032059669494628906e+00) (42, 5.38352012634277343750e-01) (43, 6.25460803508758544922e-01) (44, -1.51256871223449707031e+00) (45, -3.73448163270950317383e-01) (46, -2.41840437054634094238e-01) (47, -1.67230212688446044922e+00) (48, 3.70420873165130615234e-01) (49, -1.50787425041198730469e+00) (50, -9.81216967105865478516e-01) (51, 1.16767428815364837646e-01) (52, -5.46207606792449951172e-01) (53, 1.34583726525306701660e-01) (54, -1.18428301066160202026e-02) (55, 8.91039296984672546387e-02) (56, 1.27406716346740722656e-01) (57, -1.63986766338348388672e+00) (58, -3.76924395561218261719e-01) (59, -1.19385659694671630859e+00) (60, -3.52417528629302978516e-01) (61, -6.03112220764160156250e-01) (62, -1.37810575962066650391e+00) (63, -8.87267227172851562500e+01) (64, 6.16209626197814941406e-01) (65, -1.88388180732727050781e+00) (66, -1.50389134883880615234e+00) (67, 1.01961123943328857422e+00) (68, -3.23432946205139160156e+00) (69, 1.08336544036865234375e+00) (70, 7.88731221109628677368e-03) (71, -1.62252807617187500000e+00) (72, -2.03684687614440917969e+00) (73, -9.31229476928710937500e+01) (74, -6.59253005981445312500e+01) (75, -1.45602035522460937500e+00) (76, -4.28844332695007324219e-01) (77, 6.18491947650909423828e-01) (78, 1.93381994962692260742e-01) (79, 4.58537042140960693359e-03) (80, -2.46211364865303039551e-01) (81, -2.52230882644653320312e-01) (82, -2.08289432525634765625e+00) (83, -1.19703710079193115234e+00) (84, 8.64177644252777099609e-02) (85, -1.84951364994049072266e+00) (86, -7.04085171222686767578e-01) (87, 9.19363021850585937500e-01) (88, -7.95081436634063720703e-01) (89, 1.09183669090270996094e+00) (90, -1.15317597985267639160e-01) (91, -1.48954093456268310547e+00) (92, -3.51495951414108276367e-01) (93, -5.62328934669494628906e-01) (94, -2.51445174217224121094e-01) (95, -1.23954367637634277344e+00) (96, -1.09962582588195800781e+00) (97, 4.90683555603027343750e-01) (98, 8.27704370021820068359e-01) (99, 2.42413252592086791992e-01) (100, -8.88566017150878906250e-01) (101, -4.17964315414428710938e+00) (102, 7.82143354415893554688e-01) (103, 1.36093103885650634766e+00) (104, -1.27096328735351562500e+02) (105, -6.80939137935638427734e-01) (106, -2.67913699150085449219e-01) (107, -1.45803375244140625000e+02) (108, 1.19096934795379638672e+00) (109, -1.17980644226074218750e+02) (110, -9.93253936767578125000e+01) (111, 6.79917156696319580078e-01) (112, -7.60474681854248046875e-01) (113, 1.08156692981719970703e+00) (114, 8.54858756065368652344e-01) (115, 1.43759891390800476074e-01) (116, -6.21533930301666259766e-01) (117, -1.43440747070312500000e+03) (118, -2.93705153465270996094e+00) (119, -3.43839740753173828125e+00) (120, 5.08710622787475585938e-01) (121, -1.11935949325561523438e+00) (122, 3.75953644514083862305e-01) (123, 5.46941637992858886719e-01) (124, -7.35163316130638122559e-03) (125, -1.55138182640075683594e+00) (126, 4.71987366676330566406e-01) (127, -4.77931797504425048828e-01) (128, -1.00554347038269042969e-01) (129, -4.87421512603759765625e-01) (130, -3.21519136428833007812e-01) (131, -8.11153173446655273438e-01) (132, -3.02252197265625000000e+00) (133, 2.78479546308517456055e-01) (134, -3.18356007337570190430e-01) (135, -7.13519155979156494141e-01) (136, 6.21121451258659362793e-02) (137, -6.96526825428009033203e-01) (138, 3.36101204156875610352e-01) (139, 2.44310840964317321777e-01) (140, -8.77900958061218261719e-01) (141, 3.54980945587158203125e-01) (142, -1.45015213012695312500e+02) (143, -1.15156250000000000000e+02) (144, 1.13709855079650878906e+00) (145, -2.53171582031250000000e+03) (146, -3.16121959686279296875e+00) (147, 1.48932337760925292969e+00) (148, -1.22442871093750000000e+02) (149, 1.58710920810699462891e+00) (150, 6.98179781436920166016e-01) (151, -1.45288970947265625000e+02) (152, -2.48179492187500000000e+03) (153, -1.04945083618164062500e+02) (154, -1.07815338134765625000e+02) (155, -2.53184301757812500000e+03) (156, -3.38549304008483886719e+00) (157, 1.07906544208526611328e+00) (158, -2.53414362668991088867e-02) (159, -3.05065866559743881226e-02) (160, 2.81630992889404296875e-01) (161, -2.60227501392364501953e-01) (162, -6.41509175300598144531e-01) (163, 9.21471863985061645508e-02) (164, -6.12899243831634521484e-01) (165, -4.63729292154312133789e-01) (166, -7.48665452003479003906e-01) (167, -6.05852365493774414062e-01) (168, 7.51039385795593261719e-01) (169, -5.27112297713756561279e-02) (170, -3.60667169094085693359e-01) (171, 4.25726808607578277588e-02) (172, -1.48994970321655273438e+00) (173, 1.79465100169181823730e-01) (174, 1.06924855709075927734e+00) (175, -3.81909668445587158203e-01) (176, -2.42065861821174621582e-01) (177, -3.83404880762100219727e-01) (178, -2.57907599210739135742e-01) (179, -8.10250163078308105469e-01) (180, -2.82467573881149291992e-01) (181, -1.48379318237304687500e+02) (182, 1.03093278408050537109e+00) (183, 1.37163186073303222656e+00) (184, -1.23045707702636718750e+02) (185, -7.52765715122222900391e-01) (186, -1.42807677388191223145e-01) (187, -1.27040115356445312500e+02) (188, 1.08160340785980224609e+00) (189, -1.08997566223144531250e+02) (190, -3.78735470771789550781e+00) (191, 9.04042005538940429688e-01) (192, -1.44963586330413818359e+00) (193, 7.66052424907684326172e-01) (194, 8.58457148075103759766e-01) (195, 6.69893383979797363281e-01) (196, -1.40171393752098083496e-01) (197, -1.45285339355468750000e+02) (198, -2.38105273246765136719e+00) (199, -2.27062296867370605469e+00) (200, 1.63015767931938171387e-01) (201, 6.15126155316829681396e-02) (202, -1.11850631237030029297e+00) (203, -8.01511228084564208984e-01) (204, 2.19228431582450866699e-01) (205, -7.74848222732543945312e-01) (206, 3.71838919818401336670e-02) (207, 1.67163327336311340332e-01) (208, -8.65979671478271484375e-01) (209, 6.10965907573699951172e-01) (210, 6.97376251220703125000e-01) (211, -6.16808652877807617188e-01) (212, -2.00208878517150878906e+00) (213, -2.10179492831230163574e-01) (214, -8.11683535575866699219e-01) (215, -6.08525335788726806641e-01) (216, -4.13231700658798217773e-01) (217, -2.44791507720947265625e-01) (218, 1.50231957435607910156e-01) (219, 6.11910462379455566406e-01) (220, -4.86931204795837402344e-01) (221, 5.05552530288696289062e-01) (222, -2.02456378936767578125e+00) (223, -2.77963590621948242188e+00) (224, 8.28785181045532226562e-01) (225, -2.19633415341377258301e-01) (226, -9.35423016548156738281e-01) (227, 1.00981843471527099609e+00) (228, -1.79599392414093017578e+00) (229, 1.49164927005767822266e+00) (230, 9.43369030952453613281e-01) (231, -1.32782113552093505859e+00) (232, -1.29462957382202148438e+00) (233, -1.75948238372802734375e+00) (234, -1.05988502502441406250e+00) (235, -1.29959499835968017578e+00) (236, -9.75875198841094970703e-01) (237, 4.69268500804901123047e-01) (238, -5.31911432743072509766e-01) (239, 1.84889450669288635254e-01) (240, -3.69227558374404907227e-01) (241, -1.10721445083618164062e+00) (242, 2.20100358128547668457e-01) (243, 1.40285968780517578125e-01) (244, -1.30009961128234863281e+00) (245, -2.29559838771820068359e-01) (246, -6.06734216213226318359e-01) (247, -1.13733065128326416016e+00) (248, 4.40876215696334838867e-01) (249, -1.18368220329284667969e+00) (250, -1.27654767036437988281e+00) (251, 1.30009368062019348145e-01) (252, -3.77157151699066162109e-01) (253, 2.35638663172721862793e-01) (254, 4.14585769176483154297e-01) (255, -2.75109380483627319336e-01) (256, -4.11580771207809448242e-01) (257, -9.84230458736419677734e-01) (258, -4.19856399297714233398e-01) (259, -1.55799067020416259766e+00) (260, -2.91248470544815063477e-01) (261, -7.38009881973266601562e+00) (262, 8.28651249408721923828e-01) (263, -5.64866065979003906250e-01) (264, 3.79722028970718383789e-01) (0, 5.73185324668884277344e-01) (1, 3.52992296218872070312e-01) (2, 1.00638437271118164062e+00) (3, 8.80536019802093505859e-01) (4, -3.91736440360546112061e-02) (5, 6.86998724937438964844e-01) (6, 5.32184720039367675781e-01) (7, -2.32271134853363037109e-01) (8, 5.24394929409027099609e-01) (9, -1.76851987838745117188e-01) (10, 1.14191241562366485596e-01) (11, 5.75086116790771484375e-01) (12, 3.52661758661270141602e-01) (13, 7.81933128833770751953e-01) (14, 2.70694184303283691406e+00) (15, 2.08299493789672851562e+00) (16, -2.97759699821472167969e+00) (17, -3.03155827522277832031e+00) (18, -2.96407198905944824219e+00) (19, -3.00186133384704589844e+00) (20, 5.15895247459411621094e-01) (21, -1.84379309415817260742e-01) (22, 2.03867450356483459473e-01) (23, -5.72070032358169555664e-02) (24, 3.40348124504089355469e-01) (25, 5.48049435019493103027e-02) (26, 9.10847447812557220459e-04) (27, 3.39264780282974243164e-01) (28, -3.28400522470474243164e-01) (29, 4.25331652164459228516e-01) (30, 3.31387460231781005859e-01) (31, -3.48404347896575927734e-01) (32, -3.85418325662612915039e-01) (33, -3.23961406946182250977e-01) (34, -5.41548490524291992188e-01) (35, -7.91023522615432739258e-02) (36, -5.02314418554306030273e-02) (37, 1.01171415299177169800e-02) (38, -6.63257613778114318848e-02) (39, -2.08247429691255092621e-03) (40, 3.96332293748855590820e-01) (41, 5.61829447746276855469e-01) (42, -1.17178589105606079102e-01) (43, -2.35545739531517028809e-01) (44, 4.14247572422027587891e-01) (45, 1.76229514181613922119e-04) (46, -1.40109121799468994141e-01) (47, 4.92623925209045410156e-01) (48, -3.70213627815246582031e-01) (49, 7.59841084480285644531e-01) (50, 4.00330662727355957031e-01) (51, -8.81356671452522277832e-02) (52, -2.29539424180984497070e-01) (53, 4.87928315997123718262e-02) (54, -1.45564198493957519531e-01) (55, -4.97720912098884582520e-02) (56, 2.07969360053539276123e-02) (57, 1.79006487131118774414e-01) (58, 3.32790464162826538086e-01) (59, 1.71771883964538574219e-01) (60, 5.13487279415130615234e-01) (61, -5.06875038146972656250e-01) (62, 6.57666027545928955078e-01) (63, 1.15667974948883056641e+00) (64, -7.16853916645050048828e-01) (65, -1.82911306619644165039e-01) (66, 2.64688670635223388672e-01) (67, -8.06079149246215820312e-01) (68, 8.57202529907226562500e-01) (69, -4.11761671304702758789e-01) (70, -6.33539333939552307129e-02) (71, 5.05303859710693359375e-01) (72, 2.50905901193618774414e-01) (73, 9.90857660770416259766e-01) (74, 8.45708549022674560547e-01) (75, 5.21096825599670410156e-01) (76, 4.32680435478687286377e-02) (77, -6.39297604560852050781e-01) (78, -1.20232708752155303955e-01) (79, -3.73652368783950805664e-01) (80, 8.56290280818939208984e-01) (81, -1.02557981014251708984e+00) (82, 1.18847894668579101562e+00) (83, 1.05932319164276123047e+00) (84, -6.14986777305603027344e-01) (85, -5.71409940719604492188e-01) (86, 2.21500977873802185059e-01) (87, -6.09627127647399902344e-01) (88, 3.08636754751205444336e-01) (89, -3.14164698123931884766e-01) (90, -3.55176150798797607422e-01) (91, 5.69497227668762207031e-01) (92, -3.74933242797851562500e-01) (93, 7.97567844390869140625e-01) (94, 2.57034838199615478516e-01) (95, 4.46220427751541137695e-01) (96, 4.93451505899429321289e-01) (97, -7.42026507854461669922e-01) (98, -4.68779772520065307617e-01) (99, -5.81648409366607666016e-01) (100, 6.83049142360687255859e-01) (101, -5.52706599235534667969e-01) (102, -5.02120494842529296875e-01) (103, -4.57637846469879150391e-01) (104, 4.05783385038375854492e-01) (105, -1.70092988014221191406e+00) (106, -6.23965263366699218750e-01) (107, 6.27371847629547119141e-01) (108, -1.12010204792022705078e+00) (109, 1.01618158817291259766e+00) (110, 4.59165632724761962891e-01) (111, -9.33911323547363281250e-01) (112, -7.35095083713531494141e-01) (113, -6.51959121227264404297e-01) (114, -8.17631065845489501953e-01) (115, -6.69415950775146484375e-01) (116, -4.19297873973846435547e-01) (117, 2.07803457975387573242e-01) (118, 2.39148437976837158203e-01) (119, 4.49839532375335693359e-02) (120, 1.64534807205200195312e+00) (121, -3.60061973333358764648e-01) (122, -2.97035664319992065430e-01) (123, 4.58945721387863159180e-01) (124, -1.50009751319885253906e-01) (125, -7.27474153041839599609e-01) (126, -5.03071308135986328125e-01) (127, 5.04181385040283203125e-01) (128, 3.07334177196025848389e-02) (129, 9.53531324863433837891e-01) (130, 1.86524122953414916992e-01) (131, -2.68350809812545776367e-01) (132, -3.51226747035980224609e-01) (133, 4.25105780363082885742e-01) (134, 2.37022876739501953125e-01) (135, -5.45651912689208984375e-01) (136, -6.26956939697265625000e-01) (137, 1.09642483294010162354e-02) (138, 1.68300405144691467285e-01) (139, -3.89478951692581176758e-01) (140, 1.09105002880096435547e+00) (141, -1.48484492301940917969e+00) (142, 1.02944922447204589844e+00) (143, 1.75133252143859863281e+00) (144, -1.88906764984130859375e+00) (145, -1.04751503467559814453e+00) (146, -2.37172935158014297485e-02) (147, -1.52972948551177978516e+00) (148, 1.23049318790435791016e+00) (149, -1.17432522773742675781e+00) (150, -4.33458149433135986328e-01) (151, 3.71970742940902709961e-01) (152, -1.99560928344726562500e+00) (153, 1.35353326797485351562e+00) (154, 1.06492650508880615234e+00) (155, 2.07466125488281250000e-01) (156, -5.47424793243408203125e-01) (157, -1.71730053424835205078e+00) (158, -8.23141515254974365234e-01) (159, -1.10924994945526123047e+00) (160, 1.74636626243591308594e+00) (161, -2.27462574839591979980e-01) (162, 6.52587693184614181519e-03) (163, 6.51155889034271240234e-01) (164, -5.67218363285064697266e-02) (165, -1.02187025547027587891e+00) (166, 5.11768043041229248047e-01) (167, 1.10532209277153015137e-01) (168, 3.05586695671081542969e-01) (169, 7.45779871940612792969e-01) (170, 7.39471614360809326172e-01) (171, -1.47679314017295837402e-01) (172, -2.38007688522338867188e+00) (173, 1.07404923439025878906e+00) (174, 3.05723160505294799805e-01) (175, -4.08992797136306762695e-01) (176, -2.07353591918945312500e-01) (177, -3.40442746877670288086e-01) (178, -1.43561869859695434570e-01) (179, 2.53928959369659423828e-01) (180, 1.44200706481933593750e+00) (181, 7.71662414073944091797e-01) (182, -1.56554687023162841797e+00) (183, -6.07927203178405761719e-01) (184, 1.27749705314636230469e+00) (185, -7.36268103122711181641e-01) (186, -4.38273921608924865723e-02) (187, 1.32586455345153808594e+00) (188, 1.97432264685630798340e-01) (189, 2.00874900817871093750e+00) (190, 1.80962252616882324219e+00) (191, -8.43991041183471679688e-01) (192, -2.38209724426269531250e+00) (193, 3.45187216997146606445e-01) (194, 5.06610095500946044922e-01) (195, -9.99885320663452148438e-01) (196, -7.11391985416412353516e-01) (197, 6.76458895206451416016e-01) (198, 8.37140142917633056641e-01) (199, 5.75429141521453857422e-01) (200, 7.75073349475860595703e-01) (201, -5.81194519996643066406e-01) (202, -4.10832256078720092773e-01) (203, 1.87685728073120117188e-01) (204, -5.23472547531127929688e-01) (205, -3.00309360027313232422e-01) (206, -4.32369947433471679688e-01) (207, -1.55588328838348388672e-01) (208, 5.80606698989868164062e-01) (209, 3.13437759876251220703e-01) (210, 3.74039947986602783203e-01) (211, -3.88733409345149993896e-02) (212, -1.55595862865447998047e+00) (213, 2.85830497741699218750e-01) (214, 6.20809912681579589844e-01) (215, -3.32979947328567504883e-01) (216, -7.61917710304260253906e-01) (217, -7.78276443481445312500e-01) (218, -4.61432665586471557617e-01) (219, -5.49993872642517089844e-01) (220, 5.22072970867156982422e-01) (221, -1.06042897701263427734e+00) (222, -4.02913749217987060547e-01) (223, 3.48218023777008056641e-01) (224, -9.84157741069793701172e-01) (225, -7.89310574531555175781e-01) (226, -2.39494323730468750000e-01) (227, -9.46263074874877929688e-01) (228, 6.61980926990509033203e-01) (229, -3.20874333381652832031e-01) (230, -1.98404386639595031738e-01) (231, -5.83137311041355133057e-02) (232, -1.65387439727783203125e+00) (233, 6.42582774162292480469e-01) (234, 4.79410082101821899414e-01) (235, -3.31574499607086181641e-01) (236, -6.31996870040893554688e-01) (237, -1.26524662971496582031e+00) (238, -2.15053617954254150391e-01) (239, -6.98496222496032714844e-01) (240, 5.28839468955993652344e-01) (241, -1.59788057208061218262e-01) (242, -8.55423867702484130859e-01) (243, -4.17281985282897949219e-01) (244, 2.27893963456153869629e-01) (245, -5.38941562175750732422e-01) (246, -1.98336318135261535645e-01) (247, 4.70989227294921875000e-01) (248, -1.25684782862663269043e-01) (249, 8.85064303874969482422e-01) (250, 8.34030747413635253906e-01) (251, -4.29232358932495117188e-01) (252, -1.33737754821777343750e+00) (253, -2.04168446362018585205e-02) (254, 5.69008253514766693115e-02) (255, -6.06548845767974853516e-01) (256, -5.60997843742370605469e-01) (257, -8.86695832014083862305e-02) (258, 7.25548416376113891602e-02) (259, 1.45463541150093078613e-01) (260, 3.17837625741958618164e-01) (261, -4.47400808334350585938e+00) (262, -8.03170800209045410156e-01) (263, -2.99202966690063476562e+00) (264, 1.05437648296356201172e+00) (265, 9.33675956726074218750e+00) (0, 2.99360394477844238281e-01) (1, 2.29979038238525390625e-01) (2, 2.53870338201522827148e-01) (3, 3.62973719835281372070e-01) (4, 2.58981972932815551758e-01) (5, 1.02717511355876922607e-01) (6, 3.63945126533508300781e-01) (7, 3.34453046321868896484e-01) (8, 3.81144613027572631836e-01) (9, 3.37619572877883911133e-01) (10, 3.19183826446533203125e-01) (11, 2.14616119861602783203e-01) (12, 3.60293626785278320312e-01) (13, 3.21654289960861206055e-01) (14, -9.30584847927093505859e-01) (15, -1.00330603122711181641e+00) (16, -9.54131186008453369141e-01) (17, -1.06045782566070556641e+00) (18, -1.08793139457702636719e+00) (19, -1.01412308216094970703e+00) (20, 1.37587226927280426025e-02) (21, 1.29093691706657409668e-01) (22, -7.37560987472534179688e-02) (23, 3.38369384407997131348e-02) (24, -6.25538080930709838867e-02) (25, -1.60943537950515747070e-01) (26, 4.01824563741683959961e-02) (27, -5.01870326697826385498e-02) (28, 3.45486588776111602783e-02) (29, -9.90868732333183288574e-03) (30, 9.53349769115447998047e-02) (31, -5.01450821757316589355e-02) (32, 7.04152509570121765137e-02) (33, 2.13166791945695877075e-02) (34, 8.58574137091636657715e-02) (35, 4.24794144928455352783e-02) (36, -1.00342407822608947754e-01) (37, -5.22248353809118270874e-03) (38, -3.69287766516208648682e-02) (39, -4.54281680285930633545e-02) (40, 1.11494496464729309082e-01) (41, 1.69716775417327880859e-01) (42, 1.23372159898281097412e-01) (43, 1.23448669910430908203e-01) (44, -1.05662560090422630310e-02) (45, -3.79216298460960388184e-03) (46, 1.89431026577949523926e-01) (47, -1.19537245482206344604e-02) (48, 1.67275115847587585449e-01) (49, 6.53361380100250244141e-02) (50, 1.07409231364727020264e-01) (51, 8.54961499571800231934e-02) (52, 2.13041633367538452148e-01) (53, 9.16948691010475158691e-02) (54, 1.52220144867897033691e-01) (55, 1.12111620604991912842e-01) (56, 1.32938381284475326538e-04) (57, -2.21136175096035003662e-02) (58, -7.84000605344772338867e-02) (59, 2.45641693472862243652e-02) (60, 6.26528402790427207947e-03) (61, -1.51805151253938674927e-02) (62, 1.87763366848230361938e-02) (63, -1.43562676385045051575e-02) (64, -1.52796745300292968750e-01) (65, -5.95523640513420104980e-02) (66, 1.16755433380603790283e-01) (67, -2.56586492061614990234e-01) (68, 9.62525606155395507812e-02) (69, -8.01512673497200012207e-02) (70, -4.11963947117328643799e-02) (71, 4.84321080148220062256e-03) (72, 1.68327614665031433105e-01) (73, -2.92461179196834564209e-02) (74, 2.10279710590839385986e-02) (75, 2.96617541462182998657e-02) (76, -8.07170346379280090332e-02) (77, -2.17317730188369750977e-01) (78, -2.97487676143646240234e-01) (79, -1.13044776022434234619e-01) (80, -9.74493846297264099121e-02) (81, -1.17445304989814758301e-01) (82, 2.23489776253700256348e-01) (83, 7.74370953440666198730e-02) (84, -2.65199720859527587891e-01) (85, 1.25960931181907653809e-01) (86, 1.64560288190841674805e-01) (87, -4.41645085811614990234e-01) (88, 2.00216218829154968262e-01) (89, -2.67228186130523681641e-01) (90, -1.33534491062164306641e-01) (91, 1.92183554172515869141e-01) (92, 3.23984265327453613281e-01) (93, 5.83261512219905853271e-02) (94, 8.72202217578887939453e-02) (95, 1.36413663625717163086e-01) (96, 5.36281941458582878113e-03) (97, -3.29644888639450073242e-01) (98, -4.46491777896881103516e-01) (99, -1.56087473034858703613e-01) (100, -5.33311348408460617065e-03) (101, -1.57854296267032623291e-02) (102, 5.42149245738983154297e-01) (103, 1.64735898375511169434e-01) (104, -2.89930909872055053711e-01) (105, 6.67188465595245361328e-01) (106, 2.54202187061309814453e-01) (107, -4.98117595911026000977e-01) (108, 2.28901565074920654297e-01) (109, -2.52747833728790283203e-01) (110, -2.58046202361583709717e-02) (111, 5.06954550743103027344e-01) (112, 6.30220532417297363281e-01) (113, 1.45218163728713989258e-01) (114, 1.16583578288555145264e-01) (115, 2.81984984874725341797e-01) (116, 1.37209922075271606445e-01) (117, -3.86185616254806518555e-01) (118, -5.24428904056549072266e-01) (119, -1.65929943323135375977e-01) (120, 4.33019362390041351318e-02) (121, -2.72236745804548263550e-02) (122, 7.22692489624023437500e-01) (123, 1.30438566207885742188e-01) (124, -4.36348736286163330078e-01) (125, 8.26959848403930664062e-01) (126, 2.50411212444305419922e-01) (127, -6.13920211791992187500e-01) (128, 2.45138317346572875977e-01) (129, -3.65427732467651367188e-01) (130, 7.65285193920135498047e-02) (131, 6.82723283767700195312e-01) (132, 9.83794927597045898438e-01) (133, 9.16675925254821777344e-02) (134, 8.79639908671379089355e-02) (135, 4.38394218683242797852e-01) (136, 1.95806503295898437500e-01) (137, -4.86045122146606445312e-01) (138, -5.49355566501617431641e-01) (139, -4.55597996711730957031e-01) (140, -2.50205993652343750000e-01) (141, -3.41091692447662353516e-01) (142, 3.27963501214981079102e-01) (143, -1.01285669952630996704e-02) (144, -4.48941588401794433594e-01) (145, 4.29221421480178833008e-01) (146, 5.31438775360584259033e-02) (147, -5.43515741825103759766e-01) (148, 8.03038030862808227539e-02) (149, -5.14808595180511474609e-01) (150, -3.42909812927246093750e-01) (151, 2.48911201953887939453e-01) (152, 8.46340298652648925781e-01) (153, -1.37861832976341247559e-01) (154, -6.29281774163246154785e-02) (155, 1.62090495228767395020e-01) (156, 9.87667664885520935059e-02) (157, -4.49163407087326049805e-01) (158, -4.66025322675704956055e-01) (159, -4.27321404218673706055e-01) (160, -1.74964874982833862305e-01) (161, -1.30232766270637512207e-01) (162, 3.76098930835723876953e-01) (163, 2.30275750160217285156e-01) (164, -2.87165433168411254883e-01) (165, 1.78643971681594848633e-01) (166, 9.33772176504135131836e-02) (167, -3.22418451309204101562e-01) (168, 1.51318773627281188965e-01) (169, -3.62906187772750854492e-01) (170, -2.29601830244064331055e-01) (171, 1.84924155473709106445e-01) (172, 7.22733795642852783203e-01) (173, 1.37120555154979228973e-03) (174, 1.18416249752044677734e-02) (175, 1.77568525075912475586e-01) (176, 1.26239731907844543457e-01) (177, -1.69648602604866027832e-01) (178, -2.05989614129066467285e-01) (179, -2.41647332906723022461e-01) (180, -1.01880818605422973633e-01) (181, -1.58005654811859130859e-02) (182, 3.60116451978683471680e-01) (183, 3.16238075494766235352e-01) (184, -1.96868017315864562988e-01) (185, 1.14822410047054290771e-01) (186, 1.81015148758888244629e-01) (187, -2.20876052975654602051e-01) (188, 1.25519663095474243164e-01) (189, -2.95565426349639892578e-01) (190, -2.01414003968238830566e-01) (191, 1.34302765130996704102e-01) (192, 6.12633228302001953125e-01) (193, 1.20394304394721984863e-01) (194, 3.92855703830718994141e-02) (195, 2.12913334369659423828e-01) (196, 1.81809216737747192383e-01) (197, -5.66686429083347320557e-02) (198, -8.83312672376632690430e-02) (199, -7.19705075025558471680e-02) (200, -9.00182873010635375977e-02) (201, 9.42165702581405639648e-02) (202, 1.84778571128845214844e-01) (203, 1.50517523288726806641e-01) (204, -1.12883513793349266052e-03) (205, -9.59248989820480346680e-02) (206, 1.70607581734657287598e-01) (207, 5.91446794569492340088e-02) (208, 1.38366930186748504639e-02) (209, -1.85709390789270401001e-02) (210, -6.14102743566036224365e-02) (211, -3.28081175684928894043e-02) (212, 3.54265511035919189453e-01) (213, 8.50094556808471679688e-02) (214, 2.52439659088850021362e-02) (215, 1.36648476123809814453e-01) (216, 1.42481654882431030273e-01) (217, 1.09320849180221557617e-01) (218, -1.08737405389547348022e-02) (219, 2.17538401484489440918e-02) (220, -6.00853785872459411621e-02) (221, 1.26935765147209167480e-01) (222, 8.46964865922927856445e-02) (223, 4.55696359276771545410e-02) (224, -3.83354276418685913086e-02) (225, -7.30205103754997253418e-02) (226, 8.83517637848854064941e-02) (227, 3.34989577531814575195e-02) (228, -4.57418076694011688232e-02) (229, -3.81535664200782775879e-02) (230, -7.36472457647323608398e-02) (231, -8.92761200666427612305e-02) (232, 2.26556539535522460938e-01) (233, 1.18593592196702957153e-02) (234, -5.16243800520896911621e-02) (235, 2.91498750448226928711e-02) (236, 2.91243977844715118408e-02) (237, 7.95504227280616760254e-02) (238, 1.53890158981084823608e-03) (239, -1.25798657536506652832e-02) (240, -4.03998680412769317627e-02) (241, 1.34413018822669982910e-01) (242, 1.30433455109596252441e-01) (243, 1.26477047801017761230e-01) (244, -1.10485339537262916565e-02) (245, -1.29366451874375343323e-02) (246, 8.78371596336364746094e-02) (247, 5.00659085810184478760e-02) (248, 2.67698913812637329102e-02) (249, -6.96325823664665222168e-02) (250, -6.84925839304924011230e-02) (251, 3.68881374597549438477e-02) (252, 1.57929569482803344727e-01) (253, 9.26095768809318542480e-02) (254, 2.54360982216894626617e-03) (255, 6.23073093593120574951e-02) (256, 8.38647559285163879395e-02) (257, 3.62188331782817840576e-02) (258, 5.85032906383275985718e-03) (259, -3.68068553507328033447e-02) (260, -6.16484358906745910645e-02) (261, 2.06623601913452148438e+00) (262, 1.32289350032806396484e-01) (263, 1.95227071642875671387e-01) (264, -2.58009396493434906006e-02) (265, -8.91114950180053710938e-01) (266, 1.50264382362365722656e-01) (0, 1.07572227716445922852e-01) (1, -1.27022159099578857422e+00) (2, 1.32572399452328681946e-02) (3, 4.10962611436843872070e-01) (4, -6.33421003818511962891e-01) (5, -4.60576802492141723633e-01) (6, -2.45048329234123229980e-01) (7, -9.51947987079620361328e-01) (8, 3.15497256815433502197e-02) (9, -6.51883244514465332031e-01) (10, -4.81414884328842163086e-01) (11, -7.79729783535003662109e-02) (12, -5.67477464675903320312e-01) (13, -8.02988559007644653320e-02) (14, 7.25122541189193725586e-02) (15, -6.88350319862365722656e-01) (16, -3.32843255996704101562e+00) (17, -3.23243546485900878906e+00) (18, -2.91927313804626464844e+00) (19, -3.25282168388366699219e+00) (20, -9.51749831438064575195e-02) (21, -3.65192353725433349609e-01) (22, -2.89907753467559814453e-01) (23, -8.55493366718292236328e-01) (24, 7.40804746747016906738e-02) (25, -1.03819382190704345703e+00) (26, -5.32726705074310302734e-01) (27, 4.98325787484645843506e-02) (28, -9.81038331985473632812e-01) (29, 3.09229195117950439453e-01) (30, -1.72431066632270812988e-01) (31, -5.68189382553100585938e-01) (32, -1.01900029182434082031e+00) (33, -5.44036209583282470703e-01) (34, -9.14777874946594238281e-01) (35, -4.47135716676712036133e-01) (36, -1.38347581028938293457e-01) (37, -9.27914306521415710449e-03) (38, -3.20501685142517089844e-01) (39, -9.30794104933738708496e-02) (40, 2.13146917521953582764e-02) (41, -2.54232913255691528320e-01) (42, -1.26220929622650146484e+00) (43, -1.05200099945068359375e+00) (44, 4.08985853195190429688e-01) (45, -1.21067714691162109375e+00) (46, -3.08333396911621093750e-01) (47, 6.12411499023437500000e-01) (48, -8.26179921627044677734e-01) (49, 5.96817255020141601562e-01) (50, 2.21530944108963012695e-01) (51, -1.05298459529876708984e+00) (52, -6.10998034477233886719e-01) (53, -7.43599653244018554688e-01) (54, -5.08543848991394042969e-01) (55, -6.82765007019042968750e-01) (56, -4.67196166515350341797e-01) (57, 3.45001459121704101562e-01) (58, 4.82218503952026367188e-01) (59, 3.65601569414138793945e-01) (60, -4.96436282992362976074e-02) (61, -1.40072357654571533203e+00) (62, 3.86051028966903686523e-01) (63, 6.71731531620025634766e-01) (64, -1.55883133411407470703e+00) (65, -3.81826698780059814453e-01) (66, 4.08726595342159271240e-02) (67, -1.21565246582031250000e+00) (68, 7.49303221702575683594e-01) (69, -1.10198819637298583984e+00) (70, -9.55587804317474365234e-01) (71, 3.78644496202468872070e-01) (72, -4.38320398330688476562e-01) (73, 7.22556412220001220703e-01) (74, 2.68883913755416870117e-01) (75, -5.96805587410926818848e-02) (76, -1.91093191504478454590e-01) (77, -1.27007293701171875000e+00) (78, -9.17195975780487060547e-01) (79, -8.38496923446655273438e-01) (80, -2.35987365245819091797e-01) (81, -1.50803148746490478516e+00) (82, -1.50601848959922790527e-01) (83, 1.66103869676589965820e-01) (84, -9.54474270343780517578e-01) (85, -7.53106415271759033203e-01) (86, -2.38906025886535644531e-01) (87, -1.54576504230499267578e+00) (88, -1.20692588388919830322e-01) (89, -1.28404986858367919922e+00) (90, -1.06667637825012207031e+00) (91, -3.69454175233840942383e-01) (92, -1.55334067344665527344e+00) (93, -1.83979287743568420410e-01) (94, -1.80616721510887145996e-01) (95, -4.84006702899932861328e-01) (96, -2.47510731220245361328e-01) (97, -1.75031483173370361328e+00) (98, -8.00195261836051940918e-02) (99, -5.02085983753204345703e-01) (100, -1.17407552897930145264e-01) (101, 4.63668465614318847656e-01) (102, -2.99016642570495605469e+00) (103, -2.70139360427856445312e+00) (104, 8.08481276035308837891e-01) (105, -2.43277335166931152344e+00) (106, -2.03849339485168457031e+00) (107, 9.98186111450195312500e-01) (108, -3.09832835197448730469e+00) (109, 9.25970137119293212891e-01) (110, 2.51102745532989501953e-02) (111, -2.45701622962951660156e+00) (112, -4.27609729766845703125e+00) (113, -2.02385616302490234375e+00) (114, -2.99179792404174804688e+00) (115, -2.30151367187500000000e+00) (116, -1.57939422130584716797e+00) (117, 6.22141480445861816406e-01) (118, 1.26597791910171508789e-01) (119, -8.91410000622272491455e-03) (120, -5.71028947830200195312e-01) (121, -1.09538033604621887207e-01) (122, -2.74951505661010742188e+00) (123, -1.26004266738891601562e+00) (124, 3.05656995624303817749e-03) (125, -2.01656842231750488281e+00) (126, -7.99652993679046630859e-01) (127, 4.30338859558105468750e-01) (128, -5.31628489494323730469e-01) (129, 4.32816535234451293945e-01) (130, -9.86203998327255249023e-02) (131, -1.48992347717285156250e+00) (132, -1.69796044921875000000e+03) (133, -6.81150317192077636719e-01) (134, -3.40667694807052612305e-01) (135, -1.34630501270294189453e+00) (136, -6.40990614891052246094e-01) (137, 3.81325781345367431641e-01) (138, 9.45528894662857055664e-02) (139, 3.95472534000873565674e-02) (140, -6.23410522937774658203e-01) (141, -2.87804055213928222656e+00) (142, 4.01461988687515258789e-01) (143, 2.64068126678466796875e-01) (144, -3.07104206085205078125e+00) (145, -6.04913532733917236328e-01) (146, -5.41065752506256103516e-01) (147, -4.03226661682128906250e+00) (148, 4.14884209632873535156e-01) (149, -2.97288131713867187500e+00) (150, -2.06269860267639160156e+00) (151, 4.47946876287460327148e-01) (152, -5.92058956623077392578e-01) (153, -2.48545291833579540253e-03) (154, 1.12751871347427368164e-01) (155, -8.68002250790596008301e-02) (156, -2.14351862668991088867e-01) (157, -4.42905950546264648438e+00) (158, -1.75369727611541748047e+00) (159, -2.08753204345703125000e+00) (160, -1.90081879496574401855e-01) (161, -1.33268505334854125977e-01) (162, -1.22514355182647705078e+00) (163, -5.83206355571746826172e-01) (164, 5.25627620518207550049e-02) (165, -7.29184687137603759766e-01) (166, -2.19590570777654647827e-02) (167, -3.30618798732757568359e-01) (168, -3.83725792169570922852e-01) (169, 5.32115176320075988770e-02) (170, -1.03252772241830825806e-02) (171, -6.53848886489868164062e-01) (172, -4.52852233886718750000e+02) (173, -5.09809851646423339844e-01) (174, -2.52296864986419677734e-01) (175, -2.77617007493972778320e-01) (176, -2.22322002053260803223e-01) (177, -3.84777516126632690430e-01) (178, -3.20514850318431854248e-03) (179, 3.87258857488632202148e-01) (180, -3.21093589067459106445e-01) (181, 4.85205918550491333008e-01) (182, -1.76810705661773681641e+00) (183, -1.78889930248260498047e+00) (184, 5.97029387950897216797e-01) (185, -1.24286629259586334229e-01) (186, -7.10186839103698730469e-01) (187, 8.27250957489013671875e-01) (188, -1.81062459945678710938e+00) (189, 9.08182680606842041016e-01) (190, 5.39455890655517578125e-01) (191, -1.25104832649230957031e+00) (192, -4.03166259765625000000e+03) (193, -1.51536071300506591797e+00) (194, -1.50002098083496093750e+00) (195, -1.02524185180664062500e+00) (196, -5.22355139255523681641e-01) (197, 5.29528677463531494141e-01) (198, -9.61969606578350067139e-03) (199, 3.83405506610870361328e-01) (200, -5.25353133678436279297e-01) (201, -5.48151314258575439453e-01) (202, -2.48916238546371459961e-01) (203, -1.84183314442634582520e-01) (204, -6.64492249488830566406e-01) (205, -1.75065800547599792480e-01) (206, -3.41011703014373779297e-01) (207, -4.73257482051849365234e-01) (208, 2.64784060418605804443e-02) (209, -6.19649231433868408203e-01) (210, -4.30337458848953247070e-01) (211, -8.64426717162132263184e-02) (212, -2.80707508325576782227e-01) (213, -4.64508049190044403076e-02) (214, 1.95401571691036224365e-02) (215, -5.06176233291625976562e-01) (216, -4.54632878303527832031e-01) (217, -4.09863173961639404297e-01) (218, -3.22329312562942504883e-01) (219, -6.63571596145629882812e-01) (220, -3.35770189762115478516e-01) (221, -1.24300634860992431641e+00) (222, 3.71256589889526367188e-01) (223, 1.99910596013069152832e-01) (224, -9.76463615894317626953e-01) (225, -2.42043614387512207031e-01) (226, -5.19489169120788574219e-01) (227, -1.09410071372985839844e+00) (228, 9.49920043349266052246e-02) (229, -1.17890787124633789062e+00) (230, -7.32396066188812255859e-01) (231, 5.35846687853336334229e-02) (232, -1.44992187619209289551e-01) (233, -9.23357717692852020264e-03) (234, -1.12835988402366638184e-01) (235, 1.72769397497177124023e-01) (236, 1.29761993885040283203e-02) (237, -9.75770831108093261719e-01) (238, -1.16119372844696044922e+00) (239, -5.78207135200500488281e-01) (240, -2.66244202852249145508e-01) (241, -9.51926857233047485352e-02) (242, -3.85110497474670410156e-01) (243, -6.82524085044860839844e-01) (244, -2.80863493680953979492e-01) (245, -5.08089065551757812500e-01) (246, -1.06650151312351226807e-01) (247, -1.81351065635681152344e-01) (248, -6.44243836402893066406e-01) (249, -1.94546565413475036621e-01) (250, -3.27888697385787963867e-01) (251, -3.49911242723464965820e-01) (252, -1.87934890389442443848e-01) (253, -4.81940716505050659180e-01) (254, -4.49662983417510986328e-01) (255, -3.00357967615127563477e-01) (256, -2.60929763317108154297e-01) (257, -1.43734961748123168945e-01) (258, -2.18899637460708618164e-01) (259, -1.36384576559066772461e-01) (260, -2.87179499864578247070e-01) (261, -7.69169664382934570312e+00) (262, 8.26182425022125244141e-01) (263, 7.02742874622344970703e-01) (264, 1.40687778592109680176e-01) (265, 8.54703712463378906250e+00) (266, -1.48413449525833129883e-01) (267, -5.88849820196628570557e-02) (0, -2.43726462125778198242e-01) (1, -5.81184744834899902344e-01) (2, -3.16994220018386840820e-01) (3, -3.51315319538116455078e-01) (4, -3.66675078868865966797e-01) (5, -7.05946087837219238281e-01) (6, -3.80473732948303222656e-01) (7, -3.75078827142715454102e-01) (8, -4.18116450309753417969e-01) (9, -2.98028469085693359375e-01) (10, -2.99694627523422241211e-01) (11, -3.96473735570907592773e-01) (12, -4.96777147054672241211e-01) (13, -3.89095306396484375000e-01) (14, -1.34568005800247192383e-01) (15, -4.82000820338726043701e-02) (16, -2.67098402976989746094e+00) (17, -2.67983436584472656250e+00) (18, -2.80988717079162597656e+00) (19, -3.03141212463378906250e+00) (20, -2.80499517917633056641e-01) (21, -8.54552567005157470703e-01) (22, -2.99096226692199707031e-01) (23, -2.21836164593696594238e-01) (24, -3.09343576431274414062e-01) (25, -7.45849549770355224609e-01) (26, -3.70692402124404907227e-01) (27, -3.86748373508453369141e-01) (28, -2.96421349048614501953e-01) (29, -3.09575587511062622070e-01) (30, -4.25964295864105224609e-01) (31, -4.56373006105422973633e-01) (32, -6.09889090061187744141e-01) (33, -2.74734884500503540039e-01) (34, -3.61525684595108032227e-01) (35, -4.51090008020401000977e-01) (36, -4.96940553188323974609e-01) (37, -4.61273580789566040039e-01) (38, -3.49357664585113525391e-01) (39, -3.83992969989776611328e-01) (40, -2.60823518037796020508e-01) (41, -4.97751921415328979492e-01) (42, -2.10679426789283752441e-01) (43, -1.45020827651023864746e-01) (44, -4.08871024847030639648e-01) (45, -1.04303920269012451172e+00) (46, -4.97306466102600097656e-01) (47, -4.63421255350112915039e-01) (48, -2.51114815473556518555e-01) (49, -3.69634658098220825195e-01) (50, -5.97296297550201416016e-01) (51, -3.74977588653564453125e-01) (52, -6.04918718338012695312e-01) (53, -1.43450006842613220215e-01) (54, -3.63892942667007446289e-01) (55, -4.14044499397277832031e-01) (56, -3.21122020483016967773e-01) (57, -4.71634447574615478516e-01) (58, -5.16730070114135742188e-01) (59, -5.84573149681091308594e-01) (60, -2.68710196018218994141e-01) (61, -7.34555482864379882812e-01) (62, -4.81250703334808349609e-01) (63, -3.78166675567626953125e-01) (64, -1.56472995877265930176e-01) (65, -1.06970334053039550781e+00) (66, -4.63002294301986694336e-01) (67, -1.18890866637229919434e-01) (68, -5.06761074066162109375e-01) (69, -1.75790280103683471680e-01) (70, -3.61690163612365722656e-01) (71, -6.60597980022430419922e-01) (72, -7.83073723316192626953e-01) (73, -3.90398353338241577148e-01) (74, -4.37295466661453247070e-01) (75, -4.85523998737335205078e-01) (76, -4.27038580179214477539e-01) (77, -2.70899504423141479492e-01) (78, 2.91385827586054801941e-03) (79, -2.74501174688339233398e-01) (80, -3.38254898786544799805e-01) (81, -4.85391318798065185547e-01) (82, -4.08138692378997802734e-01) (83, -4.00112211704254150391e-01) (84, -2.24871665239334106445e-01) (85, -1.02797722816467285156e+00) (86, -6.85674250125885009766e-01) (87, -1.57634049654006958008e-01) (88, -4.03347223997116088867e-01) (89, -2.06203997135162353516e-01) (90, -5.37624597549438476562e-01) (91, -5.08482933044433593750e-01) (92, -7.58599102497100830078e-01) (93, -3.04048866033554077148e-01) (94, -4.07420665025711059570e-01) (95, -6.57220184803009033203e-01) (96, -5.76846063137054443359e-01) (97, -2.61552184820175170898e-01) (98, -6.20068490505218505859e-01) (99, -4.72504884004592895508e-01) (100, -2.87793576717376708984e-01) (101, -6.68162882328033447266e-01) (102, -4.73048090934753417969e-01) (103, -2.00077950954437255859e-01) (104, -5.30047774314880371094e-01) (105, -8.36680710315704345703e-01) (106, -3.28060388565063476562e-01) (107, -4.58977282047271728516e-01) (108, -1.35041117668151855469e-01) (109, -4.86990839242935180664e-01) (110, -6.45099401473999023438e-01) (111, -5.09172081947326660156e-01) (112, -4.48163574218750000000e+03) (113, -1.33979156613349914551e-01) (114, -7.75486677885055541992e-02) (115, -5.09130060672760009766e-01) (116, -4.70430672168731689453e-01) (117, -5.38534998893737792969e-01) (118, -2.12487980723381042480e-01) (119, -4.04913425445556640625e-01) (120, -2.66588866710662841797e-01) (121, -4.27921235561370849609e-01) (122, -2.28774994611740112305e-01) (123, -3.90904903411865234375e-01) (124, -1.35873377323150634766e-01) (125, -9.95901823043823242188e-01) (126, -3.44740211963653564453e-01) (127, -1.02756340056657791138e-02) (128, -3.38283240795135498047e-01) (129, -2.11004987359046936035e-01) (130, -5.50175666809082031250e-01) (131, -3.99707853794097900391e-01) (132, -1.09611701965332031250e+00) (133, -2.68656164407730102539e-01) (134, -3.95792633295059204102e-01) (135, -6.64372861385345458984e-01) (136, -1.79382860660552978516e-01) (137, -2.82411158084869384766e-01) (138, -2.77414530515670776367e-01) (139, -3.69638383388519287109e-01) (140, -1.89707323908805847168e-01) (141, -1.93503096699714660645e-01) (142, -1.55993068218231201172e+00) (143, -6.90566241741180419922e-01) (144, 1.59748107194900512695e-01) (145, -9.69978153705596923828e-01) (146, -4.40805792808532714844e-01) (147, 1.04151129722595214844e-01) (148, -4.27317142486572265625e-01) (149, 1.86179712414741516113e-01) (150, -3.72200794517993927002e-02) (151, -8.76391172409057617188e-01) (152, -3.13185620117187500000e+03) (153, -4.95465397834777832031e-01) (154, -3.62867087125778198242e-01) (155, -7.52498507499694824219e-01) (156, -4.39666301012039184570e-01) (157, -4.43955324590206146240e-03) (158, -5.52673488855361938477e-02) (159, 4.27285134792327880859e-02) (160, -3.73114377260208129883e-01) (161, -5.02067923545837402344e-01) (162, -2.91793793439865112305e-01) (163, -4.08325433731079101562e-01) (164, -3.74546289443969726562e-01) (165, -6.64967238903045654297e-01) (166, -7.54397153854370117188e-01) (167, -2.00469508767127990723e-01) (168, -4.59886789321899414062e-01) (169, -1.69610977172851562500e-01) (170, -2.44335949420928955078e-01) (171, -2.82162457704544067383e-01) (172, -3.23186718750000000000e+03) (173, -5.05554258823394775391e-01) (174, -5.34921228885650634766e-01) (175, -4.13800090551376342773e-01) (176, -6.15506470203399658203e-01) (177, -3.70270162820816040039e-01) (178, -7.39208698272705078125e-01) (179, -4.79032814502716064453e-01) (180, -2.99138158559799194336e-01) (181, -7.39616215229034423828e-01) (182, -3.39872628450393676758e-01) (183, -1.10711812973022460938e-01) (184, -6.20482623577117919922e-01) (185, -5.30771970748901367188e-01) (186, -2.03328251838684082031e-01) (187, -8.48776042461395263672e-01) (188, -1.40332475304603576660e-01) (189, -5.65347015857696533203e-01) (190, -4.29497838020324707031e-01) (191, -1.28280505537986755371e-01) (192, -4.48176757812500000000e+03) (193, -1.47383898496627807617e-01) (194, -6.27721846103668212891e-02) (195, -2.63134002685546875000e-01) (196, -2.74868249893188476562e-01) (197, -8.57462942600250244141e-01) (198, -3.56644392013549804688e-01) (199, -4.27068769931793212891e-01) (200, -4.38366919755935668945e-01) (201, -3.43579739332199096680e-01) (202, -5.11279463768005371094e-01) (203, -4.85519289970397949219e-01) (204, -1.79904758930206298828e-01) (205, -5.16779124736785888672e-01) (206, -5.09688317775726318359e-01) (207, -2.11038917303085327148e-01) (208, -4.79782223701477050781e-01) (209, -2.82351791858673095703e-01) (210, -2.56241172552108764648e-01) (211, -4.75245893001556396484e-01) (212, -8.62055540084838867188e-01) (213, -5.52787423133850097656e-01) (214, -5.70957422256469726562e-01) (215, -3.81300270557403564453e-01) (216, -4.49694901704788208008e-01) (217, -3.43018442392349243164e-01) (218, -5.52738428115844726562e-01) (219, -1.00222460925579071045e-01) (220, -3.66544574499130249023e-01) (221, -3.10807853937149047852e-01) (222, -5.42480826377868652344e-01) (223, -5.05391180515289306641e-01) (224, -2.77626425027847290039e-01) (225, -4.33246046304702758789e-01) (226, -3.47611755132675170898e-01) (227, -9.98388975858688354492e-02) (228, -4.19574081897735595703e-01) (229, -1.77445143461227416992e-01) (230, -2.61100113391876220703e-01) (231, -3.68371754884719848633e-01) (232, -6.09062194824218750000e-01) (233, -4.32961523532867431641e-01) (234, -3.55403751134872436523e-01) (235, -5.88779568672180175781e-01) (236, -4.06218796968460083008e-01) (237, -2.76019275188446044922e-01) (238, -2.89549231529235839844e-01) (239, -2.68826216459274291992e-01) (240, -4.23224866390228271484e-01) (241, -7.72652626037597656250e-01) (242, -2.99397587776184082031e-01) (243, -2.82573938369750976562e-01) (244, -4.66971397399902343750e-01) (245, -3.21059018373489379883e-01) (246, -4.47690725326538085938e-01) (247, -5.72791755199432373047e-01) (248, -2.73794949054718017578e-01) (249, -5.12070357799530029297e-01) (250, -5.17283797264099121094e-01) (251, -3.72515797615051269531e-01) (252, -4.87714886665344238281e-01) (253, -4.06657189130783081055e-01) (254, -3.67559522390365600586e-01) (255, -2.81390607357025146484e-01) (256, -4.29435938596725463867e-01) (257, -6.42054080963134765625e-01) (258, -7.20263957977294921875e-01) (259, -4.89449024200439453125e-01) (260, -4.13619548082351684570e-01) (261, -5.91140317916870117188e+00) (262, 4.38477575778961181641e-01) (263, -4.16220092773437500000e+00) (264, 1.00972555577754974365e-01) (265, -2.26293468475341796875e+00) (266, -5.30620217323303222656e-02) (267, 1.41012787818908691406e-01) (268, 2.33363580703735351562e+00) (0, -1.27429723739624023438e-01) (1, -9.60524499416351318359e-01) (2, -2.78256237506866455078e-01) (3, -1.16736255586147308350e-01) (4, -3.26114445924758911133e-01) (5, -9.08350110054016113281e-01) (6, -3.10234755277633666992e-01) (7, -4.42630708217620849609e-01) (8, -2.56671935319900512695e-01) (9, -2.77922302484512329102e-01) (10, -2.71002471446990966797e-01) (11, -5.03327786922454833984e-01) (12, -6.45553767681121826172e-01) (13, -1.59795135259628295898e-01) (14, 8.38562607765197753906e-01) (15, 3.42028141021728515625e-01) (16, -3.31572651863098144531e+00) (17, -3.37671232223510742188e+00) (18, -3.32315278053283691406e+00) (19, -3.34707808494567871094e+00) (20, -1.52634784579277038574e-01) (21, -8.90548527240753173828e-01) (22, 1.18321962654590606689e-01) (23, 3.22044044733047485352e-02) (24, -2.93730050325393676758e-01) (25, -3.77818465232849121094e-01) (26, -2.46242284774780273438e-01) (27, -5.71875751018524169922e-01) (28, -1.75464913249015808105e-01) (29, -2.88339585065841674805e-01) (30, -3.33673357963562011719e-01) (31, -7.03521519899368286133e-02) (32, -1.27561941742897033691e-01) (33, 1.36412709951400756836e-01) (34, -2.66018867492675781250e-01) (35, -3.18632945418357849121e-02) (36, -2.24148571491241455078e-01) (37, -5.27866601943969726562e-01) (38, -5.68666636943817138672e-01) (39, -3.66253644227981567383e-01) (40, -1.58423796296119689941e-01) (41, -1.16389334201812744141e+00) (42, -1.54357641935348510742e-01) (43, -8.32221657037734985352e-02) (44, -6.65074825286865234375e-01) (45, -3.92840318381786346436e-02) (46, -4.36523944139480590820e-01) (47, -1.05014061927795410156e+00) (48, -3.57508845627307891846e-02) (49, -8.18691551685333251953e-01) (50, -4.48333352804183959961e-01) (51, -1.49142220616340637207e-01) (52, -1.68629705905914306641e-01) (53, 2.98035182058811187744e-02) (54, -3.07497113943099975586e-01) (55, -2.15201273560523986816e-01) (56, -5.81542432308197021484e-01) (57, -1.21887648105621337891e+00) (58, -9.19405758380889892578e-01) (59, -6.30315005779266357422e-01) (60, -2.23583176732063293457e-01) (61, -1.10108923912048339844e+00) (62, 6.16948366165161132812e-01) (63, 7.44810979813337326050e-03) (64, -1.46958363056182861328e+00) (65, 4.97003346681594848633e-01) (66, 5.97260370850563049316e-02) (67, -1.52952778339385986328e+00) (68, 4.07071292400360107422e-01) (69, -1.84646666049957275391e+00) (70, -6.69930100440979003906e-01) (71, 4.23522800207138061523e-01) (72, 1.89190328121185302734e-01) (73, 4.81526292860507965088e-02) (74, -1.34953364729881286621e-01) (75, 2.07168087363243103027e-01) (76, -3.09981733560562133789e-01) (77, -1.31685554981231689453e+00) (78, -1.50457513332366943359e+00) (79, -1.01667511463165283203e+00) (80, -7.40853697061538696289e-02) (81, -4.19102311134338378906e-01) (82, 3.91963869333267211914e-01) (83, -9.39206480979919433594e-02) (84, -3.12691420316696166992e-01) (85, 4.83490645885467529297e-01) (86, -4.65830340981483459473e-02) (87, -4.18369054794311523438e-01) (88, 2.74969696998596191406e-01) (89, -8.34846377372741699219e-01) (90, -5.33772051334381103516e-01) (91, 4.61686491966247558594e-01) (92, -8.76541733741760253906e-02) (93, 9.48349907994270324707e-02) (94, 5.36273717880249023438e-02) (95, -4.03751954436302185059e-02) (96, 4.00597751140594482422e-02) (97, -2.72938340902328491211e-01) (98, -5.72594881057739257812e-01) (99, -2.67482489347457885742e-01) (100, -1.63058221340179443359e-01) (101, -1.60876363515853881836e-01) (102, -1.46384492516517639160e-01) (103, -4.59245055913925170898e-01) (104, -1.40402525663375854492e-01) (105, -6.55071616172790527344e-01) (106, -6.80882260203361511230e-02) (107, 2.31121197342872619629e-01) (108, 9.28851440548896789551e-02) (109, -1.42876029014587402344e-01) (110, -3.47097873687744140625e-01) (111, -1.51821792125701904297e-01) (112, -5.25981664657592773438e-01) (113, -1.67930260300636291504e-01) (114, -1.24621093273162841797e-01) (115, -4.24413263797760009766e-01) (116, 1.77940130233764648438e-02) (117, 1.92587822675704956055e-01) (118, 1.83980092406272888184e-01) (119, -4.43250238895416259766e-02) (120, -5.93143880367279052734e-01) (121, -3.07631403207778930664e-01) (122, -2.57723188400268554688e+00) (123, -4.52869147062301635742e-01) (124, -3.99369187653064727783e-02) (125, -1.42691695690155029297e+00) (126, -5.00970184803009033203e-01) (127, 5.49867868423461914062e-01) (128, -1.85970619320869445801e-01) (129, 2.75198608636856079102e-01) (130, -5.74384331703186035156e-01) (131, -1.49382746219635009766e+00) (132, -2.36735801696777343750e+01) (133, -5.93493998050689697266e-01) (134, -3.33459377288818359375e-01) (135, -7.40174114704132080078e-01) (136, -1.15014597773551940918e-01) (137, 4.37357693910598754883e-01) (138, -1.72189511358737945557e-02) (139, 7.96784982085227966309e-02) (140, -4.69552993774414062500e-01) (141, -1.18183799088001251221e-01) (142, -1.86842882633209228516e+00) (143, -3.59973520040512084961e-01) (144, 1.27008244395256042480e-01) (145, -1.66858243942260742188e+00) (146, -2.48605802655220031738e-01) (147, 6.78104281425476074219e-01) (148, -2.88245946168899536133e-01) (149, 4.40782129764556884766e-01) (150, 8.30807313323020935059e-02) (151, -1.28955686092376708984e+00) (152, -3.13167871093750000000e+03) (153, -4.77012932300567626953e-01) (154, -1.98345944285392761230e-01) (155, -9.11034524440765380859e-01) (156, -5.22129833698272705078e-02) (157, 4.50048595666885375977e-01) (158, -1.09783448278903961182e-02) (159, 2.68004894256591796875e-01) (160, -5.48128008842468261719e-01) (161, 2.71730035543441772461e-01) (162, -1.41810429096221923828e+00) (163, -5.07511973381042480469e-01) (164, 4.72282469272613525391e-01) (165, -1.46816408634185791016e+00) (166, -2.98490554094314575195e-01) (167, 9.69584405422210693359e-01) (168, -4.07518029212951660156e-01) (169, 6.41803860664367675781e-01) (170, 2.88796812295913696289e-01) (171, -1.01951801776885986328e+00) (172, -2.23317694664001464844e+00) (173, -4.50040519237518310547e-01) (174, -2.15032964944839477539e-01) (175, -7.13167726993560791016e-01) (176, -4.54058684408664703369e-03) (177, 8.02038550376892089844e-01) (178, 2.26764213293790817261e-02) (179, 3.97877037525177001953e-01) (180, -2.48705670237541198730e-01) (181, 3.64673137664794921875e-01) (182, -9.00074899196624755859e-01) (183, -1.06391465663909912109e+00) (184, 3.51569861173629760742e-01) (185, -6.64831399917602539062e-01) (186, -5.14770925045013427734e-01) (187, 