FANN_FLO_2.0
num_layers=42
learning_rate=0.700000
connection_rate=1.000000
shortcut_connections=1
learning_momentum=0.000000
training_algorithm=2
train_error_function=1
train_stop_function=0
cascade_output_change_fraction=0.010000
quickprop_decay=-0.000100
quickprop_mu=1.750000
rprop_increase_factor=1.200000
rprop_decrease_factor=0.500000
rprop_delta_min=0.000000
rprop_delta_max=50.000000
rprop_delta_zero=0.500000
cascade_output_stagnation_epochs=12
cascade_candidate_change_fraction=0.010000
cascade_candidate_stagnation_epochs=12
cascade_max_out_epochs=150
cascade_max_cand_epochs=150
cascade_num_candidate_groups=2
bit_fail_limit=3.49999994039535522461e-01
cascade_candidate_limit=1.00000000000000000000e+03
cascade_weight_multiplier=4.00000005960464477539e-01
cascade_activation_functions_count=6
cascade_activation_functions=3 5 7 8 10 11 
cascade_activation_steepnesses_count=4
cascade_activation_steepnesses=2.50000000000000000000e-01 5.00000000000000000000e-01 7.50000000000000000000e-01 1.00000000000000000000e+00 
layer_sizes=261 1 1 1 1 1 1 1 1 1 1 1 1 1 1 1 1 1 1 1 1 1 1 1 1 1 1 1 1 1 1 1 1 1 1 1 1 1 1 1 1 3 
neurons (num_inputs, activation_function, activation_steepness)=(0, 0, 0.00000000000000000000e+00) (0, 0, 0.00000000000000000000e+00) (0, 0, 0.00000000000000000000e+00) (0, 0, 0.00000000000000000000e+00) (0, 0, 0.00000000000000000000e+00) (0, 0, 0.00000000000000000000e+00) (0, 0, 0.00000000000000000000e+00) (0, 0, 0.00000000000000000000e+00) (0, 0, 0.00000000000000000000e+00) (0, 0, 0.00000000000000000000e+00) (0, 0, 0.00000000000000000000e+00) (0, 0, 0.00000000000000000000e+00) (0, 0, 0.00000000000000000000e+00) (0, 0, 0.00000000000000000000e+00) (0, 0, 0.00000000000000000000e+00) (0, 0, 0.00000000000000000000e+00) (0, 0, 0.00000000000000000000e+00) (0, 0, 0.00000000000000000000e+00) (0, 0, 0.00000000000000000000e+00) (0, 0, 0.00000000000000000000e+00) (0, 0, 0.00000000000000000000e+00) (0, 0, 0.00000000000000000000e+00) (0, 0, 0.00000000000000000000e+00) (0, 0, 0.00000000000000000000e+00) (0, 0, 0.00000000000000000000e+00) (0, 0, 0.00000000000000000000e+00) (0, 0, 0.00000000000000000000e+00) (0, 0, 0.00000000000000000000e+00) (0, 0, 0.00000000000000000000e+00) (0, 0, 0.00000000000000000000e+00) (0, 0, 0.00000000000000000000e+00) (0, 0, 0.00000000000000000000e+00) (0, 0, 0.00000000000000000000e+00) (0, 0, 0.00000000000000000000e+00) (0, 0, 0.00000000000000000000e+00) (0, 0, 0.00000000000000000000e+00) (0, 0, 0.00000000000000000000e+00) (0, 0, 0.00000000000000000000e+00) (0, 0, 0.00000000000000000000e+00) (0, 0, 0.00000000000000000000e+00) (0, 0, 0.00000000000000000000e+00) (0, 0, 0.00000000000000000000e+00) (0, 0, 0.00000000000000000000e+00) (0, 0, 0.00000000000000000000e+00) (0, 0, 0.00000000000000000000e+00) (0, 0, 0.00000000000000000000e+00) (0, 0, 0.00000000000000000000e+00) (0, 0, 0.00000000000000000000e+00) (0, 0, 0.00000000000000000000e+00) (0, 0, 0.00000000000000000000e+00) (0, 0, 0.00000000000000000000e+00) (0, 0, 0.00000000000000000000e+00) (0, 0, 0.00000000000000000000e+00) (0, 0, 0.00000000000000000000e+00) (0, 0, 0.00000000000000000000e+00) (0, 0, 0.00000000000000000000e+00) (0, 0, 0.00000000000000000000e+00) (0, 0, 0.00000000000000000000e+00) (0, 0, 0.00000000000000000000e+00) (0, 0, 0.00000000000000000000e+00) (0, 0, 0.00000000000000000000e+00) (0, 0, 0.00000000000000000000e+00) (0, 0, 0.00000000000000000000e+00) (0, 0, 0.00000000000000000000e+00) (0, 0, 0.00000000000000000000e+00) (0, 0, 0.00000000000000000000e+00) (0, 0, 0.00000000000000000000e+00) (0, 0, 0.00000000000000000000e+00) (0, 0, 0.00000000000000000000e+00) (0, 0, 0.00000000000000000000e+00) (0, 0, 0.00000000000000000000e+00) (0, 0, 0.00000000000000000000e+00) (0, 0, 0.00000000000000000000e+00) (0, 0, 0.00000000000000000000e+00) (0, 0, 0.00000000000000000000e+00) (0, 0, 0.00000000000000000000e+00) (0, 0, 0.00000000000000000000e+00) (0, 0, 0.00000000000000000000e+00) (0, 0, 0.00000000000000000000e+00) (0, 0, 0.00000000000000000000e+00) (0, 0, 0.00000000000000000000e+00) (0, 0, 0.00000000000000000000e+00) (0, 0, 0.00000000000000000000e+00) (0, 0, 0.00000000000000000000e+00) (0, 0, 0.00000000000000000000e+00) (0, 0, 0.00000000000000000000e+00) (0, 0, 0.00000000000000000000e+00) (0, 0, 0.00000000000000000000e+00) (0, 0, 0.00000000000000000000e+00) (0, 0, 0.00000000000000000000e+00) (0, 0, 0.00000000000000000000e+00) (0, 0, 0.00000000000000000000e+00) (0, 0, 0.00000000000000000000e+00) (0, 0, 0.00000000000000000000e+00) (0, 0, 0.00000000000000000000e+00) (0, 0, 0.00000000000000000000e+00) (0, 0, 0.00000000000000000000e+00) (0, 0, 0.00000000000000000000e+00) (0, 0, 0.00000000000000000000e+00) (0, 0, 0.00000000000000000000e+00) (0, 0, 0.00000000000000000000e+00) (0, 0, 0.00000000000000000000e+00) (0, 0, 0.00000000000000000000e+00) (0, 0, 0.00000000000000000000e+00) (0, 0, 0.00000000000000000000e+00) (0, 0, 0.00000000000000000000e+00) (0, 0, 0.00000000000000000000e+00) (0, 0, 0.00000000000000000000e+00) (0, 0, 0.00000000000000000000e+00) (0, 0, 0.00000000000000000000e+00) (0, 0, 0.00000000000000000000e+00) (0, 0, 0.00000000000000000000e+00) (0, 0, 0.00000000000000000000e+00) (0, 0, 0.00000000000000000000e+00) (0, 0, 0.00000000000000000000e+00) (0, 0, 0.00000000000000000000e+00) (0, 0, 0.00000000000000000000e+00) (0, 0, 0.00000000000000000000e+00) (0, 0, 0.00000000000000000000e+00) (0, 0, 0.00000000000000000000e+00) (0, 0, 0.00000000000000000000e+00) (0, 0, 0.00000000000000000000e+00) (0, 0, 0.00000000000000000000e+00) (0, 0, 0.00000000000000000000e+00) (0, 0, 0.00000000000000000000e+00) (0, 0, 0.00000000000000000000e+00) (0, 0, 0.00000000000000000000e+00) (0, 0, 0.00000000000000000000e+00) (0, 0, 0.00000000000000000000e+00) (0, 0, 0.00000000000000000000e+00) (0, 0, 0.00000000000000000000e+00) (0, 0, 0.00000000000000000000e+00) (0, 0, 0.00000000000000000000e+00) (0, 0, 0.00000000000000000000e+00) (0, 0, 0.00000000000000000000e+00) (0, 0, 0.00000000000000000000e+00) (0, 0, 0.00000000000000000000e+00) (0, 0, 0.00000000000000000000e+00) (0, 0, 0.00000000000000000000e+00) (0, 0, 0.00000000000000000000e+00) (0, 0, 0.00000000000000000000e+00) (0, 0, 0.00000000000000000000e+00) (0, 0, 0.00000000000000000000e+00) (0, 0, 0.00000000000000000000e+00) (0, 0, 0.00000000000000000000e+00) (0, 0, 0.00000000000000000000e+00) (0, 0, 0.00000000000000000000e+00) (0, 0, 0.00000000000000000000e+00) (0, 0, 0.00000000000000000000e+00) (0, 0, 0.00000000000000000000e+00) (0, 0, 0.00000000000000000000e+00) (0, 0, 0.00000000000000000000e+00) (0, 0, 0.00000000000000000000e+00) (0, 0, 0.00000000000000000000e+00) (0, 0, 0.00000000000000000000e+00) (0, 0, 0.00000000000000000000e+00) (0, 0, 0.00000000000000000000e+00) (0, 0, 0.00000000000000000000e+00) (0, 0, 0.00000000000000000000e+00) (0, 0, 0.00000000000000000000e+00) (0, 0, 0.00000000000000000000e+00) (0, 0, 0.00000000000000000000e+00) (0, 0, 0.00000000000000000000e+00) (0, 0, 0.00000000000000000000e+00) (0, 0, 0.00000000000000000000e+00) (0, 0, 0.00000000000000000000e+00) (0, 0, 0.00000000000000000000e+00) (0, 0, 0.00000000000000000000e+00) (0, 0, 0.00000000000000000000e+00) (0, 0, 0.00000000000000000000e+00) (0, 0, 0.00000000000000000000e+00) (0, 0, 0.00000000000000000000e+00) (0, 0, 0.00000000000000000000e+00) (0, 0, 0.00000000000000000000e+00) (0, 0, 0.00000000000000000000e+00) (0, 0, 0.00000000000000000000e+00) (0, 0, 0.00000000000000000000e+00) (0, 0, 0.00000000000000000000e+00) (0, 0, 0.00000000000000000000e+00) (0, 0, 0.00000000000000000000e+00) (0, 0, 0.00000000000000000000e+00) (0, 0, 0.00000000000000000000e+00) (0, 0, 0.00000000000000000000e+00) (0, 0, 0.00000000000000000000e+00) (0, 0, 0.00000000000000000000e+00) (0, 0, 0.00000000000000000000e+00) (0, 0, 0.00000000000000000000e+00) (0, 0, 0.00000000000000000000e+00) (0, 0, 0.00000000000000000000e+00) (0, 0, 0.00000000000000000000e+00) (0, 0, 0.00000000000000000000e+00) (0, 0, 0.00000000000000000000e+00) (0, 0, 0.00000000000000000000e+00) (0, 0, 0.00000000000000000000e+00) (0, 0, 0.00000000000000000000e+00) (0, 0, 0.00000000000000000000e+00) (0, 0, 0.00000000000000000000e+00) (0, 0, 0.00000000000000000000e+00) (0, 0, 0.00000000000000000000e+00) (0, 0, 0.00000000000000000000e+00) (0, 0, 0.00000000000000000000e+00) (0, 0, 0.00000000000000000000e+00) (0, 0, 0.00000000000000000000e+00) (0, 0, 0.00000000000000000000e+00) (0, 0, 0.00000000000000000000e+00) (0, 0, 0.00000000000000000000e+00) (0, 0, 0.00000000000000000000e+00) (0, 0, 0.00000000000000000000e+00) (0, 0, 0.00000000000000000000e+00) (0, 0, 0.00000000000000000000e+00) (0, 0, 0.00000000000000000000e+00) (0, 0, 0.00000000000000000000e+00) (0, 0, 0.00000000000000000000e+00) (0, 0, 0.00000000000000000000e+00) (0, 0, 0.00000000000000000000e+00) (0, 0, 0.00000000000000000000e+00) (0, 0, 0.00000000000000000000e+00) (0, 0, 0.00000000000000000000e+00) (0, 0, 0.00000000000000000000e+00) (0, 0, 0.00000000000000000000e+00) (0, 0, 0.00000000000000000000e+00) (0, 0, 0.00000000000000000000e+00) (0, 0, 0.00000000000000000000e+00) (0, 0, 0.00000000000000000000e+00) (0, 0, 0.00000000000000000000e+00) (0, 0, 0.00000000000000000000e+00) (0, 0, 0.00000000000000000000e+00) (0, 0, 0.00000000000000000000e+00) (0, 0, 0.00000000000000000000e+00) (0, 0, 0.00000000000000000000e+00) (0, 0, 0.00000000000000000000e+00) (0, 0, 0.00000000000000000000e+00) (0, 0, 0.00000000000000000000e+00) (0, 0, 0.00000000000000000000e+00) (0, 0, 0.00000000000000000000e+00) (0, 0, 0.00000000000000000000e+00) (0, 0, 0.00000000000000000000e+00) (0, 0, 0.00000000000000000000e+00) (0, 0, 0.00000000000000000000e+00) (0, 0, 0.00000000000000000000e+00) (0, 0, 0.00000000000000000000e+00) (0, 0, 0.00000000000000000000e+00) (0, 0, 0.00000000000000000000e+00) (0, 0, 0.00000000000000000000e+00) (0, 0, 0.00000000000000000000e+00) (0, 0, 0.00000000000000000000e+00) (0, 0, 0.00000000000000000000e+00) (0, 0, 0.00000000000000000000e+00) (0, 0, 0.00000000000000000000e+00) (0, 0, 0.00000000000000000000e+00) (0, 0, 0.00000000000000000000e+00) (0, 0, 0.00000000000000000000e+00) (0, 0, 0.00000000000000000000e+00) (0, 0, 0.00000000000000000000e+00) (0, 0, 0.00000000000000000000e+00) (0, 0, 0.00000000000000000000e+00) (0, 0, 0.00000000000000000000e+00) (0, 0, 0.00000000000000000000e+00) (0, 0, 0.00000000000000000000e+00) (0, 0, 0.00000000000000000000e+00) (0, 0, 0.00000000000000000000e+00) (261, 8, 2.50000000000000000000e-01) (262, 8, 7.50000000000000000000e-01) (263, 8, 7.50000000000000000000e-01) (264, 8, 2.50000000000000000000e-01) (265, 8, 5.00000000000000000000e-01) (266, 8, 5.00000000000000000000e-01) (267, 8, 7.50000000000000000000e-01) (268, 3, 1.00000000000000000000e+00) (269, 8, 5.00000000000000000000e-01) (270, 3, 1.00000000000000000000e+00) (271, 3, 7.50000000000000000000e-01) (272, 8, 1.00000000000000000000e+00) (273, 8, 1.00000000000000000000e+00) (274, 8, 1.00000000000000000000e+00) (275, 8, 2.50000000000000000000e-01) (276, 8, 1.00000000000000000000e+00) (277, 3, 7.50000000000000000000e-01) (278, 8, 1.00000000000000000000e+00) (279, 8, 1.00000000000000000000e+00) (280, 8, 1.00000000000000000000e+00) (281, 8, 5.00000000000000000000e-01) (282, 10, 1.00000000000000000000e+00) (283, 3, 1.00000000000000000000e+00) (284, 8, 5.00000000000000000000e-01) (285, 8, 7.50000000000000000000e-01) (286, 10, 7.50000000000000000000e-01) (287, 8, 7.50000000000000000000e-01) (288, 8, 5.00000000000000000000e-01) (289, 7, 2.50000000000000000000e-01) (290, 8, 1.00000000000000000000e+00) (291, 8, 1.00000000000000000000e+00) (292, 8, 2.50000000000000000000e-01) (293, 8, 7.50000000000000000000e-01) (294, 8, 7.50000000000000000000e-01) (295, 8, 5.00000000000000000000e-01) (296, 8, 5.00000000000000000000e-01) (297, 8, 2.50000000000000000000e-01) (298, 8, 5.00000000000000000000e-01) (299, 8, 5.00000000000000000000e-01) (300, 8, 5.00000000000000000000e-01) (301, 5, 5.00000000000000000000e-01) (301, 5, 5.00000000000000000000e-01) (301, 5, 5.00000000000000000000e-01) 
connections (connected_to_neuron, weight)=(0, 3.13082128763198852539e-01) (1, 3.11924427747726440430e-01) (2, 3.05344611406326293945e-01) (3, 3.28100144863128662109e-01) (4, 3.17179799079895019531e-01) (5, 3.18181216716766357422e-01) (6, 2.89656966924667358398e-01) (7, 3.05646270513534545898e-01) (8, 3.08298945426940917969e-01) (9, 2.99050748348236083984e-01) (10, 3.10122162103652954102e-01) (11, 3.28162789344787597656e-01) (12, 3.16018521785736083984e-01) (13, 3.19535881280899047852e-01) (14, 3.20092052221298217773e-01) (15, 3.28375905752182006836e-01) (16, 3.30684632062911987305e-01) (17, 3.07969838380813598633e-01) (18, 3.36197733879089355469e-01) (19, 3.24650824069976806641e-01) (20, 3.12289416790008544922e-01) (21, 2.90546387434005737305e-01) (22, 2.99961388111114501953e-01) (23, 2.99511641263961791992e-01) (24, 3.05977970361709594727e-01) (25, 3.09537649154663085938e-01) (26, 2.88149207830429077148e-01) (27, 3.04699599742889404297e-01) (28, 2.99010515213012695312e-01) (29, 3.03699940443038940430e-01) (30, 3.28672677278518676758e-01) (31, 3.07691693305969238281e-01) (32, 3.00649076700210571289e-01) (33, 3.09454053640365600586e-01) (34, 3.04409772157669067383e-01) (35, 3.11609357595443725586e-01) (36, 3.07540535926818847656e-01) (37, 2.95763105154037475586e-01) (38, 3.14163208007812500000e-01) (39, 3.06948989629745483398e-01) (40, 3.01005810499191284180e-01) (41, 2.95067787170410156250e-01) (42, 2.86958307027816772461e-01) (43, 2.95685321092605590820e-01) (44, 2.88683354854583740234e-01) (45, 2.95924395322799682617e-01) (46, 2.80383080244064331055e-01) (47, 2.86731004714965820312e-01) (48, 2.94159919023513793945e-01) (49, 2.95902073383331298828e-01) (50, 3.43221217393875122070e-01) (51, 2.81812965869903564453e-01) (52, 2.85664975643157958984e-01) (53, 2.94548034667968750000e-01) (54, 2.81787574291229248047e-01) (55, 2.94821798801422119141e-01) (56, 2.90928930044174194336e-01) (57, 3.01364272832870483398e-01) (58, 2.96194732189178466797e-01) (59, 2.96104788780212402344e-01) (60, 3.01917433738708496094e-01) (61, 3.11787128448486328125e-01) (62, 2.97557651996612548828e-01) (63, 2.98231482505798339844e-01) (64, 3.08051019906997680664e-01) (65, 3.00751209259033203125e-01) (66, 2.95245200395584106445e-01) (67, 3.09436619281768798828e-01) (68, 3.03325772285461425781e-01) (69, 3.06424796581268310547e-01) (70, 3.87917220592498779297e-01) (71, 3.00917506217956542969e-01) (72, 2.94331461191177368164e-01) (73, 2.98243314027786254883e-01) (74, 2.95788347721099853516e-01) (75, 3.04608851671218872070e-01) (76, 3.02237421274185180664e-01) (77, 3.09933781623840332031e-01) (78, 3.06955814361572265625e-01) (79, 2.84549355506896972656e-01) (80, 2.36704587936401367188e-01) (81, 2.41028711199760437012e-01) (82, 2.15242952108383178711e-01) (83, 2.30982288718223571777e-01) (84, 2.29511275887489318848e-01) (85, 2.21296519041061401367e-01) (86, 2.16083317995071411133e-01) (87, 2.38480493426322937012e-01) (88, 2.33088493347167968750e-01) (89, 2.33446031808853149414e-01) (90, 3.45489799976348876953e-01) (91, 2.19113454222679138184e-01) (92, 2.10086733102798461914e-01) (93, 2.21127316355705261230e-01) (94, 2.30817124247550964355e-01) (95, 2.37301409244537353516e-01) (96, 2.21803694963455200195e-01) (97, 2.33006507158279418945e-01) (98, 2.39583075046539306641e-01) (99, 2.24115192890167236328e-01) (100, 2.80421286821365356445e-01) (101, 2.83410876989364624023e-01) (102, 2.62042403221130371094e-01) (103, 2.77078568935394287109e-01) (104, 2.77570605278015136719e-01) (105, 2.57975757122039794922e-01) (106, 2.79722660779953002930e-01) (107, 2.86343753337860107422e-01) (108, 2.83899426460266113281e-01) (109, 2.79805004596710205078e-01) (110, 4.00355696678161621094e-01) (111, 2.56544619798660278320e-01) (112, 2.49738290905952453613e-01) (113, 2.82265424728393554688e-01) (114, 2.73004740476608276367e-01) (115, 2.90543377399444580078e-01) (116, 2.70943313837051391602e-01) (117, 2.78470546007156372070e-01) (118, 2.76343762874603271484e-01) (119, 2.72755175828933715820e-01) (120, 1.67200975120067596436e-02) (121, 1.48184495046734809875e-02) (122, -4.53194230794906616211e-02) (123, 1.87314730137586593628e-02) (124, 7.58210103958845138550e-03) (125, -4.56455536186695098877e-02) (126, 4.02356311678886413574e-03) (127, 9.98507626354694366455e-03) (128, 1.85643807053565979004e-02) (129, 1.02687915787100791931e-02) (130, 1.56749993562698364258e-01) (131, -3.14167551696300506592e-02) (132, -3.48354354500770568848e-02) (133, 2.02159471809864044189e-02) (134, 1.68430488556623458862e-02) (135, 6.37866090983152389526e-03) (136, -1.03715900331735610962e-02) (137, 3.68492631241679191589e-03) (138, 1.27989184111356735229e-02) (139, 1.17416139692068099976e-02) (140, 1.80361047387123107910e-01) (141, 1.88742920756340026855e-01) (142, 1.39335647225379943848e-01) (143, 1.68014958500862121582e-01) (144, 1.68182030320167541504e-01) (145, 1.24321870505809783936e-01) (146, 1.69512197375297546387e-01) (147, 1.69913113117218017578e-01) (148, 1.81803658604621887207e-01) (149, 1.80367931723594665527e-01) (150, 1.88433691859245300293e-01) (151, 1.57557442784309387207e-01) (152, 1.03197127580642700195e-01) (153, 1.74881011247634887695e-01) (154, 1.73879906535148620605e-01) (155, 1.74434214830398559570e-01) (156, 1.56935617327690124512e-01) (157, 1.71304970979690551758e-01) (158, 1.61684915423393249512e-01) (159, 1.67107373476028442383e-01) (160, 2.36688330769538879395e-01) (161, 2.34808251261711120605e-01) (162, 1.99041888117790222168e-01) (163, 2.22535058856010437012e-01) (164, 2.24498346447944641113e-01) (165, 2.06989720463752746582e-01) (166, 2.31826305389404296875e-01) (167, 2.29944244027137756348e-01) (168, 2.29679703712463378906e-01) (169, 2.35061392188072204590e-01) (170, 2.38941401243209838867e-01) (171, 2.12370023131370544434e-01) (172, 1.93124040961265563965e-01) (173, 2.35973119735717773438e-01) (174, 2.31291607022285461426e-01) (175, 2.21608430147171020508e-01) (176, 2.15505242347717285156e-01) (177, 2.23535686731338500977e-01) (178, 2.17371538281440734863e-01) (179, 2.20408678054809570312e-01) (180, 2.00261458754539489746e-01) (181, 1.99214786291122436523e-01) (182, 1.83377191424369812012e-01) (183, 1.90595164895057678223e-01) (184, 1.98741272091865539551e-01) (185, 1.86330646276473999023e-01) (186, 1.95033356547355651855e-01) (187, 2.07905694842338562012e-01) (188, 2.15490400791168212891e-01) (189, 2.03085169196128845215e-01) (190, 2.07427367568016052246e-01) (191, 1.95791155099868774414e-01) (192, 1.74993991851806640625e-01) (193, 2.06683740019798278809e-01) (194, 2.01940432190895080566e-01) (195, 1.97794616222381591797e-01) (196, 1.93150058388710021973e-01) (197, 1.93227976560592651367e-01) (198, 1.96981981396675109863e-01) (199, 1.97375446557998657227e-01) (200, 2.79348731040954589844e-01) (201, 2.77838647365570068359e-01) (202, 2.69698560237884521484e-01) (203, 2.77042269706726074219e-01) (204, 2.80901789665222167969e-01) (205, 2.76085615158081054688e-01) (206, 2.76418298482894897461e-01) (207, 2.81566500663757324219e-01) (208, 2.87494540214538574219e-01) (209, 2.82833129167556762695e-01) (210, 2.78728306293487548828e-01) (211, 2.83523321151733398438e-01) (212, 2.73588418960571289062e-01) (213, 2.89269000291824340820e-01) (214, 2.82558143138885498047e-01) (215, 2.69896477460861206055e-01) (216, 2.79596000909805297852e-01) (217, 2.76579082012176513672e-01) (218, 2.76816457509994506836e-01) (219, 2.79710054397583007812e-01) (220, 2.67164915800094604492e-01) (221, 2.68691033124923706055e-01) (222, 2.64546781778335571289e-01) (223, 2.71222829818725585938e-01) (224, 2.67520308494567871094e-01) (225, 2.65373289585113525391e-01) (226, 2.62850672006607055664e-01) (227, 2.63682544231414794922e-01) (228, 2.80283063650131225586e-01) (229, 2.76107937097549438477e-01) (230, 2.68647283315658569336e-01) (231, 2.70741105079650878906e-01) (232, 2.67268955707550048828e-01) (233, 2.76034057140350341797e-01) (234, 2.78106153011322021484e-01) (235, 2.67798513174057006836e-01) (236, 2.70121991634368896484e-01) (237, 2.69756495952606201172e-01) (238, 2.59575188159942626953e-01) (239, 2.65503674745559692383e-01) (240, 3.14198315143585205078e-01) (241, 3.21308195590972900391e-01) (242, 3.16050559282302856445e-01) (243, 3.12256574630737304688e-01) (244, 3.23570668697357177734e-01) (245, 3.24532896280288696289e-01) (246, 3.09623897075653076172e-01) (247, 3.12872648239135742188e-01) (248, 3.34583640098571777344e-01) (249, 3.25774550437927246094e-01) (250, 3.20223063230514526367e-01) (251, 3.25392216444015502930e-01) (252, 3.18295776844024658203e-01) (253, 3.19448232650756835938e-01) (254, 3.22603523731231689453e-01) (255, 3.12905073165893554688e-01) (256, 3.09935271739959716797e-01) (257, 3.17849516868591308594e-01) (258, 3.12138974666595458984e-01) (259, 3.11671018600463867188e-01) (260, 2.01354518532752990723e-01) (0, -9.38709452748298645020e-02) (1, -8.62073451280593872070e-02) (2, -1.87313575297594070435e-02) (3, -1.35059222579002380371e-01) (4, -7.67100676894187927246e-02) (5, -2.04748716205358505249e-02) (6, -6.04429394006729125977e-02) (7, -6.56299740076065063477e-02) (8, -9.92926657199859619141e-02) (9, -4.20924648642539978027e-02) (10, -5.68217523396015167236e-02) (11, -4.20054830610752105713e-02) (12, -7.23008066415786743164e-02) (13, -1.08619853854179382324e-01) (14, 1.10651165246963500977e-01) (15, 1.31204158067703247070e-01) (16, -1.93972475826740264893e-02) (17, 5.68687617778778076172e-02) (18, 1.20634930208325386047e-02) (19, 5.30406087636947631836e-03) (20, -1.53356671333312988281e-01) (21, -5.16356118023395538330e-02) (22, -1.45731523633003234863e-01) (23, -2.19981208443641662598e-01) (24, -6.06907941401004791260e-02) (25, 2.21247989684343338013e-02) (26, -9.03154611587524414062e-02) (27, -6.58484622836112976074e-02) (28, -1.24601043760776519775e-01) (29, -7.25918933749198913574e-02) (30, -1.01049102842807769775e-01) (31, -8.90097618103027343750e-02) (32, -2.57491655647754669189e-02) (33, -1.70368045568466186523e-01) (34, -1.14973634481430053711e-01) (35, -8.68852064013481140137e-02) (36, -1.02779619395732879639e-01) (37, -8.02834406495094299316e-02) (38, -1.14174164831638336182e-01) (39, -4.99624572694301605225e-02) (40, -1.13249838352203369141e-01) (41, -1.57744601368904113770e-01) (42, 5.40759190917015075684e-02) (43, 6.87044262886047363281e-02) (44, -3.28480720520019531250e-01) (45, 7.99549520015716552734e-02) (46, -6.64504542946815490723e-02) (47, -3.73307168483734130859e-01) (48, 1.04800790548324584961e-01) (49, -3.84505122900009155273e-01) (50, -2.62215465307235717773e-01) (51, 3.46479602158069610596e-02) (52, 4.78737615048885345459e-02) (53, 4.13527078926563262939e-02) (54, 3.09392847120761871338e-02) (55, -4.72377575933933258057e-02) (56, -1.28587469458580017090e-01) (57, -2.73860424757003784180e-01) (58, -2.17130064964294433594e-01) (59, -1.84142574667930603027e-01) (60, -1.22336819767951965332e-01) (61, -1.99462488293647766113e-01) (62, 1.17469251155853271484e-01) (63, 2.72049512714147567749e-02) (64, -1.91504642367362976074e-01) (65, 1.09426319599151611328e-01) (66, -2.40093320608139038086e-02) (67, -2.12727680802345275879e-01) (68, -1.16414027288556098938e-02) (69, -2.98120349645614624023e-01) (70, -2.31358215212821960449e-01) (71, 7.81780853867530822754e-02) (72, -3.77618558704853057861e-02) (73, -7.91250839829444885254e-02) (74, -6.29209652543067932129e-02) (75, 2.15795114636421203613e-02) (76, 6.16580061614513397217e-02) (77, -1.42826020717620849609e-01) (78, -2.06720635294914245605e-01) (79, -1.50945335626602172852e-01) (80, 1.88254378736019134521e-02) (81, 2.44340077042579650879e-01) (82, -1.81583732366561889648e-01) (83, -3.55715304613113403320e-01) (84, 2.97165811061859130859e-01) (85, -1.07593871653079986572e-02) (86, -5.36212176084518432617e-02) (87, 3.33937495946884155273e-01) (88, -2.40918263792991638184e-01) (89, 3.29594641923904418945e-01) (90, 1.88398838043212890625e-01) (91, -1.50590181350708007812e-01) (92, -7.22832791507244110107e-03) (93, -2.32257291674613952637e-01) (94, -1.79184645414352416992e-01) (95, -1.33169785141944885254e-01) (96, 9.17993206530809402466e-03) (97, 3.26551914215087890625e-01) (98, 1.17523416876792907715e-01) (99, 2.18982860445976257324e-01) (100, -6.25334531068801879883e-02) (101, 2.36775092780590057373e-02) (102, -5.14737516641616821289e-02) (103, 6.94081559777259826660e-02) (104, -5.14152199029922485352e-02) (105, -2.59346794337034225464e-04) (106, 4.88977730274200439453e-02) (107, 5.45977614820003509521e-02) (108, 1.05942726135253906250e-01) (109, 5.74628859758377075195e-02) (110, -4.26293127238750457764e-02) (111, 6.01551309227943420410e-02) (112, 8.31305012106895446777e-02) (113, 3.54768186807632446289e-02) (114, 1.43270492553710937500e-01) (115, 4.18550111353397369385e-02) (116, 6.84798955917358398438e-02) (117, 8.34194123744964599609e-02) (118, 8.47429409623146057129e-02) (119, 2.88159716874361038208e-02) (120, -8.08743774890899658203e-01) (121, 1.57664144039154052734e+00) (122, -7.76166856288909912109e-01) (123, -7.78100490570068359375e-01) (124, 1.58171594142913818359e+00) (125, -7.84446418285369873047e-01) (126, -8.20745587348937988281e-01) (127, 1.62375843524932861328e+00) (128, -7.98373758792877197266e-01) (129, 1.56914353370666503906e+00) (130, 1.57772612571716308594e+00) (131, -7.75279164314270019531e-01) (132, -7.76951134204864501953e-01) (133, -7.97902643680572509766e-01) (134, -7.96167314052581787109e-01) (135, -8.00298333168029785156e-01) (136, -8.48901212215423583984e-01) (137, 1.59092688560485839844e+00) (138, 1.59279811382293701172e+00) (139, 1.61449182033538818359e+00) (140, 1.32759392261505126953e-01) (141, 1.93860918283462524414e-01) (142, 2.71493196487426757812e-01) (143, 2.52230405807495117188e-01) (144, 1.41047373414039611816e-01) (145, 6.21377937495708465576e-02) (146, 2.69628524780273437500e-01) (147, 2.15522721409797668457e-01) (148, 1.66820868849754333496e-01) (149, 1.34405866265296936035e-01) (150, 1.57740518450736999512e-01) (151, 1.69447943568229675293e-01) (152, 1.08820460736751556396e-01) (153, 2.28427350521087646484e-01) (154, 1.85364618897438049316e-01) (155, 2.21231624484062194824e-01) (156, 2.66119152307510375977e-01) (157, 2.04771697521209716797e-01) (158, 1.59426033496856689453e-01) (159, 2.71731883287429809570e-01) (160, 1.48154437541961669922e-01) (161, 4.62730437517166137695e-01) (162, -1.74775943160057067871e-01) (163, -2.88378745317459106445e-01) (164, 4.59347009658813476562e-01) (165, 1.28269150853157043457e-01) (166, -1.49918720126152038574e-04) (167, 4.97145831584930419922e-01) (168, -1.92604765295982360840e-01) (169, 5.18285810947418212891e-01) (170, 3.35944443941116333008e-01) (171, -1.45313650369644165039e-01) (172, 7.97278210520744323730e-02) (173, -1.37861251831054687500e-01) (174, -1.10995508730411529541e-01) (175, -1.01507887244224548340e-01) (176, 2.70262430422008037567e-03) (177, 4.70411092042922973633e-01) (178, 3.21068972349166870117e-01) (179, 2.70419508218765258789e-01) (180, -8.14140439033508300781e-02) (181, -5.78939802944660186768e-02) (182, 1.02904252707958221436e-01) (183, 5.31770475208759307861e-02) (184, -1.74769818782806396484e-01) (185, 1.05344966053962707520e-01) (186, -5.71166835725307464600e-02) (187, -1.16840608417987823486e-01) (188, 8.60990956425666809082e-02) (189, -2.10812434554100036621e-01) (190, -1.82787433266639709473e-01) (191, 9.44802686572074890137e-02) (192, 4.90383990108966827393e-02) (193, 1.32541721686720848083e-02) (194, 9.83990654349327087402e-02) (195, 2.62429192662239074707e-02) (196, -8.31782165914773941040e-03) (197, -4.73578125238418579102e-02) (198, -1.69347554445266723633e-01) (199, -1.49914175271987915039e-01) (200, 1.77868660539388656616e-02) (201, -2.76363432407379150391e-01) (202, 2.00897663831710815430e-01) (203, 1.56437024474143981934e-01) (204, -2.98843353986740112305e-01) (205, 4.93415296077728271484e-02) (206, -5.42620420455932617188e-02) (207, -3.78097355365753173828e-01) (208, 2.78301518410444259644e-02) (209, -4.25525695085525512695e-01) (210, -2.61666387319564819336e-01) (211, 7.03320577740669250488e-02) (212, 2.81534325331449508667e-02) (213, 5.85558935999870300293e-02) (214, 1.10325738787651062012e-02) (215, 6.95515200495719909668e-02) (216, 9.70922876149415969849e-04) (217, -2.69696176052093505859e-01) (218, -1.56843140721321105957e-01) (219, -1.80072963237762451172e-01) (220, -7.75119587779045104980e-02) (221, -6.50364090688526630402e-04) (222, -1.12590126693248748779e-01) (223, -1.64205238223075866699e-01) (224, -2.18341033905744552612e-03) (225, -8.52935910224914550781e-02) (226, -5.87956160306930541992e-02) (227, -8.15344322472810745239e-03) (228, -1.79108649492263793945e-01) (229, 8.99631902575492858887e-03) (230, -1.20837166905403137207e-02) (231, -8.75051990151405334473e-02) (232, -7.69250243902206420898e-02) (233, -1.42517343163490295410e-01) (234, -1.43660306930541992188e-01) (235, -9.81119871139526367188e-02) (236, -6.69740587472915649414e-02) (237, -2.85681243985891342163e-02) (238, -1.87834203243255615234e-02) (239, -5.56958885863423347473e-03) (240, -1.30620658397674560547e-01) (241, -9.22031328082084655762e-02) (242, -1.70867279171943664551e-01) (243, -1.82687371969223022461e-01) (244, -9.57312807440757751465e-02) (245, -5.93677386641502380371e-02) (246, -1.45809933543205261230e-01) (247, -1.06432229280471801758e-01) (248, -1.77198976278305053711e-01) (249, -7.77137503027915954590e-02) (250, -8.88432860374450683594e-02) (251, -1.36750474572181701660e-01) (252, -9.98742580413818359375e-02) (253, -1.96552425622940063477e-01) (254, -1.54936224222183227539e-01) (255, -1.47296696901321411133e-01) (256, -1.26557230949401855469e-01) (257, -9.01065096259117126465e-02) (258, -1.20389372110366821289e-01) (259, -9.74822416901588439941e-02) (260, -1.82388037443161010742e-01) (261, -4.72665548324584960938e-01) (0, -2.02778235077857971191e-01) (1, -2.60044068098068237305e-01) (2, -9.60472300648689270020e-02) (3, -6.30243048071861267090e-02) (4, -2.87117570638656616211e-01) (5, -1.83108225464820861816e-01) (6, -1.51403576135635375977e-01) (7, -2.90635406970977783203e-01) (8, -7.76247978210449218750e-02) (9, -2.96907842159271240234e-01) (10, -2.41449445486068725586e-01) (11, -1.41445100307464599609e-01) (12, -1.67701110243797302246e-01) (13, -1.09114199876785278320e-01) (14, -4.60119917988777160645e-04) (15, -7.98182487487792968750e-02) (16, -2.56600081920623779297e-02) (17, 1.82031989097595214844e-02) (18, 1.43491905182600021362e-02) (19, -1.36553840711712837219e-02) (20, -1.00244596600532531738e-01) (21, -1.13782644271850585938e-01) (22, -5.31037263572216033936e-02) (23, -1.49128675460815429688e-01) (24, -1.03668704628944396973e-01) (25, -6.46826922893524169922e-02) (26, -1.02203778922557830811e-01) (27, -8.53421688079833984375e-02) (28, -1.27566948533058166504e-01) (29, -4.88866195082664489746e-02) (30, -6.38595223426818847656e-02) (31, -7.33188241720199584961e-02) (32, -7.63655304908752441406e-02) (33, -1.24887429177761077881e-01) (34, -1.08434535562992095947e-01) (35, -6.71478435397148132324e-02) (36, -8.15970301628112792969e-02) (37, -7.73436725139617919922e-02) (38, -1.16755388677120208740e-01) (39, -8.54400098323822021484e-02) (40, -9.90050807595252990723e-02) (41, -3.14296931028366088867e-02) (42, -1.10089078545570373535e-01) (43, -1.59808397293090820312e-01) (44, -5.71044422686100006104e-02) (45, 7.35344141721725463867e-02) (46, -3.71461994946002960205e-02) (47, -5.41875995695590972900e-02) (48, -6.13274127244949340820e-02) (49, -4.29050251841545104980e-02) (50, -8.00598338246345520020e-02) (51, -4.76246699690818786621e-02) (52, 1.57872587442398071289e-02) (53, -9.51956436038017272949e-02) (54, -4.90489341318607330322e-02) (55, -5.84827326238155364990e-02) (56, -9.23529490828514099121e-02) (57, -6.19491040706634521484e-02) (58, -1.11633852124214172363e-01) (59, -2.83490400761365890503e-02) (60, -1.14400848746299743652e-01) (61, -1.25376150012016296387e-01) (62, 9.95496213436126708984e-02) (63, 1.71854645013809204102e-01) (64, -2.93340533971786499023e-01) (65, 1.34000703692436218262e-01) (66, 2.51514408737421035767e-02) (67, -3.40570420026779174805e-01) (68, 1.95861622691154479980e-01) (69, -3.56874316930770874023e-01) (70, -2.41435512900352478027e-01) (71, 9.29049402475357055664e-02) (72, 4.95475269854068756104e-02) (73, 1.44980683922767639160e-01) (74, 1.17039360105991363525e-01) (75, 1.71455685049295425415e-02) (76, -9.61393639445304870605e-02) (77, -2.47007116675376892090e-01) (78, -2.22247496247291564941e-01) (79, -1.26641899347305297852e-01) (80, -1.72225505113601684570e-01) (81, -2.23871305584907531738e-01) (82, 9.72500443458557128906e-02) (83, -8.29571485519409179688e-03) (84, -2.33245968818664550781e-01) (85, 9.76259931921958923340e-02) (86, -3.93970198929309844971e-02) (87, -2.41414412856101989746e-01) (88, -2.81640347093343734741e-02) (89, -3.45199704170227050781e-01) (90, -2.68591731786727905273e-01) (91, 6.59954845905303955078e-02) (92, -9.40946787595748901367e-02) (93, -1.24474465847015380859e-01) (94, -9.69039574265480041504e-02) (95, -3.45268216915428638458e-03) (96, 2.19843853265047073364e-02) (97, -1.81594237685203552246e-01) (98, -2.18638464808464050293e-01) (99, -1.69164404273033142090e-01) (100, 2.87508890032768249512e-02) (101, 2.86339730024337768555e-01) (102, -2.07139000296592712402e-01) (103, -3.47102582454681396484e-01) (104, 3.34132045507431030273e-01) (105, 1.40810320153832435608e-02) (106, -5.73313385248184204102e-02) (107, 3.86075288057327270508e-01) (108, -2.11259365081787109375e-01) (109, 3.61610263586044311523e-01) (110, 2.14983761310577392578e-01) (111, -1.67100936174392700195e-01) (112, 2.81359311193227767944e-02) (113, -2.31216683983802795410e-01) (114, -1.54206633567810058594e-01) (115, -1.54662907123565673828e-01) (116, 1.12054003402590751648e-02) (117, 3.67998778820037841797e-01) (118, 1.71499893069267272949e-01) (119, 2.42056876420974731445e-01) (120, -4.81229722499847412109e-02) (121, 6.03209994733333587646e-02) (122, -4.81270477175712585449e-02) (123, 5.05327060818672180176e-02) (124, -3.94832491874694824219e-02) (125, 6.21794722974300384521e-02) (126, 3.92207242548465728760e-02) (127, 5.41406311094760894775e-02) (128, 1.24921418726444244385e-01) (129, 2.51849628984928131104e-02) (130, -4.14442643523216247559e-02) (131, 7.42086246609687805176e-02) (132, 1.72502338886260986328e-01) (133, 1.84115990996360778809e-02) (134, 1.50554910302162170410e-01) (135, 7.75353983044624328613e-02) (136, 1.05619102716445922852e-01) (137, 1.02217070758342742920e-01) (138, 2.30210423469543457031e-02) (139, 2.18783952295780181885e-02) (140, 1.76684355735778808594e+00) (141, 1.77645707130432128906e+00) (142, -5.83180904388427734375e-01) (143, -5.72650253772735595703e-01) (144, 1.77198755741119384766e+00) (145, -6.14752113819122314453e-01) (146, -6.32272422313690185547e-01) (147, 1.77763724327087402344e+00) (148, -5.98158895969390869141e-01) (149, 1.75029063224792480469e+00) (150, 1.77612805366516113281e+00) (151, -5.92728555202484130859e-01) (152, -5.81210374832153320312e-01) (153, -5.94612002372741699219e-01) (154, -5.92368245124816894531e-01) (155, -6.08852088451385498047e-01) (156, -6.35519325733184814453e-01) (157, 1.78774237632751464844e+00) (158, 1.76678121089935302734e+00) (159, 1.80015671253204345703e+00) (160, -8.27191583812236785889e-03) (161, 6.56934753060340881348e-02) (162, 1.41924634575843811035e-01) (163, 7.38041624426841735840e-02) (164, 5.34643419086933135986e-02) (165, -8.85602924972772598267e-03) (166, 1.57899439334869384766e-01) (167, 1.28693714737892150879e-01) (168, 4.13962313905358314514e-03) (169, 1.34489759802818298340e-02) (170, 5.38168251514434814453e-02) (171, 3.31252962350845336914e-02) (172, 6.31933733820915222168e-02) (173, 4.47332374751567840576e-02) (174, 3.86798456311225891113e-02) (175, 8.20983350276947021484e-02) (176, 1.42235204577445983887e-01) (177, 1.37599721550941467285e-01) (178, 4.14163433015346527100e-02) (179, 2.05581858754158020020e-01) (180, -4.42414581775665283203e-02) (181, 2.69089281558990478516e-01) (182, -1.96615323424339294434e-01) (183, -3.60480874776840209961e-01) (184, 2.58510202169418334961e-01) (185, 1.50179080665111541748e-02) (186, -1.57200485467910766602e-01) (187, 3.18649202585220336914e-01) (188, -3.15182834863662719727e-01) (189, 2.96988725662231445312e-01) (190, 1.50809317827224731445e-01) (191, -2.26841256022453308105e-01) (192, 6.42517060041427612305e-02) (193, -2.88283467292785644531e-01) (194, -2.52114564180374145508e-01) (195, -1.80077522993087768555e-01) (196, -1.03623859584331512451e-01) (197, 2.84303188323974609375e-01) (198, 9.16058495640754699707e-02) (199, 1.04977302253246307373e-01) (200, -1.41471996903419494629e-01) (201, -8.98627042770385742188e-02) (202, 7.78134837746620178223e-02) (203, -5.01202233135700225830e-03) (204, -1.76231548190116882324e-01) (205, 4.52339835464954376221e-02) (206, -7.91655182838439941406e-02) (207, -1.85425907373428344727e-01) (208, 2.71827355027198791504e-02) (209, -2.80181169509887695312e-01) (210, -2.28616729378700256348e-01) (211, 4.50618900358676910400e-02) (212, 8.88903960585594177246e-02) (213, -4.82591614127159118652e-02) (214, 3.09043172746896743774e-02) (215, -7.89420120418071746826e-03) (216, -3.03390547633171081543e-02) (217, -8.87599512934684753418e-02) (218, -1.76708027720451354980e-01) (219, -1.74701660871505737305e-01) (220, -6.30374476313591003418e-02) (221, -2.01489657163619995117e-01) (222, 2.12600141763687133789e-01) (223, 1.34340703487396240234e-01) (224, -2.18089357018470764160e-01) (225, 4.82837110757827758789e-03) (226, -5.19010610878467559814e-02) (227, -2.77184128761291503906e-01) (228, 2.70114876329898834229e-02) (229, -3.35533767938613891602e-01) (230, -2.47841998934745788574e-01) (231, 8.48820209503173828125e-02) (232, 9.78083461523056030273e-02) (233, 4.69068288803100585938e-02) (234, -8.97222012281417846680e-03) (235, 7.51252993941307067871e-02) (236, 2.43546497076749801636e-02) (237, -2.00682654976844787598e-01) (238, -1.55221298336982727051e-01) (239, -1.30039781332015991211e-01) (240, -4.36586700379848480225e-02) (241, 2.45585609227418899536e-02) (242, -2.87020914256572723389e-02) (243, -9.57288146018981933594e-02) (244, 1.01494677364826202393e-02) (245, -1.16109382361173629761e-03) (246, -1.19495205581188201904e-04) (247, -4.34968993067741394043e-03) (248, -1.31750956177711486816e-01) (249, -5.17552345991134643555e-03) (250, -5.90918026864528656006e-03) (251, -1.10863754525780677795e-02) (252, 5.20902536809444427490e-02) (253, -9.69934687018394470215e-02) (254, -1.05245724320411682129e-01) (255, -1.56735759228467941284e-02) (256, 5.25193102657794952393e-03) (257, -2.46227383613586425781e-02) (258, -4.37621511518955230713e-02) (259, 4.02801409363746643066e-02) (260, -1.50799959897994995117e-01) (261, -4.32129949331283569336e-01) (262, -4.36923988163471221924e-02) (0, 8.76932740211486816406e-01) (1, -3.26014682650566101074e-02) (2, 6.30664885044097900391e-01) (3, 8.27684342861175537109e-01) (4, 5.27186095714569091797e-01) (5, -3.35370272397994995117e-01) (6, 3.12877714633941650391e-01) (7, 4.11248862743377685547e-01) (8, 3.39672267436981201172e-01) (9, 7.65863358974456787109e-01) (10, 7.21215724945068359375e-01) (11, 3.08436959981918334961e-01) (12, 1.98549464344978332520e-01) (13, 7.63781130313873291016e-01) (14, 1.97145736217498779297e+00) (15, 7.12110340595245361328e-01) (16, -3.23477458953857421875e+00) (17, -3.39126253128051757812e+00) (18, -3.09473395347595214844e+00) (19, -3.31518459320068359375e+00) (20, 8.90822947025299072266e-01) (21, -5.98212555050849914551e-02) (22, 3.48254829645156860352e-01) (23, 6.76851332187652587891e-01) (24, 4.45771574974060058594e-01) (25, -1.01899862289428710938e+00) (26, -1.29682645201683044434e-01) (27, 4.48402494192123413086e-01) (28, 1.59980773925781250000e-01) (29, 6.53898835182189941406e-01) (30, 3.50688278675079345703e-01) (31, -2.30797573924064636230e-01) (32, -5.67857086658477783203e-01) (33, 2.64531552791595458984e-01) (34, 1.23948998749256134033e-01) (35, -2.02261423692107200623e-03) (36, 1.17069810628890991211e-01) (37, 4.05143946409225463867e-05) (38, 2.48772025108337402344e-01) (39, -1.15625269711017608643e-01) (40, 8.54337513446807861328e-01) (41, -4.24860566854476928711e-01) (42, 2.53519982099533081055e-01) (43, 6.26741945743560791016e-01) (44, 3.69486153125762939453e-01) (45, -1.50207901000976562500e+00) (46, -3.21919798851013183594e-01) (47, 6.27544224262237548828e-01) (48, 3.93563546240329742432e-02) (49, 9.35816049575805664062e-01) (50, 6.04912698268890380859e-01) (51, -2.53553003072738647461e-01) (52, -7.70262062549591064453e-01) (53, 5.24492740631103515625e-01) (54, 3.23485165834426879883e-01) (55, 4.50554415583610534668e-02) (56, 1.24405652284622192383e-01) (57, 7.45404437184333801270e-02) (58, 4.69980031251907348633e-01) (59, -1.69438235461711883545e-02) (60, 9.86850738525390625000e-01) (61, -9.20745313167572021484e-01) (62, 3.56545031070709228516e-01) (63, 7.79895126819610595703e-01) (64, 1.03464759886264801025e-01) (65, -1.82707679271697998047e+00) (66, -3.07141900062561035156e-01) (67, 4.45480465888977050781e-01) (68, 1.77389100193977355957e-01) (69, 8.53022336959838867188e-01) (70, 5.31896591186523437500e-01) (71, -2.45130017399787902832e-01) (72, -8.28851044178009033203e-01) (73, 6.54868185520172119141e-01) (74, 4.31881994009017944336e-01) (75, -8.14586952328681945801e-02) (76, -1.20366802439093589783e-02) (77, -1.86165541410446166992e-01) (78, 5.05169093608856201172e-01) (79, -3.12885232269763946533e-02) (80, 1.22326505184173583984e+00) (81, -1.08065545558929443359e+00) (82, 5.52665650844573974609e-01) (83, 9.84401822090148925781e-01) (84, -1.41470402479171752930e-01) (85, -2.17878127098083496094e+00) (86, -3.30920368432998657227e-01) (87, -9.73657891154289245605e-02) (88, 2.28011518716812133789e-01) (89, 7.57423341274261474609e-01) (90, 5.62047898769378662109e-01) (91, -2.11321979761123657227e-01) (92, -1.09923052787780761719e+00) (93, 7.67478883266448974609e-01) (94, 4.33395534753799438477e-01) (95, 3.63268628716468811035e-02) (96, -5.69584667682647705078e-02) (97, -7.22135424613952636719e-01) (98, 4.60173815488815307617e-01) (99, -1.19741506874561309814e-01) (100, 1.51418375968933105469e+00) (101, -7.91321575641632080078e-01) (102, 1.21141158044338226318e-01) (103, 1.05436551570892333984e+00) (104, 2.38986745476722717285e-01) (105, -2.51619791984558105469e+00) (106, -1.58777356147766113281e-01) (107, 3.00596922636032104492e-01) (108, 3.19035112857818603516e-01) (109, 1.00674426555633544922e+00) (110, 6.50920629501342773438e-01) (111, -5.90953707695007324219e-01) (112, -1.51693320274353027344e+00) (113, 7.96609401702880859375e-01) (114, 5.12462913990020751953e-01) (115, -1.71130657196044921875e-01) (116, -2.55473524332046508789e-01) (117, -3.32374572753906250000e-01) (118, 7.06190168857574462891e-01) (119, -4.01099659502506256104e-02) (120, 1.32594501972198486328e+00) (121, -1.83929491043090820312e+00) (122, -2.91487485170364379883e-01) (123, 1.08192324638366699219e+00) (124, -4.39664006233215332031e-01) (125, -2.97791576385498046875e+00) (126, -6.35540723800659179688e-01) (127, -1.62883237004280090332e-01) (128, 4.97486531734466552734e-01) (129, 6.37811839580535888672e-01) (130, 2.49184779822826385498e-02) (131, -8.95126521587371826172e-01) (132, -2.67114377021789550781e+00) (133, 8.72857391834259033203e-01) (134, 5.93887150287628173828e-01) (135, -8.87999475002288818359e-01) (136, -1.20148611068725585938e+00) (137, -9.73928153514862060547e-01) (138, -4.34344559907913208008e-01) (139, -1.06846404075622558594e+00) (140, 1.10322546958923339844e+00) (141, -9.76647019386291503906e-01) (142, -3.15500229597091674805e-01) (143, 1.07539761066436767578e+00) (144, -8.01499411463737487793e-02) (145, -2.25670671463012695312e+00) (146, -1.50843307375907897949e-01) (147, -1.54795840382575988770e-01) (148, 9.15737807750701904297e-01) (149, 8.06007981300354003906e-01) (150, 7.06618607044219970703e-01) (151, -3.25058907270431518555e-01) (152, -3.35477209091186523438e+00) (153, 1.19210219383239746094e+00) (154, 8.59398007392883300781e-01) (155, -5.04772961139678955078e-01) (156, -1.00260758399963378906e+00) (157, -9.07899498939514160156e-01) (158, -4.10148978233337402344e-01) (159, -3.40839147567749023438e-01) (160, 1.15097153186798095703e+00) (161, -6.10854744911193847656e-01) (162, -1.02239489555358886719e+00) (163, 4.66039806604385375977e-01) (164, 2.77570039033889770508e-02) (165, -1.31734526157379150391e+00) (166, 6.59983232617378234863e-03) (167, -1.66621789336204528809e-01) (168, 7.18168616294860839844e-01) (169, 7.96682715415954589844e-01) (170, 9.59535062313079833984e-01) (171, -3.61748665571212768555e-01) (172, -3.55764746665954589844e+00) (173, 1.14415168762207031250e+00) (174, 7.73175537586212158203e-01) (175, -8.42001318931579589844e-01) (176, -9.37904953956604003906e-01) (177, -9.21169042587280273438e-01) (178, -1.64557382464408874512e-01) (179, -1.11173270270228385925e-02) (180, 1.09360992908477783203e+00) (181, -2.05707579851150512695e-01) (182, -1.39913225173950195312e+00) (183, -4.11815103143453598022e-03) (184, 2.81660437583923339844e-01) (185, -9.18936967849731445312e-01) (186, -4.38946560025215148926e-02) (187, 3.26771736145019531250e-01) (188, 5.78320026397705078125e-01) (189, 1.21940386295318603516e+00) (190, 1.24992597103118896484e+00) (191, -3.74708265066146850586e-01) (192, -2.91896009445190429688e+00) (193, 6.93680107593536376953e-01) (194, 7.40472376346588134766e-01) (195, -7.67171204090118408203e-01) (196, -9.50489938259124755859e-01) (197, -4.96697753667831420898e-01) (198, 3.56088697910308837891e-01) (199, 2.87756979465484619141e-01) (200, 9.18351352214813232422e-01) (201, -1.74028649926185607910e-01) (202, -6.37219190597534179688e-01) (203, 3.57235461473464965820e-01) (204, 2.55042910575866699219e-01) (205, -5.65660238265991210938e-01) (206, -3.98855358362197875977e-02) (207, 4.64892834424972534180e-01) (208, 8.54361414909362792969e-01) (209, 1.25452601909637451172e+00) (210, 1.16655337810516357422e+00) (211, 3.86879816651344299316e-02) (212, -1.93197202682495117188e+00) (213, 6.99925005435943603516e-01) (214, 8.94380509853363037109e-01) (215, -3.36950063705444335938e-01) (216, -6.19593083858489990234e-01) (217, -4.54213768243789672852e-01) (218, 2.70496785640716552734e-01) (219, 2.57514744997024536133e-01) (220, 8.61970424652099609375e-01) (221, -3.74390363693237304688e-01) (222, -4.14616286754608154297e-01) (223, 3.75285267829895019531e-01) (224, 2.72994637489318847656e-01) (225, -3.75833749771118164062e-01) (226, 9.42405387759208679199e-02) (227, 3.00894796848297119141e-01) (228, 7.92141914367675781250e-01) (229, 9.36704397201538085938e-01) (230, 8.84753286838531494141e-01) (231, 6.23009912669658660889e-02) (232, -1.33139467239379882812e+00) (233, 6.46457254886627197266e-01) (234, 7.03851222991943359375e-01) (235, -2.11395934224128723145e-01) (236, -4.24116671085357666016e-01) (237, -3.80684792995452880859e-01) (238, 1.16738110780715942383e-01) (239, 2.60673433542251586914e-01) (240, 7.08383679389953613281e-01) (241, -3.26135987415909767151e-03) (242, -4.33984369039535522461e-01) (243, 2.03199297189712524414e-01) (244, 4.60050791501998901367e-01) (245, -3.66376847028732299805e-01) (246, -2.00735200196504592896e-02) (247, 5.61806678771972656250e-01) (248, 5.07943749427795410156e-01) (249, 9.51602458953857421875e-01) (250, 8.64414632320404052734e-01) (251, 1.53814461082220077515e-02) (252, -8.63263964653015136719e-01) (253, 4.45226818323135375977e-01) (254, 4.43920493125915527344e-01) (255, -1.96343779563903808594e-01) (256, -3.42859655618667602539e-01) (257, 9.32961255311965942383e-02) (258, -1.61673855036497116089e-02) (259, 3.11256408691406250000e-01) (260, 4.02263075113296508789e-01) (261, -6.06034755706787109375e+00) (262, 2.39062023162841796875e+00) (263, 2.27264237403869628906e+00) (0, 6.33516788482666015625e-01) (1, 9.01379346847534179688e-01) (2, 1.40461504459381103516e-01) (3, 3.08353781700134277344e-01) (4, 7.16832578182220458984e-01) (5, -1.43484205007553100586e-01) (6, 3.45446258783340454102e-01) (7, 7.90257275104522705078e-01) (8, 1.04612246155738830566e-01) (9, 8.05038750171661376953e-01) (10, 7.87312448024749755859e-01) (11, 9.63368937373161315918e-02) (12, 2.99845635890960693359e-02) (13, 2.94722795486450195312e-01) (14, -1.51257669925689697266e+00) (15, -1.98781979084014892578e+00) (16, 3.45673036575317382812e+00) (17, 3.27981495857238769531e+00) (18, 3.27811002731323242188e+00) (19, 3.35094261169433593750e+00) (20, 4.30877983570098876953e-01) (21, 4.03404474258422851562e-01) (22, -7.60002881288528442383e-02) (23, 1.30972594022750854492e-01) (24, 3.62391501665115356445e-01) (25, -4.78743642568588256836e-01) (26, 8.19684099406003952026e-03) (27, 4.70241576433181762695e-01) (28, -9.53020751476287841797e-02) (29, 4.64408665895462036133e-01) (30, 3.37261646986007690430e-01) (31, -3.21976065635681152344e-01) (32, -3.54591012001037597656e-01) (33, -1.39302164316177368164e-01) (34, -4.82054427266120910645e-02) (35, -1.60383164882659912109e-01) (36, -2.02190846204757690430e-01) (37, 8.82627889513969421387e-02) (38, 2.87327349185943603516e-01) (39, -6.54204487800598144531e-02) (40, 2.42528244853019714355e-01) (41, 3.11483889818191528320e-01) (42, -1.70577123761177062988e-01) (43, 8.42370986938476562500e-02) (44, 7.65463337302207946777e-02) (45, -7.49169707298278808594e-01) (46, -1.34567409753799438477e-01) (47, 2.03759763389825820923e-02) (48, -2.78389662504196166992e-01) (49, 4.18780356645584106445e-01) (50, 2.36155599355697631836e-01) (51, -3.11946004629135131836e-01) (52, -3.36901277303695678711e-01) (53, -6.10722601413726806641e-02) (54, -9.16844308376312255859e-02) (55, -1.49994015693664550781e-01) (56, -2.67866104841232299805e-01) (57, -2.71952092647552490234e-01) (58, 8.21848362684249877930e-02) (59, -2.09417045116424560547e-01) (60, 2.22065389156341552734e-01) (61, 8.52169468998908996582e-02) (62, 1.79228186607360839844e-01) (63, 2.57423669099807739258e-01) (64, -1.83450594544410705566e-01) (65, -6.61365211009979248047e-01) (66, 5.75966723263263702393e-02) (67, -4.88315105438232421875e-01) (68, -7.87679702043533325195e-02) (69, 6.95537030696868896484e-02) (70, 6.93515762686729431152e-02) (71, -3.09505145996809005737e-02) (72, -5.04844412207603454590e-02) (73, 8.64065513014793395996e-02) (74, 1.16843753494322299957e-03) (75, 4.90642897784709930420e-02) (76, -2.95899689197540283203e-01) (77, -6.95686995983123779297e-01) (78, -2.84650772809982299805e-01) (79, -4.47336316108703613281e-01) (80, 2.49411478638648986816e-01) (81, -6.01044297218322753906e-01) (82, 6.18914842605590820312e-01) (83, 3.89443337917327880859e-01) (84, -6.00680470466613769531e-01) (85, -4.61853504180908203125e-01) (86, -2.92372964322566986084e-02) (87, -1.03474569320678710938e+00) (88, 9.66440364718437194824e-02) (89, -3.23520421981811523438e-01) (90, -1.43970772624015808105e-01) (91, 3.30414444208145141602e-01) (92, 2.89842486381530761719e-01) (93, 2.19578236341476440430e-01) (94, 6.14988133311271667480e-02) (95, 1.74624428153038024902e-01) (96, -3.42148840427398681641e-01) (97, -1.19973301887512207031e+00) (98, -4.74075555801391601562e-01) (99, -6.20752751827239990234e-01) (100, 4.93620902299880981445e-01) (101, -5.15944898128509521484e-01) (102, 1.29479527473449707031e+00) (103, 7.34574139118194580078e-01) (104, -6.73638820648193359375e-01) (105, 5.57030916213989257812e-01) (106, 2.53032326698303222656e-01) (107, -1.14587175846099853516e+00) (108, 4.61964458227157592773e-01) (109, -3.36615234613418579102e-01) (110, -4.82616312801837921143e-02) (111, 1.01429927349090576172e+00) (112, 1.04837095737457275391e+00) (113, 6.25277817249298095703e-01) (114, 3.60400170087814331055e-01) (115, 6.85893416404724121094e-01) (116, -1.29209637641906738281e-01) (117, -1.18662452697753906250e+00) (118, -5.61994791030883789062e-01) (119, -5.60357570648193359375e-01) (120, 4.61548030376434326172e-01) (121, -4.29506152868270874023e-01) (122, 9.74441766738891601562e-01) (123, 3.68810951709747314453e-01) (124, -6.34120464324951171875e-01) (125, 4.99194383621215820312e-01) (126, 1.59162338823080062866e-02) (127, -1.19856107234954833984e+00) (128, 3.34896564483642578125e-01) (129, -2.82009541988372802734e-01) (130, 1.96109399199485778809e-01) (131, 8.21208536624908447266e-01) (132, 1.21404671669006347656e+00) (133, 3.20447057485580444336e-01) (134, 8.63816440105438232422e-02) (135, 3.09990823268890380859e-01) (136, -3.15163910388946533203e-01) (137, -1.26826560497283935547e+00) (138, -2.34374970197677612305e-01) (139, -5.25957047939300537109e-01) (140, 7.03711867332458496094e-01) (141, -4.54409480094909667969e-01) (142, 3.58838289976119995117e-01) (143, 4.12972480058670043945e-01) (144, -4.37021583318710327148e-01) (145, 1.80513292551040649414e-01) (146, 1.48858368396759033203e-01) (147, -9.99229609966278076172e-01) (148, 3.22327047586441040039e-01) (149, -2.49635577201843261719e-01) (150, 1.51862710714340209961e-01) (151, 2.87164419889450073242e-01) (152, 4.11281496286392211914e-01) (153, 4.20400232076644897461e-01) (154, 2.13193356990814208984e-01) (155, 1.04462437331676483154e-01) (156, -3.82132500410079956055e-01) (157, -1.11300325393676757812e+00) (158, -3.00739139318466186523e-01) (159, -2.48381003737449645996e-01) (160, 3.93219739198684692383e-01) (161, -2.24203258752822875977e-01) (162, 9.29189249873161315918e-02) (163, 4.79904264211654663086e-01) (164, -1.89145714044570922852e-01) (165, -6.68219197541475296021e-03) (166, 2.80328989028930664062e-01) (167, -5.56892693042755126953e-01) (168, 4.05227571725845336914e-01) (169, 1.55083522200584411621e-01) (170, 3.28135311603546142578e-01) (171, 1.40284359455108642578e-01) (172, -3.66455286741256713867e-01) (173, 5.38933038711547851562e-01) (174, 2.90004193782806396484e-01) (175, -6.85730352997779846191e-02) (176, -2.55437761545181274414e-01) (177, -7.71930098533630371094e-01) (178, -2.35036723315715789795e-02) (179, -1.48135036230087280273e-01) (180, 3.02366197109222412109e-01) (181, -1.10615059733390808105e-01) (182, -3.73759895563125610352e-01) (183, 1.91797584295272827148e-01) (184, 8.05486440658569335938e-02) (185, -2.95758485794067382812e-01) (186, 2.61353254318237304688e-02) (187, -4.72842492163181304932e-02) (188, 1.86373025178909301758e-01) (189, 4.60647493600845336914e-01) (190, 5.03746271133422851562e-01) (191, -1.98660269379615783691e-01) (192, -4.74276721477508544922e-01) (193, 3.10374885797500610352e-01) (194, 2.19207778573036193848e-01) (195, -2.60895192623138427734e-01) (196, -3.31054270267486572266e-01) (197, -3.19781601428985595703e-01) (198, -1.85678023844957351685e-02) (199, 4.23913635313510894775e-03) (200, 2.55202949047088623047e-01) (201, -8.00732970237731933594e-02) (202, -4.42088067531585693359e-01) (203, 1.04123868048191070557e-01) (204, 1.67356207966804504395e-01) (205, -6.85641050338745117188e-01) (206, -5.97187802195549011230e-02) (207, 3.25379312038421630859e-01) (208, 1.32789671421051025391e-01) (209, 5.54006636142730712891e-01) (210, 5.81670224666595458984e-01) (211, -3.20467680692672729492e-01) (212, -5.25689363479614257812e-01) (213, 1.91315680742263793945e-01) (214, 1.18659861385822296143e-01) (215, -3.68660300970077514648e-01) (216, -3.73801320791244506836e-01) (217, -9.15524736046791076660e-02) (218, 2.72896345704793930054e-02) (219, 4.72349748015403747559e-02) (220, 3.04290652275085449219e-01) (221, 1.59942612051963806152e-01) (222, -4.05280113220214843750e-01) (223, -9.79779940098524093628e-03) (224, 2.48915165662765502930e-01) (225, -6.61688566207885742188e-01) (226, -7.97681733965873718262e-02) (227, 4.38233822584152221680e-01) (228, 3.15949618816375732422e-02) (229, 5.42715013027191162109e-01) (230, 4.26142007112503051758e-01) (231, -3.67186754941940307617e-01) (232, -4.03963178396224975586e-01) (233, 7.14827850461006164551e-02) (234, 1.25273704528808593750e-01) (235, -3.47804486751556396484e-01) (236, -3.56028586626052856445e-01) (237, 3.83054763078689575195e-02) (238, 1.96668282151222229004e-01) (239, 1.25022158026695251465e-01) (240, 1.32831037044525146484e-01) (241, 2.07207486033439636230e-01) (242, -3.67411792278289794922e-01) (243, -7.35188350081443786621e-02) (244, 2.28187352418899536133e-01) (245, -6.68945610523223876953e-01) (246, -1.19179077446460723877e-01) (247, 3.39096695184707641602e-01) (248, -4.99309748411178588867e-02) (249, 4.22607213258743286133e-01) (250, 3.22307676076889038086e-01) (251, -3.50511819124221801758e-01) (252, -4.98134821653366088867e-01) (253, 3.02199758589267730713e-02) (254, 6.76212236285209655762e-02) (255, -4.01589483022689819336e-01) (256, -3.71254235506057739258e-01) (257, 4.35835588723421096802e-03) (258, -1.32467616349458694458e-02) (259, 1.99935603886842727661e-02) (260, -9.08596143126487731934e-02) (261, 4.10077214241027832031e-01) (262, 7.34822809696197509766e-01) (263, 8.37202966213226318359e-01) (264, -7.96883761882781982422e-01) (0, 3.69089961051940917969e-01) (1, 1.96882218122482299805e-01) (2, 3.32731783390045166016e-01) (3, 5.39583981037139892578e-01) (4, 1.97915017604827880859e-01) (5, 5.59449344873428344727e-02) (6, 4.27972584962844848633e-01) (7, 2.66172766685485839844e-01) (8, 4.88673359155654907227e-01) (9, 2.36317411065101623535e-01) (10, 3.18983793258666992188e-01) (11, 2.25719794631004333496e-01) (12, 3.95372003316879272461e-01) (13, 3.16940635442733764648e-01) (14, -1.79151952266693115234e+00) (15, -1.70730674266815185547e+00) (16, -1.82998442649841308594e+00) (17, -2.05509185791015625000e+00) (18, -2.06665658950805664062e+00) (19, -1.91284859180450439453e+00) (20, 6.23781755566596984863e-02) (21, 2.01544091105461120605e-01) (22, -1.46611213684082031250e-01) (23, -3.88492271304130554199e-02) (24, -6.09711557626724243164e-02) (25, -2.46013835072517395020e-01) (26, 1.13849230110645294189e-01) (27, -2.40007247775793075562e-02) (28, 7.29025527834892272949e-02) (29, 9.64934974908828735352e-02) (30, 2.00880795717239379883e-01) (31, -1.51109486818313598633e-01) (32, 1.01590424776077270508e-01) (33, 5.72934886440634727478e-03) (34, 1.04727499186992645264e-01) (35, 9.32227820158004760742e-02) (36, -1.19726791977882385254e-01) (37, 1.87206007540225982666e-02) (38, -5.50043582916259765625e-02) (39, -3.38754095137119293213e-02) (40, 9.79766175150871276855e-02) (41, 1.39764890074729919434e-01) (42, 9.21942889690399169922e-02) (43, 8.76245051622390747070e-02) (44, -1.86608821153640747070e-01) (45, -1.47254034876823425293e-01) (46, 1.93301677703857421875e-01) (47, -2.67020225524902343750e-01) (48, 2.29877710342407226562e-01) (49, -8.22825655341148376465e-02) (50, -3.25034447014331817627e-02) (51, 2.07561664283275604248e-02) (52, 2.68650531768798828125e-01) (53, 2.90478933602571487427e-02) (54, 1.24600201845169067383e-01) (55, 5.96487224102020263672e-02) (56, -1.66213989257812500000e-01) (57, -1.94011479616165161133e-01) (58, -3.15270721912384033203e-01) (59, -7.87001103162765502930e-02) (60, -1.15287695080041885376e-02) (61, -1.51362940669059753418e-01) (62, 1.34835213422775268555e-01) (63, 1.99926793575286865234e-01) (64, -3.56712818145751953125e-01) (65, -9.70237180590629577637e-02) (66, 2.35689744353294372559e-01) (67, -5.43957710266113281250e-01) (68, 3.07037740945816040039e-01) (69, -3.04081737995147705078e-01) (70, -1.73260405659675598145e-01) (71, 7.21558183431625366211e-02) (72, 3.46474260091781616211e-01) (73, 1.04341134428977966309e-01) (74, 1.82116359472274780273e-01) (75, 1.14924199879169464111e-01) (76, -9.68266949057579040527e-02) (77, -3.63049209117889404297e-01) (78, -6.20648682117462158203e-01) (79, -2.39600345492362976074e-01) (80, -5.17132431268692016602e-02) (81, -1.99808493256568908691e-01) (82, 4.50551062822341918945e-01) (83, 1.35357141494750976562e-01) (84, -3.39920282363891601562e-01) (85, 3.07722330093383789062e-01) (86, 3.88488978147506713867e-01) (87, -6.54982030391693115234e-01) (88, 3.65768849849700927734e-01) (89, -4.20056521892547607422e-01) (90, -2.02930986881256103516e-01) (91, 3.94671946763992309570e-01) (92, 6.05182409286499023438e-01) (93, 8.48190635442733764648e-02) (94, 1.36340156197547912598e-01) (95, 3.29743444919586181641e-01) (96, 1.39016583561897277832e-01) (97, -4.19927060604095458984e-01) (98, -7.49833822250366210938e-01) (99, -1.79301366209983825684e-01) (100, -1.19021698832511901855e-01) (101, -7.69498646259307861328e-02) (102, 6.58553481101989746094e-01) (103, -1.11192930489778518677e-02) (104, -4.28049325942993164062e-01) (105, 1.07049477100372314453e+00) (106, 2.99744844436645507812e-01) (107, -8.05779993534088134766e-01) (108, 1.72133520245552062988e-01) (109, -3.73400896787643432617e-01) (110, -9.29833129048347473145e-02) (111, 6.46812200546264648438e-01) (112, 9.75686430931091308594e-01) (113, 2.67471489496529102325e-03) (114, -2.87280417978763580322e-02) (115, 3.29100370407104492188e-01) (116, 1.17048740386962890625e-01) (117, -5.85461258888244628906e-01) (118, -9.62955594062805175781e-01) (119, -3.17407041788101196289e-01) (120, -6.59614428877830505371e-02) (121, -8.32448601722717285156e-02) (122, 1.37389302253723144531e+00) (123, 2.88626760244369506836e-01) (124, -6.90415859222412109375e-01) (125, 1.61966550350189208984e+00) (126, 4.65865373611450195312e-01) (127, -8.75382900238037109375e-01) (128, 4.73521381616592407227e-01) (129, -5.92735409736633300781e-01) (130, 1.44207403063774108887e-01) (131, 1.35957419872283935547e+00) (132, 1.74695897102355957031e+00) (133, 1.82336539030075073242e-01) (134, 9.76343452930450439453e-02) (135, 9.07933592796325683594e-01) (136, 4.11801666021347045898e-01) (137, -6.44551753997802734375e-01) (138, -9.49570059776306152344e-01) (139, -7.42864489555358886719e-01) (140, -3.54053437709808349609e-01) (141, -5.82929491996765136719e-01) (142, 8.84460568428039550781e-01) (143, 2.56152868270874023438e-01) (144, -7.20762908458709716797e-01) (145, 1.02803933620452880859e+00) (146, 2.86590725183486938477e-01) (147, -8.37561845779418945312e-01) (148, 4.75319832563400268555e-01) (149, -8.30169856548309326172e-01) (150, -4.74480152130126953125e-01) (151, 7.88349926471710205078e-01) (152, 1.90069591999053955078e+00) (153, 1.45919509232044219971e-02) (154, 9.70167145133018493652e-02) (155, 6.37233734130859375000e-01) (156, 3.43856394290924072266e-01) (157, -6.85294389724731445312e-01) (158, -6.95679068565368652344e-01) (159, -6.66737496852874755859e-01) (160, -2.58551895618438720703e-01) (161, -1.51088505983352661133e-01) (162, 6.81540310382843017578e-01) (163, 4.05047953128814697266e-01) (164, -4.79691445827484130859e-01) (165, 4.06932741403579711914e-01) (166, 2.80741602182388305664e-01) (167, -4.37063485383987426758e-01) (168, 2.44709417223930358887e-01) (169, -6.02825284004211425781e-01) (170, -3.15772205591201782227e-01) (171, 3.34760516881942749023e-01) (172, 1.53538799285888671875e+00) (173, 6.56961789354681968689e-03) (174, 2.61620208621025085449e-02) (175, 3.97897303104400634766e-01) (176, 3.47556143999099731445e-01) (177, -1.85410827398300170898e-01) (178, -3.22569102048873901367e-01) (179, -4.09210175275802612305e-01) (180, -2.94148772954940795898e-01) (181, -7.29328170418739318848e-02) (182, 6.06229603290557861328e-01) (183, 4.88466441631317138672e-01) (184, -3.91866981983184814453e-01) (185, 1.10700733959674835205e-01) (186, 2.54857420921325683594e-01) (187, -4.24958199262619018555e-01) (188, 1.18158712983131408691e-01) (189, -5.70971012115478515625e-01) (190, -3.90999525785446166992e-01) (191, 1.71534687280654907227e-01) (192, 1.19063413143157958984e+00) (193, 1.34747102856636047363e-01) (194, -3.79188880324363708496e-02) (195, 3.45810204744338989258e-01) (196, 2.99547046422958374023e-01) (197, -7.84299150109291076660e-02) (198, -2.33456984162330627441e-01) (199, -2.21443906426429748535e-01) (200, -2.64604628086090087891e-01) (201, 2.75436434894800186157e-02) (202, 2.93391644954681396484e-01) (203, 2.39367112517356872559e-01) (204, -1.93637728691101074219e-01) (205, -2.46865212917327880859e-01) (206, 3.13543379306793212891e-01) (207, -6.40344694256782531738e-02) (208, -3.15609499812126159668e-02) (209, -2.86886990070343017578e-01) (210, -2.85443127155303955078e-01) (211, -1.10496014356613159180e-01) (212, 5.73428273200988769531e-01) (213, 1.19157083332538604736e-01) (214, -3.75832952558994293213e-02) (215, 2.32432439923286437988e-01) (216, 2.11121380329132080078e-01) (217, 8.02787616848945617676e-02) (218, -8.69724228978157043457e-02) (219, -7.73431658744812011719e-02) (220, -1.11843533813953399658e-01) (221, 2.56229758262634277344e-01) (222, 2.59928882122039794922e-01) (223, 1.49778217077255249023e-01) (224, -8.82526189088821411133e-02) (225, -6.21900372207164764404e-02) (226, 2.37523362040519714355e-01) (227, 2.85573005676269531250e-02) (228, -7.44813382625579833984e-02) (229, -8.72821435332298278809e-02) (230, -2.12818846106529235840e-01) (231, -1.37746796011924743652e-01) (232, 4.17232394218444824219e-01) (233, 8.58526527881622314453e-02) (234, -5.44970892369747161865e-02) (235, 1.30308166146278381348e-01) (236, 1.47713556885719299316e-01) (237, 1.36313050985336303711e-01) (238, 8.22017341852188110352e-02) (239, -1.23940492048859596252e-02) (240, -1.98102325201034545898e-01) (241, 2.05097109079360961914e-01) (242, 1.76420092582702636719e-01) (243, 9.55374166369438171387e-02) (244, -8.96875783801078796387e-02) (245, -5.25112412869930267334e-02) (246, 1.71406462788581848145e-01) (247, -7.96106904745101928711e-02) (248, -4.65288311243057250977e-02) (249, -2.25735977292060852051e-01) (250, -1.86134755611419677734e-01) (251, -9.96431335806846618652e-02) (252, 1.91495150327682495117e-01) (253, 4.65719401836395263672e-02) (254, -1.18625544011592864990e-01) (255, 1.46085536107420921326e-02) (256, 5.79984858632087707520e-02) (257, 5.83059061318635940552e-03) (258, -7.64838308095932006836e-02) (259, -1.64820373058319091797e-01) (260, 5.24331331253051757812e-02) (261, 3.67983078956604003906e+00) (262, -4.07273441553115844727e-01) (263, -3.26428860425949096680e-01) (264, 2.95103609561920166016e-01) (265, 3.20955365896224975586e-01) (0, -2.07230187952518463135e-02) (1, -1.12983562052249908447e-01) (2, 4.44704145193099975586e-02) (3, 5.25223687291145324707e-02) (4, -6.09278343617916107178e-02) (5, -6.49756565690040588379e-02) (6, -6.99860155582427978516e-02) (7, -9.66173708438873291016e-02) (8, 6.02960353717207908630e-05) (9, -8.93185511231422424316e-02) (10, -1.01390942931175231934e-01) (11, -2.43147742003202438354e-02) (12, -2.92800329625606536865e-02) (13, -2.04893909394741058350e-02) (14, 3.50046008825302124023e-01) (15, 2.84880012273788452148e-01) (16, 6.48321032524108886719e-01) (17, 5.83263397216796875000e-01) (18, 6.49635314941406250000e-01) (19, 5.98759353160858154297e-01) (20, 7.47113004326820373535e-02) (21, -5.27323894202709197998e-02) (22, 1.17516860365867614746e-01) (23, 8.78720879554748535156e-02) (24, -7.72075913846492767334e-03) (25, -9.07434225082397460938e-02) (26, 3.79565581679344177246e-02) (27, 1.24123552814126014709e-02) (28, 2.34487932175397872925e-02) (29, 1.80268753319978713989e-02) (30, -2.57618185132741928101e-02) (31, -2.77832709252834320068e-02) (32, -1.59848984330892562866e-02) (33, 4.41488735377788543701e-02) (34, 3.86627316474914550781e-02) (35, 3.73415686190128326416e-02) (36, 5.76056726276874542236e-02) (37, 5.19392360001802444458e-03) (38, -9.23082679510116577148e-02) (39, -1.20011521503329277039e-02) (40, 8.30290243029594421387e-02) (41, -7.56355226039886474609e-02) (42, 3.67464907467365264893e-02) (43, 6.56298920512199401855e-02) (44, -6.83171302080154418945e-02) (45, -1.70701205730438232422e-01) (46, -7.40888789296150207520e-02) (47, -2.35602632164955139160e-02) (48, -1.20724830776453018188e-02) (49, 4.81581781059503555298e-03) (50, -6.26548156142234802246e-02) (51, -3.49396318197250366211e-02) (52, -3.69703061878681182861e-02) (53, 7.87469670176506042480e-02) (54, -1.20879719033837318420e-02) (55, -3.20634581148624420166e-02) (56, 2.33052670955657958984e-02) (57, -9.07255616039037704468e-03) (58, -1.50967121124267578125e-01) (59, -4.14021313190460205078e-02) (60, 4.96376082301139831543e-02) (61, -7.14856088161468505859e-02) (62, 5.59398718178272247314e-02) (63, 2.00294926762580871582e-01) (64, -1.38564124703407287598e-01) (65, -1.12904511392116546631e-01) (66, -2.88233254104852676392e-02) (67, -8.98674875497817993164e-02) (68, 1.46738663315773010254e-01) (69, -6.27992227673530578613e-02) (70, -1.05838039889931678772e-02) (71, 2.92154494673013687134e-03) (72, -4.67775911092758178711e-02) (73, 1.16148278117179870605e-01) (74, 1.20376192033290863037e-01) (75, -3.42507995665073394775e-02) (76, 1.68629456311464309692e-02) (77, -1.24736456200480461121e-02) (78, -1.65514811873435974121e-01) (79, -1.05620861053466796875e-01) (80, 3.39185260236263275146e-02) (81, -1.23950712382793426514e-01) (82, -4.87573258578777313232e-03) (83, 1.33850499987602233887e-01) (84, -1.13462597131729125977e-01) (85, -9.88246276974678039551e-02) (86, -8.37748944759368896484e-02) (87, -1.06624834239482879639e-01) (88, 4.48375679552555084229e-02) (89, -1.27647399902343750000e-01) (90, -1.03198923170566558838e-01) (91, -4.12549786269664764404e-02) (92, -1.57901957631111145020e-01) (93, 3.78404445946216583252e-02) (94, 3.98068465292453765869e-02) (95, -9.16732549667358398438e-02) (96, -5.42899593710899353027e-02) (97, -7.20667913556098937988e-02) (98, -1.33593305945396423340e-01) (99, -1.17608077824115753174e-01) (100, 3.29812280833721160889e-02) (101, -7.67749175429344177246e-02) (102, -1.89445599913597106934e-01) (103, -4.58645410835742950439e-02) (104, -9.69932693988084793091e-03) (105, -8.08339118957519531250e-02) (106, -8.49179327487945556641e-02) (107, 4.89629097282886505127e-02) (108, -7.93990939855575561523e-02) (109, -1.11303888261318206787e-02) (110, 6.45477920770645141602e-02) (111, -1.67013272643089294434e-01) (112, -3.18486899137496948242e-01) (113, -3.57871316373348236084e-02) (114, -3.84132713079452514648e-02) (115, -2.25040629506111145020e-01) (116, -9.95757207274436950684e-02) (117, 9.74156260490417480469e-02) (118, -1.03493794798851013184e-01) (119, 1.76065484993159770966e-03) (120, -1.11133605241775512695e-01) (121, -5.09928986430168151855e-02) (122, 1.87691692262887954712e-02) (123, 1.00965127348899841309e-01) (124, -3.51593494415283203125e-02) (125, 7.54342451691627502441e-02) (126, 2.12872996926307678223e-02) (127, 1.72139450907707214355e-01) (128, 1.48287072777748107910e-01) (129, 2.28467099368572235107e-02) (130, 1.53233949095010757446e-02) (131, 7.49753862619400024414e-02) (132, -1.27170607447624206543e-01) (133, 1.11812099814414978027e-01) (134, 1.10706925392150878906e-01) (135, -6.60627484321594238281e-02) (136, -6.13749474287033081055e-02) (137, 7.91729688644409179688e-02) (138, -6.21382370591163635254e-02) (139, -1.44050046801567077637e-01) (140, -1.45151093602180480957e-01) (141, -8.16535726189613342285e-02) (142, 2.75635141879320144653e-02) (143, 1.25901281833648681641e-01) (144, -2.93867178261280059814e-02) (145, -3.04400265216827392578e-01) (146, -1.02978117763996124268e-01) (147, 1.06528781354427337646e-01) (148, 1.54485657811164855957e-01) (149, 1.27471750602126121521e-03) (150, -2.63100005686283111572e-02) (151, -2.45483350008726119995e-02) (152, 3.21842759847640991211e-01) (153, 3.58294583857059478760e-02) (154, 7.46767967939376831055e-02) (155, -9.85202118754386901855e-02) (156, -1.47195979952812194824e-01) (157, 3.40716689825057983398e-02) (158, -1.34603574872016906738e-01) (159, -9.09642502665519714355e-02) (160, 9.74670723080635070801e-02) (161, -2.52185910940170288086e-02) (162, -1.31155341863632202148e-01) (163, 6.72260969877243041992e-02) (164, -7.20389336347579956055e-02) (165, -1.09670862555503845215e-01) (166, -2.21902392804622650146e-02) (167, -2.79200403019785881042e-03) (168, 5.36709241569042205811e-02) (169, 3.37471365928649902344e-02) (170, 2.93884482234716415405e-02) (171, -8.35119560360908508301e-02) (172, -5.68929389119148254395e-02) (173, 4.63694930076599121094e-02) (174, 1.01601503789424896240e-01) (175, -3.40655259788036346436e-02) (176, -3.59446741640567779541e-02) (177, -5.20469769835472106934e-02) (178, -8.04973542690277099609e-02) (179, -1.22597655281424522400e-02) (180, 3.15302088856697082520e-02) (181, 4.02598828077316284180e-03) (182, -1.55035108327865600586e-01) (183, 5.20640425384044647217e-02) (184, -9.86471846699714660645e-02) (185, -3.11439167708158493042e-02) (186, -9.29938629269599914551e-02) (187, -6.52412557974457740784e-03) (188, -1.12851541489362716675e-02) (189, 1.68654113076627254486e-03) (190, 7.81160965561866760254e-02) (191, -4.96006980538368225098e-02) (192, -2.55353033542633056641e-01) (193, 4.15581949055194854736e-02) (194, 2.72073969244956970215e-02) (195, -7.89882764220237731934e-02) (196, -7.07950443029403686523e-02) (197, -1.02731265127658843994e-01) (198, -9.21908393502235412598e-02) (199, -5.13711571693420410156e-02) (200, 4.75184433162212371826e-02) (201, 7.63163119554519653320e-02) (202, 3.14259715378284454346e-02) (203, 1.03326939046382904053e-01) (204, 4.09306678920984268188e-03) (205, 6.95687681436538696289e-02) (206, -1.62749439477920532227e-02) (207, 2.92940940707921981812e-02) (208, 9.73035693168640136719e-02) (209, 8.20530112832784652710e-03) (210, 9.42607820034027099609e-02) (211, 5.57683268561959266663e-03) (212, -1.67229950428009033203e-01) (213, 1.32803648710250854492e-01) (214, 9.55610871315002441406e-02) (215, 6.91055804491043090820e-02) (216, 9.20893624424934387207e-03) (217, -2.19258628785610198975e-02) (218, 6.44007548689842224121e-02) (219, 6.80712759494781494141e-02) (220, 6.15958906710147857666e-02) (221, 6.21007233858108520508e-02) (222, 9.27623510360717773438e-02) (223, 1.25864714384078979492e-01) (224, 3.19076217710971832275e-02) (225, 8.95538628101348876953e-02) (226, -1.81596949696540832520e-02) (227, 1.08529254794120788574e-02) (228, 1.05054445564746856689e-01) (229, 4.72907945513725280762e-02) (230, 6.81285783648490905762e-02) (231, 4.04452793300151824951e-02) (232, -1.15580141544342041016e-01) (233, 1.24975912272930145264e-01) (234, 6.74194395542144775391e-02) (235, 6.15967027842998504639e-02) (236, 3.90265658497810363770e-02) (237, -3.00224870443344116211e-02) (238, -1.41770914196968078613e-02) (239, 5.27002699673175811768e-02) (240, 3.38492169976234436035e-02) (241, 6.43606111407279968262e-02) (242, 6.38373941183090209961e-02) (243, 4.11360561847686767578e-02) (244, 1.08814239501953125000e-02) (245, 9.01311337947845458984e-02) (246, -2.60468311607837677002e-02) (247, -1.54862273484468460083e-02) (248, 8.82253497838973999023e-02) (249, 2.33536679297685623169e-02) (250, -1.75841934978961944580e-02) (251, 6.97039216756820678711e-02) (252, 8.42091720551252365112e-03) (253, 1.22617773711681365967e-01) (254, 6.61878064274787902832e-02) (255, 4.70156855881214141846e-02) (256, 5.17571829259395599365e-02) (257, 3.90022760257124900818e-03) (258, -4.61154319345951080322e-02) (259, 5.55642414838075637817e-03) (260, 7.64369443058967590332e-02) (261, 3.10578227043151855469e-01) (262, 1.58957719802856445312e-01) (263, 1.85944974422454833984e-01) (264, -1.53761327266693115234e+00) (265, 6.54560402035713195801e-02) (266, 6.65991529822349548340e-02) (0, -9.91590842604637145996e-02) (1, 4.06345464289188385010e-02) (2, -7.40670487284660339355e-02) (3, -2.94727206230163574219e-01) (4, 1.03563092648983001709e-01) (5, 2.16718260198831558228e-02) (6, -8.15623402595520019531e-02) (7, 8.94611552357673645020e-02) (8, -3.12352180480957031250e-01) (9, 5.66875524818897247314e-02) (10, -7.70616158843040466309e-03) (11, -1.91671848297119140625e-01) (12, -2.75509893894195556641e-01) (13, -2.36065953969955444336e-01) (14, -3.51136833429336547852e-01) (15, -3.05952966213226318359e-01) (16, -1.97671604156494140625e+00) (17, -1.83168327808380126953e+00) (18, -2.18343901634216308594e+00) (19, -2.03501272201538085938e+00) (20, -2.40584030747413635254e-01) (21, -9.92240291088819503784e-03) (22, -5.87081015110015869141e-01) (23, -8.98752152919769287109e-01) (24, 2.59999126195907592773e-01) (25, -2.19624459743499755859e-01) (26, -2.56851732730865478516e-01) (27, 2.77816563844680786133e-01) (28, -8.46324682235717773438e-01) (29, 2.35634714365005493164e-01) (30, -6.18460252881050109863e-02) (31, -5.27648210525512695312e-01) (32, -4.91537153720855712891e-01) (33, -8.38326513767242431641e-01) (34, -6.31343364715576171875e-01) (35, -3.72455596923828125000e-01) (36, -1.39824956655502319336e-01) (37, 2.24879220128059387207e-01) (38, 2.26455405354499816895e-01) (39, 5.97069710493087768555e-02) (40, -3.20816427469253540039e-01) (41, -1.10606528818607330322e-01) (42, -6.44455313682556152344e-01) (43, -4.37877744436264038086e-01) (44, -2.09395624697208404541e-02) (45, -2.58832871913909912109e-01) (46, -2.61569410562515258789e-01) (47, 2.91580986231565475464e-02) (48, -3.70062798261642456055e-01) (49, -1.03702165186405181885e-01) (50, -2.84710109233856201172e-01) (51, -4.07163500785827636719e-01) (52, -3.30663293600082397461e-01) (53, -3.25447589159011840820e-01) (54, -2.24555924534797668457e-01) (55, -3.23776394128799438477e-01) (56, -3.00595462322235107422e-01) (57, -1.62990555167198181152e-01) (58, -5.21682985126972198486e-02) (59, -1.85240298509597778320e-01) (60, -7.34701901674270629883e-02) (61, -2.69743055105209350586e-01) (62, -1.58181115984916687012e-01) (63, 1.89344644546508789062e-01) (64, -2.48322859406471252441e-01) (65, -1.77608262747526168823e-02) (66, -1.33664563298225402832e-01) (67, -4.16664659976959228516e-01) (68, -6.91274702548980712891e-02) (69, -4.40250277519226074219e-01) (70, -3.47053050994873046875e-01) (71, -5.24075664579868316650e-02) (72, -3.39703291654586791992e-01) (73, 1.52744567021727561951e-02) (74, -8.71331691741943359375e-02) (75, 3.75231960788369178772e-03) (76, -2.94486228376626968384e-02) (77, -5.32875061035156250000e-01) (78, 4.60235439240932464600e-02) (79, -3.30268800258636474609e-01) (80, -9.78647693991661071777e-02) (81, -1.33783947676420211792e-02) (82, -6.03739678859710693359e-01) (83, -7.95947730541229248047e-01) (84, 3.20869743824005126953e-01) (85, -3.20668429136276245117e-01) (86, -3.57322543859481811523e-01) (87, 2.41960093379020690918e-01) (88, -1.16297566890716552734e+00) (89, 2.39529907703399658203e-01) (90, -3.59550386667251586914e-01) (91, -6.29570841789245605469e-01) (92, -7.92940139770507812500e-01) (93, -6.55327200889587402344e-01) (94, -1.02710187435150146484e+00) (95, -3.67543786764144897461e-01) (96, -3.93523275852203369141e-02) (97, 1.48603186011314392090e-01) (98, 8.41331407427787780762e-02) (99, -1.90614610910415649414e-01) (100, -8.10559168457984924316e-02) (101, 2.97499775886535644531e-01) (102, -1.71555578708648681641e+00) (103, -1.21979367733001708984e+00) (104, 4.91793274879455566406e-01) (105, -3.19757550954818725586e-01) (106, -7.98507571220397949219e-01) (107, 6.23292326927185058594e-01) (108, -1.34796214103698730469e+00) (109, 6.39946699142456054688e-01) (110, -1.61397024989128112793e-01) (111, -9.97417151927947998047e-01) (112, -4.47300881147384643555e-01) (113, -9.20220375061035156250e-01) (114, -9.34036672115325927734e-01) (115, -6.56615138053894042969e-01) (116, -4.36459660530090332031e-01) (117, 4.50905859470367431641e-01) (118, 2.98512339591979980469e-01) (119, 1.67142927646636962891e-01) (120, -7.76922404766082763672e-01) (121, 5.19698798656463623047e-01) (122, -2.18602083623409271240e-02) (123, -3.87376040220260620117e-01) (124, 4.42088127136230468750e-01) (125, -2.12054014205932617188e-01) (126, -7.34186470508575439453e-01) (127, 4.49414044618606567383e-01) (128, -3.31650882959365844727e-01) (129, 5.06850540637969970703e-01) (130, -6.71144202351570129395e-02) (131, -6.92131370306015014648e-02) (132, -4.00347620248794555664e-01) (133, -2.87545323371887207031e-01) (134, -4.02806758880615234375e-01) (135, -4.47478652000427246094e-01) (136, -4.89694625139236450195e-01) (137, 4.20914947986602783203e-01) (138, 8.37197601795196533203e-01) (139, 5.59417068958282470703e-01) (140, 4.08777356147766113281e-01) (141, -2.31819704174995422363e-01) (142, -4.12323564291000366211e-01) (143, -2.37664520740509033203e-01) (144, 1.40983983874320983887e-01) (145, -4.01463180780410766602e-01) (146, -3.05737644433975219727e-01) (147, 1.10600478947162628174e-02) (148, -4.02009904384613037109e-01) (149, -9.46950018405914306641e-02) (150, 9.36506539583206176758e-02) (151, -5.64286649227142333984e-01) (152, -4.18169433593750000000e+03) (153, -3.17934840917587280273e-01) (154, -4.52030807733535766602e-01) (155, -4.32435452938079833984e-01) (156, -2.09267154335975646973e-01) (157, -3.86717170476913452148e-02) (158, 4.37433540821075439453e-01) (159, 2.43827998638153076172e-01) (160, 1.33448764681816101074e-02) (161, 1.33944585919380187988e-01) (162, -2.84101939201354980469e+00) (163, -1.66170084476470947266e+00) (164, 4.67881977558135986328e-01) (165, -8.27532112598419189453e-01) (166, -1.22816729545593261719e+00) (167, 6.50412797927856445312e-01) (168, -1.59124052524566650391e+00) (169, 6.60599231719970703125e-01) (170, 4.17787909507751464844e-01) (171, -2.19215798377990722656e+00) (172, -4.18176269531250000000e+03) (173, -1.29892671108245849609e+00) (174, -1.50665664672851562500e+00) (175, -1.05307650566101074219e+00) (176, -5.05269825458526611328e-01) (177, 4.73584622144699096680e-01) (178, 3.54688078165054321289e-01) (179, 2.01992526650428771973e-01) (180, -8.21609199047088623047e-02) (181, -5.03743104636669158936e-02) (182, -1.11590516567230224609e+00) (183, -5.99497556686401367188e-01) (184, 5.97172640264034271240e-02) (185, -7.82541513442993164062e-01) (186, -5.30139803886413574219e-01) (187, 1.17170356214046478271e-01) (188, -4.41793024539947509766e-01) (189, 3.01846861839294433594e-01) (190, 4.89522665739059448242e-02) (191, -7.91621446609497070312e-01) (192, -4.18170507812500000000e+03) (193, -4.40047413110733032227e-01) (194, -3.57865601778030395508e-01) (195, -5.76267719268798828125e-01) (196, -4.11041080951690673828e-01) (197, 5.48547431826591491699e-02) (198, -1.20255760848522186279e-01) (199, -3.85747849941253662109e-01) (200, -1.22383296489715576172e-01) (201, -6.24416351318359375000e-01) (202, -2.24150240421295166016e-01) (203, 1.09809890389442443848e-01) (204, -7.39400088787078857422e-01) (205, -4.80059057474136352539e-01) (206, -2.99096852540969848633e-01) (207, -6.84097230434417724609e-01) (208, 1.48802146315574645996e-01) (209, -6.76570534706115722656e-01) (210, -5.08435726165771484375e-01) (211, -2.15198040008544921875e-01) (212, -4.18164648437500000000e+03) (213, 8.89129936695098876953e-03) (214, -1.22893638908863067627e-02) (215, -1.08545981347560882568e-01) (216, -2.60922312736511230469e-01) (217, -8.10007750988006591797e-01) (218, -2.98194408416748046875e-01) (219, -5.67845344543457031250e-01) (220, 3.97945046424865722656e-02) (221, -3.81314933300018310547e-01) (222, -8.33413064479827880859e-01) (223, -2.88850933313369750977e-01) (224, -1.90718799829483032227e-01) (225, -4.57218617200851440430e-01) (226, -1.70278638601303100586e-01) (227, -9.22234505414962768555e-02) (228, -3.56366187334060668945e-01) (229, 4.13511618971824645996e-02) (230, 4.61099743843078613281e-02) (231, -5.49671292304992675781e-01) (232, -1.78297802734375000000e+03) (233, -1.96862399578094482422e-01) (234, -3.20368736982345581055e-01) (235, -2.88639545440673828125e-01) (236, -2.87697643041610717773e-01) (237, -2.69201487302780151367e-01) (238, 1.58706396818161010742e-01) (239, -8.29592719674110412598e-02) (240, -6.24612234532833099365e-02) (241, 9.08218771219253540039e-02) (242, -1.21663618087768554688e+00) (243, -9.55661058425903320312e-01) (244, 2.73016214370727539062e-01) (245, -2.46387392282485961914e-01) (246, -2.86680221557617187500e-01) (247, 4.55622941255569458008e-01) (248, -7.22793638706207275391e-01) (249, 5.48720002174377441406e-01) (250, 3.23494166135787963867e-01) (251, -7.36747026443481445312e-01) (252, -1.13524401187896728516e+00) (253, -6.72320187091827392578e-01) (254, -5.20770132541656494141e-01) (255, -5.41901528835296630859e-01) (256, -4.36316132545471191406e-01) (257, 1.39807760715484619141e-01) (258, -4.91700433194637298584e-02) (259, 8.21981951594352722168e-02) (260, -1.99742004275321960449e-01) (261, -1.09665765762329101562e+01) (262, 4.85528826713562011719e-01) (263, 5.60175031423568725586e-02) (264, 3.53261679410934448242e-01) (265, 1.26676589250564575195e-01) (266, -2.56472472101449966431e-02) (267, 4.11592312157154083252e-02) (0, 1.03206269443035125732e-01) (1, -2.56090369075536727905e-02) (2, 3.61612290143966674805e-02) (3, 1.53078064322471618652e-01) (4, -9.93044078350067138672e-02) (5, -3.57335746288299560547e-01) (6, -7.49045461416244506836e-02) (7, -1.61041200160980224609e-01) (8, -7.62161016464233398438e-02) (9, -6.59738853573799133301e-02) (10, 1.47217698395252227783e-03) (11, -1.99397746473550796509e-02) (12, -3.16462367773056030273e-01) (13, 1.20841950178146362305e-01) (14, -9.29688692092895507812e-01) (15, -8.16730916500091552734e-01) (16, 1.48664009571075439453e+00) (17, 1.56759583950042724609e+00) (18, 1.56442368030548095703e+00) (19, 1.42444121837615966797e+00) (20, 3.84122431278228759766e-01) (21, 4.87192749977111816406e-01) (22, -4.14323210716247558594e-01) (23, -4.31710243225097656250e-01) (24, 6.72252058982849121094e-01) (25, -3.90356481075286865234e-01) (26, -6.93228617310523986816e-02) (27, 8.51218760013580322266e-01) (28, -3.82707357406616210938e-01) (29, 9.63328719139099121094e-01) (30, 5.21168887615203857422e-01) (31, -2.44746595621109008789e-01) (32, -1.75099343061447143555e-01) (33, -1.47269189357757568359e-01) (34, -2.22139358520507812500e-01) (35, 1.81806124746799468994e-02) (36, 1.55997246503829956055e-01) (37, 8.66848409175872802734e-01) (38, 6.36228203773498535156e-01) (39, 5.99158585071563720703e-01) (40, -3.06020844727754592896e-02) (41, 4.72146347165107727051e-02) (42, -3.43611598014831542969e-01) (43, 1.15375451743602752686e-01) (44, 1.05972059071063995361e-01) (45, -3.23442965745925903320e-01) (46, 5.57372421026229858398e-02) (47, 2.80404984951019287109e-01) (48, 1.78106233477592468262e-01) (49, 2.37719208002090454102e-01) (50, 2.01090589165687561035e-01) (51, -6.83329030871391296387e-02) (52, -1.71566203236579895020e-01) (53, 2.33074203133583068848e-01) (54, 2.74642616510391235352e-01) (55, -1.12627670168876647949e-01) (56, -1.49704203009605407715e-01) (57, 1.83854132890701293945e-01) (58, 2.17396914958953857422e-01) (59, 1.65187269449234008789e-01) (60, 1.92613936960697174072e-02) (61, -6.68416440486907958984e-01) (62, 2.30679497122764587402e-01) (63, 6.25286221504211425781e-01) (64, -6.36822938919067382812e-01) (65, -1.06732763350009918213e-01) (66, 1.41808122396469116211e-01) (67, -8.74778687953948974609e-01) (68, 5.51628112792968750000e-01) (69, -8.70284199714660644531e-01) (70, -3.86141866445541381836e-01) (71, 2.06570997834205627441e-01) (72, -1.65687650442123413086e-01) (73, 5.21423399448394775391e-01) (74, 4.67700809240341186523e-01) (75, 1.09186001121997833252e-01) (76, -1.39803634956479072571e-02) (77, -7.81749606132507324219e-01) (78, -1.67807564139366149902e-01) (79, -3.71629774570465087891e-01) (80, 3.99241745471954345703e-01) (81, 3.03890168666839599609e-01) (82, -1.33478641510009765625e-01) (83, -3.18667113780975341797e-01) (84, 7.20232605934143066406e-01) (85, -3.35121825337409973145e-02) (86, 7.06996545195579528809e-02) (87, 3.32434803247451782227e-01) (88, -2.66481578350067138672e-01) (89, 3.51209938526153564453e-01) (90, 3.51903408765792846680e-01) (91, -1.19247384369373321533e-01) (92, -3.51936489343643188477e-01) (93, -2.68897026777267456055e-01) (94, -2.86443322896957397461e-01) (95, -6.70717582106590270996e-02) (96, -7.18221440911293029785e-02) (97, 2.29605719447135925293e-01) (98, 4.52077865600585937500e-01) (99, 4.50133800506591796875e-01) (100, -3.27895909547805786133e-01) (101, 1.04022610187530517578e+00) (102, -1.33262503147125244141e+00) (103, -1.00197434425354003906e+00) (104, 9.20350551605224609375e-01) (105, -5.08499979972839355469e-01) (106, -4.21471536159515380859e-01) (107, 1.31515824794769287109e+00) (108, -5.95411181449890136719e-01) (109, 1.14784204959869384766e+00) (110, 1.07357752323150634766e+00) (111, -9.03925418853759765625e-01) (112, -7.58330881595611572266e-01) (113, -7.00019061565399169922e-01) (114, -5.13626933097839355469e-01) (115, -7.79362440109252929688e-01) (116, -6.00088417530059814453e-01) (117, 1.04410898685455322266e+00) (118, 6.79896593093872070312e-01) (119, 5.87931454181671142578e-01) (120, -7.16236174106597900391e-01) (121, 2.96714574098587036133e-01) (122, 1.08357727527618408203e-01) (123, -4.86257910728454589844e-01) (124, 1.74161531031131744385e-02) (125, 3.61261725425720214844e-01) (126, -8.83047729730606079102e-02) (127, -1.16173237562179565430e-01) (128, 1.22393973171710968018e-01) (129, -1.31440460681915283203e-01) (130, -1.39921111986041069031e-03) (131, 6.52322471141815185547e-01) (132, -7.97503411769866943359e-01) (133, -3.00979465246200561523e-01) (134, 1.03115543723106384277e-01) (135, 2.47284173965454101562e-01) (136, -1.74243494868278503418e-01) (137, 9.22802537679672241211e-02) (138, -2.00268298387527465820e-01) (139, 5.61768636107444763184e-02) (140, 6.83425247669219970703e-01) (141, 3.06408405303955078125e-01) (142, -4.15462143719196319580e-02) (143, -5.77733635902404785156e-01) (144, -7.54307210445404052734e-02) (145, 2.63323158025741577148e-01) (146, -1.47993683815002441406e-01) (147, -2.63703823089599609375e-01) (148, -5.83729445934295654297e-02) (149, -3.20610940456390380859e-01) (150, 3.58484745025634765625e-01) (151, 3.14892262220382690430e-01) (152, 1.13974761962890625000e+00) (153, -5.44598221778869628906e-01) (154, -3.39114665985107421875e-01) (155, 7.99807310104370117188e-02) (156, -2.90310457348823547363e-02) (157, 9.26744416356086730957e-02) (158, 9.08893868327140808105e-02) (159, 6.15563869476318359375e-01) (160, -6.99119627475738525391e-01) (161, 5.96809864044189453125e-01) (162, -8.24409842491149902344e-01) (163, -9.91078853607177734375e-01) (164, 6.02704167366027832031e-01) (165, 4.73090022802352905273e-01) (166, 2.16088905930519104004e-01) (167, 3.43085348606109619141e-01) (168, -8.80471169948577880859e-01) (169, 2.75935024023056030273e-01) (170, 3.80896255373954772949e-02) (171, -3.98454844951629638672e-01) (172, 6.67381346225738525391e-01) (173, -9.69329833984375000000e-01) (174, -8.75073432922363281250e-01) (175, -1.96332827210426330566e-01) (176, -1.85924500226974487305e-01) (177, 3.03986966609954833984e-01) (178, 3.28945070505142211914e-01) (179, 5.16606271266937255859e-01) (180, -8.41139376163482666016e-01) (181, 1.97243779897689819336e-01) (182, -1.59612789750099182129e-01) (183, -3.84232789278030395508e-01) (184, 1.24357439577579498291e-01) (185, 6.88742935657501220703e-01) (186, -4.18674685060977935791e-02) (187, 1.71892553567886352539e-01) (188, -3.79432916641235351562e-01) (189, -2.04326398670673370361e-02) (190, -3.08378249406814575195e-01) (191, -4.06187549233436584473e-02) (192, 1.20268332958221435547e+00) (193, -4.72428321838378906250e-01) (194, -4.62754696607589721680e-01) (195, -1.58393103629350662231e-02) (196, -2.93050333857536315918e-03) (197, 3.45853984355926513672e-01) (198, -2.33693853020668029785e-01) (199, 7.96629935503005981445e-02) (200, -5.64352452754974365234e-01) (201, -1.87600553035736083984e-01) (202, 9.73433971405029296875e-01) (203, 3.41748952865600585938e-01) (204, -2.96863079071044921875e-01) (205, 3.71945142745971679688e-01) (206, 9.83180329203605651855e-02) (207, -2.62585341930389404297e-01) (208, 3.49100567400455474854e-02) (209, -5.91143369674682617188e-01) (210, -6.13792181015014648438e-01) (211, 4.84362274408340454102e-01) (212, 1.20642530918121337891e+00) (213, 4.97131934389472007751e-03) (214, -1.09220147132873535156e-01) (215, 4.84208673238754272461e-01) (216, 4.91915613412857055664e-01) (217, -2.65431962907314300537e-02) (218, 2.17514224350452423096e-02) (219, -1.44451171159744262695e-01) (220, -4.34675842523574829102e-01) (221, 1.17331519722938537598e-01) (222, 4.61138218641281127930e-01) (223, 4.21180762350559234619e-02) (224, -7.14848265051841735840e-02) (225, 5.97002767026424407959e-02) (226, -3.80021966993808746338e-02) (227, -1.42078623175621032715e-01) (228, -1.19154639542102813721e-01) (229, -3.95631045103073120117e-01) (230, -4.40192818641662597656e-01) (231, 1.48718118667602539062e-01) (232, 7.97428429126739501953e-01) (233, -1.23577326536178588867e-01) (234, -2.68174856901168823242e-01) (235, 2.54240155220031738281e-01) (236, 3.24987798929214477539e-01) (237, 1.04153044521808624268e-01) (238, 6.44350200891494750977e-02) (239, -1.05135869234800338745e-02) (240, -3.42392653226852416992e-01) (241, 2.04012408852577209473e-01) (242, -5.56737333536148071289e-02) (243, -2.29289278388023376465e-01) (244, 9.60115343332290649414e-02) (245, 1.42219245433807373047e-01) (246, 1.41090169548988342285e-01) (247, 6.30669370293617248535e-02) (248, -3.58267694711685180664e-01) (249, -9.08471569418907165527e-02) (250, -3.58112782239913940430e-01) (251, -1.38190373778343200684e-01) (252, 7.06211447715759277344e-01) (253, -3.71253520250320434570e-01) (254, -3.14775019884109497070e-01) (255, 9.47103872895240783691e-02) (256, 2.06548031419515609741e-02) (257, 4.09732490777969360352e-01) (258, -1.52053549885749816895e-01) (259, 1.47284209728240966797e-01) (260, -1.04221060872077941895e-01) (261, 1.49168205261230468750e+00) (262, -4.26795214414596557617e-01) (263, -8.84317636489868164062e-01) (264, 1.97392359375953674316e-01) (265, -5.09531609714031219482e-02) (266, 9.59965288639068603516e-02) (267, 4.99125570058822631836e-01) (268, -5.00377559661865234375e+00) (0, -2.72947221994400024414e-01) (1, -5.77318847179412841797e-01) (2, -3.30294728279113769531e-01) (3, -3.35935771465301513672e-01) (4, -2.96174407005310058594e-01) (5, -7.63652384281158447266e-01) (6, -3.27042013406753540039e-01) (7, -3.11471402645111083984e-01) (8, -3.77179771661758422852e-01) (9, -2.34021112322807312012e-01) (10, -3.02072554826736450195e-01) (11, -5.00294387340545654297e-01) (12, -4.61917579174041748047e-01) (13, -2.21265688538551330566e-01) (14, 5.81962883472442626953e-01) (15, 5.15272319316864013672e-01) (16, -2.19518947601318359375e+00) (17, -2.25346350669860839844e+00) (18, -2.27093124389648437500e+00) (19, -2.26924419403076171875e+00) (20, -2.39238321781158447266e-01) (21, -7.20765888690948486328e-01) (22, -2.14236140251159667969e-01) (23, -1.28832817077636718750e-01) (24, -2.95101970434188842773e-01) (25, -4.64727193117141723633e-01) (26, -3.74192297458648681641e-01) (27, -5.28560101985931396484e-01) (28, -2.25976288318634033203e-01) (29, -2.62627631425857543945e-01) (30, -3.48923355340957641602e-01) (31, -2.06561326980590820312e-01) (32, -1.51604980230331420898e-01) (33, -2.21050661057233810425e-02) (34, -2.39661350846290588379e-01) (35, -1.92262142896652221680e-01) (36, -2.42122203111648559570e-01) (37, -3.90976458787918090820e-01) (38, -5.09950578212738037109e-01) (39, -3.36885392665863037109e-01) (40, -2.27348864078521728516e-01) (41, -6.70439004898071289062e-01) (42, -1.44920453429222106934e-01) (43, -8.35723876953125000000e-02) (44, -4.65359628200531005859e-01) (45, -6.19849376380443572998e-02) (46, -2.77902692556381225586e-01) (47, -9.05300080776214599609e-01) (48, -1.76724120974540710449e-02) (49, -6.34361624717712402344e-01) (50, -3.97094905376434326172e-01) (51, -9.09771695733070373535e-02) (52, -1.48695290088653564453e-01) (53, -5.64293516799807548523e-03) (54, -1.71528756618499755859e-01) (55, -1.13549813628196716309e-01) (56, -4.20076280832290649414e-01) (57, -8.63262772560119628906e-01) (58, -5.49602150917053222656e-01) (59, -5.53654789924621582031e-01) (60, -2.15066194534301757812e-01) (61, -6.09414935111999511719e-01) (62, 1.28941014409065246582e-01) (63, -7.07853063941001892090e-02) (64, -6.44987523555755615234e-01) (65, 4.08485919237136840820e-01) (66, -2.82936990261077880859e-01) (67, -8.59526634216308593750e-01) (68, 7.79524296522140502930e-02) (69, -9.54316973686218261719e-01) (70, -3.50838154554367065430e-01) (71, 1.22419849038124084473e-01) (72, 6.94645047187805175781e-02) (73, 4.24243956804275512695e-02) (74, -5.38165010511875152588e-02) (75, 5.52942752838134765625e-02) (76, -2.61259496212005615234e-01) (77, -7.78502404689788818359e-01) (78, -1.04076337814331054688e+00) (79, -6.73981904983520507812e-01) (80, -5.98778873682022094727e-02) (81, -1.93666025996208190918e-01) (82, 1.10392004251480102539e-01) (83, -2.87029772996902465820e-01) (84, -3.10525894165039062500e-01) (85, 4.10255968570709228516e-01) (86, -1.33057579398155212402e-01) (87, -4.94464367628097534180e-01) (88, 6.12326823174953460693e-02) (89, -6.37081444263458251953e-01) (90, -3.01933884620666503906e-01) (91, 1.54024571180343627930e-01) (92, 2.92777363210916519165e-03) (93, 1.10593974590301513672e-01) (94, -1.02481521666049957275e-01) (95, -1.49415493011474609375e-01) (96, -9.86343175172805786133e-02) (97, -3.18406790494918823242e-01) (98, -5.73346793651580810547e-01) (99, -3.32299917936325073242e-01) (100, -3.39617967605590820312e-01) (101, -3.13529878854751586914e-01) (102, -9.17374044656753540039e-02) (103, -2.73437917232513427734e-01) (104, -3.34460407495498657227e-01) (105, -3.19140195846557617188e-01) (106, -1.03020846843719482422e-01) (107, -5.16673084348440170288e-03) (108, 7.84300416707992553711e-02) (109, -4.51865732669830322266e-01) (110, -3.99335592985153198242e-01) (111, -7.22942277789115905762e-02) (112, -4.30848151445388793945e-02) (113, -1.72276720404624938965e-01) (114, -2.49649919569492340088e-02) (115, -1.33257761597633361816e-01) (116, 8.99559706449508666992e-02) (117, -3.97789776325225830078e-02) (118, -7.52873271703720092773e-02) (119, -2.51240491867065429688e-01) (120, 9.15725529193878173828e-03) (121, -2.00459152460098266602e-01) (122, -1.85426664352416992188e+00) (123, -7.05515921115875244141e-01) (124, 2.45115850120782852173e-02) (125, -5.88223636150360107422e-01) (126, -3.49642962217330932617e-01) (127, 3.11296939849853515625e-01) (128, -3.23588818311691284180e-01) (129, 1.67368933558464050293e-01) (130, -3.12998741865158081055e-01) (131, -1.32270050048828125000e+00) (132, -1.45856189727783203125e+00) (133, -4.97134178876876831055e-01) (134, -3.44077885150909423828e-01) (135, -8.60143661499023437500e-01) (136, -1.60558626055717468262e-01) (137, 2.69183546304702758789e-01) (138, -1.22730538249015808105e-01) (139, 1.68879656121134757996e-03) (140, -5.85193991661071777344e-01) (141, -2.17727467417716979980e-01) (142, -1.21234917640686035156e+00) (143, -2.09108814597129821777e-02) (144, 7.21018575131893157959e-03) (145, -1.23583650588989257812e+00) (146, 9.13988798856735229492e-02) (147, 4.21785533428192138672e-01) (148, -9.30437594652175903320e-02) (149, 2.50980913639068603516e-01) (150, -5.02963587641716003418e-02) (151, -7.94312596321105957031e-01) (152, -2.02510595321655273438e+00) (153, -1.31420955061912536621e-01) (154, 2.95904558151960372925e-02) (155, -4.06023800373077392578e-01) (156, 1.21097207069396972656e-01) (157, 3.76423984766006469727e-01) (158, -1.40552788972854614258e-01) (159, 1.61489963531494140625e-01) (160, -3.04230451583862304688e-01) (161, 4.34010684490203857422e-01) (162, -1.93475484848022460938e+00) (163, -1.21347594261169433594e+00) (164, 7.25383043289184570312e-01) (165, -9.16632354259490966797e-01) (166, -6.49838447570800781250e-01) (167, 9.83592331409454345703e-01) (168, -7.27527558803558349609e-01) (169, 7.87693679332733154297e-01) (170, 5.74811816215515136719e-01) (171, -1.50895738601684570312e+00) (172, -1.45759105682373046875e+00) (173, -9.50717747211456298828e-01) (174, -6.24940812587738037109e-01) (175, -1.19873142242431640625e+00) (176, -2.61437863111495971680e-01) (177, 8.36121022701263427734e-01) (178, 3.74540716409683227539e-01) (179, 4.32662606239318847656e-01) (180, -3.98536801338195800781e-01) (181, 1.65537133812904357910e-01) (182, -7.82116770744323730469e-01) (183, -5.36235570907592773438e-01) (184, 1.77231714129447937012e-01) (185, -9.83050286769866943359e-01) (186, -1.46902501583099365234e-01) (187, 5.55918872356414794922e-01) (188, -3.03576588630676269531e-01) (189, 2.94014215469360351562e-01) (190, 9.19711142778396606445e-02) (191, -6.95674121379852294922e-01) (192, -7.59025514125823974609e-01) (193, -4.47433114051818847656e-01) (194, -2.16680690646171569824e-01) (195, -4.66583371162414550781e-01) (196, -1.19752638041973114014e-01) (197, 4.37987506389617919922e-01) (198, 