FANN_FLO_2.0
num_layers=42
learning_rate=0.700000
connection_rate=1.000000
shortcut_connections=1
learning_momentum=0.000000
training_algorithm=2
train_error_function=1
train_stop_function=0
cascade_output_change_fraction=0.010000
quickprop_decay=-0.000100
quickprop_mu=1.750000
rprop_increase_factor=1.200000
rprop_decrease_factor=0.500000
rprop_delta_min=0.000000
rprop_delta_max=50.000000
rprop_delta_zero=0.500000
cascade_output_stagnation_epochs=12
cascade_candidate_change_fraction=0.010000
cascade_candidate_stagnation_epochs=12
cascade_max_out_epochs=150
cascade_max_cand_epochs=150
cascade_num_candidate_groups=2
bit_fail_limit=3.49999994039535522461e-01
cascade_candidate_limit=1.00000000000000000000e+03
cascade_weight_multiplier=4.00000005960464477539e-01
cascade_activation_functions_count=6
cascade_activation_functions=3 5 7 8 10 11 
cascade_activation_steepnesses_count=4
cascade_activation_steepnesses=2.50000000000000000000e-01 5.00000000000000000000e-01 7.50000000000000000000e-01 1.00000000000000000000e+00 
layer_sizes=261 1 1 1 1 1 1 1 1 1 1 1 1 1 1 1 1 1 1 1 1 1 1 1 1 1 1 1 1 1 1 1 1 1 1 1 1 1 1 1 1 3 
neurons (num_inputs, activation_function, activation_steepness)=(0, 0, 0.00000000000000000000e+00) (0, 0, 0.00000000000000000000e+00) (0, 0, 0.00000000000000000000e+00) (0, 0, 0.00000000000000000000e+00) (0, 0, 0.00000000000000000000e+00) (0, 0, 0.00000000000000000000e+00) (0, 0, 0.00000000000000000000e+00) (0, 0, 0.00000000000000000000e+00) (0, 0, 0.00000000000000000000e+00) (0, 0, 0.00000000000000000000e+00) (0, 0, 0.00000000000000000000e+00) (0, 0, 0.00000000000000000000e+00) (0, 0, 0.00000000000000000000e+00) (0, 0, 0.00000000000000000000e+00) (0, 0, 0.00000000000000000000e+00) (0, 0, 0.00000000000000000000e+00) (0, 0, 0.00000000000000000000e+00) (0, 0, 0.00000000000000000000e+00) (0, 0, 0.00000000000000000000e+00) (0, 0, 0.00000000000000000000e+00) (0, 0, 0.00000000000000000000e+00) (0, 0, 0.00000000000000000000e+00) (0, 0, 0.00000000000000000000e+00) (0, 0, 0.00000000000000000000e+00) (0, 0, 0.00000000000000000000e+00) (0, 0, 0.00000000000000000000e+00) (0, 0, 0.00000000000000000000e+00) (0, 0, 0.00000000000000000000e+00) (0, 0, 0.00000000000000000000e+00) (0, 0, 0.00000000000000000000e+00) (0, 0, 0.00000000000000000000e+00) (0, 0, 0.00000000000000000000e+00) (0, 0, 0.00000000000000000000e+00) (0, 0, 0.00000000000000000000e+00) (0, 0, 0.00000000000000000000e+00) (0, 0, 0.00000000000000000000e+00) (0, 0, 0.00000000000000000000e+00) (0, 0, 0.00000000000000000000e+00) (0, 0, 0.00000000000000000000e+00) (0, 0, 0.00000000000000000000e+00) (0, 0, 0.00000000000000000000e+00) (0, 0, 0.00000000000000000000e+00) (0, 0, 0.00000000000000000000e+00) (0, 0, 0.00000000000000000000e+00) (0, 0, 0.00000000000000000000e+00) (0, 0, 0.00000000000000000000e+00) (0, 0, 0.00000000000000000000e+00) (0, 0, 0.00000000000000000000e+00) (0, 0, 0.00000000000000000000e+00) (0, 0, 0.00000000000000000000e+00) (0, 0, 0.00000000000000000000e+00) (0, 0, 0.00000000000000000000e+00) (0, 0, 0.00000000000000000000e+00) (0, 0, 0.00000000000000000000e+00) (0, 0, 0.00000000000000000000e+00) (0, 0, 0.00000000000000000000e+00) (0, 0, 0.00000000000000000000e+00) (0, 0, 0.00000000000000000000e+00) (0, 0, 0.00000000000000000000e+00) (0, 0, 0.00000000000000000000e+00) (0, 0, 0.00000000000000000000e+00) (0, 0, 0.00000000000000000000e+00) (0, 0, 0.00000000000000000000e+00) (0, 0, 0.00000000000000000000e+00) (0, 0, 0.00000000000000000000e+00) (0, 0, 0.00000000000000000000e+00) (0, 0, 0.00000000000000000000e+00) (0, 0, 0.00000000000000000000e+00) (0, 0, 0.00000000000000000000e+00) (0, 0, 0.00000000000000000000e+00) (0, 0, 0.00000000000000000000e+00) (0, 0, 0.00000000000000000000e+00) (0, 0, 0.00000000000000000000e+00) (0, 0, 0.00000000000000000000e+00) (0, 0, 0.00000000000000000000e+00) (0, 0, 0.00000000000000000000e+00) (0, 0, 0.00000000000000000000e+00) (0, 0, 0.00000000000000000000e+00) (0, 0, 0.00000000000000000000e+00) (0, 0, 0.00000000000000000000e+00) (0, 0, 0.00000000000000000000e+00) (0, 0, 0.00000000000000000000e+00) (0, 0, 0.00000000000000000000e+00) (0, 0, 0.00000000000000000000e+00) (0, 0, 0.00000000000000000000e+00) (0, 0, 0.00000000000000000000e+00) (0, 0, 0.00000000000000000000e+00) (0, 0, 0.00000000000000000000e+00) (0, 0, 0.00000000000000000000e+00) (0, 0, 0.00000000000000000000e+00) (0, 0, 0.00000000000000000000e+00) (0, 0, 0.00000000000000000000e+00) (0, 0, 0.00000000000000000000e+00) (0, 0, 0.00000000000000000000e+00) (0, 0, 0.00000000000000000000e+00) (0, 0, 0.00000000000000000000e+00) (0, 0, 0.00000000000000000000e+00) (0, 0, 0.00000000000000000000e+00) (0, 0, 0.00000000000000000000e+00) (0, 0, 0.00000000000000000000e+00) (0, 0, 0.00000000000000000000e+00) (0, 0, 0.00000000000000000000e+00) (0, 0, 0.00000000000000000000e+00) (0, 0, 0.00000000000000000000e+00) (0, 0, 0.00000000000000000000e+00) (0, 0, 0.00000000000000000000e+00) (0, 0, 0.00000000000000000000e+00) (0, 0, 0.00000000000000000000e+00) (0, 0, 0.00000000000000000000e+00) (0, 0, 0.00000000000000000000e+00) (0, 0, 0.00000000000000000000e+00) (0, 0, 0.00000000000000000000e+00) (0, 0, 0.00000000000000000000e+00) (0, 0, 0.00000000000000000000e+00) (0, 0, 0.00000000000000000000e+00) (0, 0, 0.00000000000000000000e+00) (0, 0, 0.00000000000000000000e+00) (0, 0, 0.00000000000000000000e+00) (0, 0, 0.00000000000000000000e+00) (0, 0, 0.00000000000000000000e+00) (0, 0, 0.00000000000000000000e+00) (0, 0, 0.00000000000000000000e+00) (0, 0, 0.00000000000000000000e+00) (0, 0, 0.00000000000000000000e+00) (0, 0, 0.00000000000000000000e+00) (0, 0, 0.00000000000000000000e+00) (0, 0, 0.00000000000000000000e+00) (0, 0, 0.00000000000000000000e+00) (0, 0, 0.00000000000000000000e+00) (0, 0, 0.00000000000000000000e+00) (0, 0, 0.00000000000000000000e+00) (0, 0, 0.00000000000000000000e+00) (0, 0, 0.00000000000000000000e+00) (0, 0, 0.00000000000000000000e+00) (0, 0, 0.00000000000000000000e+00) (0, 0, 0.00000000000000000000e+00) (0, 0, 0.00000000000000000000e+00) (0, 0, 0.00000000000000000000e+00) (0, 0, 0.00000000000000000000e+00) (0, 0, 0.00000000000000000000e+00) (0, 0, 0.00000000000000000000e+00) (0, 0, 0.00000000000000000000e+00) (0, 0, 0.00000000000000000000e+00) (0, 0, 0.00000000000000000000e+00) (0, 0, 0.00000000000000000000e+00) (0, 0, 0.00000000000000000000e+00) (0, 0, 0.00000000000000000000e+00) (0, 0, 0.00000000000000000000e+00) (0, 0, 0.00000000000000000000e+00) (0, 0, 0.00000000000000000000e+00) (0, 0, 0.00000000000000000000e+00) (0, 0, 0.00000000000000000000e+00) (0, 0, 0.00000000000000000000e+00) (0, 0, 0.00000000000000000000e+00) (0, 0, 0.00000000000000000000e+00) (0, 0, 0.00000000000000000000e+00) (0, 0, 0.00000000000000000000e+00) (0, 0, 0.00000000000000000000e+00) (0, 0, 0.00000000000000000000e+00) (0, 0, 0.00000000000000000000e+00) (0, 0, 0.00000000000000000000e+00) (0, 0, 0.00000000000000000000e+00) (0, 0, 0.00000000000000000000e+00) (0, 0, 0.00000000000000000000e+00) (0, 0, 0.00000000000000000000e+00) (0, 0, 0.00000000000000000000e+00) (0, 0, 0.00000000000000000000e+00) (0, 0, 0.00000000000000000000e+00) (0, 0, 0.00000000000000000000e+00) (0, 0, 0.00000000000000000000e+00) (0, 0, 0.00000000000000000000e+00) (0, 0, 0.00000000000000000000e+00) (0, 0, 0.00000000000000000000e+00) (0, 0, 0.00000000000000000000e+00) (0, 0, 0.00000000000000000000e+00) (0, 0, 0.00000000000000000000e+00) (0, 0, 0.00000000000000000000e+00) (0, 0, 0.00000000000000000000e+00) (0, 0, 0.00000000000000000000e+00) (0, 0, 0.00000000000000000000e+00) (0, 0, 0.00000000000000000000e+00) (0, 0, 0.00000000000000000000e+00) (0, 0, 0.00000000000000000000e+00) (0, 0, 0.00000000000000000000e+00) (0, 0, 0.00000000000000000000e+00) (0, 0, 0.00000000000000000000e+00) (0, 0, 0.00000000000000000000e+00) (0, 0, 0.00000000000000000000e+00) (0, 0, 0.00000000000000000000e+00) (0, 0, 0.00000000000000000000e+00) (0, 0, 0.00000000000000000000e+00) (0, 0, 0.00000000000000000000e+00) (0, 0, 0.00000000000000000000e+00) (0, 0, 0.00000000000000000000e+00) (0, 0, 0.00000000000000000000e+00) (0, 0, 0.00000000000000000000e+00) (0, 0, 0.00000000000000000000e+00) (0, 0, 0.00000000000000000000e+00) (0, 0, 0.00000000000000000000e+00) (0, 0, 0.00000000000000000000e+00) (0, 0, 0.00000000000000000000e+00) (0, 0, 0.00000000000000000000e+00) (0, 0, 0.00000000000000000000e+00) (0, 0, 0.00000000000000000000e+00) (0, 0, 0.00000000000000000000e+00) (0, 0, 0.00000000000000000000e+00) (0, 0, 0.00000000000000000000e+00) (0, 0, 0.00000000000000000000e+00) (0, 0, 0.00000000000000000000e+00) (0, 0, 0.00000000000000000000e+00) (0, 0, 0.00000000000000000000e+00) (0, 0, 0.00000000000000000000e+00) (0, 0, 0.00000000000000000000e+00) (0, 0, 0.00000000000000000000e+00) (0, 0, 0.00000000000000000000e+00) (0, 0, 0.00000000000000000000e+00) (0, 0, 0.00000000000000000000e+00) (0, 0, 0.00000000000000000000e+00) (0, 0, 0.00000000000000000000e+00) (0, 0, 0.00000000000000000000e+00) (0, 0, 0.00000000000000000000e+00) (0, 0, 0.00000000000000000000e+00) (0, 0, 0.00000000000000000000e+00) (0, 0, 0.00000000000000000000e+00) (0, 0, 0.00000000000000000000e+00) (0, 0, 0.00000000000000000000e+00) (0, 0, 0.00000000000000000000e+00) (0, 0, 0.00000000000000000000e+00) (0, 0, 0.00000000000000000000e+00) (0, 0, 0.00000000000000000000e+00) (0, 0, 0.00000000000000000000e+00) (0, 0, 0.00000000000000000000e+00) (0, 0, 0.00000000000000000000e+00) (0, 0, 0.00000000000000000000e+00) (0, 0, 0.00000000000000000000e+00) (0, 0, 0.00000000000000000000e+00) (0, 0, 0.00000000000000000000e+00) (0, 0, 0.00000000000000000000e+00) (0, 0, 0.00000000000000000000e+00) (0, 0, 0.00000000000000000000e+00) (0, 0, 0.00000000000000000000e+00) (0, 0, 0.00000000000000000000e+00) (0, 0, 0.00000000000000000000e+00) (0, 0, 0.00000000000000000000e+00) (0, 0, 0.00000000000000000000e+00) (0, 0, 0.00000000000000000000e+00) (0, 0, 0.00000000000000000000e+00) (0, 0, 0.00000000000000000000e+00) (0, 0, 0.00000000000000000000e+00) (0, 0, 0.00000000000000000000e+00) (0, 0, 0.00000000000000000000e+00) (0, 0, 0.00000000000000000000e+00) (0, 0, 0.00000000000000000000e+00) (0, 0, 0.00000000000000000000e+00) (0, 0, 0.00000000000000000000e+00) (0, 0, 0.00000000000000000000e+00) (0, 0, 0.00000000000000000000e+00) (0, 0, 0.00000000000000000000e+00) (0, 0, 0.00000000000000000000e+00) (0, 0, 0.00000000000000000000e+00) (0, 0, 0.00000000000000000000e+00) (261, 8, 7.50000000000000000000e-01) (262, 8, 2.50000000000000000000e-01) (263, 8, 1.00000000000000000000e+00) (264, 3, 1.00000000000000000000e+00) (265, 8, 7.50000000000000000000e-01) (266, 8, 1.00000000000000000000e+00) (267, 7, 1.00000000000000000000e+00) (268, 3, 2.50000000000000000000e-01) (269, 7, 7.50000000000000000000e-01) (270, 3, 7.50000000000000000000e-01) (271, 3, 2.50000000000000000000e-01) (272, 8, 2.50000000000000000000e-01) (273, 8, 1.00000000000000000000e+00) (274, 8, 5.00000000000000000000e-01) (275, 8, 2.50000000000000000000e-01) (276, 8, 1.00000000000000000000e+00) (277, 8, 5.00000000000000000000e-01) (278, 8, 7.50000000000000000000e-01) (279, 8, 5.00000000000000000000e-01) (280, 7, 2.50000000000000000000e-01) (281, 7, 5.00000000000000000000e-01) (282, 8, 1.00000000000000000000e+00) (283, 3, 1.00000000000000000000e+00) (284, 8, 7.50000000000000000000e-01) (285, 8, 5.00000000000000000000e-01) (286, 8, 5.00000000000000000000e-01) (287, 8, 5.00000000000000000000e-01) (288, 8, 2.50000000000000000000e-01) (289, 8, 7.50000000000000000000e-01) (290, 8, 5.00000000000000000000e-01) (291, 8, 7.50000000000000000000e-01) (292, 8, 7.50000000000000000000e-01) (293, 3, 7.50000000000000000000e-01) (294, 8, 5.00000000000000000000e-01) (295, 8, 1.00000000000000000000e+00) (296, 8, 2.50000000000000000000e-01) (297, 8, 7.50000000000000000000e-01) (298, 8, 1.00000000000000000000e+00) (299, 8, 7.50000000000000000000e-01) (300, 8, 1.00000000000000000000e+00) (301, 5, 5.00000000000000000000e-01) (301, 5, 5.00000000000000000000e-01) (301, 5, 5.00000000000000000000e-01) 
connections (connected_to_neuron, weight)=(0, 9.14751738309860229492e-02) (1, 1.75883904099464416504e-01) (2, 9.44622904062271118164e-02) (3, -3.51513698697090148926e-02) (4, 2.61831015348434448242e-01) (5, 2.06561516970396041870e-02) (6, 4.65515218675136566162e-02) (7, 2.40988671779632568359e-01) (8, -7.30581656098365783691e-02) (9, 2.67654150724411010742e-01) (10, 1.91108971834182739258e-01) (11, 2.74423789232969284058e-02) (12, -3.25856581330299377441e-02) (13, -1.33713167160749435425e-02) (14, 7.57663771510124206543e-02) (15, 1.41697570681571960449e-01) (16, -9.47165310382843017578e-01) (17, -8.83384346961975097656e-01) (18, -9.01705145835876464844e-01) (19, -9.41631555557250976562e-01) (20, 1.24196097254753112793e-01) (21, 2.86235302686691284180e-01) (22, -1.04300089180469512939e-01) (23, -1.63048103451728820801e-01) (24, 3.38679492473602294922e-01) (25, 3.74562814831733703613e-02) (26, 5.48252947628498077393e-02) (27, 3.91833037137985229492e-01) (28, -6.49519562721252441406e-02) (29, 3.94046664237976074219e-01) (30, 2.30200737714767456055e-01) (31, -2.78246961534023284912e-02) (32, 2.71242689341306686401e-02) (33, -7.42343366146087646484e-02) (34, 5.62706589698791503906e-03) (35, 6.29880577325820922852e-02) (36, 9.25343930721282958984e-02) (37, 2.90240228176116943359e-01) (38, 3.31610560417175292969e-01) (39, 2.69224166870117187500e-01) (40, -3.13899219036102294922e-02) (41, -2.19771400094032287598e-01) (42, 3.91320660710334777832e-02) (43, 2.25049763917922973633e-01) (44, -2.65355855226516723633e-01) (45, -1.93885304033756256104e-02) (46, -1.61013230681419372559e-02) (47, -2.81508922576904296875e-01) (48, 2.14359134435653686523e-01) (49, -3.26574116945266723633e-01) (50, -2.08854898810386657715e-01) (51, 3.47590036690235137939e-02) (52, 2.46368516236543655396e-02) (53, 1.94817081093788146973e-01) (54, 1.81556746363639831543e-01) (55, -6.70905783772468566895e-03) (56, -8.11495929956436157227e-02) (57, -2.38057389855384826660e-01) (58, -1.36051103472709655762e-01) (59, -1.65062993764877319336e-01) (60, 1.61267384886741638184e-01) (61, -1.77467942237854003906e-01) (62, 3.18189859390258789062e-01) (63, 3.55875134468078613281e-01) (64, -3.61750349402427673340e-02) (65, 8.27436055988073348999e-03) (66, 7.27695971727371215820e-02) (67, -1.44273832440376281738e-01) (68, 1.82342901825904846191e-01) (69, -1.51587665081024169922e-01) (70, 5.09128533303737640381e-03) (71, 1.86252564191818237305e-01) (72, -1.83999054133892059326e-02) (73, 1.91126957535743713379e-01) (74, 1.01305969059467315674e-01) (75, 1.50499224662780761719e-01) (76, 2.02030554413795471191e-01) (77, -7.65071064233779907227e-02) (78, 3.58317717909812927246e-02) (79, -4.16416749358177185059e-02) (80, 5.48835098743438720703e-02) (81, 3.70602846145629882812e-01) (82, -3.80754619836807250977e-01) (83, -5.89504659175872802734e-01) (84, 5.42835772037506103516e-01) (85, -5.22056162357330322266e-01) (86, -2.57479578256607055664e-01) (87, 6.03489935398101806641e-01) (88, -5.73974311351776123047e-01) (89, 6.60604655742645263672e-01) (90, 4.10295993089675903320e-01) (91, -4.16364580392837524414e-01) (92, -3.42447936534881591797e-01) (93, -4.87142741680145263672e-01) (94, -4.65110629796981811523e-01) (95, -3.03555071353912353516e-01) (96, -5.11705763638019561768e-02) (97, 4.51954394578933715820e-01) (98, 4.02238249778747558594e-01) (99, 2.66904115676879882812e-01) (100, -2.03378707170486450195e-01) (101, -1.28814741969108581543e-01) (102, -5.52312910556793212891e-01) (103, -3.46195846796035766602e-01) (104, -9.98948737978935241699e-02) (105, -5.91948330402374267578e-01) (106, -2.89240628480911254883e-01) (107, 4.85188663005828857422e-02) (108, -2.29637786746025085449e-01) (109, 1.44705340266227722168e-01) (110, -8.27384889125823974609e-02) (111, -3.47005754709243774414e-01) (112, -2.12859287858009338379e-01) (113, -2.23305016756057739258e-01) (114, -1.50119811296463012695e-01) (115, -3.51785391569137573242e-01) (116, -3.52998286485671997070e-01) (117, -3.16320471465587615967e-02) (118, -2.94516589492559432983e-02) (119, -1.67657002806663513184e-01) (120, 2.89102806709706783295e-03) (121, -7.07319498062133789062e-01) (122, 6.97585761547088623047e-01) (123, 7.80387759208679199219e-01) (124, -7.40776300430297851562e-01) (125, -7.28757157921791076660e-02) (126, 1.68747767806053161621e-01) (127, -7.73901045322418212891e-01) (128, 6.77858352661132812500e-01) (129, -8.20754528045654296875e-01) (130, -6.86593413352966308594e-01) (131, 5.73278605937957763672e-01) (132, 2.29806602001190185547e-01) (133, 6.45155251026153564453e-01) (134, 5.94944536685943603516e-01) (135, 4.56674844026565551758e-01) (136, 5.42328134179115295410e-02) (137, -7.52845823764801025391e-01) (138, -4.53176379203796386719e-01) (139, -5.80050528049468994141e-01) (140, 2.07786396145820617676e-01) (141, 4.69010509550571441650e-02) (142, 1.52861416339874267578e-01) (143, 2.32050552964210510254e-01) (144, 1.23142950236797332764e-01) (145, -3.15433859825134277344e-01) (146, 1.58574283123016357422e-01) (147, 1.07834547758102416992e-01) (148, 5.09460344910621643066e-02) (149, 1.14999480545520782471e-01) (150, 1.36608332395553588867e-01) (151, -3.25120314955711364746e-02) (152, -4.41564321517944335938e-01) (153, 1.62832558155059814453e-01) (154, 2.30039693415164947510e-02) (155, 4.83383610844612121582e-02) (156, 1.00840076804161071777e-01) (157, 3.11910025775432586670e-02) (158, 1.76696643233299255371e-01) (159, 2.09094330668449401855e-01) (160, 1.31305903196334838867e-01) (161, 6.41649484634399414062e-01) (162, -7.84254193305969238281e-01) (163, -7.52723753452301025391e-01) (164, 7.99097478389739990234e-01) (165, -3.10256808996200561523e-01) (166, -2.27335199713706970215e-01) (167, 8.13838183879852294922e-01) (168, -7.05412268638610839844e-01) (169, 9.02425050735473632812e-01) (170, 6.60443603992462158203e-01) (171, -6.82899296283721923828e-01) (172, -7.29524075984954833984e-01) (173, -5.84459960460662841797e-01) (174, -5.83312511444091796875e-01) (175, -6.11439704895019531250e-01) (176, -3.86476367712020874023e-01) (177, 7.01693892478942871094e-01) (178, 5.51557421684265136719e-01) (179, 4.84169512987136840820e-01) (180, -7.32098743319511413574e-02) (181, -2.25270062685012817383e-01) (182, -1.56851023435592651367e-01) (183, -2.44300812482833862305e-02) (184, -1.47901386022567749023e-01) (185, -1.17194242775440216064e-01) (186, -2.63999938964843750000e-01) (187, -1.25209540128707885742e-01) (188, 9.85478796064853668213e-03) (189, -1.43065363168716430664e-01) (190, -1.79758951067924499512e-01) (191, -1.19896337389945983887e-01) (192, -3.74632209539413452148e-01) (193, -1.16453338414430618286e-02) (194, 4.00171130895614624023e-02) (195, -2.02604129910469055176e-01) (196, -2.48343482613563537598e-01) (197, -9.58870872855186462402e-02) (198, -1.77704170346260070801e-01) (199, -2.92978972196578979492e-01) (200, 1.14922225475311279297e-01) (201, -4.86177593469619750977e-01) (202, 2.90466576814651489258e-01) (203, 4.72663372755050659180e-01) (204, -4.08036172389984130859e-01) (205, -1.13376274704933166504e-01) (206, 5.34554272890090942383e-02) (207, -4.67744678258895874023e-01) (208, 3.83812785148620605469e-01) (209, -5.08496701717376708984e-01) (210, -2.75485724210739135742e-01) (211, 2.09852367639541625977e-01) (212, -2.11817577481269836426e-01) (213, 3.88841688632965087891e-01) (214, 3.17729145288467407227e-01) (215, 1.61259129643440246582e-01) (216, 6.05692453682422637939e-02) (217, -4.69247132539749145508e-01) (218, -9.89739373326301574707e-02) (219, -1.86582043766975402832e-01) (220, 1.89360752701759338379e-01) (221, 2.11508452892303466797e-01) (222, -1.14691615104675292969e-01) (223, -3.69942635297775268555e-02) (224, 3.13874453306198120117e-01) (225, -6.14708289504051208496e-02) (226, 1.49888157844543457031e-01) (227, 3.09952318668365478516e-01) (228, -4.23771366477012634277e-02) (229, 4.16715204715728759766e-01) (230, 3.66360336542129516602e-01) (231, -5.43765164911746978760e-02) (232, -1.44928753376007080078e-01) (233, 1.67805161327123641968e-02) (234, -1.58035140484571456909e-02) (235, -5.03416499122977256775e-03) (236, 2.16951742768287658691e-02) (237, 1.68782308697700500488e-01) (238, 2.48904898762702941895e-01) (239, 3.19267749786376953125e-01) (240, 2.04314947128295898438e-01) (241, 4.28556352853775024414e-01) (242, -1.25920444726943969727e-01) (243, -5.31818680465221405029e-02) (244, 4.65616792440414428711e-01) (245, 1.58296376466751098633e-01) (246, 8.96879211068153381348e-02) (247, 5.27397811412811279297e-01) (248, 4.87783774733543395996e-02) (249, 5.98345518112182617188e-01) (250, 5.00898063182830810547e-01) (251, 2.43325363844633102417e-02) (252, 2.32481081038713455200e-02) (253, 1.41106080263853073120e-02) (254, 7.78954625129699707031e-02) (255, 2.59382976219058036804e-03) (256, 4.12135086953639984131e-02) (257, 4.20367628335952758789e-01) (258, 2.48598933219909667969e-01) (259, 3.36036086082458496094e-01) (260, -1.10072076320648193359e-01) (0, -2.81677871942520141602e-01) (1, -8.83390679955482482910e-02) (2, -7.02923834323883056641e-01) (3, -9.32812988758087158203e-01) (4, 2.00245812535285949707e-01) (5, -4.17783319950103759766e-01) (6, -3.48271757364273071289e-01) (7, 2.41662278771400451660e-01) (8, -5.96840083599090576172e-01) (9, 3.88703137636184692383e-01) (10, 1.51998147368431091309e-01) (11, -4.27036941051483154297e-01) (12, -2.92169928550720214844e-01) (13, -6.18287861347198486328e-01) (14, -4.54902350902557373047e-01) (15, -2.63522207736968994141e-01) (16, -3.33591222763061523438e+00) (17, -3.34495258331298828125e+00) (18, -3.43598318099975585938e+00) (19, -3.35468435287475585938e+00) (20, -5.05101606249809265137e-02) (21, -4.15690124034881591797e-01) (22, 1.40720754861831665039e-01) (23, 6.39072000980377197266e-01) (24, -6.12200379371643066406e-01) (25, -1.11295811831951141357e-01) (26, 1.11306607723236083984e-01) (27, -6.61733210086822509766e-01) (28, 5.56315004825592041016e-01) (29, -7.00541555881500244141e-01) (30, -6.23589336872100830078e-01) (31, 1.00938625633716583252e-01) (32, 1.05347663164138793945e-01) (33, 4.13075715303421020508e-01) (34, 4.52880680561065673828e-01) (35, 6.51649758219718933105e-03) (36, -1.53076872229576110840e-01) (37, -4.88238930702209472656e-01) (38, -2.43841126561164855957e-01) (39, -4.29454565048217773438e-01) (40, 2.27532744407653808594e-01) (41, -6.38631820678710937500e-01) (42, 7.94626891613006591797e-01) (43, 9.08101618289947509766e-01) (44, -3.90211731195449829102e-01) (45, -3.67921203374862670898e-01) (46, 6.22686259448528289795e-02) (47, -5.88156640529632568359e-01) (48, 3.35192680358886718750e-01) (49, -6.22056186199188232422e-01) (50, -3.74697744846343994141e-01) (51, 3.43114376068115234375e-01) (52, -1.89490973949432373047e-01) (53, 4.17070090770721435547e-01) (54, 2.02830567955970764160e-01) (55, 1.41009956598281860352e-01) (56, 2.01456993818283081055e-01) (57, -4.82285171747207641602e-01) (58, -2.45748221874237060547e-01) (59, -4.06566381454467773438e-01) (60, 4.44025874137878417969e-01) (61, 8.13972294330596923828e-01) (62, -1.91331177949905395508e-01) (63, -1.03314018249511718750e+00) (64, 1.59146225452423095703e+00) (65, -9.39667224884033203125e-01) (66, -9.69608724117279052734e-02) (67, 1.82643604278564453125e+00) (68, -9.77377057075500488281e-01) (69, 1.95715653896331787109e+00) (70, 1.24402189254760742188e+00) (71, -4.78996485471725463867e-01) (72, -2.92628526687622070312e-01) (73, -7.90522515773773193359e-01) (74, -6.96381568908691406250e-01) (75, -1.54024213552474975586e-01) (76, 4.33625638484954833984e-01) (77, 1.43621313571929931641e+00) (78, 1.22805559635162353516e+00) (79, 8.47288846969604492188e-01) (80, 4.53474074602127075195e-02) (81, 3.67093265056610107422e-01) (82, -9.00062441825866699219e-01) (83, -5.87534606456756591797e-01) (84, 1.95582062005996704102e-01) (85, -1.22109937667846679688e+00) (86, -3.64052534103393554688e-01) (87, 4.79581028223037719727e-01) (88, -2.97679632902145385742e-01) (89, 9.20970499515533447266e-01) (90, 2.46764123439788818359e-01) (91, -6.45287871360778808594e-01) (92, 4.66510094702243804932e-02) (93, -1.07574008405208587646e-01) (94, 6.62990799173712730408e-03) (95, -4.28703337907791137695e-01) (96, -4.85533922910690307617e-01) (97, 2.50915646553039550781e-01) (98, 2.42427304387092590332e-01) (99, 1.10568434000015258789e-01) (100, -2.53816485404968261719e-01) (101, -2.05821084976196289062e+00) (102, 1.25675868988037109375e+00) (103, 1.99765205383300781250e+00) (104, -2.17186307907104492188e+00) (105, -2.89257436990737915039e-01) (106, 1.56029567122459411621e-01) (107, -2.30902409553527832031e+00) (108, 1.63240003585815429688e+00) (109, -2.15018606185913085938e+00) (110, -1.80813431739807128906e+00) (111, 8.40922296047210693359e-01) (112, -9.01356190443038940430e-02) (113, 1.49781751632690429688e+00) (114, 1.27475631237030029297e+00) (115, 6.52865767478942871094e-01) (116, -2.82146811485290527344e-01) (117, -2.31927633285522460938e+00) (118, -1.38176679611206054688e+00) (119, -1.68690991401672363281e+00) (120, 5.66131591796875000000e-01) (121, -1.01817734539508819580e-01) (122, 6.94330394268035888672e-01) (123, 5.70938527584075927734e-01) (124, 1.20679259300231933594e-01) (125, -5.53063511848449707031e-01) (126, 2.57856160402297973633e-01) (127, -1.66442990303039550781e-01) (128, -1.09177917242050170898e-01) (129, -1.52103379368782043457e-01) (130, 1.26351654529571533203e-01) (131, -8.59906524419784545898e-02) (132, -1.14077818393707275391e+00) (133, 2.86779254674911499023e-01) (134, -2.43993312120437622070e-01) (135, -2.08654738962650299072e-02) (136, -1.44768208265304565430e-02) (137, -3.31052750349044799805e-01) (138, 5.71987554430961608887e-02) (139, 1.75230979919433593750e-01) (140, 1.50746011734008789062e+00) (141, 3.41002058982849121094e+00) (142, -1.60093462467193603516e+00) (143, -1.59185254573822021484e+00) (144, 3.65831136703491210938e+00) (145, -9.06369447708129882812e-01) (146, 6.25816136598587036133e-02) (147, 3.66467452049255371094e+00) (148, -1.33623468875885009766e+00) (149, 3.93836522102355957031e+00) (150, 3.51631069183349609375e+00) (151, -1.33116638660430908203e+00) (152, -1.93879961967468261719e+00) (153, -1.01361453533172607422e+00) (154, -8.45852971076965332031e-01) (155, -1.26074683666229248047e+00) (156, -3.13184559345245361328e-01) (157, 3.30191159248352050781e+00) (158, 3.11022996902465820312e+00) (159, 2.87928485870361328125e+00) (160, 9.28265005350112915039e-02) (161, -7.62417137622833251953e-01) (162, -3.84814411401748657227e-01) (163, -1.01769655942916870117e-01) (164, -4.74891752004623413086e-01) (165, 1.50678325444459915161e-02) (166, -5.61055421829223632812e-01) (167, -6.06664001941680908203e-01) (168, 3.14526140689849853516e-01) (169, -2.30427905917167663574e-01) (170, -4.06725078821182250977e-01) (171, 1.13062076270580291748e-01) (172, -3.07505965232849121094e-01) (173, 6.77331238985061645508e-02) (174, 3.15216094255447387695e-01) (175, -2.94316470623016357422e-01) (176, -4.30533230304718017578e-01) (177, -4.44348782300949096680e-01) (178, -3.75068843364715576172e-01) (179, -8.32502186298370361328e-01) (180, -3.61228212714195251465e-02) (181, -1.99569344520568847656e+00) (182, 8.62243950366973876953e-01) (183, 1.46796762943267822266e+00) (184, -1.89525759220123291016e+00) (185, -5.68306922912597656250e-01) (186, 1.52452930808067321777e-01) (187, -2.26861023902893066406e+00) (188, 1.33859145641326904297e+00) (189, -2.15565085411071777344e+00) (190, -1.44693624973297119141e+00) (191, 7.32948243618011474609e-01) (192, -8.23609411716461181641e-01) (193, 1.31192278861999511719e+00) (194, 1.05009305477142333984e+00) (195, 4.70512926578521728516e-01) (196, 4.18575406074523925781e-02) (197, -2.18463730812072753906e+00) (198, -9.01260495185852050781e-01) (199, -1.17334198951721191406e+00) (200, 6.36115968227386474609e-01) (201, 2.95704334974288940430e-01) (202, -3.91101598739624023438e-01) (203, -1.46887883543968200684e-01) (204, 7.82468497753143310547e-01) (205, -2.89688348770141601562e-01) (206, 3.25360596179962158203e-01) (207, 8.08544516563415527344e-01) (208, -1.24632507562637329102e-01) (209, 1.04703128337860107422e+00) (210, 1.01282680034637451172e+00) (211, -7.18648359179496765137e-02) (212, -4.26348358392715454102e-01) (213, 9.67555418610572814941e-02) (214, -8.64221677184104919434e-02) (215, 2.23754961043596267700e-02) (216, 1.84525638818740844727e-01) (217, 2.99579650163650512695e-01) (218, 6.68723940849304199219e-01) (219, 9.27298426628112792969e-01) (220, -7.32890069484710693359e-02) (221, 6.78536057472229003906e-01) (222, -1.26241004467010498047e+00) (223, -1.18429327011108398438e+00) (224, 8.70829820632934570312e-01) (225, -3.80688786506652832031e-01) (226, -1.83049172163009643555e-01) (227, 1.07247364521026611328e+00) (228, -6.79824352264404296875e-01) (229, 1.45887827873229980469e+00) (230, 9.68505859375000000000e-01) (231, -7.45242476463317871094e-01) (232, -6.62649929523468017578e-01) (233, -7.82201111316680908203e-01) (234, -4.64988976716995239258e-01) (235, -8.73960614204406738281e-01) (236, -6.78561866283416748047e-01) (237, 7.01648414134979248047e-01) (238, 2.25555837154388427734e-01) (239, 3.56236040592193603516e-01) (240, 1.01658068597316741943e-01) (241, -5.02503812313079833984e-01) (242, 3.35057348012924194336e-01) (243, 6.46325230598449707031e-01) (244, -2.30847701430320739746e-01) (245, 1.85605734586715698242e-01) (246, -9.93851199746131896973e-02) (247, -3.44568789005279541016e-01) (248, 8.12207221984863281250e-01) (249, -4.40514832735061645508e-01) (250, -2.49497994780540466309e-01) (251, 3.70189607143402099609e-01) (252, -1.44263625144958496094e-01) (253, 4.58622574806213378906e-01) (254, 6.19156122207641601562e-01) (255, 1.53060093522071838379e-01) (256, -1.00619353353977203369e-01) (257, -2.30345949530601501465e-01) (258, -6.95992261171340942383e-02) (259, -4.63020473718643188477e-01) (260, -9.24649983644485473633e-02) (261, -4.53233003616333007812e-01) (0, 1.85824677348136901855e-01) (1, 4.11310553550720214844e-01) (2, -8.01525264978408813477e-02) (3, 3.17839309573173522949e-02) (4, 2.84853219985961914062e-01) (5, -1.43399953842163085938e-01) (6, 8.92544314265251159668e-02) (7, 3.68468582630157470703e-01) (8, -3.89773882925510406494e-02) (9, 3.34567606449127197266e-01) (10, 3.41718316078186035156e-01) (11, -5.28092943131923675537e-02) (12, -6.86415061354637145996e-02) (13, 3.78493182361125946045e-02) (14, -3.98498237133026123047e-01) (15, -6.71305537223815917969e-01) (16, 1.56027138233184814453e+00) (17, 1.51820671558380126953e+00) (18, 1.47757065296173095703e+00) (19, 1.50426483154296875000e+00) (20, 1.63533136248588562012e-01) (21, 2.14554205536842346191e-01) (22, -1.04380242526531219482e-01) (23, 3.05330008268356323242e-02) (24, 1.94339320063591003418e-01) (25, -3.08288037776947021484e-01) (26, -2.82145179808139801025e-02) (27, 2.51698970794677734375e-01) (28, -1.06484681367874145508e-01) (29, 2.16804161667823791504e-01) (30, 1.24940082430839538574e-01) (31, -2.38993182778358459473e-01) (32, -2.56569862365722656250e-01) (33, -9.90161523222923278809e-02) (34, -6.66617974638938903809e-02) (35, -1.46507054567337036133e-01) (36, -1.36348217725753784180e-01) (37, 2.80797369778156280518e-02) (38, 1.93217173218727111816e-01) (39, -3.23202684521675109863e-02) (40, 1.38589978218078613281e-01) (41, 1.33748024702072143555e-01) (42, -1.37834906578063964844e-01) (43, 3.27074453234672546387e-02) (44, 9.56159681081771850586e-02) (45, -4.16456788778305053711e-01) (46, -7.74906203150749206543e-02) (47, 1.29543498158454895020e-01) (48, -1.72108277678489685059e-01) (49, 2.64210760593414306641e-01) (50, 1.40613049268722534180e-01) (51, -1.98684334754943847656e-01) (52, -1.83143705129623413086e-01) (53, -5.66818527877330780029e-02) (54, -7.09054172039031982422e-02) (55, -9.77657064795494079590e-02) (56, -1.25968202948570251465e-01) (57, -2.95210331678390502930e-02) (58, 8.09727311134338378906e-02) (59, -4.04938384890556335449e-02) (60, 1.55045360326766967773e-01) (61, 1.31141722202301025391e-01) (62, -2.75440607219934463501e-03) (63, 7.94058069586753845215e-02) (64, -3.38366180658340454102e-02) (65, -4.03529107570648193359e-01) (66, -2.53138449043035507202e-02) (67, -1.72975987195968627930e-01) (68, -1.11075885593891143799e-01) (69, 9.12388712167739868164e-02) (70, 9.05898660421371459961e-02) (71, -1.08205467462539672852e-01) (72, -5.57734444737434387207e-02) (73, 9.86435636878013610840e-03) (74, -4.23161685466766357422e-02) (75, -2.63652093708515167236e-02) (76, -1.81141868233680725098e-01) (77, -3.11898916959762573242e-01) (78, -1.09267868101596832275e-02) (79, -1.66232421994209289551e-01) (80, 1.95478871464729309082e-01) (81, -2.01635956764221191406e-01) (82, 2.39796280860900878906e-01) (83, 2.02390819787979125977e-01) (84, -2.55269944667816162109e-01) (85, -2.82793909311294555664e-01) (86, 1.07242390513420104980e-02) (87, -4.73757088184356689453e-01) (88, -4.60625533014535903931e-03) (89, -1.43888831138610839844e-01) (90, -2.17270590364933013916e-02) (91, 1.45109891891479492188e-01) (92, 1.52328222990036010742e-01) (93, 1.00450485944747924805e-01) (94, 2.30616685003042221069e-02) (95, 9.95575413107872009277e-02) (96, -2.02010065317153930664e-01) (97, -5.56412100791931152344e-01) (98, -2.01651781797409057617e-01) (99, -3.07341843843460083008e-01) (100, 2.23879307508468627930e-01) (101, -3.48389387130737304688e-01) (102, 4.45649147033691406250e-01) (103, 1.54689982533454895020e-01) (104, -3.61051172018051147461e-01) (105, 4.15935486555099487305e-01) (106, 5.52717149257659912109e-02) (107, -6.13620579242706298828e-01) (108, 5.84875643253326416016e-02) (109, -2.45573729276657104492e-01) (110, -4.33139801025390625000e-02) (111, 3.86910915374755859375e-01) (112, 4.92618352174758911133e-01) (113, 1.77952989935874938965e-01) (114, 2.51573231071233749390e-02) (115, 2.66589611768722534180e-01) (116, -1.82490125298500061035e-01) (117, -6.88415169715881347656e-01) (118, -2.81324326992034912109e-01) (119, -3.45727741718292236328e-01) (120, 6.13757491111755371094e-01) (121, -3.90407047234475612640e-04) (122, 9.26135540008544921875e-01) (123, 5.53408324718475341797e-01) (124, -1.47528484463691711426e-01) (125, 9.83663856983184814453e-01) (126, 5.05538225173950195312e-01) (127, -3.33518445491790771484e-01) (128, 5.30319690704345703125e-01) (129, 7.33539927750825881958e-04) (130, 3.23201984167098999023e-01) (131, 9.28935050964355468750e-01) (132, 1.19615077972412109375e+00) (133, 5.69477617740631103516e-01) (134, 4.01773512363433837891e-01) (135, 7.10623502731323242188e-01) (136, 2.51237094402313232422e-01) (137, -3.61904114484786987305e-01) (138, 5.29345422983169555664e-02) (139, -7.27831274271011352539e-02) (140, 3.89008551836013793945e-01) (141, -1.31412371993064880371e-01) (142, 2.28106915950775146484e-01) (143, 2.56226599216461181641e-01) (144, -1.77075460553169250488e-01) (145, 3.69441449642181396484e-01) (146, 1.88884586095809936523e-01) (147, -4.91712540388107299805e-01) (148, 2.21511319279670715332e-01) (149, -1.12154431641101837158e-01) (150, 1.45501017570495605469e-01) (151, 2.52209544181823730469e-01) (152, 5.35639345645904541016e-01) (153, 2.98030763864517211914e-01) (154, 1.77580311894416809082e-01) (155, 1.64233699440956115723e-01) (156, -2.58707217872142791748e-02) (157, -5.22854208946228027344e-01) (158, -3.24189253151416778564e-02) (159, -1.09562866389751434326e-01) (160, 1.46613955497741699219e-01) (161, -1.94882676005363464355e-01) (162, -9.95945855975151062012e-02) (163, 6.57009929418563842773e-02) (164, -2.50355124473571777344e-01) (165, -4.51048687100410461426e-02) (166, 9.21712592244148254395e-02) (167, -4.45248425006866455078e-01) (168, 6.56164884567260742188e-02) (169, -1.30357176065444946289e-01) (170, 5.73478825390338897705e-02) (171, -2.18808744102716445923e-03) (172, -1.36096045374870300293e-01) (173, 1.14352740347385406494e-01) (174, 9.30815842002630233765e-03) (175, -1.16745606064796447754e-01) (176, -1.98603659868240356445e-01) (177, -5.15978574752807617188e-01) (178, -1.47586390376091003418e-01) (179, -1.78677424788475036621e-01) (180, 9.15030539035797119141e-02) (181, -1.56002864241600036621e-01) (182, -2.65300959348678588867e-01) (183, 1.91786233335733413696e-02) (184, -4.54366058111190795898e-02) (185, -2.25433245301246643066e-01) (186, -9.46812797337770462036e-03) (187, -1.48188665509223937988e-01) (188, 1.75848510116338729858e-02) (189, 1.37646347284317016602e-01) (190, 1.96968123316764831543e-01) (191, -1.51870712637901306152e-01) (192, -2.27699756622314453125e-01) (193, 7.33060538768768310547e-02) (194, 2.22241133451461791992e-02) (195, -1.84838667511940002441e-01) (196, -1.93088710308074951172e-01) (197, -2.95326530933380126953e-01) (198, -3.18667590618133544922e-02) (199, -7.96080753207206726074e-02) (200, 1.21192283928394317627e-01) (201, -9.20201092958450317383e-02) (202, -2.85801500082015991211e-01) (203, -1.40085695311427116394e-02) (204, 8.29711928963661193848e-02) (205, -3.50599408149719238281e-01) (206, -2.25854218006134033203e-02) (207, 1.36791333556175231934e-01) (208, 4.51777763664722442627e-02) (209, 2.55705058574676513672e-01) (210, 2.73449510335922241211e-01) (211, -1.57099023461341857910e-01) (212, -2.65186160802841186523e-01) (213, 7.29802474379539489746e-02) (214, 5.88299930095672607422e-02) (215, -1.87426075339317321777e-01) (216, -1.78309008479118347168e-01) (217, -3.67761515080928802490e-02) (218, 7.70484134554862976074e-02) (219, 7.93196540325880050659e-03) (220, 9.88705232739448547363e-02) (221, 4.01771962642669677734e-02) (222, -2.87549883127212524414e-01) (223, -5.84037750959396362305e-02) (224, 1.08820587396621704102e-01) (225, -3.61533790826797485352e-01) (226, -2.68653016537427902222e-02) (227, 2.03538641333580017090e-01) (228, -3.16232331097126007080e-02) (229, 2.50312775373458862305e-01) (230, 1.98568508028984069824e-01) (231, -2.38268479704856872559e-01) (232, -2.11415782570838928223e-01) (233, -1.62243321537971496582e-02) (234, -4.00006026029586791992e-03) (235, -2.08989664912223815918e-01) (236, -1.89279899001121520996e-01) (237, 2.70585119724273681641e-02) (238, 1.11226998269557952881e-01) (239, 4.88447993993759155273e-02) (240, 8.15296247601509094238e-02) (241, 1.58285766839981079102e-01) (242, -1.78426072001457214355e-01) (243, -2.81766485422849655151e-02) (244, 1.27243071794509887695e-01) (245, -2.79424577951431274414e-01) (246, -1.25953229144215583801e-02) (247, 2.19384297728538513184e-01) (248, 2.09521315991878509521e-03) (249, 2.56091058254241943359e-01) (250, 1.97420671582221984863e-01) (251, -1.52904734015464782715e-01) (252, -2.08780139684677124023e-01) (253, 8.65237880498170852661e-03) (254, 5.45693598687648773193e-02) (255, -1.65772408246994018555e-01) (256, -1.63147374987602233887e-01) (257, 5.80766685307025909424e-02) (258, 8.84757786989212036133e-02) (259, 4.09064702689647674561e-02) (260, -5.67674636840820312500e-02) (261, -3.53393942117691040039e-01) (262, -3.78813505172729492188e-01) (0, 2.45366081595420837402e-01) (1, -1.27217262983322143555e-01) (2, 2.82727450132369995117e-01) (3, 3.23694229125976562500e-01) (4, 9.99676734209060668945e-02) (5, -2.16733053326606750488e-01) (6, 8.21876004338264465332e-02) (7, 1.45339127629995346069e-02) (8, 2.10112184286117553711e-01) (9, 1.44106000661849975586e-01) (10, 1.37657552957534790039e-01) (11, 2.74316161870956420898e-01) (12, 3.25227528810501098633e-02) (13, 2.28310376405715942383e-01) (14, 9.01691913604736328125e-01) (15, 7.74746000766754150391e-01) (16, -3.29568099975585937500e+00) (17, -3.10085439682006835938e+00) (18, -2.93131399154663085938e+00) (19, -3.19027972221374511719e+00) (20, 3.82599234580993652344e-01) (21, -7.32535645365715026855e-02) (22, 4.36379522085189819336e-01) (23, 4.22057390213012695312e-01) (24, 2.18992874026298522949e-01) (25, -4.65378165245056152344e-01) (26, -1.05266151949763298035e-02) (27, 2.53644347190856933594e-01) (28, 1.96794241666793823242e-01) (29, 3.26546758413314819336e-01) (30, 8.97053256630897521973e-02) (31, -1.14857330918312072754e-02) (32, -4.03782278299331665039e-01) (33, 2.30766087770462036133e-01) (34, 1.85805365443229675293e-01) (35, 1.62115558981895446777e-01) (36, 1.96071937680244445801e-01) (37, -5.16383070498704910278e-03) (38, 2.50109612941741943359e-01) (39, 4.66076061129570007324e-02) (40, 4.78556901216506958008e-01) (41, -1.20268717408180236816e-01) (42, 4.61973510682582855225e-02) (43, 1.86236560344696044922e-01) (44, 2.22539275884628295898e-01) (45, -1.02854990959167480469e+00) (46, -1.59082069993019104004e-01) (47, 2.16319561004638671875e-01) (48, -2.05408841371536254883e-01) (49, 3.91137748956680297852e-01) (50, 1.55619293451309204102e-01) (51, -2.50382959842681884766e-01) (52, -4.91131663322448730469e-01) (53, 1.57124921679496765137e-01) (54, -1.68145466595888137817e-02) (55, -9.17742624878883361816e-02) (56, 8.81900116801261901855e-02) (57, 1.52614742517471313477e-01) (58, 1.64020553231239318848e-01) (59, 4.09445203840732574463e-02) (60, 4.61132615804672241211e-01) (61, -5.48248827457427978516e-01) (62, 1.81743010878562927246e-01) (63, 4.09204661846160888672e-01) (64, -2.25347265601158142090e-01) (65, -1.32931256294250488281e+00) (66, -1.37704178690910339355e-01) (67, 1.07709974050521850586e-01) (68, 2.13223248720169067383e-01) (69, 2.36506283283233642578e-01) (70, -2.93280091136693954468e-02) (71, -1.05911098420619964600e-01) (72, -5.44500231742858886719e-01) (73, 3.82946819067001342773e-01) (74, 2.32410252094268798828e-01) (75, -1.74237325787544250488e-01) (76, -1.31990149617195129395e-01) (77, -1.70963361859321594238e-01) (78, -6.72767832875251770020e-02) (79, -1.51234969496726989746e-01) (80, 3.64350646734237670898e-01) (81, -9.54375267028808593750e-01) (82, 1.69471576809883117676e-01) (83, 3.91631126403808593750e-01) (84, -4.53640550374984741211e-01) (85, -1.56553041934967041016e+00) (86, -3.28605234622955322266e-01) (87, -5.15206873416900634766e-01) (88, 6.36332556605339050293e-02) (89, -2.93268740177154541016e-01) (90, -2.59527832269668579102e-01) (91, -1.53061002492904663086e-01) (92, -8.89050722122192382812e-01) (93, 3.35422784090042114258e-01) (94, 1.22918024659156799316e-01) (95, -2.39937573671340942383e-01) (96, -2.20730260014533996582e-01) (97, -6.41564667224884033203e-01) (98, -5.76563812792301177979e-02) (99, -3.52431565523147583008e-01) (100, 3.19558948278427124023e-01) (101, -7.49399423599243164062e-01) (102, -4.07362401485443115234e-01) (103, -1.33576199412345886230e-01) (104, -1.16599448025226593018e-01) (105, -1.73760986328125000000e+00) (106, -4.61730331182479858398e-01) (107, 2.59228162467479705811e-02) (108, -3.77452194690704345703e-01) (109, 1.45680695772171020508e-01) (110, -7.67418667674064636230e-02) (111, -7.16123640537261962891e-01) (112, -1.71747529506683349609e+00) (113, -1.34417116641998291016e-01) (114, -2.23280355334281921387e-01) (115, -5.83935976028442382812e-01) (116, -5.01071393489837646484e-01) (117, -2.36829355359077453613e-01) (118, -7.93539732694625854492e-03) (119, -2.83122777938842773438e-01) (120, 4.09231930971145629883e-01) (121, -5.97650527954101562500e-01) (122, -7.94165551662445068359e-01) (123, -2.39754736423492431641e-01) (124, -7.29683972895145416260e-03) (125, -1.55065584182739257812e+00) (126, -4.91529792547225952148e-01) (127, 2.79464930295944213867e-01) (128, -2.23718792200088500977e-01) (129, 3.77268403768539428711e-01) (130, -7.63328792527318000793e-03) (131, -7.01796948909759521484e-01) (132, -6.81762512207031250000e+02) (133, -1.01340934634208679199e-01) (134, -7.43524581193923950195e-02) (135, -8.62756848335266113281e-01) (136, -8.28005850315093994141e-01) (137, -3.59700396656990051270e-02) (138, 1.38114020228385925293e-01) (139, -2.80886262655258178711e-01) (140, 4.25002843141555786133e-01) (141, -8.83232831954956054688e-01) (142, -3.02714169025421142578e-01) (143, 2.04116731882095336914e-01) (144, -5.28989970684051513672e-01) (145, -1.34325456619262695312e+00) (146, -1.67495191097259521484e-01) (147, -3.41005682945251464844e-01) (148, 2.38654166460037231445e-01) (149, -1.00153185427188873291e-01) (150, 1.70632288791239261627e-03) (151, -2.30465218424797058105e-01) (152, -2.91017627716064453125e+00) (153, 2.73989737033843994141e-01) (154, 3.38428825139999389648e-01) (155, -4.94484961032867431641e-01) (156, -4.57620501518249511719e-01) (157, -6.26756608486175537109e-01) (158, -2.75026082992553710938e-01) (159, -4.39181625843048095703e-01) (160, 5.04106342792510986328e-01) (161, -5.92701077461242675781e-01) (162, -3.74999523162841796875e-01) (163, 1.92840248346328735352e-01) (164, -2.93536335229873657227e-01) (165, -8.78932356834411621094e-01) (166, -5.29140122234821319580e-02) (167, -2.49737471342086791992e-01) (168, 2.03679174184799194336e-01) (169, 6.87827169895172119141e-02) (170, 2.70019292831420898438e-01) (171, -1.56504854559898376465e-01) (172, -2.98046207427978515625e+00) (173, 3.23760032653808593750e-01) (174, 2.87616372108459472656e-01) (175, -2.96547055244445800781e-01) (176, -3.75321000814437866211e-01) (177, -6.06512844562530517578e-01) (178, -9.93926376104354858398e-02) (179, -4.26731407642364501953e-02) (180, 2.81328171491622924805e-01) (181, -8.62444043159484863281e-02) (182, -1.06126391887664794922e+00) (183, -1.41277864575386047363e-01) (184, 1.50962159037590026855e-01) (185, -5.01263618469238281250e-01) (186, -1.01966194808483123779e-01) (187, 1.46532386541366577148e-01) (188, -5.03777302801609039307e-02) (189, 5.21121919155120849609e-01) (190, 5.60217738151550292969e-01) (191, -3.89173567295074462891e-01) (192, -1.63177783203125000000e+03) (193, 6.66099786758422851562e-02) (194, 5.91075830161571502686e-02) (195, -4.91686105728149414062e-01) (196, -5.20210027694702148438e-01) (197, -2.65981733798980712891e-01) (198, 1.67095646262168884277e-01) (199, 1.65477141737937927246e-01) (200, 3.23300987482070922852e-01) (201, -1.39688745141029357910e-01) (202, -5.17099618911743164062e-01) (203, 4.57589980214834213257e-03) (204, 6.08494654297828674316e-02) (205, -2.57811069488525390625e-01) (206, -1.91860467195510864258e-01) (207, 2.02292844653129577637e-01) (208, 2.06275984644889831543e-01) (209, 4.50150430202484130859e-01) (210, 3.53152364492416381836e-01) (211, -1.88945695757865905762e-01) (212, -1.43537712097167968750e+00) (213, 1.93838268518447875977e-01) (214, 2.41587325930595397949e-01) (215, -3.48446071147918701172e-01) (216, -4.80255216360092163086e-01) (217, -3.27812224626541137695e-01) (218, 1.54194965958595275879e-01) (219, 4.08859662711620330811e-02) (220, 2.94701218605041503906e-01) (221, -2.60258853435516357422e-01) (222, -8.79017636179924011230e-02) (223, 2.52779364585876464844e-01) (224, -1.02686971426010131836e-01) (225, -1.02662436664104461670e-01) (226, -7.10361525416374206543e-02) (227, -4.79964651167392730713e-02) (228, 4.54619765281677246094e-01) (229, 2.87512362003326416016e-01) (230, 3.36922705173492431641e-01) (231, 1.38639599084854125977e-01) (232, -7.94768035411834716797e-01) (233, 3.71965080499649047852e-01) (234, 3.74383419752120971680e-01) (235, -5.06380014121532440186e-02) (236, -1.65280327200889587402e-01) (237, -3.54740530252456665039e-01) (238, 3.38195897638797760010e-02) (239, 5.44999539852142333984e-03) (240, 3.17638456821441650391e-01) (241, -1.14576742053031921387e-02) (242, -1.51626214385032653809e-01) (243, 1.54164582490921020508e-01) (244, 1.91232115030288696289e-01) (245, -6.32161125540733337402e-02) (246, -1.24043405055999755859e-01) (247, 1.56980693340301513672e-01) (248, 2.89955377578735351562e-01) (249, 2.59752005338668823242e-01) (250, 3.43536555767059326172e-01) (251, 2.04824637621641159058e-02) (252, -5.70567071437835693359e-01) (253, 2.98049092292785644531e-01) (254, 2.61299192905426025391e-01) (255, -5.75760491192340850830e-02) (256, -9.10443738102912902832e-02) (257, -4.63500395417213439941e-02) (258, 3.05281095206737518311e-02) (259, 1.38432890176773071289e-01) (260, -1.04962253570556640625e+00) (261, -8.23660492897033691406e-01) (262, -8.01973879337310791016e-01) (263, 3.81126314401626586914e-01) (0, -4.99613672494888305664e-01) (1, -5.29319703578948974609e-01) (2, -4.05876696109771728516e-01) (3, -5.50495803356170654297e-01) (4, -4.71604734659194946289e-01) (5, -2.63978034257888793945e-01) (6, -5.37142276763916015625e-01) (7, -5.56353807449340820312e-01) (8, -5.46075940132141113281e-01) (9, -5.30266463756561279297e-01) (10, -5.20638585090637207031e-01) (11, -3.74237179756164550781e-01) (12, -4.53049540519714355469e-01) (13, -4.44035500288009643555e-01) (14, 1.16354215145111083984e+00) (15, 1.14865899085998535156e+00) (16, 1.11084580421447753906e+00) (17, 1.21308255195617675781e+00) (18, 1.26780450344085693359e+00) (19, 1.16299962997436523438e+00) (20, -2.47049599885940551758e-01) (21, -4.12840902805328369141e-01) (22, -8.66918712854385375977e-02) (23, -2.21693202853202819824e-01) (24, -2.12902680039405822754e-01) (25, 1.56061770394444465637e-03) (26, -2.88826376199722290039e-01) (27, -2.75379210710525512695e-01) (28, -2.34209001064300537109e-01) (29, -2.99213051795959472656e-01) (30, -3.24285268783569335938e-01) (31, -1.03531599044799804688e-01) (32, -2.29484558105468750000e-01) (33, -1.77544623613357543945e-01) (34, -2.33721166849136352539e-01) (35, -2.12475061416625976562e-01) (36, -9.97530296444892883301e-02) (37, -2.45001822710037231445e-01) (38, -2.37552896142005920410e-01) (39, -1.93007007241249084473e-01) (40, -2.32035994529724121094e-01) (41, -3.14708679914474487305e-01) (42, -1.27198770642280578613e-01) (43, -2.05209672451019287109e-01) (44, -1.37168988585472106934e-01) (45, -2.33178492635488510132e-02) (46, -3.00854802131652832031e-01) (47, -1.33478641510009765625e-01) (48, -2.26609915494918823242e-01) (49, -2.65668779611587524414e-01) (50, -2.99146920442581176758e-01) (51, -9.57049652934074401855e-02) (52, -2.71643400192260742188e-01) (53, -1.26731678843498229980e-01) (54, -2.08271354436874389648e-01) (55, -1.72092750668525695801e-01) (56, -5.05162924528121948242e-02) (57, -9.93125289678573608398e-02) (58, -8.63582640886306762695e-02) (59, -1.31981208920478820801e-01) (60, -2.12760090827941894531e-01) (61, -2.06040158867835998535e-01) (62, -2.34978258609771728516e-01) (63, -2.98979759216308593750e-01) (64, -5.94260208308696746826e-02) (65, -1.12155944108963012695e-01) (66, -3.28323364257812500000e-01) (67, 9.92990806698799133301e-02) (68, -3.49659919738769531250e-01) (69, -1.01275242865085601807e-01) (70, -1.99336618185043334961e-01) (71, -1.99399530887603759766e-01) (72, -4.22418117523193359375e-01) (73, -2.66305446624755859375e-01) (74, -3.00374269485473632812e-01) (75, -2.53180652856826782227e-01) (76, -7.91419520974159240723e-02) (77, 5.25357909500598907471e-02) (78, 9.16267856955528259277e-02) (79, -6.41168355941772460938e-02) (80, -1.38342306017875671387e-01) (81, -1.40111282467842102051e-01) (82, -5.42648971080780029297e-01) (83, -4.12071824073791503906e-01) (84, 3.40445190668106079102e-02) (85, -4.87583160400390625000e-01) (86, -4.75597709417343139648e-01) (87, 3.26486080884933471680e-01) (88, -4.89662319421768188477e-01) (89, 8.11562240123748779297e-02) (90, 3.25734131038188934326e-02) (91, -5.08110642433166503906e-01) (92, -6.61537706851959228516e-01) (93, -3.52030605077743530273e-01) (94, -3.39493781328201293945e-01) (95, -4.37460660934448242188e-01) (96, -2.61593669652938842773e-01) (97, 2.00450554490089416504e-01) (98, 2.77345001697540283203e-01) (99, -6.68730027973651885986e-03) (100, -5.74025772511959075928e-02) (101, -1.87513858079910278320e-01) (102, -6.80073738098144531250e-01) (103, -2.10440889000892639160e-01) (104, 1.10390283167362213135e-01) (105, -9.42004203796386718750e-01) (106, -3.61155062913894653320e-01) (107, 4.63377207517623901367e-01) (108, -3.19408863782882690430e-01) (109, 1.40076011419296264648e-01) (110, 2.24452763795852661133e-01) (111, -6.83934688568115234375e-01) (112, -8.65833461284637451172e-01) (113, -2.29075595736503601074e-01) (114, -1.62111639976501464844e-01) (115, -4.26358133554458618164e-01) (116, -2.66087770462036132812e-01) (117, 3.20301562547683715820e-01) (118, 5.33210217952728271484e-01) (119, 5.24019077420234680176e-02) (120, 1.52729555964469909668e-01) (121, 7.40980803966522216797e-02) (122, -7.82300889492034912109e-01) (123, 2.76150517165660858154e-02) (124, 5.41225254535675048828e-01) (125, -9.64271962642669677734e-01) (126, -2.23729446530342102051e-01) (127, 7.59818732738494873047e-01) (128, -1.84107080101966857910e-01) (129, 4.75514799356460571289e-01) (130, 6.91908299922943115234e-01) (131, -8.00134956836700439453e-01) (132, -1.11880564689636230469e+00) (133, 1.22841494157910346985e-02) (134, 5.53517490625381469727e-02) (135, -4.36567366123199462891e-01) (136, -1.99491158127784729004e-01) (137, 6.39967918395996093750e-01) (138, 7.35771477222442626953e-01) (139, 5.12187540531158447266e-01) (140, 2.64301329851150512695e-01) (141, 2.84695595502853393555e-01) (142, -5.75715184211730957031e-01) (143, -6.86167106032371520996e-02) (144, 4.48312193155288696289e-01) (145, -6.99597954750061035156e-01) (146, -1.87426954507827758789e-01) (147, 6.15563392639160156250e-01) (148, -2.11849525570869445801e-01) (149, 5.64092934131622314453e-01) (150, 3.82354050874710083008e-01) (151, -4.47258621454238891602e-01) (152, -1.29833495616912841797e+00) (153, 8.14113169908523559570e-02) (154, -1.83449126780033111572e-02) (155, -3.60148370265960693359e-01) (156, -1.97720050811767578125e-01) (157, 5.08901178836822509766e-01) (158, 3.96883130073547363281e-01) (159, 4.01352375745773315430e-01) (160, 3.84996592998504638672e-01) (161, 2.70881146192550659180e-01) (162, -2.98065125942230224609e-01) (163, -1.04360371828079223633e-01) (164, 4.77843582630157470703e-01) (165, -1.65361583232879638672e-01) (166, 1.39553379267454147339e-03) (167, 4.98076885938644409180e-01) (168, 3.12507562339305877686e-02) (169, 5.85725963115692138672e-01) (170, 4.15765404701232910156e-01) (171, -3.90606187283992767334e-02) (172, -8.81969094276428222656e-01) (173, 1.88261181116104125977e-01) (174, 2.21460193395614624023e-01) (175, -1.29078730940818786621e-01) (176, -3.12665067613124847412e-02) (177, 3.41588795185089111328e-01) (178, 3.21610718965530395508e-01) (179, 4.09825980663299560547e-01) (180, 5.24287581443786621094e-01) (181, 3.09033602476119995117e-01) (182, -3.02830990403890609741e-02) (183, 2.00704149901866912842e-02) (184, 4.60223019123077392578e-01) (185, 2.15145066380500793457e-01) (186, 1.27911970019340515137e-01) (187, 4.89829897880554199219e-01) (188, 3.07049125432968139648e-01) (189, 5.69126248359680175781e-01) (190, 5.18269717693328857422e-01) (191, 2.63262271881103515625e-01) (192, -4.58076536655426025391e-01) (193, 3.20908576250076293945e-01) (194, 4.03982639312744140625e-01) (195, 1.22228823602199554443e-01) (196, 1.10694058239459991455e-01) (197, 3.17257881164550781250e-01) (198, 4.60499435663223266602e-01) (199, 3.98695319890975952148e-01) (200, 3.39445859193801879883e-01) (201, 4.33830246329307556152e-02) (202, 3.84635035879909992218e-03) (203, 6.92976191639900207520e-02) (204, 2.04680845141410827637e-01) (205, 2.85390555858612060547e-01) (206, -1.35204456746578216553e-02) (207, 1.07852466404438018799e-01) (208, 2.43159681558609008789e-01) (209, 1.98648110032081604004e-01) (210, 2.03296989202499389648e-01) (211, 3.05411428213119506836e-01) (212, -1.76880180835723876953e-01) (213, 1.73324242234230041504e-01) (214, 2.58786171674728393555e-01) (215, 3.06172780692577362061e-02) (216, 4.51155640184879302979e-02) (217, 4.38010618090629577637e-02) (218, 1.46114975214004516602e-01) (219, 1.58703252673149108887e-01) (220, 3.35526794195175170898e-01) (221, 1.30994379520416259766e-01) (222, 1.35045230388641357422e-01) (223, 2.05127656459808349609e-01) (224, 3.35258662700653076172e-01) (225, 3.16086828708648681641e-01) (226, 1.49183273315429687500e-01) (227, 1.68268710374832153320e-01) (228, 3.85015219449996948242e-01) (229, 3.31759095191955566406e-01) (230, 3.43622744083404541016e-01) (231, 3.83857905864715576172e-01) (232, 4.24834750592708587646e-02) (233, 2.26761609315872192383e-01) (234, 3.44643056392669677734e-01) (235, 2.18669265508651733398e-01) (236, 1.89904332160949707031e-01) (237, 1.84379920363426208496e-01) (238, 1.68525338172912597656e-01) (239, 2.62703269720077514648e-01) (240, 3.10360670089721679688e-01) (241, 3.69523242115974426270e-02) (242, 1.47198706865310668945e-01) (243, 1.08865022659301757812e-01) (244, 2.58843004703521728516e-01) (245, 2.40812882781028747559e-01) (246, 1.07856214046478271484e-01) (247, 1.39583587646484375000e-01) (248, 2.77904808521270751953e-01) (249, 3.05110812187194824219e-01) (250, 2.42863863706588745117e-01) (251, 2.83090144395828247070e-01) (252, 7.77591913938522338867e-02) (253, 1.75900608301162719727e-01) (254, 2.63595968484878540039e-01) (255, 1.63343071937561035156e-01) (256, 1.48958355188369750977e-01) (257, 1.45897895097732543945e-01) (258, 2.20194339752197265625e-01) (259, 2.65677213668823242188e-01) (260, -2.19409048557281494141e-01) (261, -2.26911202073097229004e-01) (262, -2.08475530147552490234e-01) (263, -1.95534333586692810059e-01) (264, 6.94832980632781982422e-01) (0, 4.42960828542709350586e-01) (1, 2.33459055423736572266e-01) (2, 3.60893994569778442383e-01) (3, 4.18331772089004516602e-01) (4, 2.81883090734481811523e-01) (5, 2.11648374795913696289e-01) (6, 2.53974854946136474609e-01) (7, 3.34877252578735351562e-01) (8, 2.66089379787445068359e-01) (9, 3.74013423919677734375e-01) (10, 3.63701909780502319336e-01) (11, 2.20878332853317260742e-01) (12, 2.67143934965133666992e-01) (13, 4.20004993677139282227e-01) (14, 9.92662072181701660156e-01) (15, 7.60726153850555419922e-01) (16, -9.49783086776733398438e-01) (17, -9.49070572853088378906e-01) (18, -9.14497673511505126953e-01) (19, -9.56250250339508056641e-01) (20, 4.37186300754547119141e-01) (21, 1.12976394593715667725e-01) (22, 2.54037022590637207031e-01) (23, 3.07275444269180297852e-01) (24, 2.41581559181213378906e-01) (25, 1.01409345865249633789e-01) (26, 2.17932790517807006836e-01) (27, 2.48926147818565368652e-01) (28, 2.16453656554222106934e-01) (29, 2.97340929508209228516e-01) (30, 3.03221493959426879883e-01) (31, 1.63859829306602478027e-01) (32, 9.10642817616462707520e-02) (33, 2.04105496406555175781e-01) (34, 1.56570672988891601562e-01) (35, 1.30497321486473083496e-01) (36, 1.62864521145820617676e-01) (37, 1.35572761297225952148e-01) (38, 1.16416364908218383789e-01) (39, 1.17793351411819458008e-01) (40, 3.51347953081130981445e-01) (41, 9.77950319647789001465e-02) (42, 2.38705486059188842773e-01) (43, 2.86045938730239868164e-01) (44, 1.40128389000892639160e-01) (45, 1.28147937357425689697e-02) (46, 1.46392628550529479980e-01) (47, 2.54826426506042480469e-01) (48, 1.95983484387397766113e-01) (49, 3.67279320955276489258e-01) (50, 3.29822063446044921875e-01) (51, 1.70191451907157897949e-01) (52, 2.91539467871189117432e-02) (53, 2.75578200817108154297e-01) (54, 2.19772934913635253906e-01) (55, 2.08698630332946777344e-01) (56, 1.41549587249755859375e-01) (57, 5.78908994793891906738e-02) (58, 3.05280447006225585938e-01) (59, 1.03602424263954162598e-01) (60, 3.23428124189376831055e-01) (61, 2.11224379017949104309e-03) (62, 2.14563265442848205566e-01) (63, 2.82101124525070190430e-01) (64, 1.26996517181396484375e-01) (65, -1.88560366630554199219e-01) (66, 3.89571897685527801514e-02) (67, 1.03321738541126251221e-01) (68, 9.27401930093765258789e-02) (69, 2.54302173852920532227e-01) (70, 2.97389626502990722656e-01) (71, 7.53185898065567016602e-02) (72, -8.88067670166492462158e-03) (73, 1.96397542953491210938e-01) (74, 1.49870231747627258301e-01) (75, 1.68945699930191040039e-01) (76, 1.15759268403053283691e-01) (77, 4.23619151115417480469e-02) (78, 2.62782752513885498047e-01) (79, 1.17736645042896270752e-01) (80, 2.87562012672424316406e-01) (81, -3.30328166484832763672e-01) (82, 6.76007792353630065918e-02) (83, 2.02304288744926452637e-01) (84, -1.13132566213607788086e-01) (85, -5.56157886981964111328e-01) (86, -9.97759625315666198730e-02) (87, -1.60656869411468505859e-02) (88, -4.59914375096559524536e-03) (89, 1.36800125241279602051e-01) (90, 1.22058235108852386475e-01) (91, -1.06376908719539642334e-01) (92, -1.67413190007209777832e-01) (93, 8.20762515068054199219e-02) (94, 1.50613272562623023987e-02) (95, 1.83771196752786636353e-02) (96, -7.07299932837486267090e-02) (97, -1.67726501822471618652e-01) (98, -1.95748340338468551636e-02) (99, -9.64115038514137268066e-02) (100, 2.64228016138076782227e-01) (101, -4.85167890787124633789e-01) (102, 8.89892280101776123047e-02) (103, 7.43946358561515808105e-02) (104, -2.78401672840118408203e-01) (105, -5.95858395099639892578e-01) (106, -1.19943432509899139404e-01) (107, -2.43489906191825866699e-01) (108, -6.54124915599822998047e-02) (109, 2.96704918146133422852e-02) (110, -7.06580793485045433044e-03) (111, -1.22840285301208496094e-01) (112, -1.98141500353813171387e-01) (113, 5.16450554132461547852e-02) (114, -4.63868975639343261719e-02) (115, -2.88307871669530868530e-02) (116, -1.84484049677848815918e-01) (117, -4.17259156703948974609e-01) (118, -5.89871145784854888916e-02) (119, -2.59312897920608520508e-01) (120, 2.63446003198623657227e-01) (121, -4.97038841247558593750e-01) (122, -2.54872888326644897461e-01) (123, 1.33351366966962814331e-02) (124, -3.23474884033203125000e-01) (125, -7.57995903491973876953e-01) (126, -2.93149471282958984375e-01) (127, -3.00038635730743408203e-01) (128, -1.31548628211021423340e-01) (129, 3.69663424789905548096e-02) (130, 1.17692323401570320129e-02) (131, -3.83076846599578857422e-01) (132, -4.15964782238006591797e-01) (133, 2.82010855153203010559e-03) (134, -9.42959040403366088867e-02) (135, -3.89335155487060546875e-01) (136, -4.80155855417251586914e-01) (137, -4.58203941583633422852e-01) (138, -1.49181902408599853516e-01) (139, -2.33347937464714050293e-01) (140, 4.53059047460556030273e-01) (141, -3.13673943281173706055e-01) (142, -1.29708662629127502441e-01) (143, 2.47175887227058410645e-01) (144, -1.73707410693168640137e-01) (145, -4.62651222944259643555e-01) (146, -1.05189532041549682617e-02) (147, -1.98031455278396606445e-01) (148, 2.03294977545738220215e-01) (149, 7.09217190742492675781e-02) (150, 1.00532591342926025391e-01) (151, -1.73172384500503540039e-01) (152, -9.38604652881622314453e-01) (153, 2.62655138969421386719e-01) (154, 1.92939981818199157715e-01) (155, -1.01178258657455444336e-01) (156, -2.76826143264770507812e-01) (157, -3.31031769514083862305e-01) (158, -1.96989431977272033691e-01) (159, -1.61544173955917358398e-01) (160, 3.61683458089828491211e-01) (161, -2.31232851743698120117e-01) (162, -1.67359322309494018555e-01) (163, 1.60705715417861938477e-01) (164, -1.42847523093223571777e-01) (165, -2.53261566162109375000e-01) (166, 3.73593308031558990479e-02) (167, -1.45952537655830383301e-01) (168, 1.87118023633956909180e-01) (169, 1.58496662974357604980e-01) (170, 1.71906262636184692383e-01) (171, -6.93374797701835632324e-02) (172, -9.33572351932525634766e-01) (173, 3.22132468223571777344e-01) (174, 2.20895528793334960938e-01) (175, -2.52750068902969360352e-01) (176, -1.98635742068290710449e-01) (177, -2.77175068855285644531e-01) (178, -2.18111544847488403320e-01) (179, -1.22231766581535339355e-01) (180, 4.27293866872787475586e-01) (181, -1.37016167864203453064e-02) (182, -1.62217125296592712402e-01) (183, 2.66387462615966796875e-02) (184, 1.64950460195541381836e-01) (185, -1.79110795259475708008e-01) (186, 6.48284405469894409180e-02) (187, 1.38920053839683532715e-01) (188, 2.08063676953315734863e-01) (189, 4.05972778797149658203e-01) (190, 4.17485117912292480469e-01) (191, 1.93888042122125625610e-02) (192, -6.02208375930786132812e-01) (193, 2.18881115317344665527e-01) (194, 2.70871043205261230469e-01) (195, -1.04149967432022094727e-01) (196, -1.66859477758407592773e-01) (197, -5.36983534693717956543e-02) (198, 1.10536336898803710938e-01) (199, 1.41125589609146118164e-01) (200, 3.64272773265838623047e-01) (201, 1.12197622656822204590e-02) (202, -6.56842291355133056641e-02) (203, 1.35309487581253051758e-01) (204, 1.24469004571437835693e-01) (205, -5.80346100032329559326e-02) (206, 9.10225734114646911621e-02) (207, 1.00424587726593017578e-01) (208, 2.77786076068878173828e-01) (209, 3.39892089366912841797e-01) (210, 3.83721709251403808594e-01) (211, 1.10899686813354492188e-01) (212, -2.89957970380783081055e-01) (213, 2.16840982437133789062e-01) (214, 2.91731715202331542969e-01) (215, -2.03291829675436019897e-02) (216, -6.16854652762413024902e-02) (217, -7.69872441887855529785e-02) (218, 4.87670749425888061523e-02) (219, 1.20311498641967773438e-01) (220, 3.03674042224884033203e-01) (221, -1.85917764902114868164e-02) (222, -6.01013079285621643066e-02) (223, 1.34959205985069274902e-01) (224, 9.44256410002708435059e-02) (225, -6.03440701961517333984e-02) (226, 1.49969384074211120605e-01) (227, 9.35371518135070800781e-02) (228, 2.37904042005538940430e-01) (229, 2.28550180792808532715e-01) (230, 2.37902030348777770996e-01) (231, 7.37627670168876647949e-02) (232, -2.16888502240180969238e-01) (233, 2.12588787078857421875e-01) (234, 2.40501627326011657715e-01) (235, 1.26538053154945373535e-03) (236, -8.98373946547508239746e-02) (237, -3.65005433559417724609e-02) (238, 5.18428608775138854980e-02) (239, 8.10985341668128967285e-02) (240, 3.32377433776855468750e-01) (241, 9.61650758981704711914e-02) (242, 8.95246583968400955200e-03) (243, 1.69599056243896484375e-01) (244, 2.59393662214279174805e-01) (245, -8.66389367729425430298e-03) (246, 2.06975013017654418945e-01) (247, 2.64798671007156372070e-01) (248, 2.59850591421127319336e-01) (249, 3.75100106000900268555e-01) (250, 4.09409940242767333984e-01) (251, 1.82147279381752014160e-01) (252, -1.08924031257629394531e-01) (253, 1.88969165086746215820e-01) (254, 2.32021212577819824219e-01) (255, 1.95871628820896148682e-02) (256, 4.03812574222683906555e-03) (257, 1.30568012595176696777e-01) (258, 2.14997142553329467773e-01) (259, 2.06176206469535827637e-01) (260, -1.71781077980995178223e-01) (261, -4.58361655473709106445e-01) (262, -4.71466183662414550781e-01) (263, 2.03417226672172546387e-01) (264, -1.35775446891784667969e+00) (265, 1.02509126067161560059e-01) (0, -1.87791138887405395508e-01) (1, -2.92848497629165649414e-01) (2, -1.42724275588989257812e-01) (3, -1.66365563869476318359e-01) (4, -2.38626271486282348633e-01) (5, -4.22222688794136047363e-02) (6, -1.05813685804605484009e-02) (7, -2.56006151437759399414e-01) (8, -1.40562370419502258301e-01) (9, -2.08150476217269897461e-01) (10, -1.27267569303512573242e-01) (11, -1.70937269926071166992e-01) (12, -5.52108362317085266113e-02) (13, -1.87481179833412170410e-01) (14, -7.34962165355682373047e-01) (15, -9.13229346275329589844e-01) (16, -5.45661926269531250000e-01) (17, -5.71538329124450683594e-01) (18, -6.26225411891937255859e-01) (19, -5.42022049427032470703e-01) (20, -1.31122544407844543457e-01) (21, -1.67923167347908020020e-01) (22, -7.62559920549392700195e-02) (23, -7.92083144187927246094e-02) (24, -1.61009192466735839844e-01) (25, 3.37409526109695434570e-02) (26, 9.01385843753814697266e-02) (27, -1.91221594810485839844e-01) (28, -3.31806279718875885010e-02) (29, -1.76146656274795532227e-01) (30, -4.28418107330799102783e-02) (31, -7.08914250135421752930e-02) (32, 1.34614855051040649414e-02) (33, -3.88933941721916198730e-02) (34, -5.81681262701749801636e-03) (35, 4.86785173416137695312e-02) (36, -5.67372739315032958984e-02) (37, -1.68727710843086242676e-01) (38, -1.69769883155822753906e-01) (39, -1.19425408542156219482e-01) (40, -1.41832947731018066406e-01) (41, -1.77126199007034301758e-01) (42, -2.02094241976737976074e-02) (43, -6.56198710203170776367e-02) (44, -2.02860116958618164062e-01) (45, 6.22065998613834381104e-02) (46, 1.04572832584381103516e-01) (47, -2.16686502099037170410e-01) (48, -4.25310395658016204834e-02) (49, -2.22724854946136474609e-01) (50, -8.89485776424407958984e-02) (51, -6.86640441417694091797e-02) (52, 4.81950044631958007812e-02) (53, -6.75067231059074401855e-02) (54, -6.20239265263080596924e-02) (55, 6.92099183797836303711e-02) (56, -5.33089190721511840820e-02) (57, -2.04261764883995056152e-01) (58, -1.78968593478202819824e-01) (59, -1.59056290984153747559e-01) (60, -2.53213703632354736328e-01) (61, -3.30027669668197631836e-01) (62, -2.13750824332237243652e-01) (63, -2.24627554416656494141e-01) (64, -3.47099900245666503906e-01) (65, -3.86542342603206634521e-02) (66, -3.49649004638195037842e-02) (67, -4.10540759563446044922e-01) (68, -2.17597544193267822266e-01) (69, -3.45321685075759887695e-01) (70, -1.71100825071334838867e-01) (71, -1.79365128278732299805e-01) (72, -7.12229907512664794922e-02) (73, -2.23634377121925354004e-01) (74, -2.07550361752510070801e-01) (75, -9.58356782793998718262e-02) (76, -2.44970262050628662109e-01) (77, -3.56720834970474243164e-01) (78, -3.43638151884078979492e-01) (79, -2.90175408124923706055e-01) (80, -2.88672894239425659180e-01) (81, -4.14799779653549194336e-01) (82, -2.65997022390365600586e-01) (83, -3.45450341701507568359e-01) (84, -4.15139138698577880859e-01) (85, -1.50949895381927490234e-01) (86, -1.39532893896102905273e-01) (87, -4.43412750959396362305e-01) (88, -3.55047047138214111328e-01) (89, -3.91426205635070800781e-01) (90, -2.18840718269348144531e-01) (91, -2.63073474168777465820e-01) (92, -2.31978237628936767578e-01) (93, -3.44759553670883178711e-01) (94, -3.23729425668716430664e-01) (95, -2.17353641986846923828e-01) (96, -3.12820822000503540039e-01) (97, -4.22440141439437866211e-01) (98, -4.49396580457687377930e-01) (99, -4.21759992837905883789e-01) (100, -4.48806613683700561523e-01) (101, -6.66142046451568603516e-01) (102, -4.95814889669418334961e-01) (103, -4.63313817977905273438e-01) (104, -6.04387164115905761719e-01) (105, -3.70136201381683349609e-01) (106, -3.58913838863372802734e-01) (107, -5.93593180179595947266e-01) (108, -5.05276560783386230469e-01) (109, -5.41379213333129882812e-01) (110, -3.42970132827758789062e-01) (111, -4.96773809194564819336e-01) (112, -3.89793902635574340820e-01) (113, -4.92748379707336425781e-01) (114, -4.49103862047195434570e-01) (115, -3.87136518955230712891e-01) (116, -5.21117091178894042969e-01) (117, -5.42489647865295410156e-01) (118, -6.75888121128082275391e-01) (119, -5.50052881240844726562e-01) (120, 3.94485235214233398438e-01) (121, 2.26805254817008972168e-01) (122, 3.67767602205276489258e-01) (123, 3.98981779813766479492e-01) (124, 2.70701825618743896484e-01) (125, 4.30713862180709838867e-01) (126, 4.60852831602096557617e-01) (127, 1.47829651832580566406e-01) (128, 3.12619060277938842773e-01) (129, 2.44423985481262207031e-01) (130, 4.62048918008804321289e-01) (131, 3.85680526494979858398e-01) (132, 4.50671464204788208008e-01) (133, 3.43092024326324462891e-01) (134, 3.27759981155395507812e-01) (135, 4.53102380037307739258e-01) (136, 3.80501925945281982422e-01) (137, 2.23045170307159423828e-01) (138, 2.03389033675193786621e-01) (139, 1.94960981607437133789e-01) (140, -4.24215137958526611328e-01) (141, -6.78154468536376953125e-01) (142, -4.33136492967605590820e-01) (143, -3.80814373493194580078e-01) (144, -5.61700224876403808594e-01) (145, -3.65738779306411743164e-01) (146, -3.37130516767501831055e-01) (147, -6.26879334449768066406e-01) (148, -4.43085283041000366211e-01) (149, -5.38962662220001220703e-01) (150, -3.57289344072341918945e-01) (151, -4.36906844377517700195e-01) (152, -1.01145870983600616455e-01) (153, -4.39170956611633300781e-01) (154, -4.53170239925384521484e-01) (155, -4.07533913850784301758e-01) (156, -4.04301494359970092773e-01) (157, -5.49343168735504150391e-01) (158, -6.65917277336120605469e-01) (159, -6.02656602859497070312e-01) (160, -4.93028432130813598633e-01) (161, -6.05821847915649414062e-01) (162, -4.17806267738342285156e-01) (163, -4.24425214529037475586e-01) (164, -6.17634475231170654297e-01) (165, -3.36404561996459960938e-01) (166, -3.52265924215316772461e-01) (167, -6.47234618663787841797e-01) (168, -4.42960590124130249023e-01) (169, -6.10722184181213378906e-01) (170, -4.50490474700927734375e-01) (171, -4.31672811508178710938e-01) (172, -2.84977287054061889648e-01) (173, -5.10947227478027343750e-01) (174, -4.68599587678909301758e-01) (175, -4.01357054710388183594e-01) (176, -4.58052098751068115234e-01) (177, -6.39004766941070556641e-01) (178, -6.52739465236663818359e-01) (179, -6.30293667316436767578e-01) (180, -2.81561285257339477539e-01) (181, -3.29051673412322998047e-01) (182, -1.34415462613105773926e-01) (183, -1.57095968723297119141e-01) (184, -4.31780427694320678711e-01) (185, -1.57935902476310729980e-01) (186, -6.80081695318222045898e-02) (187, -4.68111246824264526367e-01) (188, -2.25100100040435791016e-01) (189, -4.24014657735824584961e-01) (190, -3.11601608991622924805e-01) (191, -1.83699682354927062988e-01) (192, -1.39573603868484497070e-01) (193, -1.74180701375007629395e-01) (194, -2.54895240068435668945e-01) (195, -1.39791712164878845215e-01) (196, -2.06714779138565063477e-01) (197, -3.97175043821334838867e-01) (198, -4.14363950490951538086e-01) (199, -3.76226544380187988281e-01) (200, -1.38387933373451232910e-01) (201, -1.98960259556770324707e-01) (202, -3.26849743723869323730e-02) (203, -4.15233075618743896484e-02) (204, -2.14971050620079040527e-01) (205, -1.02091804146766662598e-01) (206, 8.65773111581802368164e-02) (207, -2.31249228119850158691e-01) (208, -4.08514887094497680664e-02) (209, -2.45698466897010803223e-01) (210, -1.48473694920539855957e-01) (211, -6.20502270758152008057e-02) (212, -3.02338488399982452393e-02) (213, -3.59419807791709899902e-02) (214, -6.40202462673187255859e-02) (215, -2.57387524470686912537e-03) (216, -6.20089657604694366455e-02) (217, -1.88255652785301208496e-01) (218, -2.44829192757606506348e-01) (219, -1.86113208532333374023e-01) (220, -1.40275090932846069336e-01) (221, -1.26763805747032165527e-01) (222, -5.87073452770709991455e-02) (223, -4.58777509629726409912e-02) (224, -1.71105951070785522461e-01) (225, -9.10898596048355102539e-02) (226, 1.22326806187629699707e-01) (227, -1.57642334699630737305e-01) (228, -6.57763704657554626465e-02) (229, -1.52266904711723327637e-01) (230, -1.21854320168495178223e-01) (231, -7.71697610616683959961e-02) (232, 3.60930711030960083008e-02) (233, -1.73302218317985534668e-02) (234, -7.23899379372596740723e-02) (235, -5.16603887081146240234e-02) (236, -7.97881111502647399902e-02) (237, -1.50683864951133728027e-01) (238, -1.75138399004936218262e-01) (239, -1.18461348116397857666e-01) (240, -1.42003014683723449707e-01) (241, -1.29340544342994689941e-01) (242, -2.34735682606697082520e-02) (243, -6.41503706574440002441e-02) (244, -1.85217380523681640625e-01) (245, -9.11545455455780029297e-02) (246, 9.43795144557952880859e-02) (247, -1.97823911905288696289e-01) (248, -6.92883580923080444336e-02) (249, -1.88493430614471435547e-01) (250, -1.88971862196922302246e-01) (251, -9.45307016372680664062e-02) (252, -5.72368688881397247314e-03) (253, -5.76244555413722991943e-02) (254, -6.89394548535346984863e-02) (255, -4.52684573829174041748e-02) (256, -1.17008149623870849609e-01) (257, -1.71592190861701965332e-01) (258, -1.35096386075019836426e-01) (259, -1.31166443228721618652e-01) (260, 3.76772463321685791016e-01) (261, 4.26675006747245788574e-03) (262, 2.06798408180475234985e-02) (263, -1.75929088145494461060e-02) (264, 2.89107173681259155273e-01) (265, 5.85409700870513916016e-02) (266, 1.36625051498413085938e-01) (0, -9.03700590133666992188e-01) (1, -2.10942602157592773438e+00) (2, -1.28311741352081298828e+00) (3, -9.02288019657135009766e-01) (4, -1.15873563289642333984e+00) (5, -2.52597403526306152344e+00) (6, -1.05664145946502685547e+00) (7, -1.15868806838989257812e+00) (8, -1.19099736213684082031e+00) (9, -7.91305840015411376953e-01) (10, -9.73662674427032470703e-01) (11, -1.74256849288940429688e+00) (12, -1.74630773067474365234e+00) (13, -9.01389122009277343750e-01) (14, 8.15806388854980468750e-01) (15, 2.01188117265701293945e-01) (16, -8.86730289459228515625e+00) (17, -9.20417785644531250000e+00) (18, -9.16912841796875000000e+00) (19, -9.04925918579101562500e+00) (20, -7.83442497253417968750e-01) (21, -2.30717492103576660156e+00) (22, -1.68628454208374023438e-01) (23, 2.64513082802295684814e-02) (24, -1.47633779048919677734e+00) (25, -1.39691400527954101562e+00) (26, -8.22297513484954833984e-01) (27, -2.07319116592407226562e+00) (28, -4.68745827674865722656e-01) (29, -1.51205921173095703125e+00) (30, -1.46154832839965820312e+00) (31, -8.50083649158477783203e-01) (32, -6.79995596408843994141e-01) (33, -1.66790455579757690430e-01) (34, -9.16720032691955566406e-01) (35, -5.97459554672241210938e-01) (36, -1.08877050876617431641e+00) (37, -2.08707070350646972656e+00) (38, -2.05123686790466308594e+00) (39, -1.59371888637542724609e+00) (40, -5.30957818031311035156e-01) (41, -2.80024266242980957031e+00) (42, 9.62736979126930236816e-02) (43, 2.35036015510559082031e-01) (44, -2.23408150672912597656e+00) (45, 2.71696060895919799805e-01) (46, -7.90024459362030029297e-01) (47, -3.37812829017639160156e+00) (48, -6.64655044674873352051e-02) (49, -2.47946214675903320312e+00) (50, -1.34979081153869628906e+00) (51, -7.22812116146087646484e-02) (52, 2.10184436291456222534e-02) (53, 2.20027133822441101074e-01) (54, -7.11041092872619628906e-01) (55, -1.68092623353004455566e-01) (56, -1.49743807315826416016e+00) (57, -3.61920285224914550781e+00) (58, -2.39596462249755859375e+00) (59, -2.01567745208740234375e+00) (60, -8.68665456771850585938e-01) (61, -2.49800610542297363281e+00) (62, 1.14151942729949951172e+00) (63, 2.70195305347442626953e-01) (64, -3.65221524238586425781e+00) (65, 1.47068154811859130859e+00) (66, -3.90846252441406250000e-01) (67, -4.30730247497558593750e+00) (68, 4.62102651596069335938e-01) (69, -4.57635211944580078125e+00) (70, -1.53481078147888183594e+00) (71, 8.12906205654144287109e-01) (72, 6.26800835132598876953e-01) (73, 3.77394378185272216797e-01) (74, -2.42746457457542419434e-01) (75, 3.01584541797637939453e-01) (76, -1.35550558567047119141e+00) (77, -3.63816809654235839844e+00) (78, -5.21597194671630859375e+00) (79, -3.23976850509643554688e+00) (80, -1.95340499281883239746e-01) (81, -1.29750943183898925781e+00) (82, 7.59465157985687255859e-01) (83, -7.16877996921539306641e-01) (84, -1.68803775310516357422e+00) (85, 1.69696688652038574219e+00) (86, -2.11960524320602416992e-01) (87, -2.10318112373352050781e+00) (88, 2.92960822582244873047e-01) (89, -2.74866437911987304688e+00) (90, -9.06635999679565429688e-01) (91, 8.35900127887725830078e-01) (92, 5.56880794465541839600e-02) (93, 1.64922147989273071289e-01) (94, -7.86032080650329589844e-02) (95, -2.25244104862213134766e-01) (96, -5.06282567977905273438e-01) (97, -1.50596785545349121094e+00) (98, -2.41337537765502929688e+00) (99, -1.55399894714355468750e+00) (100, -8.09084653854370117188e-01) (101, -9.45141494274139404297e-01) (102, 4.35458391904830932617e-01) (103, -6.41380131244659423828e-01) (104, -1.33220350742340087891e+00) (105, -2.66582489013671875000e-01) (106, 5.13519763946533203125e-01) (107, -6.97952032089233398438e-01) (108, 9.05170917510986328125e-01) (109, -1.41746795177459716797e+00) (110, -5.31038343906402587891e-01) (111, 4.50954467058181762695e-01) (112, 3.26754868030548095703e-01) (113, 8.39773938059806823730e-02) (114, 5.52405834197998046875e-01) (115, -2.18714863061904907227e-01) (116, 4.96206551790237426758e-01) (117, -3.23000729084014892578e-01) (118, -8.97989749908447265625e-01) (119, -9.50027585029602050781e-01) (120, -1.45191162824630737305e-01) (121, 1.79321542382240295410e-02) (122, -4.21251153945922851562e+00) (123, -8.27567219734191894531e-01) (124, 5.34121870994567871094e-01) (125, -2.06488656997680664062e+00) (126, -5.08377924561500549316e-02) (127, 1.72498130798339843750e+00) (128, -9.55045446753501892090e-02) (129, 1.06963658332824707031e+00) (130, 4.46141511201858520508e-02) (131, -2.57752227783203125000e+00) (132, -4.01050853729248046875e+00) (133, -9.90398168563842773438e-01) (134, -3.59481662511825561523e-01) (135, -1.07579922676086425781e+00) (136, 4.18324232101440429688e-01) (137, 1.64456224441528320312e+00) (138, 3.23965013027191162109e-01) (139, 6.54903352260589599609e-01) (140, -7.91427075862884521484e-01) (141, -9.10163745284080505371e-02) (142, -4.22366619110107421875e+00) (143, -3.57900202274322509766e-01) (144, 5.32899141311645507812e-01) (145, -3.07719516754150390625e+00) (146, 3.83443385362625122070e-01) (147, 1.92519271373748779297e+00) (148, -4.45615470409393310547e-01) (149, 1.48255360126495361328e+00) (150, 8.28173518180847167969e-01) (151, -3.11251187324523925781e+00) (152, -1.34933361816406250000e+03) (153, -5.51659047603607177734e-01) (154, -1.18642784655094146729e-02) (155, -1.46775305271148681641e+00) (156, 3.71174275875091552734e-01) (157, 1.73558664321899414062e+00) (158, -4.15311694145202636719e-01) (159, 6.98841929435729980469e-01) (160, -1.31327211856842041016e+00) (161, 9.79640558362007141113e-02) (162, -4.90949153900146484375e+00) (163, -1.51133608818054199219e+00) (164, 6.10409438610076904297e-01) (165, -3.04254293441772460938e+00) (166, -5.94344615936279296875e-01) (167, 1.93165135383605957031e+00) (168, -1.22928130626678466797e+00) (169, 1.15628755092620849609e+00) (170, 8.19126665592193603516e-01) (171, -3.23171806335449218750e+00) (172, -4.18392133712768554688e+00) (173, -1.49693262577056884766e+00) (174, -7.46081650257110595703e-01) (175, -2.02459120750427246094e+00) (176, -3.15172433853149414062e-01) (177, 1.46932089328765869141e+00) (178, -2.39255517721176147461e-01) (179, 4.60978031158447265625e-01) (180, -9.08349096775054931641e-01) (181, 1.01659703254699707031e+00) (182, -2.65116238594055175781e+00) (183, -1.84188902378082275391e+00) (184, 8.03618907928466796875e-01) (185, -1.96054375171661376953e+00) (186, -3.36732625961303710938e-01) (187, 1.78748381137847900391e+00) (188, -1.08986639976501464844e+00) (189, 1.05548107624053955078e+00) (190, 6.52124881744384765625e-01) (191, -2.37407898902893066406e+00) (192, -2.20334219932556152344e+00) (193, -1.54434442520141601562e+00) (194, -1.17120897769927978516e+00) (195, -1.61514532566070556641e+00) (196, -2.92404949665069580078e-01) (197, 1.51543521881103515625e+00) (198, -1.53616711497306823730e-01) (199, 5.08198678493499755859e-01) (200, -1.03679561614990234375e+00) (201, 6.77709400653839111328e-01) (202, -2.15078070759773254395e-01) (203, -8.06821107864379882812e-01) (204, -1.21811376884579658508e-02) (205, -1.06499731540679931641e+00) (206, -1.02258868515491485596e-01) (207, 6.27185225486755371094e-01) (208, -7.19627499580383300781e-01) (209, -4.65934693813323974609e-01) (210, -4.92327272891998291016e-01) (211, -9.03868973255157470703e-01) (212, 6.60030245780944824219e-02) (213, -8.58034431934356689453e-01) (214, -5.69989442825317382812e-01) (215, -8.15203547477722167969e-01) (216, -4.68041121959686279297e-01) (217, 6.63396120071411132812e-01) (218, -5.71481168270111083984e-01) (219, 4.22959119081497192383e-01) (220, -8.80322158336639404297e-01) (221, -3.36074918508529663086e-01) (222, -2.77670882642269134521e-02) (223, -1.51658451557159423828e+00) (224, -1.47456169128417968750e-01) (225, -1.45700410008430480957e-01) (226, -4.26211267709732055664e-01) (227, -1.00923307240009307861e-01) (228, -1.25664424896240234375e+00) (229, -7.64309644699096679688e-01) (230, -7.41010844707489013672e-01) (231, -4.53539669513702392578e-01) (232, 1.89718768000602722168e-01) (233, -1.51882147789001464844e+00) (234, -9.47138428688049316406e-01) (235, -5.17404794692993164062e-01) (236, -6.76616609096527099609e-01) (237, -1.37060536071658134460e-02) (238, -8.83756160736083984375e-01) (239, -5.90730533003807067871e-02) (240, -8.05456817150115966797e-01) (241, -5.63116729259490966797e-01) (242, 3.01408439874649047852e-01) (243, -8.99199843406677246094e-01) (244, -1.11579298973083496094e+00) (245, 4.53446507453918457031e-01) (246, -3.42009752988815307617e-01) (247, -1.72712981700897216797e+00) (248, -4.61072385311126708984e-01) (249, -2.67244648933410644531e+00) (250, -1.85299646854400634766e+00) (251, 7.51452296972274780273e-02) (252, 8.23081970214843750000e-01) (253, -1.15431523323059082031e+00) (254, -2.12708577513694763184e-01) (255, 1.45846650004386901855e-01) (256, -4.24605727195739746094e-01) (257, -1.03035461902618408203e+00) (258, -1.17151904106140136719e+00) (259, -6.32614552974700927734e-01) (260, -4.65494185686111450195e-01) (261, 2.88267016410827636719e-01) (262, 5.17611145973205566406e-01) (263, 1.63093602657318115234e+00) (264, -6.04688072204589843750e+00) (265, 1.79488465189933776855e-01) (266, 3.05342406034469604492e-01) (267, -3.73848953247070312500e+01) (0, -4.25661772489547729492e-01) (1, -7.86773562431335449219e-01) (2, -1.50812551379203796387e-01) (3, -1.59074172377586364746e-01) (4, -6.16271376609802246094e-01) (5, 1.14925783127546310425e-02) (6, -1.37114271521568298340e-01) (7, -7.89789199829101562500e-01) (8, -6.92251473665237426758e-02) (9, -7.37622857093811035156e-01) (10, -3.88933897018432617188e-01) (11, -1.46386653184890747070e-01) (12, -1.43556058406829833984e-01) (13, -2.07204237580299377441e-01) (14, 6.15980267524719238281e-01) (15, 8.37948560714721679688e-01) (16, -1.30640375614166259766e+00) (17, -1.19635319709777832031e+00) (18, -1.11696481704711914062e+00) (19, -1.25193226337432861328e+00) (20, -3.52714389562606811523e-01) (21, -3.71650069952011108398e-01) (22, -1.90671652555465698242e-01) (23, -4.21021997928619384766e-01) (24, -3.99704694747924804688e-01) (25, 2.66629345715045928955e-02) (26, -2.41227909922599792480e-01) (27, -5.97046077251434326172e-01) (28, -1.70745894312858581543e-01) (29, -3.86521220207214355469e-01) (30, -9.58616286516189575195e-02) (31, 6.77799386903643608093e-03) (32, 4.32835258543491363525e-02) (33, -2.52705179154872894287e-02) (34, -5.42583614587783813477e-02) (35, 8.47836807370185852051e-02) (36, -1.35640323162078857422e-01) (37, -1.36878311634063720703e-01) (38, -9.71957296133041381836e-02) (39, -6.41690492630004882812e-02) (40, -3.80989760160446166992e-01) (41, -4.62136507034301757812e-01) (42, -4.42485027015209197998e-02) (43, -2.27114960551261901855e-01) (44, -3.90205889940261840820e-01) (45, 1.19180381298065185547e-02) (46, -4.17476259171962738037e-02) (47, -1.95500090718269348145e-01) (48, -1.90948415547609329224e-02) (49, -3.97165209054946899414e-01) (50, -3.13621968030929565430e-01) (51, -9.53978747129440307617e-02) (52, -1.12445294857025146484e-01) (53, -1.64300769567489624023e-01) (54, -7.01679438352584838867e-02) (55, -1.19134262204170227051e-01) (56, -2.94845420867204666138e-02) (57, -2.10733115673065185547e-01) (58, -3.18250328302383422852e-01) (59, -2.67910122871398925781e-01) (60, -2.51503974199295043945e-01) (61, -1.58360481262207031250e-01) (62, -5.04865169525146484375e-01) (63, -5.02829968929290771484e-01) (64, -3.82192544639110565186e-02) (65, -2.54255175590515136719e-01) (66, -1.28707408905029296875e-01) (67, 6.48046582937240600586e-02) (68, -2.94697463512420654297e-01) (69, -3.77515256404876708984e-02) (70, -1.19398705661296844482e-01) (71, -4.80250924825668334961e-01) (72, -3.81000041961669921875e-01) (73, -3.78876984119415283203e-01) (74, -2.92094081640243530273e-01) (75, -4.79550719261169433594e-01) (76, -2.76838123798370361328e-01) (77, 5.64823895692825317383e-02) (78, -8.00686106085777282715e-02) (79, -1.11412160098552703857e-01) (80, -2.67980962991714477539e-01) (81, -3.69990736246109008789e-01) (82, -5.12807488441467285156e-01) (83, -1.56006231904029846191e-01) (84, -1.73380091786384582520e-01) (85, -7.48928129673004150391e-01) (86, -1.28146290779113769531e-01) (87, 8.26341509819030761719e-02) (88, -7.78031647205352783203e-02) (89, -6.42069354653358459473e-02) (90, -1.43718928098678588867e-01) (91, -4.71935451030731201172e-01) (92, -5.34154951572418212891e-01) (93, -1.97692781686782836914e-01) (94, -7.69526362419128417969e-02) (95, -2.67424702644348144531e-01) (96, -8.26604738831520080566e-02) (97, 1.01673893630504608154e-01) (98, -1.12017020583152770996e-01) (99, -2.05435931682586669922e-01) (100, -1.33235126733779907227e-01) (101, -2.41314515471458435059e-01) (102, -9.54637825489044189453e-01) (103, -4.93352770805358886719e-01) (104, 2.85219512879848480225e-02) (105, -3.54596614837646484375e-01) (106, -4.86864358186721801758e-01) (107, 3.06394815444946289062e-01) (108, -4.73399162292480468750e-01) (109, 1.77056491374969482422e-01) (110, 1.56017869710922241211e-01) (111, -8.18200886249542236328e-01) (112, -9.99236166477203369141e-01) (113, -6.98626875877380371094e-01) (114, -4.23218250274658203125e-01) (115, -5.09323596954345703125e-01) (116, -4.34874147176742553711e-01) (117, 2.83866375684738159180e-01) (118, -8.87070894241333007812e-02) (119, -8.64648297429084777832e-02) (120, -2.75607705116271972656e-01) (121, -4.30832803249359130859e-01) (122, -1.05406165122985839844e-01) (123, -6.84851035475730895996e-02) (124, -6.19367025792598724365e-02) (125, -1.58346101641654968262e-01) (126, -3.09471398591995239258e-01) (127, 3.26042890548706054688e-01) (128, -1.51844188570976257324e-01) (129, -3.29824425280094146729e-02) (130, 1.43154114484786987305e-01) (131, -1.27478510141372680664e-01) (132, -3.42376261949539184570e-01) (133, -2.05656111240386962891e-01) (134, -2.75698632001876831055e-01) (135, -1.31587579846382141113e-01) (136, -1.47119134664535522461e-01) (137, 2.92341321706771850586e-01) (138, -1.21964238584041595459e-01) (139, -1.73353314399719238281e-01) (140, -1.49121746420860290527e-01) (141, -2.17787399888038635254e-01) (142, -2.58439481258392333984e-01) (143, -1.44686818122863769531e-01) (144, -9.25611928105354309082e-02) (145, -1.03547006845474243164e-01) (146, -3.36469560861587524414e-01) (147, 2.90913134813308715820e-02) (148, -2.60231971740722656250e-01) (149, -1.38052836060523986816e-01) (150, -1.05105929076671600342e-01) (151, -1.45834565162658691406e-01) (152, 1.24503076076507568359e-01) (153, -3.36189866065979003906e-01) (154, -2.67190724611282348633e-01) (155, -2.86023437976837158203e-01) (156, -1.91106528043746948242e-01) (157, 2.13813781738281250000e-03) (158, -3.29327702522277832031e-01) (159, -2.50979155302047729492e-01) (160, -1.42860680818557739258e-01) (161, -2.07280442118644714355e-01) (162, 3.19150052964687347412e-02) (163, -1.31358310580253601074e-01) (164, -3.80215495824813842773e-01) (165, -1.71664804220199584961e-01) (166, -1.22189685702323913574e-01) (167, -3.07714462280273437500e-01) (168, -1.24035008251667022705e-01) (169, -4.05283898115158081055e-01) (170, -4.70213621854782104492e-01) (171, -1.02662764489650726318e-01) (172, -5.41354604065418243408e-02) (173, -1.41536921262741088867e-01) (174, -9.24316868185997009277e-02) (175, -9.62420329451560974121e-02) (176, -1.65461063385009765625e-01) (177, -2.64278143644332885742e-01) (178, -3.73610675334930419922e-01) (179, -3.49241167306900024414e-01) (180, -1.46122679114341735840e-01) (181, -3.05178731679916381836e-01) (182, -1.22606074437499046326e-02) (183, -2.83302605152130126953e-01) (184, -4.11513775587081909180e-01) (185, -4.76228669285774230957e-02) (186, -1.89954549074172973633e-01) (187, -4.44249987602233886719e-01) (188, -2.78235048055648803711e-01) (189, -4.43604916334152221680e-01) (190, -2.61661797761917114258e-01) (191, -9.79086011648178100586e-02) (192, -6.71685263514518737793e-02) (193, -3.41523468494415283203e-01) (194, -3.05364906787872314453e-01) (195, -1.43905535340309143066e-01) (196, -2.31784090399742126465e-01) (197, -4.16912704706192016602e-01) (198, -1.67905360460281372070e-01) (199, -3.32390129566192626953e-01) (200, -1.62857532501220703125e-01) (201, -4.69847172498703002930e-01) (202, -4.24771346151828765869e-02) (203, -2.09215551614761352539e-01) (204, -4.86291795969009399414e-01) (205, 4.27775904536247253418e-02) (206, -1.51316985487937927246e-01) (207, -5.34878611564636230469e-01) (208, -1.49121582508087158203e-01) (209, -5.42686045169830322266e-01) (210, -3.83836925029754638672e-01) (211, -1.89276002347469329834e-02) (212, -1.37226745486259460449e-01) (213, -2.70518124103546142578e-01) (214, -2.16846913099288940430e-01) (215, -4.68694679439067840576e-02) (216, -2.13966831564903259277e-01) (217, -5.16669273376464843750e-01) (218, -3.60343694686889648438e-01) (219, -4.67362433671951293945e-01) (220, -2.71742343902587890625e-01) (221, -4.60609287023544311523e-01) (222, -1.34838640689849853516e-01) (223, -1.60229519009590148926e-01) (224, -4.38421189785003662109e-01) (225, 5.93242887407541275024e-03) (226, -1.36734962463378906250e-01) (227, -5.40668606758117675781e-01) (228, -1.85202494263648986816e-01) (229, -4.80964452028274536133e-01) (230, -3.18443030118942260742e-01) (231, -8.93966034054756164551e-02) (232, -1.14195086061954498291e-01) (233, -1.03930033743381500244e-01) (234, -1.99348971247673034668e-01) (235, -6.47102296352386474609e-02) (236, -1.24707616865634918213e-01) (237, -3.95860761404037475586e-01) (238, -4.81561511754989624023e-01) (239, -4.05432611703872680664e-01) (240, -1.44907638430595397949e-01) (241, -1.89389914274215698242e-01) (242, -5.48546575009822845459e-02) (243, -3.55968028306961059570e-02) (244, -2.43583872914314270020e-01) (245, 3.86281833052635192871e-02) (246, 4.42942930385470390320e-03) (247, -2.80705541372299194336e-01) (248, -5.24446107447147369385e-02) (249, -1.94516241550445556641e-01) (250, -1.33214652538299560547e-01) (251, -4.44732494652271270752e-02) (252, -1.32323041558265686035e-01) (253, 2.67269033938646316528e-02) (254, -1.14617817103862762451e-01) (255, 3.42152058146893978119e-03) (256, -6.43537640571594238281e-02) (257, -2.36338555812835693359e-01) (258, -3.47281634807586669922e-01) (259, -2.33023017644882202148e-01) (260, -1.06476351618766784668e-01) (261, 1.41180917620658874512e-01) (262, 7.13683366775512695312e-02) (263, -9.03624296188354492188e-03) (264, -4.63816833496093750000e+00) (265, 3.30255508422851562500e-01) (266, 1.14906072616577148438e-01) (267, -6.80374050140380859375e+00) (268, 6.50454819202423095703e-01) (0, 5.47326123341917991638e-03) (1, -2.92147725820541381836e-01) (2, 3.81266549229621887207e-02) (3, -1.22316420078277587891e-01) (4, -9.79876369237899780273e-02) (5, 2.98652887344360351562e-01) (6, 3.13919812440872192383e-01) (7, -1.67347013950347900391e-01) (8, 2.14501973241567611694e-02) (9, -5.00535294413566589355e-02) (10, 3.21369506418704986572e-02) (11, 6.82149082422256469727e-02) (12, 3.60900074243545532227e-01) (13, 1.15442514419555664062e-01) (14, 2.57063865661621093750e-01) (15, -4.18199598789215087891e-02) (16, -3.35702466964721679688e+00) (17, -3.15876626968383789062e+00) (18, -3.21820640563964843750e+00) (19, -3.19328570365905761719e+00) (20, -7.79688358306884765625e-01) (21, -3.08180810546875000000e+03) (22, -3.60383242368698120117e-01) (23, -1.96259200572967529297e-01) (24, -6.50362193584442138672e-01) (25, 1.82340011000633239746e-01) (26, -1.38185486197471618652e-01) (27, -7.54243314266204833984e-01) (28, -1.60851106047630310059e-01) (29, -1.25896894931793212891e+00) (30, -6.83040142059326171875e-01) (31, -1.36181339621543884277e-01) (32, -3.47329229116439819336e-01) (33, -5.00494122505187988281e-01) (34, -3.52253586053848266602e-01) (35, -1.37215659022331237793e-01) (36, -1.66518941521644592285e-01) (37, -9.16028618812561035156e-01) (38, -1.03346289062500000000e+03) (39, -6.13762259483337402344e-01) (40, -5.74398264288902282715e-02) (41, -1.22103914618492126465e-01) (42, -5.35468995571136474609e-01) (43, -9.24459218978881835938e-01) (44, 2.19986334443092346191e-01) (45, -7.86551553755998611450e-03) (46, -4.33668226003646850586e-01) (47, 9.97821986675262451172e-02) (48, -7.33098804950714111328e-01) (49, 2.13860467076301574707e-01) (50, -2.78974119573831558228e-02) (51, -6.71840071678161621094e-01) (52, -3.71609807014465332031e-01) (53, -4.07582402229309082031e-01) (54, -8.01964879035949707031e-01) (55, -4.27281767129898071289e-01) (56, -3.99975776672363281250e-01) (57, 1.27262726426124572754e-01) (58, -2.55613792687654495239e-02) (59, 5.66949881613254547119e-02) (60, -1.52959465980529785156e+00) (61, -1.46002447605133056641e+00) (62, 1.49783790111541748047e-01) (63, 3.95539045333862304688e-01) (64, -1.64776372909545898438e+00) (65, -9.93443503975868225098e-02) (66, 3.66885036230087280273e-01) (67, -1.09291124343872070312e+00) (68, 3.67255270481109619141e-01) (69, -1.36386823654174804688e+00) (70, -1.01452052593231201172e+00) (71, 4.75940927863121032715e-02) (72, -2.04854249954223632812e-01) (73, -4.15274836122989654541e-02) (74, 2.10816815495491027832e-01) (75, 3.38508605957031250000e-01) (76, 2.78157383203506469727e-01) (77, -1.03612136840820312500e+00) (78, -7.77292609214782714844e-01) (79, -6.17747008800506591797e-01) (80, 1.48960068821907043457e-01) (81, 6.34348034858703613281e-01) (82, -1.83088731765747070312e+00) (83, -1.03267187500000000000e+03) (84, 6.90213501453399658203e-01) (85, -7.12649151682853698730e-02) (86, -5.20902693271636962891e-01) (87, 5.53729534149169921875e-01) (88, -3.06195831298828125000e+00) (89, 6.52380943298339843750e-01) (90, 4.15833681821823120117e-01) (91, -1.56842589378356933594e+00) (92, -1.66772937774658203125e+00) (93, -1.45563614368438720703e+00) (94, -1.64255416870117187500e+02) (95, -1.30639827251434326172e+00) (96, -9.70683455467224121094e-01) (97, 5.51126837730407714844e-01) (98, 1.75150185823440551758e-01) (99, 2.65806049108505249023e-01) (100, -8.17491352558135986328e-01) (101, -1.27942752838134765625e+00) (102, -7.57195055484771728516e-02) (103, 9.46516990661621093750e-01) (104, -1.00892615318298339844e+00) (105, -4.18177343750000000000e+03) (106, 4.56202834844589233398e-01) (107, -4.14425373077392578125e-01) (108, 5.93898534774780273438e-01) (109, -1.23488044738769531250e+00) (110, -7.80277788639068603516e-01) (111, -5.13431280851364135742e-02) (112, -1.98212500000000000000e+03) (113, 5.24906814098358154297e-01) (114, 6.86280250549316406250e-01) (115, 4.59452688694000244141e-01) (116, 4.82313394546508789062e-01) (117, -8.18539559841156005859e-02) (118, -6.81365549564361572266e-01) (119, -2.61152356863021850586e-01) (120, 2.01311722397804260254e-01) (121, 3.89816939830780029297e-01) (122, -2.28216503906250000000e+03) (123, -1.83173974609375000000e+03) (124, 5.76628267765045166016e-01) (125, -4.18169921875000000000e+03) (126, -1.37780904769897460938e+00) (127, 4.79978412389755249023e-01) (128, -2.90506935119628906250e+00) (129, 6.56611680984497070312e-01) (130, 4.17259722948074340820e-01) (131, -4.18180468750000000000e+03) (132, -4.18173144531250000000e+03) (133, -1.33242114257812500000e+03) (134, -1.77302145957946777344e+00) (135, -4.18177148437500000000e+03) (136, -1.35692477226257324219e+00) (137, 4.01093214750289916992e-01) (138, 3.52373898029327392578e-01) (139, -1.39729231595993041992e-01) (140, -4.72427010536193847656e-01) (141, -7.64402329921722412109e-01) (142, 3.35390090942382812500e-01) (143, 5.91226220130920410156e-01) (144, -6.03654503822326660156e-01) (145, -4.18173681640625000000e+03) (146, 3.77939969301223754883e-01) (147, -2.95343399047851562500e-01) (148, 4.43245500326156616211e-01) (149, -7.07679688930511474609e-01) (150, -3.00624281167984008789e-01) (151, 2.72521913051605224609e-01) (152, -4.18178906250000000000e+03) (153, 4.68856751918792724609e-01) (154, 4.36313688755035400391e-01) (155, 2.61110901832580566406e-01) (156, 2.83199101686477661133e-01) (157, -8.48839152604341506958e-03) (158, -4.15341705083847045898e-01) (159, 7.33048543334007263184e-02) (160, 2.62090079486370086670e-02) (161, 1.61279216408729553223e-01) (162, -7.02935874462127685547e-01) (163, -7.83476948738098144531e-01) (164, 3.69400501251220703125e-01) (165, 2.83675909042358398438e-01) (166, -6.51565551757812500000e-01) (167, 1.98355898261070251465e-01) (168, -7.93867528438568115234e-01) (169, 1.27532273530960083008e-01) (170, 3.95396314561367034912e-02) (171, -4.54645305871963500977e-01) (172, -4.18180175781250000000e+03) (173, -7.50606536865234375000e-01) (174, -8.55687141418457031250e-01) (175, -6.17844521999359130859e-01) (176, -6.23724639415740966797e-01) (177, 1.23884804546833038330e-01) (178, -9.66557487845420837402e-02) (179, -3.59900385141372680664e-01) (180, -3.46425980329513549805e-01) (181, -9.13313150405883789062e-01) (182, 9.52005833387374877930e-02) (183, 9.95876342058181762695e-02) (184, -8.57974112033843994141e-01) (185, -2.02908247709274291992e-01) (186, -7.29037374258041381836e-02) (187, -8.66728365421295166016e-01) (188, 1.49921298027038574219e-01) (189, -8.68456542491912841797e-01) (190, -7.97438681125640869141e-01) 