FANN_FLO_2.0
num_layers=42
learning_rate=0.700000
connection_rate=1.000000
shortcut_connections=1
learning_momentum=0.000000
training_algorithm=2
train_error_function=1
train_stop_function=0
cascade_output_change_fraction=0.010000
quickprop_decay=-0.000100
quickprop_mu=1.750000
rprop_increase_factor=1.200000
rprop_decrease_factor=0.500000
rprop_delta_min=0.000000
rprop_delta_max=50.000000
rprop_delta_zero=0.500000
cascade_output_stagnation_epochs=12
cascade_candidate_change_fraction=0.010000
cascade_candidate_stagnation_epochs=12
cascade_max_out_epochs=150
cascade_max_cand_epochs=150
cascade_num_candidate_groups=2
bit_fail_limit=3.49999994039535522461e-01
cascade_candidate_limit=1.00000000000000000000e+03
cascade_weight_multiplier=4.00000005960464477539e-01
cascade_activation_functions_count=6
cascade_activation_functions=3 5 7 8 10 11 
cascade_activation_steepnesses_count=4
cascade_activation_steepnesses=2.50000000000000000000e-01 5.00000000000000000000e-01 7.50000000000000000000e-01 1.00000000000000000000e+00 
layer_sizes=261 1 1 1 1 1 1 1 1 1 1 1 1 1 1 1 1 1 1 1 1 1 1 1 1 1 1 1 1 1 1 1 1 1 1 1 1 1 1 1 1 3 
neurons (num_inputs, activation_function, activation_steepness)=(0, 0, 0.00000000000000000000e+00) (0, 0, 0.00000000000000000000e+00) (0, 0, 0.00000000000000000000e+00) (0, 0, 0.00000000000000000000e+00) (0, 0, 0.00000000000000000000e+00) (0, 0, 0.00000000000000000000e+00) (0, 0, 0.00000000000000000000e+00) (0, 0, 0.00000000000000000000e+00) (0, 0, 0.00000000000000000000e+00) (0, 0, 0.00000000000000000000e+00) (0, 0, 0.00000000000000000000e+00) (0, 0, 0.00000000000000000000e+00) (0, 0, 0.00000000000000000000e+00) (0, 0, 0.00000000000000000000e+00) (0, 0, 0.00000000000000000000e+00) (0, 0, 0.00000000000000000000e+00) (0, 0, 0.00000000000000000000e+00) (0, 0, 0.00000000000000000000e+00) (0, 0, 0.00000000000000000000e+00) (0, 0, 0.00000000000000000000e+00) (0, 0, 0.00000000000000000000e+00) (0, 0, 0.00000000000000000000e+00) (0, 0, 0.00000000000000000000e+00) (0, 0, 0.00000000000000000000e+00) (0, 0, 0.00000000000000000000e+00) (0, 0, 0.00000000000000000000e+00) (0, 0, 0.00000000000000000000e+00) (0, 0, 0.00000000000000000000e+00) (0, 0, 0.00000000000000000000e+00) (0, 0, 0.00000000000000000000e+00) (0, 0, 0.00000000000000000000e+00) (0, 0, 0.00000000000000000000e+00) (0, 0, 0.00000000000000000000e+00) (0, 0, 0.00000000000000000000e+00) (0, 0, 0.00000000000000000000e+00) (0, 0, 0.00000000000000000000e+00) (0, 0, 0.00000000000000000000e+00) (0, 0, 0.00000000000000000000e+00) (0, 0, 0.00000000000000000000e+00) (0, 0, 0.00000000000000000000e+00) (0, 0, 0.00000000000000000000e+00) (0, 0, 0.00000000000000000000e+00) (0, 0, 0.00000000000000000000e+00) (0, 0, 0.00000000000000000000e+00) (0, 0, 0.00000000000000000000e+00) (0, 0, 0.00000000000000000000e+00) (0, 0, 0.00000000000000000000e+00) (0, 0, 0.00000000000000000000e+00) (0, 0, 0.00000000000000000000e+00) (0, 0, 0.00000000000000000000e+00) (0, 0, 0.00000000000000000000e+00) (0, 0, 0.00000000000000000000e+00) (0, 0, 0.00000000000000000000e+00) (0, 0, 0.00000000000000000000e+00) (0, 0, 0.00000000000000000000e+00) (0, 0, 0.00000000000000000000e+00) (0, 0, 0.00000000000000000000e+00) (0, 0, 0.00000000000000000000e+00) (0, 0, 0.00000000000000000000e+00) (0, 0, 0.00000000000000000000e+00) (0, 0, 0.00000000000000000000e+00) (0, 0, 0.00000000000000000000e+00) (0, 0, 0.00000000000000000000e+00) (0, 0, 0.00000000000000000000e+00) (0, 0, 0.00000000000000000000e+00) (0, 0, 0.00000000000000000000e+00) (0, 0, 0.00000000000000000000e+00) (0, 0, 0.00000000000000000000e+00) (0, 0, 0.00000000000000000000e+00) (0, 0, 0.00000000000000000000e+00) (0, 0, 0.00000000000000000000e+00) (0, 0, 0.00000000000000000000e+00) (0, 0, 0.00000000000000000000e+00) (0, 0, 0.00000000000000000000e+00) (0, 0, 0.00000000000000000000e+00) (0, 0, 0.00000000000000000000e+00) (0, 0, 0.00000000000000000000e+00) (0, 0, 0.00000000000000000000e+00) (0, 0, 0.00000000000000000000e+00) (0, 0, 0.00000000000000000000e+00) (0, 0, 0.00000000000000000000e+00) (0, 0, 0.00000000000000000000e+00) (0, 0, 0.00000000000000000000e+00) (0, 0, 0.00000000000000000000e+00) (0, 0, 0.00000000000000000000e+00) (0, 0, 0.00000000000000000000e+00) (0, 0, 0.00000000000000000000e+00) (0, 0, 0.00000000000000000000e+00) (0, 0, 0.00000000000000000000e+00) (0, 0, 0.00000000000000000000e+00) (0, 0, 0.00000000000000000000e+00) (0, 0, 0.00000000000000000000e+00) (0, 0, 0.00000000000000000000e+00) (0, 0, 0.00000000000000000000e+00) (0, 0, 0.00000000000000000000e+00) (0, 0, 0.00000000000000000000e+00) (0, 0, 0.00000000000000000000e+00) (0, 0, 0.00000000000000000000e+00) (0, 0, 0.00000000000000000000e+00) (0, 0, 0.00000000000000000000e+00) (0, 0, 0.00000000000000000000e+00) (0, 0, 0.00000000000000000000e+00) (0, 0, 0.00000000000000000000e+00) (0, 0, 0.00000000000000000000e+00) (0, 0, 0.00000000000000000000e+00) (0, 0, 0.00000000000000000000e+00) (0, 0, 0.00000000000000000000e+00) (0, 0, 0.00000000000000000000e+00) (0, 0, 0.00000000000000000000e+00) (0, 0, 0.00000000000000000000e+00) (0, 0, 0.00000000000000000000e+00) (0, 0, 0.00000000000000000000e+00) (0, 0, 0.00000000000000000000e+00) (0, 0, 0.00000000000000000000e+00) (0, 0, 0.00000000000000000000e+00) (0, 0, 0.00000000000000000000e+00) (0, 0, 0.00000000000000000000e+00) (0, 0, 0.00000000000000000000e+00) (0, 0, 0.00000000000000000000e+00) (0, 0, 0.00000000000000000000e+00) (0, 0, 0.00000000000000000000e+00) (0, 0, 0.00000000000000000000e+00) (0, 0, 0.00000000000000000000e+00) (0, 0, 0.00000000000000000000e+00) (0, 0, 0.00000000000000000000e+00) (0, 0, 0.00000000000000000000e+00) (0, 0, 0.00000000000000000000e+00) (0, 0, 0.00000000000000000000e+00) (0, 0, 0.00000000000000000000e+00) (0, 0, 0.00000000000000000000e+00) (0, 0, 0.00000000000000000000e+00) (0, 0, 0.00000000000000000000e+00) (0, 0, 0.00000000000000000000e+00) (0, 0, 0.00000000000000000000e+00) (0, 0, 0.00000000000000000000e+00) (0, 0, 0.00000000000000000000e+00) (0, 0, 0.00000000000000000000e+00) (0, 0, 0.00000000000000000000e+00) (0, 0, 0.00000000000000000000e+00) (0, 0, 0.00000000000000000000e+00) (0, 0, 0.00000000000000000000e+00) (0, 0, 0.00000000000000000000e+00) (0, 0, 0.00000000000000000000e+00) (0, 0, 0.00000000000000000000e+00) (0, 0, 0.00000000000000000000e+00) (0, 0, 0.00000000000000000000e+00) (0, 0, 0.00000000000000000000e+00) (0, 0, 0.00000000000000000000e+00) (0, 0, 0.00000000000000000000e+00) (0, 0, 0.00000000000000000000e+00) (0, 0, 0.00000000000000000000e+00) (0, 0, 0.00000000000000000000e+00) (0, 0, 0.00000000000000000000e+00) (0, 0, 0.00000000000000000000e+00) (0, 0, 0.00000000000000000000e+00) (0, 0, 0.00000000000000000000e+00) (0, 0, 0.00000000000000000000e+00) (0, 0, 0.00000000000000000000e+00) (0, 0, 0.00000000000000000000e+00) (0, 0, 0.00000000000000000000e+00) (0, 0, 0.00000000000000000000e+00) (0, 0, 0.00000000000000000000e+00) (0, 0, 0.00000000000000000000e+00) (0, 0, 0.00000000000000000000e+00) (0, 0, 0.00000000000000000000e+00) (0, 0, 0.00000000000000000000e+00) (0, 0, 0.00000000000000000000e+00) (0, 0, 0.00000000000000000000e+00) (0, 0, 0.00000000000000000000e+00) (0, 0, 0.00000000000000000000e+00) (0, 0, 0.00000000000000000000e+00) (0, 0, 0.00000000000000000000e+00) (0, 0, 0.00000000000000000000e+00) (0, 0, 0.00000000000000000000e+00) (0, 0, 0.00000000000000000000e+00) (0, 0, 0.00000000000000000000e+00) (0, 0, 0.00000000000000000000e+00) (0, 0, 0.00000000000000000000e+00) (0, 0, 0.00000000000000000000e+00) (0, 0, 0.00000000000000000000e+00) (0, 0, 0.00000000000000000000e+00) (0, 0, 0.00000000000000000000e+00) (0, 0, 0.00000000000000000000e+00) (0, 0, 0.00000000000000000000e+00) (0, 0, 0.00000000000000000000e+00) (0, 0, 0.00000000000000000000e+00) (0, 0, 0.00000000000000000000e+00) (0, 0, 0.00000000000000000000e+00) (0, 0, 0.00000000000000000000e+00) (0, 0, 0.00000000000000000000e+00) (0, 0, 0.00000000000000000000e+00) (0, 0, 0.00000000000000000000e+00) (0, 0, 0.00000000000000000000e+00) (0, 0, 0.00000000000000000000e+00) (0, 0, 0.00000000000000000000e+00) (0, 0, 0.00000000000000000000e+00) (0, 0, 0.00000000000000000000e+00) (0, 0, 0.00000000000000000000e+00) (0, 0, 0.00000000000000000000e+00) (0, 0, 0.00000000000000000000e+00) (0, 0, 0.00000000000000000000e+00) (0, 0, 0.00000000000000000000e+00) (0, 0, 0.00000000000000000000e+00) (0, 0, 0.00000000000000000000e+00) (0, 0, 0.00000000000000000000e+00) (0, 0, 0.00000000000000000000e+00) (0, 0, 0.00000000000000000000e+00) (0, 0, 0.00000000000000000000e+00) (0, 0, 0.00000000000000000000e+00) (0, 0, 0.00000000000000000000e+00) (0, 0, 0.00000000000000000000e+00) (0, 0, 0.00000000000000000000e+00) (0, 0, 0.00000000000000000000e+00) (0, 0, 0.00000000000000000000e+00) (0, 0, 0.00000000000000000000e+00) (0, 0, 0.00000000000000000000e+00) (0, 0, 0.00000000000000000000e+00) (0, 0, 0.00000000000000000000e+00) (0, 0, 0.00000000000000000000e+00) (0, 0, 0.00000000000000000000e+00) (0, 0, 0.00000000000000000000e+00) (0, 0, 0.00000000000000000000e+00) (0, 0, 0.00000000000000000000e+00) (0, 0, 0.00000000000000000000e+00) (0, 0, 0.00000000000000000000e+00) (0, 0, 0.00000000000000000000e+00) (0, 0, 0.00000000000000000000e+00) (0, 0, 0.00000000000000000000e+00) (0, 0, 0.00000000000000000000e+00) (0, 0, 0.00000000000000000000e+00) (0, 0, 0.00000000000000000000e+00) (0, 0, 0.00000000000000000000e+00) (0, 0, 0.00000000000000000000e+00) (0, 0, 0.00000000000000000000e+00) (0, 0, 0.00000000000000000000e+00) (0, 0, 0.00000000000000000000e+00) (0, 0, 0.00000000000000000000e+00) (0, 0, 0.00000000000000000000e+00) (0, 0, 0.00000000000000000000e+00) (0, 0, 0.00000000000000000000e+00) (0, 0, 0.00000000000000000000e+00) (0, 0, 0.00000000000000000000e+00) (0, 0, 0.00000000000000000000e+00) (0, 0, 0.00000000000000000000e+00) (0, 0, 0.00000000000000000000e+00) (0, 0, 0.00000000000000000000e+00) (0, 0, 0.00000000000000000000e+00) (0, 0, 0.00000000000000000000e+00) (0, 0, 0.00000000000000000000e+00) (0, 0, 0.00000000000000000000e+00) (0, 0, 0.00000000000000000000e+00) (0, 0, 0.00000000000000000000e+00) (0, 0, 0.00000000000000000000e+00) (0, 0, 0.00000000000000000000e+00) (0, 0, 0.00000000000000000000e+00) (0, 0, 0.00000000000000000000e+00) (0, 0, 0.00000000000000000000e+00) (0, 0, 0.00000000000000000000e+00) (0, 0, 0.00000000000000000000e+00) (0, 0, 0.00000000000000000000e+00) (0, 0, 0.00000000000000000000e+00) (261, 8, 2.50000000000000000000e-01) (262, 8, 7.50000000000000000000e-01) (263, 8, 1.00000000000000000000e+00) (264, 3, 1.00000000000000000000e+00) (265, 8, 1.00000000000000000000e+00) (266, 3, 7.50000000000000000000e-01) (267, 8, 5.00000000000000000000e-01) (268, 8, 7.50000000000000000000e-01) (269, 8, 7.50000000000000000000e-01) (270, 8, 2.50000000000000000000e-01) (271, 8, 1.00000000000000000000e+00) (272, 3, 5.00000000000000000000e-01) (273, 8, 5.00000000000000000000e-01) (274, 8, 5.00000000000000000000e-01) (275, 8, 5.00000000000000000000e-01) (276, 3, 7.50000000000000000000e-01) (277, 8, 2.50000000000000000000e-01) (278, 8, 7.50000000000000000000e-01) (279, 8, 1.00000000000000000000e+00) (280, 3, 7.50000000000000000000e-01) (281, 8, 7.50000000000000000000e-01) (282, 3, 7.50000000000000000000e-01) (283, 8, 5.00000000000000000000e-01) (284, 8, 2.50000000000000000000e-01) (285, 8, 2.50000000000000000000e-01) (286, 8, 2.50000000000000000000e-01) (287, 8, 1.00000000000000000000e+00) (288, 7, 1.00000000000000000000e+00) (289, 8, 1.00000000000000000000e+00) (290, 8, 5.00000000000000000000e-01) (291, 8, 2.50000000000000000000e-01) (292, 8, 2.50000000000000000000e-01) (293, 8, 7.50000000000000000000e-01) (294, 8, 7.50000000000000000000e-01) (295, 8, 5.00000000000000000000e-01) (296, 8, 7.50000000000000000000e-01) (297, 8, 2.50000000000000000000e-01) (298, 8, 7.50000000000000000000e-01) (299, 5, 1.00000000000000000000e+00) (300, 5, 1.00000000000000000000e+00) (301, 5, 5.00000000000000000000e-01) (301, 5, 5.00000000000000000000e-01) (301, 5, 5.00000000000000000000e-01) 
connections (connected_to_neuron, weight)=(0, 4.33693438768386840820e-01) (1, 4.50259149074554443359e-01) (2, 4.37398254871368408203e-01) (3, 4.22385543584823608398e-01) (4, 4.09586995840072631836e-01) (5, 4.15184378623962402344e-01) (6, 4.05905514955520629883e-01) (7, 4.21998292207717895508e-01) (8, 4.18513804674148559570e-01) (9, 4.31052327156066894531e-01) (10, 4.20760631561279296875e-01) (11, 4.27627921104431152344e-01) (12, 4.40339773893356323242e-01) (13, 4.43031042814254760742e-01) (14, 4.33697015047073364258e-01) (15, 4.33116406202316284180e-01) (16, 4.34385091066360473633e-01) (17, 4.43044483661651611328e-01) (18, 4.25745040178298950195e-01) (19, 4.19809818267822265625e-01) (20, 2.80361741781234741211e-01) (21, 2.67998903989791870117e-01) (22, 2.72410601377487182617e-01) (23, 2.74092942476272583008e-01) (24, 2.73831814527511596680e-01) (25, 2.68811196088790893555e-01) (26, 2.57199048995971679688e-01) (27, 2.71581470966339111328e-01) (28, 2.72140622138977050781e-01) (29, 2.69208997488021850586e-01) (30, 2.99377024173736572266e-01) (31, 2.72846490144729614258e-01) (32, 2.65627413988113403320e-01) (33, 2.76107043027877807617e-01) (34, 2.66489923000335693359e-01) (35, 2.78119444847106933594e-01) (36, 2.76666760444641113281e-01) (37, 2.72062212228775024414e-01) (38, 2.80240774154663085938e-01) (39, 2.76848196983337402344e-01) (40, 2.71343857049942016602e-01) (41, 2.75839358568191528320e-01) (42, 2.73245960474014282227e-01) (43, 2.81551241874694824219e-01) (44, 2.75109946727752685547e-01) (45, 2.70883589982986450195e-01) (46, 2.59640574455261230469e-01) (47, 2.79149800539016723633e-01) (48, 2.78471112251281738281e-01) (49, 2.74176895618438720703e-01) (50, 3.37034553289413452148e-01) (51, 2.68511950969696044922e-01) (52, 2.60656118392944335938e-01) (53, 2.79748946428298950195e-01) (54, 2.70378232002258300781e-01) (55, 2.76274502277374267578e-01) (56, 2.77171164751052856445e-01) (57, 2.76083648204803466797e-01) (58, 2.77047425508499145508e-01) (59, 2.69753813743591308594e-01) (60, 2.34541222453117370605e-01) (61, 2.48945578932762145996e-01) (62, 2.39096269011497497559e-01) (63, 2.35048621892929077148e-01) (64, 2.44810670614242553711e-01) (65, 2.42223292589187622070e-01) (66, 2.34387353062629699707e-01) (67, 2.46881827712059020996e-01) (68, 2.52334535121917724609e-01) (69, 2.31975719332695007324e-01) (70, 3.40353310108184814453e-01) (71, 2.44074046611785888672e-01) (72, 2.27240785956382751465e-01) (73, 2.44352012872695922852e-01) (74, 2.35782727599143981934e-01) (75, 2.47114881873130798340e-01) (76, 2.44021773338317871094e-01) (77, 2.43730708956718444824e-01) (78, 2.51702070236206054688e-01) (79, 2.36313581466674804688e-01) (80, 2.28610366582870483398e-01) (81, 2.33248054981231689453e-01) (82, 2.11281090974807739258e-01) (83, 2.29863584041595458984e-01) (84, 2.30274051427841186523e-01) (85, 2.16337621212005615234e-01) (86, 2.20035791397094726562e-01) (87, 2.39239454269409179688e-01) (88, 2.35766619443893432617e-01) (89, 2.32916712760925292969e-01) (90, 3.43566715717315673828e-01) (91, 2.12421908974647521973e-01) (92, 2.09542483091354370117e-01) (93, 2.23087370395660400391e-01) (94, 2.23017066717147827148e-01) (95, 2.34192505478858947754e-01) (96, 2.21912175416946411133e-01) (97, 2.33406573534011840820e-01) (98, 2.31490731239318847656e-01) (99, 2.22504422068595886230e-01) (100, 2.17562809586524963379e-01) (101, 2.20417127013206481934e-01) (102, 1.80870667099952697754e-01) (103, 2.09832876920700073242e-01) (104, 2.15208753943443298340e-01) (105, 1.83843880891799926758e-01) (106, 2.10510492324829101562e-01) (107, 2.15322390198707580566e-01) (108, 2.11045563220977783203e-01) (109, 2.24141284823417663574e-01) (110, 3.30639481544494628906e-01) (111, 1.87781542539596557617e-01) (112, 1.80925086140632629395e-01) (113, 2.16274872422218322754e-01) (114, 2.04995408654212951660e-01) (115, 2.14846849441528320312e-01) (116, 2.07157224416732788086e-01) (117, 2.12494060397148132324e-01) (118, 2.12705269455909729004e-01) (119, 2.08337351679801940918e-01) (120, 1.68388992547988891602e-01) (121, 1.51950895786285400391e-01) (122, 8.44768211245536804199e-02) (123, 1.43211886286735534668e-01) (124, 1.35835856199264526367e-01) (125, 7.89733901619911193848e-02) (126, 1.33602946996688842773e-01) (127, 1.46462827920913696289e-01) (128, 1.36446431279182434082e-01) (129, 1.46196767687797546387e-01) (130, 2.73351579904556274414e-01) (131, 1.19630426168441772461e-01) (132, 8.61918330192565917969e-02) (133, 1.47037819027900695801e-01) (134, 1.41778081655502319336e-01) (135, 1.32630974054336547852e-01) (136, 1.23754136264324188232e-01) (137, 1.37381821870803833008e-01) (138, 1.41684770584106445312e-01) (139, 1.31284132599830627441e-01) (140, 2.36568287014961242676e-01) (141, 2.43489548563957214355e-01) (142, 1.85945555567741394043e-01) (143, 2.28858917951583862305e-01) (144, 2.25623935461044311523e-01) (145, 1.75738334655761718750e-01) (146, 2.32155457139015197754e-01) (147, 2.29228541254997253418e-01) (148, 2.29391410946846008301e-01) (149, 2.39937663078308105469e-01) (150, 2.53775388002395629883e-01) (151, 2.07482993602752685547e-01) (152, 1.63967102766036987305e-01) (153, 2.31414273381233215332e-01) (154, 2.32947632670402526855e-01) (155, 2.25577592849731445312e-01) (156, 2.16578334569931030273e-01) (157, 2.32134267687797546387e-01) (158, 2.20581471920013427734e-01) (159, 2.32571646571159362793e-01) (160, 2.71824538707733154297e-01) (161, 2.82693952322006225586e-01) (162, 2.44072049856185913086e-01) (163, 2.51895934343338012695e-01) (164, 2.71570891141891479492e-01) (165, 2.43470594286918640137e-01) (166, 2.70393997430801391602e-01) (167, 2.74223387241363525391e-01) (168, 2.72655606269836425781e-01) (169, 2.76580244302749633789e-01) (170, 2.77945876121520996094e-01) (171, 2.48626872897148132324e-01) (172, 2.25872963666915893555e-01) (173, 2.78520613908767700195e-01) (174, 2.67694294452667236328e-01) (175, 2.59691268205642700195e-01) (176, 2.50819712877273559570e-01) (177, 2.69119113683700561523e-01) (178, 2.64290481805801391602e-01) (179, 2.66121476888656616211e-01) (180, 2.71590143442153930664e-01) (181, 2.78598278760910034180e-01) (182, 2.48052433133125305176e-01) (183, 2.57427930831909179688e-01) (184, 2.76469618082046508789e-01) (185, 2.63292729854583740234e-01) (186, 2.65527784824371337891e-01) (187, 2.78236806392669677734e-01) (188, 2.85442501306533813477e-01) (189, 2.79977560043334960938e-01) (190, 2.84123718738555908203e-01) (191, 2.59971946477890014648e-01) (192, 2.45075047016143798828e-01) (193, 2.82738804817199707031e-01) (194, 2.78015404939651489258e-01) (195, 2.66172289848327636719e-01) (196, 2.64591604471206665039e-01) (197, 2.69223481416702270508e-01) (198, 2.65165388584136962891e-01) (199, 2.66661047935485839844e-01) (200, 2.32118740677833557129e-01) (201, 2.21768453717231750488e-01) (202, 2.14597731828689575195e-01) (203, 2.22440734505653381348e-01) (204, 2.23269805312156677246e-01) (205, 2.18402713537216186523e-01) (206, 2.15867534279823303223e-01) (207, 2.24949061870574951172e-01) (208, 2.41097047924995422363e-01) (209, 2.28946939110755920410e-01) (210, 2.29002043604850769043e-01) (211, 2.22147345542907714844e-01) (212, 2.16751053929328918457e-01) (213, 2.40324690937995910645e-01) (214, 2.24286347627639770508e-01) (215, 2.18654558062553405762e-01) (216, 2.20640599727630615234e-01) (217, 2.18078345060348510742e-01) (218, 2.19570726156234741211e-01) (219, 2.22246244549751281738e-01) (220, 2.67674893140792846680e-01) (221, 2.73388981819152832031e-01) (222, 2.61699020862579345703e-01) (223, 2.67089754343032836914e-01) (224, 2.56791830062866210938e-01) (225, 2.69686698913574218750e-01) (226, 2.63590514659881591797e-01) (227, 2.68748790025711059570e-01) (228, 2.86623865365982055664e-01) (229, 2.71336883306503295898e-01) (230, 2.69724190235137939453e-01) (231, 2.67284154891967773438e-01) (232, 2.66985058784484863281e-01) (233, 2.77126491069793701172e-01) (234, 2.78271079063415527344e-01) (235, 2.67780154943466186523e-01) (236, 2.71408379077911376953e-01) (237, 2.60206550359725952148e-01) (238, 2.66481846570968627930e-01) (239, 2.65267372131347656250e-01) (240, 2.55739599466323852539e-01) (241, 2.62537419795989990234e-01) (242, 2.43707135319709777832e-01) (243, 2.57313638925552368164e-01) (244, 2.60688543319702148438e-01) (245, 2.49861612915992736816e-01) (246, 2.43429198861122131348e-01) (247, 2.62180656194686889648e-01) (248, 2.66355931758880615234e-01) (249, 2.70507812500000000000e-01) (250, 2.59144484996795654297e-01) (251, 2.61563390493392944336e-01) (252, 2.44078814983367919922e-01) (253, 2.63739585876464843750e-01) (254, 2.52950876951217651367e-01) (255, 2.56253659725189208984e-01) (256, 2.60822266340255737305e-01) (257, 2.59811282157897949219e-01) (258, 2.59767621755599975586e-01) (259, 2.60778427124023437500e-01) (260, 7.80230388045310974121e-02) (0, 3.64495426416397094727e-01) (1, -2.84896548837423324585e-02) (2, 2.45830580592155456543e-01) (3, 3.82264226675033569336e-01) (4, 2.74806618690490722656e-01) (5, -1.67670398950576782227e-01) (6, 1.14592224359512329102e-01) (7, 2.55757570266723632812e-01) (8, 1.70708000659942626953e-01) (9, 3.52414667606353759766e-01) (10, 3.19335609674453735352e-01) (11, 1.64504036307334899902e-01) (12, 7.30443075299263000488e-02) (13, 2.79612630605697631836e-01) (14, 5.65814793109893798828e-01) (15, 2.07087218761444091797e-01) (16, -1.30384027957916259766e+00) (17, -1.34191644191741943359e+00) (18, -1.25640702247619628906e+00) (19, -1.29096221923828125000e+00) (20, 2.86772996187210083008e-01) (21, -1.32169768214225769043e-01) (22, 1.00976631045341491699e-01) (23, 2.62877345085144042969e-01) (24, 1.63459002971649169922e-01) (25, -4.91091728210449218750e-01) (26, -7.00775533914566040039e-02) (27, 1.93268150091171264648e-01) (28, 6.23704604804515838623e-02) (29, 2.77203977108001708984e-01) (30, 1.39963880181312561035e-01) (31, -1.04974515736103057861e-01) (32, -2.56497740745544433594e-01) (33, 1.04987822473049163818e-01) (34, 6.99236094951629638672e-02) (35, -2.02643219381570816040e-02) (36, 3.73736545443534851074e-02) (37, -8.14996752887964248657e-03) (38, 1.58006787300109863281e-01) (39, -6.54682815074920654297e-02) (40, 3.24420243501663208008e-01) (41, -1.54372885823249816895e-01) (42, 1.07009254395961761475e-01) (43, 2.87198066711425781250e-01) (44, 1.39201864600181579590e-01) (45, -6.81028246879577636719e-01) (46, -1.10282599925994873047e-01) (47, 2.36274152994155883789e-01) (48, 4.57883067429065704346e-02) (49, 3.44121903181076049805e-01) (50, 2.15780422091484069824e-01) (51, -1.18694208562374114990e-01) (52, -3.05651098489761352539e-01) (53, 2.22754493355751037598e-01) (54, 1.40008777379989624023e-01) (55, 8.02066642791032791138e-03) (56, 1.23873474076390266418e-02) (57, 5.86755238473415374756e-02) (58, 9.34454277157783508301e-02) (59, -3.03151421248912811279e-02) (60, 3.88563036918640136719e-01) (61, -2.53658294677734375000e-01) (62, 1.28234162926673889160e-01) (63, 3.26233118772506713867e-01) (64, 1.38064920902252197266e-01) (65, -8.71091127395629882812e-01) (66, -1.25396654009819030762e-01) (67, 2.33587294816970825195e-01) (68, 7.21027255058288574219e-02) (69, 4.06077951192855834961e-01) (70, 2.31756255030632019043e-01) (71, -1.12861625850200653076e-01) (72, -3.91830563545227050781e-01) (73, 2.54878818988800048828e-01) (74, 1.63266971707344055176e-01) (75, -1.01456223055720329285e-02) (76, 6.82035344652831554413e-04) (77, 3.50761264562606811523e-02) (78, 2.44892284274101257324e-01) (79, 3.74737419188022613525e-02) (80, 4.68891680240631103516e-01) (81, -3.16369682550430297852e-01) (82, 1.95232212543487548828e-01) (83, 4.06936466693878173828e-01) (84, 9.61223915219306945801e-02) (85, -9.74512219429016113281e-01) (86, -1.29950836300849914551e-01) (87, 1.52808621525764465332e-01) (88, 1.44593954086303710938e-01) (89, 3.93805593252182006836e-01) (90, 3.06288510560989379883e-01) (91, -1.00868292152881622314e-01) (92, -3.93778890371322631836e-01) (93, 3.36346030235290527344e-01) (94, 2.43507832288742065430e-01) (95, 9.37446765601634979248e-03) (96, -5.40330372750759124756e-02) (97, -8.76577571034431457520e-02) (98, 2.97554999589920043945e-01) (99, 2.32464689761400222778e-02) (100, 4.65302914381027221680e-01) (101, -3.54982674121856689453e-01) (102, 1.24064341187477111816e-01) (103, 4.52898055315017700195e-01) (104, 9.37226042151451110840e-02) (105, -1.09349977970123291016e+00) (106, -1.01535029709339141846e-01) (107, 1.36992856860160827637e-01) (108, 2.04408466815948486328e-01) (109, 3.55292588472366333008e-01) (110, 2.40686669945716857910e-01) (111, -1.94877892732620239258e-01) (112, -6.57741189002990722656e-01) (113, 3.64760994911193847656e-01) (114, 2.59575575590133666992e-01) (115, -5.40109090507030487061e-02) (116, -1.70325532555580139160e-01) (117, -1.30469456315040588379e-01) (118, 2.95055359601974487305e-01) (119, -1.41459684818983078003e-02) (120, 3.32428783178329467773e-01) (121, -4.68824535608291625977e-01) (122, -3.21218550205230712891e-01) (123, 3.41292321681976318359e-01) (124, 2.24189702421426773071e-02) (125, -1.31877636909484863281e+00) (126, -2.36071079969406127930e-01) (127, 8.58313869684934616089e-03) (128, 1.60278677940368652344e-01) (129, 2.82505989074707031250e-01) (130, 1.82087808847427368164e-01) (131, -4.39878970384597778320e-01) (132, -1.21984922885894775391e+00) (133, 2.80457049608230590820e-01) (134, 2.00468972325325012207e-01) (135, -4.24394339323043823242e-01) (136, -4.84014660120010375977e-01) (137, -2.19052031636238098145e-01) (138, 1.10921822488307952881e-01) (139, -1.13247007131576538086e-01) (140, 3.68983089923858642578e-01) (141, -2.65254765748977661133e-01) (142, -3.60643148422241210938e-01) (143, 2.49832987785339355469e-01) (144, 7.42808654904365539551e-02) (145, -9.34795379638671875000e-01) (146, -1.29396408796310424805e-01) (147, 1.22583787888288497925e-02) (148, 2.28509873151779174805e-01) (149, 3.21390807628631591797e-01) (150, 2.89072334766387939453e-01) (151, -2.60674029588699340820e-01) (152, -1.47973775863647460938e+00) (153, 3.20152252912521362305e-01) (154, 2.02477604150772094727e-01) (155, -3.28649580478668212891e-01) (156, -4.16199237108230590820e-01) (157, -2.44424641132354736328e-01) (158, 3.60088720917701721191e-02) (159, -5.89342527091503143311e-02) (160, 4.63085442781448364258e-01) (161, -1.23262554407119750977e-01) (162, -2.61672973632812500000e-01) (163, 2.59018868207931518555e-01) (164, 1.92699998617172241211e-01) (165, -3.07013511657714843750e-01) (166, 8.56400132179260253906e-02) (167, 1.78315117955207824707e-01) (168, 3.47013354301452636719e-01) (169, 5.02861499786376953125e-01) (170, 4.67363119125366210938e-01) (171, 2.58182939141988754272e-02) (172, -1.13395416736602783203e+00) (173, 4.44970399141311645508e-01) (174, 3.65028083324432373047e-01) (175, -1.32802009582519531250e-01) (176, -2.00567364692687988281e-01) (177, -1.54805287718772888184e-01) (178, 1.53717428445816040039e-01) (179, 1.16945654153823852539e-01) (180, 3.34898412227630615234e-01) (181, -1.02708958089351654053e-01) (182, -3.90382915735244750977e-01) (183, 1.19828306138515472412e-01) (184, 1.24701246619224548340e-01) (185, -2.80128598213195800781e-01) (186, 3.55004668235778808594e-02) (187, 1.35728284716606140137e-01) (188, 2.70832180976867675781e-01) (189, 4.37970578670501708984e-01) (190, 4.28740859031677246094e-01) (191, -4.19555716216564178467e-02) (192, -1.05280339717864990234e+00) (193, 2.67411321401596069336e-01) (194, 2.63285189867019653320e-01) (195, -1.75606086850166320801e-01) (196, -2.88086920976638793945e-01) (197, -1.69503718614578247070e-01) (198, 8.18940401077270507812e-02) (199, 1.37570008635520935059e-01) (200, 2.20108062028884887695e-01) (201, -1.06359034776687622070e-01) (202, -3.23176920413970947266e-01) (203, 8.15335437655448913574e-02) (204, 6.37879148125648498535e-02) (205, -2.72527486085891723633e-01) (206, -5.42103759944438934326e-02) (207, 1.25436961650848388672e-01) (208, 2.37018153071403503418e-01) (209, 3.62819850444793701172e-01) (210, 3.26896131038665771484e-01) (211, -1.04005925357341766357e-01) (212, -7.24208593368530273438e-01) (213, 1.68152302503585815430e-01) (214, 2.34783574938774108887e-01) (215, -1.93553015589714050293e-01) (216, -2.81138956546783447266e-01) (217, -1.72052770853042602539e-01) (218, 1.89999341964721679688e-02) (219, 8.39182361960411071777e-02) (220, 2.41026088595390319824e-01) (221, -5.92617094516754150391e-02) (222, -1.93733826279640197754e-01) (223, 1.06604553759098052979e-01) (224, 1.73205718398094177246e-01) (225, -1.77221566438674926758e-01) (226, -2.56707286462187767029e-03) (227, 1.49469301104545593262e-01) (228, 2.46551319956779479980e-01) (229, 3.48551392555236816406e-01) (230, 3.23214024305343627930e-01) (231, -1.96979306638240814209e-02) (232, -4.09039705991744995117e-01) (233, 1.69320881366729736328e-01) (234, 1.87974378466606140137e-01) (235, -9.78548824787139892578e-02) (236, -1.72388702630996704102e-01) (237, -5.40333278477191925049e-02) (238, -4.71046101301908493042e-03) (239, 1.35726094245910644531e-01) (240, 9.72648411989212036133e-02) (241, -1.56610891222953796387e-01) (242, -2.20991715788841247559e-01) (243, -1.24910306185483932495e-02) (244, 8.90804678201675415039e-02) (245, -2.04374670982360839844e-01) (246, -8.04549232125282287598e-02) (247, 5.35925514996051788330e-02) (248, 1.17868818342685699463e-01) (249, 2.04595685005187988281e-01) (250, 1.94478467106819152832e-01) (251, -8.36976021528244018555e-02) (252, -3.50207477807998657227e-01) (253, 3.20798233151435852051e-02) (254, 4.77074049413204193115e-02) (255, -1.70485183596611022949e-01) (256, -2.28095293045043945312e-01) (257, -7.97077491879463195801e-02) (258, -1.99504286050796508789e-01) (259, 3.35914641618728637695e-02) (260, 1.39524087309837341309e-01) (261, -2.27581691741943359375e+00) (0, -1.88309937715530395508e-01) (1, -3.49515140056610107422e-01) (2, 9.71687212586402893066e-02) (3, -3.14386151731014251709e-02) (4, -3.06350380182266235352e-01) (5, 1.04886054992675781250e-01) (6, -8.57171937823295593262e-02) (7, -3.46111625432968139648e-01) (8, 6.69841244816780090332e-02) (9, -3.04104477167129516602e-01) (10, -2.94785737991333007812e-01) (11, 3.62996943295001983643e-02) (12, 3.42798382043838500977e-02) (13, -3.81575189530849456787e-02) (14, 4.74108636379241943359e-01) (15, 6.78602993488311767578e-01) (16, -1.60474860668182373047e+00) (17, -1.52129256725311279297e+00) (18, -1.43588078022003173828e+00) (19, -1.52843964099884033203e+00) (20, -1.70529916882514953613e-01) (21, -2.02531665563583374023e-01) (22, 8.08275789022445678711e-02) (23, -7.46679082512855529785e-02) (24, -2.70286142826080322266e-01) (25, 2.98492938280105590820e-01) (26, -4.06401157379150390625e-02) (27, -3.14824014902114868164e-01) (28, 8.80527198314666748047e-02) (29, -2.56181806325912475586e-01) (30, -1.45645752549171447754e-01) (31, 2.60556608438491821289e-01) (32, 2.48578324913978576660e-01) (33, 8.35788846015930175781e-02) (34, 6.03386610746383666992e-02) (35, 1.40884146094322204590e-01) (36, 9.89873856306076049805e-02) (37, -1.19684822857379913330e-01) (38, -2.15954482555389404297e-01) (39, -2.40296665579080581665e-02) (40, -1.78522482514381408691e-01) (41, -1.92256256937980651855e-01) (42, 1.29813700914382934570e-01) (43, -4.42458093166351318359e-02) (44, -2.92817234992980957031e-01) (45, 3.84290665388107299805e-01) (46, 1.18975015357136726379e-02) (47, -3.26219022274017333984e-01) (48, 1.68701454997062683105e-01) (49, -4.11784082651138305664e-01) (50, -2.65785932540893554688e-01) (51, 1.72583580017089843750e-01) (52, 1.51465192437171936035e-01) (53, 4.49665784835815429688e-02) (54, 5.93870505690574645996e-02) (55, 4.00187224149703979492e-02) (56, 1.61475185304880142212e-02) (57, -1.36537596583366394043e-01) (58, -2.50033706426620483398e-01) (59, -1.08689993619918823242e-01) (60, -1.69891998171806335449e-01) (61, -2.02998742461204528809e-01) (62, 2.87481490522623062134e-02) (63, -1.07338339090347290039e-01) (64, -1.19747117161750793457e-01) (65, 3.85379761457443237305e-01) (66, -7.42121599614620208740e-03) (67, 2.32878737151622772217e-02) (68, 7.54622295498847961426e-02) (69, -2.11958378553390502930e-01) (70, -1.71856164932250976562e-01) (71, 1.03999488055706024170e-01) (72, 2.10808292031288146973e-02) (73, -5.71425668895244598389e-02) (74, 8.06424301117658615112e-03) (75, 2.06934008747339248657e-02) (76, 1.61878407001495361328e-01) (77, 1.93717762827873229980e-01) (78, -1.12229362130165100098e-01) (79, 3.24931852519512176514e-02) (80, -2.49549910426139831543e-01) (81, 2.91794072836637496948e-02) (82, -3.57147872447967529297e-01) (83, -3.72054666280746459961e-01) (84, 1.26898363232612609863e-01) (85, 1.23671926558017730713e-01) (86, -1.26120269298553466797e-01) (87, 3.46551686525344848633e-01) (88, -1.46245330572128295898e-01) (89, 6.09595179557800292969e-02) (90, -5.85230737924575805664e-02) (91, -2.43989154696464538574e-01) (92, -2.09338724613189697266e-01) (93, -2.43103548884391784668e-01) (94, -1.30584672093391418457e-01) (95, -2.59436041116714477539e-01) (96, 9.88085791468620300293e-02) (97, 4.33390140533447265625e-01) (98, 8.00045579671859741211e-02) (99, 1.90796405076980590820e-01) (100, -1.56245261430740356445e-01) (101, 2.76960194110870361328e-01) (102, -4.33259457349777221680e-01) (103, -1.60357370972633361816e-01) (104, 2.48115777969360351562e-01) (105, -2.13112547993659973145e-01) (106, 2.63667255640029907227e-02) (107, 5.75946867465972900391e-01) (108, -5.30640967190265655518e-02) (109, 2.43882954120635986328e-01) (110, 4.70264628529548645020e-02) (111, -3.02445232868194580078e-01) (112, -2.81698465347290039062e-01) (113, -1.80417329072952270508e-01) (114, 1.35039805900305509567e-03) (115, -1.98377594351768493652e-01) (116, 2.40202888846397399902e-01) (117, 6.18866026401519775391e-01) (118, 2.73273378610610961914e-01) (119, 3.51433604955673217773e-01) (120, -1.34040534496307373047e-01) (121, 5.43691098690032958984e-01) (122, -6.53023540973663330078e-01) (123, -3.41688811779022216797e-01) (124, 5.92206895351409912109e-01) (125, -3.15274924039840698242e-01) (126, -9.55550298094749450684e-02) (127, 7.74452269077301025391e-01) (128, -3.25173646211624145508e-01) (129, 4.85621571540832519531e-01) (130, 2.11471781134605407715e-01) (131, -5.44024288654327392578e-01) (132, -5.60420453548431396484e-01) (133, -3.74760687351226806641e-01) (134, -1.95205941796302795410e-01) (135, -3.32554578781127929688e-01) (136, 2.27583244442939758301e-01) (137, 7.81337738037109375000e-01) (138, 4.44498896598815917969e-01) (139, 5.61387181282043457031e-01) (140, -1.94924503564834594727e-01) (141, 2.97152012586593627930e-01) (142, -2.88410335779190063477e-01) (143, -2.53635913133621215820e-01) (144, 2.41749674081802368164e-01) (145, -2.91397362947463989258e-01) (146, -6.45505264401435852051e-02) (147, 4.89331871271133422852e-01) (148, -2.57767617702484130859e-01) (149, 1.41245350241661071777e-01) (150, -3.45312729477882385254e-02) (151, -3.07902246713638305664e-01) (152, -4.50616478919982910156e-01) (153, -2.64399349689483642578e-01) (154, -1.53511926531791687012e-01) (155, -2.11479783058166503906e-01) (156, 1.00163459777832031250e-01) (157, 5.39284944534301757812e-01) (158, 1.40653178095817565918e-01) (159, 2.71898627281188964844e-01) (160, -1.38676270842552185059e-01) (161, 1.69225975871086120605e-01) (162, -1.76682502031326293945e-01) (163, -3.16695779561996459961e-01) (164, 1.82434588670730590820e-01) (165, -6.05038926005363464355e-02) (166, -1.38307929039001464844e-01) (167, 3.17979425191879272461e-01) (168, -2.77923196554183959961e-01) (169, 4.04033698141574859619e-02) (170, -6.43234401941299438477e-02) (171, -2.09423720836639404297e-01) (172, 6.51780292391777038574e-02) (173, -2.50038117170333862305e-01) (174, -1.83818042278289794922e-01) (175, -1.29295304417610168457e-01) (176, 5.88991455733776092529e-02) (177, 4.17641341686248779297e-01) (178, 1.37966513633728027344e-01) (179, 1.22514583170413970947e-01) (180, -1.21368862688541412354e-01) (181, 2.75790020823478698730e-02) (182, 1.64746686816215515137e-01) (183, -1.40866130590438842773e-01) (184, -1.13140694797039031982e-01) (185, 1.59648180007934570312e-01) (186, -9.08259823918342590332e-02) (187, -6.63944706320762634277e-03) (188, -1.06253661215305328369e-01) (189, -2.64889538288116455078e-01) (190, -2.36163616180419921875e-01) (191, 6.23206570744514465332e-02) (192, 2.02668756246566772461e-01) (193, -1.62995353341102600098e-01) (194, -6.75689503550529479980e-02) (195, 9.42241102457046508789e-02) (196, 9.60344150662422180176e-02) (197, 1.56781300902366638184e-01) (198, -6.31236955523490905762e-02) (199, -1.67726669460535049438e-02) (200, -5.79087920486927032471e-02) (201, 3.72468009591102600098e-02) (202, 3.63671034574508666992e-01) (203, 7.49941766262054443359e-02) (204, -1.50460124015808105469e-01) (205, 3.65408539772033691406e-01) (206, 1.85028817504644393921e-02) (207, -2.31761127710342407227e-01) (208, -1.59198995679616928101e-02) (209, -3.41245383024215698242e-01) (210, -2.99267172813415527344e-01) (211, 1.89157143235206604004e-01) (212, 2.91429728269577026367e-01) (213, -3.89140695333480834961e-02) (214, -1.01347491145133972168e-02) (215, 2.12832957506179809570e-01) (216, 1.73527568578720092773e-01) (217, -5.89312724769115447998e-02) (218, -7.97523632645606994629e-02) (219, -4.48320284485816955566e-02) (220, -2.73499414324760437012e-02) (221, -1.27217285335063934326e-02) (222, 3.39810341596603393555e-01) (223, 9.26081389188766479492e-02) (224, -6.61918669939041137695e-02) (225, 4.16816949844360351562e-01) (226, 9.93088111281394958496e-02) (227, -1.73578381538391113281e-01) (228, 6.66205734014511108398e-02) (229, -2.27442800998687744141e-01) (230, -1.28267645835876464844e-01) (231, 2.76913791894912719727e-01) (232, 2.49654278159141540527e-01) (233, 6.97119086980819702148e-02) (234, 5.02884462475776672363e-02) (235, 2.62441098690032958984e-01) (236, 2.21356406807899475098e-01) (237, -2.92036440223455429077e-02) (238, -7.96621590852737426758e-02) (239, 1.08463899232447147369e-03) (240, -4.89967390894889831543e-02) (241, -9.83102992177009582520e-02) (242, 1.81279018521308898926e-01) (243, 7.31198936700820922852e-02) (244, -1.12883962690830230713e-01) (245, 2.95990616083145141602e-01) (246, 2.82501596957445144653e-02) (247, -2.16915801167488098145e-01) (248, 3.83655801415443420410e-02) (249, -2.63127863407135009766e-01) (250, -1.76991745829582214355e-01) (251, 1.67038694024085998535e-01) (252, 1.99762642383575439453e-01) (253, 2.19885967671871185303e-02) (254, -1.46825471892952919006e-02) (255, 1.98505267500877380371e-01) (256, 1.72284230589866638184e-01) (257, -7.30565860867500305176e-02) (258, -1.19693323969841003418e-01) (259, -3.11263781040906906128e-02) (260, 4.14733700454235076904e-02) (261, -4.70706284046173095703e-01) (262, 1.68999090790748596191e-01) (0, -3.75066697597503662109e-02) (1, -6.61069378256797790527e-02) (2, -2.26020514965057373047e-01) (3, -3.34181964397430419922e-01) (4, 1.92043483257293701172e-01) (5, -6.59453421831130981445e-02) (6, -1.19772978127002716064e-01) (7, 1.25080212950706481934e-01) (8, -2.38288849592208862305e-01) (9, 1.70886456966400146484e-01) (10, 7.14331641793251037598e-02) (11, -1.75105482339859008789e-01) (12, -9.47482362389564514160e-02) (13, -2.33624055981636047363e-01) (14, 3.88353466987609863281e-02) (15, 1.99072703719139099121e-01) (16, -2.25584053993225097656e+00) (17, -2.11025261878967285156e+00) (18, -2.24759316444396972656e+00) (19, -1.99844813346862792969e+00) (20, -1.18182227015495300293e-01) (21, -2.43850842118263244629e-01) (22, 3.51991578936576843262e-02) (23, 1.24732896685600280762e-01) (24, -3.96992444992065429688e-01) (25, -5.74922151863574981689e-02) (26, -1.23494200408458709717e-01) (27, -4.61025953292846679688e-01) (28, 1.24656185507774353027e-01) (29, -5.02658903598785400391e-01) (30, -3.93350750207901000977e-01) (31, -6.36825412511825561523e-02) (32, -2.63734459877014160156e-02) (33, 5.03735542297363281250e-02) (34, 1.25430580228567123413e-02) (35, -1.27884775400161743164e-01) (36, -1.82853952050209045410e-01) (37, -5.05329251289367675781e-01) (38, -3.71495544910430908203e-01) (39, -3.79840433597564697266e-01) (40, -1.52915427461266517639e-02) (41, -6.78411066532135009766e-01) (42, 1.52714610099792480469e-01) (43, 1.40768200159072875977e-01) (44, -4.29585576057434082031e-01) (45, -1.63445055484771728516e-01) (46, -4.79957200586795806885e-02) (47, -4.82914537191390991211e-01) (48, 4.15485315024852752686e-02) (49, -3.79827827215194702148e-01) (50, -2.76486963033676147461e-01) (51, 3.23597854003310203552e-03) (52, -1.85648918151855468750e-01) (53, 2.80529260635375976562e-02) (54, -5.96853904426097869873e-02) (55, 3.40532371774315834045e-03) (56, -3.94812226295471191406e-02) (57, -4.54704880714416503906e-01) (58, -1.99693009257316589355e-01) (59, -4.13238823413848876953e-01) (60, -1.93352103233337402344e-02) (61, -9.05121862888336181641e-02) (62, -3.85396450757980346680e-01) (63, -8.17633569240570068359e-01) (64, 2.81677514314651489258e-01) (65, -5.60213804244995117188e-01) (66, -3.44843953847885131836e-01) (67, 3.89760255813598632812e-01) (68, -8.85065972805023193359e-01) (69, 3.94110918045043945312e-01) (70, 1.77791118621826171875e-02) (71, -4.71148908138275146484e-01) (72, -4.61924761533737182617e-01) (73, -6.89006924629211425781e-01) (74, -6.79190754890441894531e-01) (75, -3.55279743671417236328e-01) (76, -9.15812402963638305664e-02) (77, 2.88616657257080078125e-01) (78, 1.49267822504043579102e-01) (79, 3.23762819170951843262e-02) (80, -1.39450863003730773926e-01) (81, -1.01991362869739532471e-01) (82, -5.84683239459991455078e-01) (83, -3.06392490863800048828e-01) (84, -7.21903592348098754883e-02) (85, -6.94797873497009277344e-01) (86, -2.63425290584564208984e-01) (87, 1.42901971936225891113e-01) (88, -2.13094711303710937500e-01) (89, 1.82937785983085632324e-01) (90, -1.20185822248458862305e-01) (91, -4.86129671335220336914e-01) (92, -2.10656911134719848633e-01) (93, -1.61155283451080322266e-01) (94, -1.37377470731735229492e-01) (95, -3.80356252193450927734e-01) (96, -3.78932356834411621094e-01) (97, 5.96157722175121307373e-02) (98, 1.33314728736877441406e-01) (99, 1.11542120575904846191e-02) (100, -2.29300335049629211426e-01) (101, -1.31865382194519042969e+00) (102, 3.26881766319274902344e-01) (103, 4.46286946535110473633e-01) (104, -1.88591361045837402344e+00) (105, -1.77010059356689453125e-01) (106, -6.27690553665161132812e-02) (107, -1.88205516338348388672e+00) (108, 4.07588899135589599609e-01) (109, -1.49891769886016845703e+00) (110, -1.41816711425781250000e+00) (111, 2.60049939155578613281e-01) (112, -1.22959263622760772705e-01) (113, 3.73120605945587158203e-01) (114, 3.01278293132781982422e-01) (115, 8.23963657021522521973e-02) (116, -1.36124849319458007812e-01) (117, -1.83332920074462890625e+00) (118, -7.94005513191223144531e-01) (119, -9.55859422683715820312e-01) (120, -7.59758129715919494629e-02) (121, -4.31755959987640380859e-01) (122, -3.64259257912635803223e-03) (123, -5.64837530255317687988e-02) (124, -6.50237724184989929199e-02) (125, -5.50764918327331542969e-01) (126, -4.76388260722160339355e-02) (127, -2.27497175335884094238e-01) (128, -2.11591482162475585938e-01) (129, -2.17856749892234802246e-01) (130, -2.65827029943466186523e-01) (131, -3.83885115385055541992e-01) (132, -9.78897571563720703125e-01) (133, -9.77285504341125488281e-02) (134, -2.91627883911132812500e-01) (135, -3.41857224702835083008e-01) (136, -1.56508892774581909180e-01) (137, -3.43147426843643188477e-01) (138, -1.02702952921390533447e-01) (139, -3.21680819615721702576e-03) (140, 2.69589144736528396606e-02) (141, 4.50091361999511718750e-01) (142, -1.98327136039733886719e+00) (143, -1.44285368919372558594e+00) (144, 6.26242756843566894531e-01) (145, -9.45373117923736572266e-01) (146, -7.18182623386383056641e-01) (147, 7.60008931159973144531e-01) (148, -1.48990452289581298828e+00) (149, 7.47237801551818847656e-01) (150, 4.78635340929031372070e-01) (151, -1.72024226188659667969e+00) (152, -2.53121781349182128906e+00) (153, -1.03269910812377929688e+00) (154, -1.29646027088165283203e+00) (155, -1.54249882698059082031e+00) (156, -7.08998382091522216797e-01) (157, 6.26947581768035888672e-01) (158, 2.24327862262725830078e-01) (159, 2.32583567500114440918e-01) (160, -9.34149622917175292969e-02) (161, -2.19241499900817871094e-01) (162, -3.60549867153167724609e-01) (163, -7.15141817927360534668e-02) (164, -3.00918042659759521484e-01) (165, -3.60058188438415527344e-01) (166, -3.42201948165893554688e-01) (167, -2.61766016483306884766e-01) (168, 8.89879912137985229492e-02) (169, -1.02959387004375457764e-01) (170, -1.59389317035675048828e-01) (171, -5.77221140265464782715e-02) (172, -4.93591070175170898438e-01) (173, -8.34110826253890991211e-02) (174, 1.48412153124809265137e-01) (175, -2.43694156408309936523e-01) (176, -2.02176168560981750488e-01) (177, -1.90735757350921630859e-01) (178, -1.21861234307289123535e-01) (179, -3.76610010862350463867e-01) (180, -8.83039236068725585938e-02) (181, -1.35786342620849609375e+00) (182, 3.62485170364379882812e-01) (183, 4.05976682901382446289e-01) (184, -1.46059072017669677734e+00) (185, -2.00324818491935729980e-01) (186, -7.92908295989036560059e-02) (187, -1.73165524005889892578e+00) (188, 2.64136463403701782227e-01) (189, -1.49751210212707519531e+00) (190, -9.82385575771331787109e-01) (191, 2.88437783718109130859e-01) (192, -4.19684737920761108398e-01) (193, 2.02537029981613159180e-01) (194, 2.00468599796295166016e-01) (195, 1.87068447470664978027e-01) (196, -6.99855983257293701172e-02) (197, -1.77886939048767089844e+00) (198, -7.23124325275421142578e-01) (199, -7.56739437580108642578e-01) (200, 6.41225948929786682129e-02) (201, 5.53567633032798767090e-02) (202, -3.42381268739700317383e-01) (203, -2.14019566774368286133e-01) (204, 1.19499795138835906982e-01) (205, -2.36384332180023193359e-01) (206, 2.99211256206035614014e-02) (207, 7.12045356631278991699e-02) (208, -2.03924298286437988281e-01) (209, 1.75943642854690551758e-01) (210, 1.34941756725311279297e-01) (211, -1.32950186729431152344e-01) (212, -7.05003499984741210938e-01) (213, -6.76705315709114074707e-02) (214, -1.98364719748497009277e-01) (215, -1.29428938031196594238e-01) (216, -6.84084296226501464844e-02) (217, -4.83468510210514068604e-02) (218, 1.28083661198616027832e-01) (219, 1.99130222201347351074e-01) (220, -1.51124373078346252441e-01) (221, 1.74370735883712768555e-01) (222, -6.48948371410369873047e-01) (223, -7.76289224624633789062e-01) (224, 2.14056804776191711426e-01) (225, -7.69887119531631469727e-02) (226, -2.91768640279769897461e-01) (227, 2.84285247325897216797e-01) (228, -5.07036507129669189453e-01) (229, 3.66931319236755371094e-01) (230, 1.83241829276084899902e-01) (231, -4.30573821067810058594e-01) (232, -4.61722016334533691406e-01) (233, -4.72686350345611572266e-01) (234, -3.63828778266906738281e-01) (235, -3.93710494041442871094e-01) (236, -3.29995870590209960938e-01) (237, 1.55886664986610412598e-01) (238, -1.21288955211639404297e-01) (239, 8.51020310074090957642e-03) (240, -1.39543309807777404785e-01) (241, -3.40839564800262451172e-01) (242, 2.67733372747898101807e-02) (243, 3.74832302331924438477e-02) (244, -3.67039263248443603516e-01) (245, -5.11161051690578460693e-02) (246, -1.96079224348068237305e-01) (247, -3.37143093347549438477e-01) (248, 9.36178416013717651367e-02) (249, -3.92566621303558349609e-01) (250, -3.13552707433700561523e-01) (251, 8.26097186654806137085e-03) (252, -1.68042734265327453613e-01) (253, 2.66545601189136505127e-02) (254, 7.01278746128082275391e-02) (255, -1.27581715583801269531e-01) (256, -1.52752190828323364258e-01) (257, -3.02602022886276245117e-01) (258, -1.74804374575614929199e-01) (259, -4.99548077583312988281e-01) (260, -3.28341782093048095703e-01) (261, -2.53674721717834472656e+00) (262, 2.16717615723609924316e-01) (263, 1.74376830458641052246e-01) (0, -3.89110147953033447266e-02) (1, 1.77830886095762252808e-02) (2, 6.98917452245950698853e-03) (3, -5.37720248103141784668e-02) (4, 2.11878865957260131836e-02) (5, 2.25526150315999984741e-02) (6, -1.60603765398263931274e-02) (7, 1.35460393503308296204e-02) (8, -5.66118173301219940186e-02) (9, -6.86465576291084289551e-03) (10, -2.08222004584968090057e-03) (11, -8.73108487576246261597e-03) (12, -3.26427668333053588867e-02) (13, -5.04720062017440795898e-02) (14, -5.95361292362213134766e-02) (15, -4.95110265910625457764e-03) (16, -2.15528905391693115234e-01) (17, -2.10451707243919372559e-01) (18, -1.94854781031608581543e-01) (19, -2.22977012395858764648e-01) (20, 7.26110711693763732910e-02) (21, 1.83755517005920410156e-01) (22, 2.39397846162319183350e-02) (23, -2.95623913407325744629e-02) (24, 1.75869137048721313477e-01) (25, 1.34322151541709899902e-01) (26, 8.27319025993347167969e-02) (27, 1.77958294749259948730e-01) (28, -2.20852019265294075012e-03) (29, 1.71665474772453308105e-01) (30, 1.04660592973232269287e-01) (31, 4.72244769334793090820e-02) (32, 6.71244114637374877930e-02) (33, 6.42953673377633094788e-05) (34, 2.79028825461864471436e-02) (35, 9.27385017275810241699e-02) (36, 1.13715372979640960693e-01) (37, 1.64063826203346252441e-01) (38, 2.08145380020141601562e-01) (39, 1.65016323328018188477e-01) (40, 3.30879949033260345459e-02) (41, 7.53110870718955993652e-02) (42, 1.73109918832778930664e-02) (43, 6.98118507862091064453e-02) (44, 4.48423475027084350586e-02) (45, 8.72660875320434570312e-02) (46, 4.27460707724094390869e-02) (47, 4.98802028596401214600e-02) (48, 8.03903564810752868652e-02) (49, 1.11189940944314002991e-02) (50, 2.14290320873260498047e-02) (51, 3.81054580211639404297e-02) (52, 7.39632621407508850098e-02) (53, 6.19992204010486602783e-02) (54, 6.24748133122920989990e-02) (55, 3.68393920361995697021e-02) (56, 5.36210685968399047852e-02) (57, 5.85970617830753326416e-02) (58, 6.46396279335021972656e-02) (59, 6.09941221773624420166e-02) (60, 1.71611368656158447266e-01) (61, 1.28431528806686401367e-01) (62, 1.79506972432136535645e-01) (63, 2.45585948228836059570e-01) (64, 1.28639265894889831543e-01) (65, 1.24482281506061553955e-01) (66, 1.76017135381698608398e-01) (67, 1.11953645944595336914e-01) (68, 1.78797125816345214844e-01) (69, 1.03243954479694366455e-01) (70, 1.45660206675529479980e-01) (71, 1.71216413378715515137e-01) (72, 1.13655440509319305420e-01) (73, 1.83856636285781860352e-01) (74, 1.47906944155693054199e-01) (75, 1.68854534626007080078e-01) (76, 2.07350477576255798340e-01) (77, 1.49656832218170166016e-01) (78, 1.41615793108940124512e-01) (79, 1.09676383435726165771e-01) (80, 2.21733693033456802368e-02) (81, 1.26298874616622924805e-01) (82, -1.03603929281234741211e-01) (83, -1.57156258821487426758e-01) (84, 2.39735811948776245117e-01) (85, -4.36002239584922790527e-02) (86, -2.40916591137647628784e-02) (87, 2.84179747104644775391e-01) (88, -1.81129649281501770020e-01) (89, 2.39691331982612609863e-01) (90, 1.44616425037384033203e-01) (91, -8.57101380825042724609e-02) (92, -5.39308078587055206299e-02) (93, -1.52356699109077453613e-01) (94, -1.28623649477958679199e-01) (95, -2.83141899853944778442e-02) (96, 8.51042196154594421387e-02) (97, 2.22847700119018554688e-01) (98, 1.61225587129592895508e-01) (99, 9.90181863307952880859e-02) (100, -9.92308333516120910645e-02) (101, 3.02519369870424270630e-02) (102, -3.46413761377334594727e-01) (103, -2.50474900007247924805e-01) (104, 2.75571290403604507446e-02) (105, -2.00041785836219787598e-01) (106, -2.06489607691764831543e-01) (107, 4.86913770437240600586e-02) (108, -2.30669438838958740234e-01) (109, 1.00148268043994903564e-01) (110, 2.53218617290258407593e-02) (111, -2.58363872766494750977e-01) (112, -1.00321836769580841064e-01) (113, -1.77239492535591125488e-01) (114, -1.76326528191566467285e-01) (115, -2.33096584677696228027e-01) (116, -2.19458177685737609863e-01) (117, 1.18182376027107238770e-02) (118, -2.16580554842948913574e-03) (119, -3.92530038952827453613e-02) (120, 8.20439085364341735840e-02) (121, -3.60250473022460937500e-02) (122, 4.31361526250839233398e-01) (123, 3.92394065856933593750e-01) (124, -1.21198572218418121338e-01) (125, 1.62110164761543273926e-01) (126, 1.96465849876403808594e-01) (127, -1.42296776175498962402e-01) (128, 2.88189828395843505859e-01) (129, -1.48489475250244140625e-01) (130, -6.52560964226722717285e-02) (131, 3.39042216539382934570e-01) (132, 2.71739125251770019531e-01) (133, 3.01048427820205688477e-01) (134, 2.65649616718292236328e-01) (135, 3.13343793153762817383e-01) (136, 2.10328742861747741699e-01) (137, -1.16314537823200225830e-01) (138, 4.24597114324569702148e-02) (139, -3.19807454943656921387e-02) (140, 1.27286851406097412109e-01) (141, 3.89084815979003906250e-02) (142, 1.42783313989639282227e-01) (143, 9.06978994607925415039e-02) (144, 8.55500251054763793945e-02) (145, 1.24367408454418182373e-01) (146, 6.50507807731628417969e-02) (147, 5.82377687096595764160e-02) (148, 4.50008139014244079590e-02) (149, 5.26954717934131622314e-02) (150, 7.09143280982971191406e-02) (151, 2.67867110669612884521e-02) (152, 5.47191351652145385742e-02) (153, 7.04166665673255920410e-02) (154, 5.98793476819992065430e-03) (155, 5.18100634217262268066e-02) (156, 4.62179444730281829834e-02) (157, 4.99596856534481048584e-02) (158, 9.80506688356399536133e-02) (159, 6.61235228180885314941e-02) (160, -1.28293848037719726562e+00) (161, -1.27857661247253417969e+00) (162, 5.46730875968933105469e-01) (163, 5.42594075202941894531e-01) (164, -1.26053607463836669922e+00) (165, 5.49904584884643554688e-01) (166, 5.69418072700500488281e-01) (167, -1.26636636257171630859e+00) (168, 5.34295558929443359375e-01) (169, -1.24521243572235107422e+00) (170, -1.26810336112976074219e+00) (171, 5.34573733806610107422e-01) (172, 5.54059386253356933594e-01) (173, 5.43614625930786132812e-01) (174, 5.25336086750030517578e-01) (175, 5.50828695297241210938e-01) (176, 5.80377638339996337891e-01) (177, -1.27904212474822998047e+00) (178, -1.26739633083343505859e+00) (179, -1.28366327285766601562e+00) (180, -2.65138559043407440186e-02) (181, -9.32059958577156066895e-02) (182, -9.01435613632202148438e-02) (183, -5.30059747397899627686e-02) (184, -8.19115862250328063965e-02) (185, -2.45100725442171096802e-02) (186, -1.40839397907257080078e-01) (187, -1.33890852332115173340e-01) (188, -3.45982126891613006592e-02) (189, -5.96348792314529418945e-02) (190, -8.09539332985877990723e-02) (191, -8.04191976785659790039e-02) (192, -1.31512016057968139648e-01) (193, -3.35525423288345336914e-02) (194, -5.26061840355396270752e-02) (195, -1.00387088954448699951e-01) (196, -1.18418835103511810303e-01) (197, -1.14111810922622680664e-01) (198, -6.09772019088268280029e-02) (199, -1.99363067746162414551e-01) (200, -1.03457700461149215698e-02) (201, -2.36730471253395080566e-01) (202, 7.58032724261283874512e-02) (203, 1.96462288498878479004e-01) (204, -2.20212832093238830566e-01) (205, -5.62995672225952148438e-02) (206, 3.43956016004085540771e-02) (207, -2.66893833875656127930e-01) (208, 1.64039805531501770020e-01) (209, -2.44782254099845886230e-01) (210, -1.51475727558135986328e-01) (211, 8.82037878036499023438e-02) (212, -1.27867475152015686035e-01) (213, 1.60352975130081176758e-01) (214, 1.24196119606494903564e-01) (215, 7.37061351537704467773e-02) (216, 1.99368018656969070435e-02) (217, -2.47185960412025451660e-01) (218, -1.03256940841674804688e-01) (219, -1.25612273812294006348e-01) (220, 2.22526211291551589966e-02) (221, 1.47034809924662113190e-03) (222, -1.21015459299087524414e-01) (223, -6.42738118767738342285e-02) (224, 4.24228198826313018799e-02) (225, -9.93832647800445556641e-02) (226, -8.85088113136589527130e-04) (227, 5.13886623084545135498e-02) (228, -9.97761264443397521973e-02) (229, 1.20304256677627563477e-01) (230, 8.29848200082778930664e-02) (231, -1.07858017086982727051e-01) (232, -1.65267229080200195312e-01) (233, -3.66291441023349761963e-02) (234, -1.05025179684162139893e-01) (235, -6.50833770632743835449e-02) (236, -6.03874251246452331543e-02) (237, -3.01281753927469253540e-02) (238, 4.44916412234306335449e-02) (239, 3.58864627778530120850e-02) (240, 4.65376973152160644531e-02) (241, 1.66395008563995361328e-01) (242, -1.46656289696693420410e-01) (243, -8.38168263435363769531e-02) (244, 1.59754753112792968750e-01) (245, 8.96930322051048278809e-03) (246, 1.28364507108926773071e-02) (247, 1.99112892150878906250e-01) (248, -3.19654941558837890625e-02) (249, 2.43535935878753662109e-01) (250, 1.84111937880516052246e-01) (251, -6.96282014250755310059e-02) (252, -8.72479751706123352051e-02) (253, -2.99386754631996154785e-02) (254, -1.47978719323873519897e-02) (255, -4.41284887492656707764e-02) (256, -1.49609278887510299683e-02) (257, 1.39388278126716613770e-01) (258, 7.91912525892257690430e-02) (259, 9.17823314666748046875e-02) (260, 8.43729153275489807129e-02) (261, 1.90338879823684692383e-01) (262, 1.88585091382265090942e-02) (263, 2.49793697148561477661e-02) (264, 2.05919027328491210938e-01) (0, -1.75116181373596191406e-01) (1, -6.47490620613098144531e-01) (2, 1.92594192922115325928e-02) (3, 2.31615215539932250977e-01) (4, -6.02387070655822753906e-01) (5, -1.48227751255035400391e-01) (6, -1.60259887576103210449e-01) (7, -7.06759274005889892578e-01) (8, 4.32753860950469970703e-02) (9, -7.53780484199523925781e-01) (10, -4.92906719446182250977e-01) (11, -7.44524747133255004883e-02) (12, -1.65950030088424682617e-01) (13, -8.71012080460786819458e-03) (14, 4.27915096282958984375e-01) (15, 3.90378355979919433594e-01) (16, -3.23860883712768554688e+00) (17, -3.41468667984008789062e+00) (18, -3.25632810592651367188e+00) (19, -3.39348292350769042969e+00) (20, -3.82433980703353881836e-02) (21, -2.29846343398094177246e-01) (22, 2.52202421426773071289e-01) (23, 7.51938298344612121582e-02) (24, -3.10144931077957153320e-01) (25, -1.71079233288764953613e-01) (26, -1.46475434303283691406e-01) (27, -3.12851041555404663086e-01) (28, -1.55069485306739807129e-01) (29, -3.33162456750869750977e-01) (30, -2.56838977336883544922e-01) (31, -1.90902292728424072266e-01) (32, -4.11570727825164794922e-01) (33, -1.99001759290695190430e-01) (34, -3.48090916872024536133e-01) (35, -1.50916367769241333008e-01) (36, -9.10186916589736938477e-02) (37, -5.70368647575378417969e-01) (38, -3.28654319047927856445e-01) (39, -4.21046704053878784180e-01) (40, -5.09849525988101959229e-02) (41, -5.30792139470577239990e-02) (42, -6.39340758323669433594e-01) (43, -1.14475655555725097656e+00) (44, 2.52414971590042114258e-01) (45, -5.73580205440521240234e-01) (46, -5.10214686393737792969e-01) (47, 3.88710767030715942383e-01) (48, -1.04960107803344726562e+00) (49, 5.31280934810638427734e-01) (50, 1.13147541880607604980e-01) (51, -7.90131211280822753906e-01) (52, -6.41197443008422851562e-01) (53, -7.93936192989349365234e-01) (54, -7.82971978187561035156e-01) (55, -4.73904103040695190430e-01) (56, -1.61690890789031982422e-01) (57, 2.37237319350242614746e-01) (58, -2.49563287943601608276e-02) (59, 1.52206383645534515381e-02) (60, -5.01829013228416442871e-02) (61, -5.21234750747680664062e-01) (62, -3.86150300502777099609e-01) (63, 6.46805837750434875488e-02) (64, -4.33384239673614501953e-01) (65, -5.75116574764251708984e-01) (66, -3.18778723478317260742e-01) (67, -1.36549890041351318359e-01) (68, 1.18535859510302543640e-02) (69, -9.11284610629081726074e-02) (70, -3.67093443870544433594e-01) (71, -3.39318603277206420898e-01) (72, -3.00487846136093139648e-01) (73, 1.54455468058586120605e-01) (74, 5.90964928269386291504e-02) (75, -4.06472474336624145508e-01) (76, -4.37013328075408935547e-01) (77, -2.85089433193206787109e-01) (78, -2.60932832956314086914e-01) (79, -2.47854918241500854492e-01) (80, -1.62784069776535034180e-01) (81, -1.74183547496795654297e+00) (82, 3.30583244562149047852e-01) (83, 5.52243530750274658203e-01) (84, -1.76717042922973632812e+00) (85, -4.41979020833969116211e-01) (86, -1.83342173695564270020e-01) (87, -2.14010453224182128906e+00) (88, 2.37798497080802917480e-01) (89, -1.73754858970642089844e+00) (90, -1.26026844978332519531e+00) (91, 1.70210316777229309082e-01) (92, -6.29951894283294677734e-01) (93, 3.35425376892089843750e-01) (94, 1.29277169704437255859e-01) (95, -1.46063536405563354492e-01) (96, -1.04132167994976043701e-01) (97, -1.86063027381896972656e+00) (98, -1.17267453670501708984e+00) (99, -1.22873759269714355469e+00) (100, 1.80507943034172058105e-01) (101, -2.76760816574096679688e-01) (102, -5.20182609558105468750e-01) (103, -4.55416977405548095703e-01) (104, 3.07524859905242919922e-01) (105, -1.07138943672180175781e+00) (106, -4.44973558187484741211e-01) (107, 3.36882114410400390625e-01) (108, -9.26503896713256835938e-01) (109, 2.82755911350250244141e-01) (110, -1.11681148409843444824e-01) (111, -9.38447833061218261719e-01) (112, -1.49189972877502441406e+00) (113, -5.10703384876251220703e-01) (114, -8.29213321208953857422e-01) (115, -7.75610268115997314453e-01) (116, -2.77656197547912597656e-01) (117, 3.33213396370410919189e-02) (118, -4.81224954128265380859e-02) (119, 6.25329017639160156250e-02) (120, 3.11833340674638748169e-02) (121, -3.28204669058322906494e-02) (122, -2.12921166419982910156e+00) (123, -1.40248894691467285156e+00) (124, 3.23807626962661743164e-01) (125, -1.22891557216644287109e+00) (126, -1.35782134532928466797e+00) (127, 6.72212898731231689453e-01) (128, -1.08947908878326416016e+00) (129, 7.21424341201782226562e-01) (130, 1.65541350841522216797e-01) (131, -1.59574902057647705078e+00) (132, -2.90820980072021484375e+00) (133, -8.57177674770355224609e-01) (134, -8.39645087718963623047e-01) (135, -1.59395813941955566406e+00) (136, -1.15565383434295654297e+00) (137, 3.66038620471954345703e-01) (138, 8.17457586526870727539e-02) (139, -5.14667965471744537354e-02) (140, -6.53564333915710449219e-02) (141, -1.29021656513214111328e+00) (142, 1.76210775971412658691e-01) (143, 3.31282466650009155273e-01) (144, -1.41660678386688232422e+00) (145, -5.94292819499969482422e-01) (146, -4.57399576902389526367e-01) (147, -1.05625033378601074219e+00) (148, 4.51453596353530883789e-01) (149, -9.01992261409759521484e-01) (150, -6.22361540794372558594e-01) (151, 1.04483410716056823730e-01) (152, -1.30153667926788330078e+00) (153, 2.25200116634368896484e-01) (154, 3.63070726394653320312e-01) (155, -2.30696409940719604492e-01) (156, -4.26769793033599853516e-01) (157, -1.03709721565246582031e+00) (158, -7.41031229496002197266e-01) (159, -9.87756550312042236328e-01) (160, 9.90940153598785400391e-01) (161, -1.99448898434638977051e-01) (162, -7.21140811219811439514e-03) (163, 1.41938477754592895508e-01) (164, 9.19697359204292297363e-02) (165, -2.04319143295288085938e+00) (166, -9.37288463115692138672e-01) (167, 2.00158990919589996338e-02) (168, -1.08156435191631317139e-01) (169, 2.45017275214195251465e-01) (170, 4.82598960399627685547e-01) (171, -3.86596292257308959961e-01) (172, -2.47982144355773925781e+00) (173, -2.50124812126159667969e-01) (174, -3.97925138473510742188e-01) (175, -5.36890625953674316406e-01) (176, -9.09346103668212890625e-01) (177, -1.42161473631858825684e-01) (178, 2.62321561574935913086e-01) (179, 3.88670206069946289062e-01) (180, 2.45899915695190429688e-01) (181, 3.43608886003494262695e-01) (182, -1.92140495777130126953e+00) (183, -1.21251881122589111328e+00) (184, 4.73324626684188842773e-01) (185, -8.56817424297332763672e-01) (186, -1.93079173564910888672e-01) (187, 4.93761390447616577148e-01) (188, -1.03737628459930419922e+00) (189, 8.45781922340393066406e-01) (190, 6.16688787937164306641e-01) (191, -1.06030821800231933594e+00) (192, -3.11509418487548828125e+00) (193, -6.83501064777374267578e-01) (194, -7.55820631980895996094e-01) (195, -9.26306486129760742188e-01) (196, -5.22301733493804931641e-01) (197, 2.00693339109420776367e-01) (198, 2.72880971431732177734e-01) (199, 3.17795902490615844727e-01) (200, -2.70119067281484603882e-02) (201, 1.34153038263320922852e-01) (202, -8.30255568027496337891e-01) (203, -5.49569427967071533203e-01) (204, 3.51857356727123260498e-02) (205, -1.81822016835212707520e-01) (206, -4.04344916343688964844e-01) (207, 1.93528771400451660156e-01) (208, -2.71151065826416015625e-01) (209, 4.61234599351882934570e-01) (210, 2.96283483505249023438e-01) (211, -5.15365839004516601562e-01) (212, -1.24977731704711914062e+00) (213, -3.42189162969589233398e-01) (214, -7.58829563856124877930e-02) (215, -6.06339454650878906250e-01) (216, -6.16777062416076660156e-01) (217, -1.11411482095718383789e-01) (218, -1.28606498241424560547e-01) (219, -2.14742109179496765137e-01) (220, 7.53092616796493530273e-02) (221, -1.11646759510040283203e+00) (222, 1.39383003115653991699e-01) (223, 3.91410022974014282227e-01) (224, -9.09034967422485351562e-01) (225, -1.72863066196441650391e-01) (226, -1.63146957755088806152e-01) (227, -1.01541435718536376953e+00) (228, 4.51483517885208129883e-01) (229, -7.41930127143859863281e-01) (230, -4.09545511007308959961e-01) (231, 1.06978520750999450684e-01) (232, -8.30398619174957275391e-01) (233, 4.07394766807556152344e-01) (234, 2.99351960420608520508e-01) (235, -1.15428073331713676453e-03) (236, -2.41553753614425659180e-01) (237, -1.06991946697235107422e+00) (238, -8.28096866607666015625e-01) (239, -7.06236720085144042969e-01) (240, 1.90556466579437255859e-01) (241, -4.08839225769042968750e-01) (242, -1.45960062742233276367e-01) (243, -3.04724462330341339111e-03) (244, -3.26464504003524780273e-01) (245, -3.65213632583618164062e-01) (246, -4.54667992889881134033e-02) (247, -1.49605274200439453125e-01) (248, 4.58998195827007293701e-02) (249, -9.71068814396858215332e-03) (250, 3.02404779940843582153e-02) (251, -1.03713609278202056885e-01) (252, -6.63341403007507324219e-01) (253, 1.38125807046890258789e-01) (254, 4.16966117918491363525e-02) (255, -4.60695400834083557129e-02) (256, -1.32720872759819030762e-01) (257, -3.44313591718673706055e-01) (258, -1.34897023439407348633e-01) (259, -8.32038670778274536133e-02) (260, -2.75692809373140335083e-02) (261, -6.43473339080810546875e+00) (262, 4.84992623329162597656e-01) (263, 4.83803719282150268555e-01) (264, 3.62465333938598632812e+00) (265, 1.05500054359436035156e+00) (0, 9.00718927383422851562e-01) (1, 7.91488885879516601562e-01) (2, 7.21385300159454345703e-01) (3, 9.47713136672973632812e-01) (4, 7.23836541175842285156e-01) (5, 4.53269988298416137695e-01) (6, 8.72686028480529785156e-01) (7, 8.50651264190673828125e-01) (8, 9.09027993679046630859e-01) (9, 8.66365015506744384766e-01) (10, 8.58931124210357666016e-01) (11, 6.70235395431518554688e-01) (12, 8.72714579105377197266e-01) (13, 8.61531376838684082031e-01) (14, -1.53479623794555664062e+00) (15, -1.47803294658660888672e+00) (16, -1.74230778217315673828e+00) (17, -1.84250664710998535156e+00) (18, -1.97390806674957275391e+00) (19, -1.79316294193267822266e+00) (20, 1.99737057089805603027e-01) (21, 3.18390637636184692383e-01) (22, 2.83959265798330307007e-02) (23, 1.93427234888076782227e-01) (24, 4.16186600923538208008e-02) (25, -1.73987045884132385254e-01) (26, 2.38693699240684509277e-01) (27, 9.38612073659896850586e-02) (28, 2.16440081596374511719e-01) (29, 1.27887502312660217285e-01) (30, 2.68954843282699584961e-01) (31, -5.19162379205226898193e-02) (32, 1.20609223842620849609e-01) (33, 1.56448096036911010742e-01) (34, 1.69741258025169372559e-01) (35, 1.33325159549713134766e-01) (36, -6.45121112465858459473e-02) (37, 9.61287543177604675293e-02) (38, 4.48306649923324584961e-02) (39, 2.49749347567558288574e-02) (40, 1.71149015426635742188e-01) (41, 2.13010624051094055176e-01) (42, 7.59165212512016296387e-02) (43, 8.11306312680244445801e-02) (44, 4.75425161421298980713e-02) (45, -1.36477530002593994141e-01) (46, 2.34241515398025512695e-01) (47, 2.12396513670682907104e-02) (48, 1.34644940495491027832e-01) (49, 2.16839194297790527344e-01) (50, 2.57912784814834594727e-01) (51, -2.54083983600139617920e-02) (52, 2.06359922885894775391e-01) (53, 3.61686125397682189941e-02) (54, 1.06720365583896636963e-01) (55, 1.21993288397789001465e-01) (56, -4.41133677959442138672e-02) (57, -8.60809069126844406128e-03) (58, -8.74120369553565979004e-02) (59, 9.09680128097534179688e-03) (60, 5.24825938045978546143e-02) (61, 4.78365421295166015625e-02) (62, 4.28170822560787200928e-02) (63, 5.92694431543350219727e-02) (64, -1.51333644986152648926e-01) (65, -1.02194800972938537598e-01) (66, 2.10200101137161254883e-01) (67, -3.51553380489349365234e-01) (68, 1.78951665759086608887e-01) (69, -4.30623516440391540527e-02) (70, 6.02860748767852783203e-02) (71, -2.51831579953432083130e-03) (72, 3.25423717498779296875e-01) (73, 5.92615865170955657959e-02) (74, 1.35664016008377075195e-01) (75, 8.55231955647468566895e-02) (76, -1.51614949107170104980e-01) (77, -3.24770092964172363281e-01) (78, -3.79284054040908813477e-01) (79, -1.34360328316688537598e-01) (80, -1.49539157748222351074e-01) (81, -3.32347095012664794922e-01) (82, 3.99187028408050537109e-01) (83, 2.19729349017143249512e-01) (84, -5.80691516399383544922e-01) (85, 2.21915066242218017578e-01) (86, 2.75437384843826293945e-01) (87, -9.57983493804931640625e-01) (88, 3.89642238616943359375e-01) (89, -6.32033407688140869141e-01) (90, -3.13083201646804809570e-01) (91, 3.57872724533081054688e-01) (92, 5.24457812309265136719e-01) (93, 1.59305378794670104980e-01) (94, 1.29220470786094665527e-01) (95, 2.79276877641677856445e-01) (96, -4.14780825376510620117e-02) (97, -7.49177277088165283203e-01) (98, -8.63963067531585693359e-01) (99, -4.16571795940399169922e-01) (100, -1.34186848998069763184e-01) (101, -2.65471100807189941406e-01) (102, 7.34534323215484619141e-01) (103, 1.27387806773185729980e-01) (104, -6.66614592075347900391e-01) (105, 9.53879296779632568359e-01) (106, 2.93688178062438964844e-01) (107, -1.14629745483398437500e+00) (108, 2.14038789272308349609e-01) (109, -6.64113819599151611328e-01) (110, -2.59868115186691284180e-01) (111, 7.17383921146392822266e-01) (112, 8.62101614475250244141e-01) (113, 1.05908803641796112061e-01) (114, -4.27889153361320495605e-02) (115, 3.62652778625488281250e-01) (116, 4.42422628402709960938e-02) (117, -9.48924422264099121094e-01) (118, -1.15285456180572509766e+00) (119, -5.72703540325164794922e-01) (120, 2.53470778465270996094e-01) (121, 4.17138263583183288574e-02) (122, 1.21280682086944580078e+00) (123, 2.92692273855209350586e-01) (124, -6.20229423046112060547e-01) (125, 1.41393792629241943359e+00) (126, 5.60378253459930419922e-01) (127, -8.52611243724822998047e-01) (128, 4.85634535551071166992e-01) (129, -4.72275763750076293945e-01) (130, 2.83366829156875610352e-01) (131, 1.26754987239837646484e+00) (132, 1.57422280311584472656e+00) (133, 3.74149978160858154297e-01) (134, 2.17961400747299194336e-01) (135, 8.14561724662780761719e-01) (136, 4.25961345434188842773e-01) (137, -7.13898956775665283203e-01) (138, -8.95840346813201904297e-01) (139, -6.72170221805572509766e-01) (140, -3.79694432020187377930e-01) (141, -5.73770403861999511719e-01) (142, 6.08069539070129394531e-01) (143, 3.59271243214607238770e-02) (144, -8.21356952190399169922e-01) (145, 7.77525961399078369141e-01) (146, 9.52154546976089477539e-02) (147, -9.26801681518554687500e-01) (148, 2.50828772783279418945e-01) (149, -8.62485229969024658203e-01) (150, -5.13687431812286376953e-01) (151, 5.49201726913452148438e-01) (152, 1.49939739704132080078e+00) (153, -1.59756317734718322754e-01) (154, 4.45988262072205543518e-03) (155, 3.73849928379058837891e-01) (156, 1.53868988156318664551e-01) (157, -8.19307804107666015625e-01) (158, -7.57430076599121093750e-01) (159, -7.71250486373901367188e-01) (160, -3.37113171815872192383e-01) (161, -2.97691315412521362305e-01) (162, 6.05404496192932128906e-01) (163, 3.97951453924179077148e-01) (164, -6.53640985488891601562e-01) (165, 2.15311393141746520996e-01) (166, 5.30440546572208404541e-02) (167, -7.42566525936126708984e-01) (168, 2.25206568837165832520e-01) (169, -8.24301242828369140625e-01) (170, -5.16717195510864257812e-01) (171, 2.78979450464248657227e-01) (172, 1.08107054233551025391e+00) (173, -3.91505770385265350342e-02) (174, -3.05396839976310729980e-02) (175, 2.47719049453735351562e-01) (176, 1.05470955371856689453e-01) (177, -4.69260931015014648438e-01) (178, -4.43903625011444091797e-01) (179, -5.38362741470336914062e-01) (180, -2.37201347947120666504e-01) (181, -5.93962073326110839844e-02) (182, 4.78238999843597412109e-01) (183, 4.22766804695129394531e-01) (184, -2.73416072130203247070e-01) (185, 6.37401789426803588867e-02) (186, 2.88143932819366455078e-01) (187, -3.32954794168472290039e-01) (188, 9.12921205163002014160e-02) (189, -4.00962591171264648438e-01) (190, -3.01295220851898193359e-01) (191, 1.06117404997348785400e-01) (192, 8.99160742759704589844e-01) (193, 8.13534185290336608887e-02) (194, -7.60418772697448730469e-02) (195, 2.83405154943466186523e-01) (196, 2.56695151329040527344e-01) (197, -1.18045024573802947998e-01) (198, -1.62945270538330078125e-01) (199, -1.22381642460823059082e-01) (200, -1.79554075002670288086e-01) (201, 2.34482482075691223145e-01) (202, 7.93531462550163269043e-02) (203, 7.20457211136817932129e-02) (204, 3.85798066854476928711e-02) (205, -2.65141159296035766602e-01) (206, 2.77965754270553588867e-01) (207, 2.15178415179252624512e-01) (208, -1.02415598928928375244e-01) (209, 9.03691649436950683594e-02) (210, 1.69636644423007965088e-02) (211, -1.69657886028289794922e-01) (212, 4.91604119539260864258e-01) (213, 4.77404855191707611084e-02) (214, -8.88044163584709167480e-02) (215, 1.27374216914176940918e-01) (216, 1.64339587092399597168e-01) (217, 2.33632951974868774414e-01) (218, 1.59688424319028854370e-02) (219, 4.32683862745761871338e-02) (220, -5.07968105375766754150e-02) (221, 3.02145987749099731445e-01) (222, 1.95557042956352233887e-01) (223, 1.89995348453521728516e-01) (224, -2.56941746920347213745e-03) (225, -5.69269992411136627197e-02) (226, 2.35558122396469116211e-01) (227, 1.64501458406448364258e-01) (228, 5.46215586364269256592e-02) (229, 6.85750041157007217407e-04) (230, -6.44265711307525634766e-02) (231, -9.38109308481216430664e-02) (232, 3.61584693193435668945e-01) (233, 1.30424767732620239258e-01) (234, 3.41093875467777252197e-02) (235, 9.07117575407028198242e-02) (236, 1.51473075151443481445e-01) (237, 1.76835209131240844727e-01) (238, 1.19311705231666564941e-01) (239, 9.28983092308044433594e-03) (240, -3.42028439044952392578e-02) (241, 2.12065160274505615234e-01) (242, 2.40238055586814880371e-01) (243, 2.46548205614089965820e-01) (244, -1.63889210671186447144e-02) (245, -4.67306226491928100586e-02) (246, 2.36750841140747070312e-01) (247, 6.88328444957733154297e-02) (248, 9.94364917278289794922e-02) (249, -9.39157977700233459473e-02) (250, -8.64850729703903198242e-02) (251, 2.52069421112537384033e-02) (252, 2.46557131409645080566e-01) (253, 1.87382742762565612793e-01) (254, 6.61925449967384338379e-02) (255, 1.43949523568153381348e-01) (256, 1.70409217476844787598e-01) (257, 9.24454703927040100098e-02) (258, 7.03068748116493225098e-02) (259, -6.85251355171203613281e-02) (260, 8.77721160650253295898e-02) (261, 3.67254090309143066406e+00) (262, 1.48393720388412475586e-01) (263, 1.78755775094032287598e-01) (264, -1.97361946105957031250e+00) (265, -2.57856667041778564453e-01) (266, -2.06186103820800781250e+00) (0, -1.40834450721740722656e-01) (1, -2.64448504894971847534e-02) (2, -1.76022946834564208984e-01) (3, -6.39881864190101623535e-02) (4, -5.66361919045448303223e-02) (5, 2.81813405454158782959e-02) (6, 5.07616661489009857178e-02) (7, -1.05193473398685455322e-01) (8, 6.03965185582637786865e-02) (9, -1.22504621744155883789e-01) (10, -9.49832946062088012695e-02) (11, -1.38668697327375411987e-02) (12, 8.82106721401214599609e-02) (13, 8.04526545107364654541e-03) (14, -4.10961449146270751953e-01) (15, -3.65050852298736572266e-01) (16, 8.06903243064880371094e-01) (17, 8.09078872203826904297e-01) (18, 7.51436531543731689453e-01) (19, 8.41519773006439208984e-01) (20, -5.20447157323360443115e-02) (21, -1.29314437508583068848e-01) (22, 1.84298142790794372559e-01) (23, 3.30013334751129150391e-01) (24, -3.37614089250564575195e-01) (25, 2.14997574687004089355e-01) (26, 3.46326865255832672119e-02) (27, -3.95560234785079956055e-01) (28, 1.60596802830696105957e-01) (29, -4.32616591453552246094e-01) (30, -2.12604656815528869629e-01) (31, 2.15692102909088134766e-01) (32, 1.24364934861660003662e-01) (33, 2.11099132895469665527e-01) (34, 1.64815843105316162109e-01) (35, 1.78999558091163635254e-01) (36, 3.99919375777244567871e-02) (37, -2.26190924644470214844e-01) (38, -1.03716604411602020264e-01) (39, -2.14614555239677429199e-01) (40, -7.67768621444702148438e-02) (41, 1.22887969017028808594e-01) (42, -1.61982953548431396484e-01) (43, -3.64831238985061645508e-01) (44, 3.15270096063613891602e-01) (45, 2.00735293328762054443e-02) (46, -1.11648313701152801514e-01) (47, 3.00893336534500122070e-01) (48, -3.49156707525253295898e-01) (49, 2.85513550043106079102e-01) (50, 7.09667131304740905762e-02) (51, -1.40970081090927124023e-01) (52, -1.76003962755203247070e-01) (53, -2.84239768981933593750e-01) (54, -3.15568804740905761719e-01) (55, -1.39167070388793945312e-01) (56, 1.10814183950424194336e-01) (57, 3.28654348850250244141e-01) (58, 4.16328161954879760742e-02) (59, 1.17445521056652069092e-01) (60, -7.50643759965896606445e-02) (61, 5.72589516639709472656e-01) (62, -4.90962862968444824219e-01) (63, -5.76385617256164550781e-01) (64, 6.43944859504699707031e-01) (65, -1.85024049133062362671e-02) (66, -8.67122635245323181152e-02) (67, 8.51223111152648925781e-01) (68, -3.48456859588623046875e-01) (69, 7.46687054634094238281e-01) (70, 4.53602343797683715820e-01) (71, -2.85207390785217285156e-01) (72, -4.17967736721038818359e-02) (73, -4.29080843925476074219e-01) (74, -2.25749418139457702637e-01) (75, -1.33222311735153198242e-01) (76, -2.15079449117183685303e-02) (77, 7.59583711624145507812e-01) (78, 5.24612367153167724609e-01) (79, 4.57353830337524414062e-01) (80, -1.80021926760673522949e-01) (81, -1.02965556085109710693e-01) (82, 2.15184167027473449707e-01) (83, 4.07591223716735839844e-01) (84, -3.69829028844833374023e-01) (85, 5.62203347682952880859e-01) (86, 8.89384075999259948730e-02) (87, -4.26612883806228637695e-01) (88, 5.08175969123840332031e-01) (89, -4.98875528573989868164e-01) (90, -3.63822847604751586914e-01) (91, 3.88639092445373535156e-01) (92, 4.70647782087326049805e-01) (93, 4.12286758422851562500e-01) (94, 4.24762725830078125000e-01) (95, 2.46057689189910888672e-01) (96, 1.49836093187332153320e-01) (97, -2.96518296003341674805e-01) (98, -1.60544753074645996094e-01) (99, -2.59946256875991821289e-01) (100, -5.15032932162284851074e-02) (101, -9.56885702908039093018e-03) (102, 3.46203863620758056641e-01) (103, 4.54403281211853027344e-01) (104, -1.59124374389648437500e-01) (105, 4.51182782649993896484e-01) (106, 2.94865638017654418945e-01) (107, -3.60374629497528076172e-01) (108, 3.17834705114364624023e-01) (109, -4.94410187005996704102e-01) (110, -1.56133860349655151367e-01) (111, 1.70473948121070861816e-01) (112, 1.86660572886466979980e-01) (113, 3.42538923025131225586e-01) (114, 2.03739747405052185059e-01) (115, 1.92483708262443542480e-01) (116, 1.74659460783004760742e-01) (117, -2.39058047533035278320e-01) (118, -4.60511296987533569336e-02) (119, 1.65954791009426116943e-02) (120, -6.31332471966743469238e-02) (121, 8.11041414737701416016e-01) (122, -4.12296622991561889648e-01) (123, -6.06666743755340576172e-01) (124, 9.89262580871582031250e-01) (125, 3.28617185354232788086e-01) (126, 5.71895167231559753418e-02) (127, 9.24301326274871826172e-01) (128, -5.85475385189056396484e-01) (129, 9.01961505413055419922e-01) (130, 7.27108836174011230469e-01) (131, -3.21305215358734130859e-01) (132, -3.07784646749496459961e-01) (133, -4.93926554918289184570e-01) (134, -5.32625436782836914062e-01) (135, -1.45432025194168090820e-01) (136, 1.26513227820396423340e-01) (137, 7.61984050273895263672e-01) (138, 5.44014632701873779297e-01) (139, 5.75115084648132324219e-01) (140, -2.86020040512084960938e-01) (141, 4.43435937166213989258e-01) (142, -6.65911376476287841797e-01) (143, -7.65508532524108886719e-01) (144, 5.41746795177459716797e-01) (145, 4.27605628967285156250e-01) (146, -3.08646559715270996094e-01) (147, 6.21866881847381591797e-01) (148, -4.25907671451568603516e-01) (149, 5.43483138084411621094e-01) (150, 3.23287248611450195312e-01) (151, -3.73685181140899658203e-01) (152, 4.23928439617156982422e-01) (153, -5.49483060836791992188e-01) (154, -3.24264258146286010742e-01) (155, -3.45966666936874389648e-01) (156, -1.29534378647804260254e-01) (157, 6.25971555709838867188e-01) (158, 2.55704402923583984375e-01) (159, 1.23186051845550537109e-01) (160, 5.49623012542724609375e-01) (161, 1.07447475194931030273e-01) (162, 2.85717099905014038086e-01) (163, 6.63027688860893249512e-02) (164, -9.05408412218093872070e-02) (165, -1.21429584920406341553e-01) (166, -4.87018197774887084961e-01) (167, -1.88607394695281982422e-01) (168, 1.13417938351631164551e-01) (169, -4.12103027105331420898e-01) (170, -5.06420768797397613525e-02) (171, 1.19470275938510894775e-01) (172, 4.69181686639785766602e-01) (173, -2.10262373089790344238e-01) (174, -1.82989314198493957520e-01) (175, 8.34955349564552307129e-02) (176, -2.33507648110389709473e-01) (177, 6.52488023042678833008e-02) (178, 2.77015209197998046875e-01) (179, 2.46199280023574829102e-01) (180, -2.65129040926694869995e-02) (181, -2.59638577699661254883e-02) (182, 3.77831846475601196289e-01) (183, 1.96972385048866271973e-01) (184, -1.13791629672050476074e-01) (185, 1.32923662662506103516e-01) (186, 3.33984047174453735352e-01) (187, -2.92772918939590454102e-01) (188, 6.38423934578895568848e-02) (189, -3.08713018894195556641e-01) (190, -1.31303250789642333984e-01) (191, 2.66302824020385742188e-01) (192, 3.24494868516921997070e-01) (193, 7.63326585292816162109e-02) (194, -1.31920918822288513184e-01) (195, 3.34562122821807861328e-01) (196, 2.27575272321701049805e-01) (197, -1.71108022332191467285e-01) (198, 1.35783001780509948730e-01) (199, 7.88669218309223651886e-04) (200, -3.21103125810623168945e-01) (201, 3.51112097501754760742e-01) (202, -4.80817914009094238281e-01) (203, -5.84236919879913330078e-01) (204, 3.91895830631256103516e-01) (205, -7.30283185839653015137e-03) (206, -7.45219141244888305664e-02) (207, 4.17578101158142089844e-01) (208, -5.74570357799530029297e-01) (209, 4.65000748634338378906e-01) (210, 1.82167962193489074707e-01) (211, -4.05009388923645019531e-01) (212, 1.75646115094423294067e-02) (213, -5.38256943225860595703e-01) (214, -5.71995675563812255859e-01) (215, -2.59262502193450927734e-01) (216, -1.18574939668178558350e-01) (217, 3.11407715082168579102e-01) (218, 4.95124459266662597656e-02) (219, 2.27857843041419982910e-01) (220, -1.47844955325126647949e-01) (221, 1.18796311318874359131e-01) (222, 2.21713799983263015747e-02) (223, -3.24545241892337799072e-02) (224, 8.34791436791419982910e-02) (225, 1.13929696381092071533e-01) (226, -2.26431582123041152954e-02) (227, 1.66530653834342956543e-01) (228, -7.26255998015403747559e-02) (229, 2.11931038647890090942e-02) (230, -7.94581249356269836426e-02) (231, -2.04201135784387588501e-02) (232, 1.86335787177085876465e-01) (233, -1.13426841795444488525e-01) (234, -6.58685863018035888672e-02) (235, -1.39671154320240020752e-02) (236, 3.97269017994403839111e-02) (237, 1.54009416699409484863e-01) (238, -3.33688780665397644043e-02) (239, -1.02566517889499664307e-01) (240, -1.24217994511127471924e-01) (241, -2.84411430358886718750e-01) (242, 2.11835607886314392090e-01) (243, 2.71161437034606933594e-01) (244, -2.37776547670364379883e-01) (245, 1.00440867245197296143e-02) (246, -4.31150058284401893616e-03) (247, -3.02085965871810913086e-01) (248, 2.15171992778778076172e-01) (249, -4.40357416868209838867e-01) (250, -3.76290798187255859375e-01) (251, 8.67628231644630432129e-02) (252, 1.01132474839687347412e-01) (253, 1.54602676630020141602e-01) (254, 5.56692853569984436035e-02) (255, 1.71818807721138000488e-01) (256, 1.38770490884780883789e-01) (257, -2.40383073687553405762e-01) (258, -1.50021836161613464355e-01) (259, -1.91408753395080566406e-01) (260, -8.08578357100486755371e-02) (261, 1.12725186347961425781e+00) (262, -8.55648815631866455078e-02) (263, 2.25599836558103561401e-02) (264, -2.34536576271057128906e+00) (265, -2.20404431223869323730e-01) (266, -8.13650190830230712891e-01) (267, -7.53734260797500610352e-02) (0, 1.69077768921852111816e-01) (1, 7.37571492791175842285e-02) (2, 1.35802283883094787598e-01) (3, 1.17083057761192321777e-01) (4, 1.06145448982715606689e-01) (5, -1.34618273004889488220e-02) (6, 8.95766541361808776855e-02) (7, 7.29865282773971557617e-02) (8, 2.47582830488681793213e-02) (9, 1.28360450267791748047e-01) (10, 1.17239087820053100586e-01) (11, 4.14342768490314483643e-02) (12, 3.78040596842765808105e-03) (13, 8.22282433509826660156e-02) (14, 9.88533914089202880859e-01) (15, 3.99532824754714965820e-01) (16, -8.03982377052307128906e-01) (17, -8.46523106098175048828e-01) (18, -7.90510594844818115234e-01) (19, -8.30082058906555175781e-01) (20, 1.70152559876441955566e-01) (21, -6.64931908249855041504e-02) (22, -8.26395153999328613281e-02) (23, -1.82826984673738479614e-02) (24, 7.25498497486114501953e-02) (25, -1.52526557445526123047e-01) (26, -7.29409605264663696289e-02) (27, 5.90254329144954681396e-02) (28, -1.08592048287391662598e-01) (29, 1.30502745509147644043e-01) (30, 5.72470873594284057617e-02) (31, -1.57646089792251586914e-01) (32, -1.67243108153343200684e-01) (33, -3.56773138046264648438e-02) (34, -5.20065240561962127686e-02) (35, -6.70695826411247253418e-02) (36, -6.31581470370292663574e-02) (37, 1.74520276486873626709e-02) (38, 5.45203611254692077637e-02) (39, -1.30511997267603874207e-02) (40, 2.13453531265258789062e-01) (41, -2.37312279641628265381e-02) (42, 6.22254423797130584717e-02) (43, 1.59507706761360168457e-01) (44, -9.32289436459541320801e-02) (45, -1.67058289051055908203e-01) (46, -2.84133944660425186157e-02) (47, -5.40027432143688201904e-02) (48, 4.84694391489028930664e-02) (49, 4.61497157812118530273e-02) (50, 3.79447415471076965332e-02) (51, -1.14548644050955772400e-02) (52, -1.18293069303035736084e-01) (53, 1.88372969627380371094e-01) (54, 1.00298061966896057129e-01) (55, 2.40829819813370704651e-03) (56, -4.09838221967220306396e-02) (57, -1.33307054638862609863e-01) (58, -5.17310388386249542236e-02) (59, -5.58375529944896697998e-02) (60, 2.00311884284019470215e-01) (61, -2.30508372187614440918e-01) (62, 7.89079591631889343262e-02) (63, 1.71794086694717407227e-01) (64, -1.52568608522415161133e-01) (65, -2.74986982345581054688e-01) (66, -1.03906379081308841705e-03) (67, -1.82679995894432067871e-01) (68, 1.53864379972219467163e-02) (69, 3.80632430315017700195e-02) (70, 3.07352580130100250244e-02) (71, -5.70240207016468048096e-02) (72, -1.02199099957942962646e-01) (73, 5.01164346933364868164e-02) (74, 5.45700490474700927734e-02) (75, 6.09139315783977508545e-02) (76, 1.06593659147620201111e-02) (77, -2.47479632496833801270e-01) (78, 8.08094069361686706543e-02) (79, -8.65648016333580017090e-02) (80, 3.16449224948883056641e-01) (81, -1.64168223738670349121e-01) (82, 1.68977044522762298584e-02) (83, 8.86396840214729309082e-02) (84, -1.41409812495112419128e-02) (85, -5.50215244293212890625e-01) (86, -1.02452933788299560547e-01) (87, -3.78989987075328826904e-02) (88, -1.82232260704040527344e-01) (89, 1.54645130038261413574e-01) (90, 1.12614341080188751221e-01) (91, -1.70676186680793762207e-01) (92, -2.11543440818786621094e-01) (93, 1.95195395499467849731e-02) (94, -8.23811218142509460449e-02) (95, -6.16587847471237182617e-02) (96, -4.03328575193881988525e-02) (97, -1.41410961747169494629e-01) (98, 6.10905699431896209717e-02) (99, -6.81953579187393188477e-02) (100, 3.22921395301818847656e-01) (101, -2.55886048078536987305e-01) (102, 2.12428476661443710327e-02) (103, 1.83807030320167541504e-01) (104, -1.71094968914985656738e-01) (105, -4.70238506793975830078e-01) (106, -4.64778095483779907227e-02) (107, -7.75684937834739685059e-02) (108, 2.21361834555864334106e-02) (109, 1.05675913393497467041e-01) (110, 1.02975822985172271729e-01) (111, -1.59397795796394348145e-01) (112, -1.73221260309219360352e-01) (113, 4.25170287489891052246e-02) (114, 7.89414644241333007812e-02) (115, -4.38113026320934295654e-02) (116, -1.28760337829589843750e-01) (117, -1.39756530523300170898e-01) (118, 1.26768976449966430664e-01) (119, -6.71684145927429199219e-02) (120, 5.07732570171356201172e-01) (121, -2.19714790582656860352e-01) (122, 2.56596714258193969727e-01) (123, 4.14968788623809814453e-01) (124, -2.14593678712844848633e-01) (125, -2.48567521572113037109e-01) (126, 7.46767893433570861816e-02) (127, -1.98750704526901245117e-01) (128, 2.50721037387847900391e-01) (129, 3.68708670139312744141e-02) (130, 7.35672116279602050781e-02) (131, 1.62758737802505493164e-01) (132, 3.17525789141654968262e-02) (133, 3.24867069721221923828e-01) (134, 2.46070846915245056152e-01) (135, 3.54396179318428039551e-02) (136, -9.82013493776321411133e-02) (137, -2.39580959081649780273e-01) (138, -1.38477254658937454224e-02) (139, -1.71832442283630371094e-01) (140, 5.29439747333526611328e-01) (141, -2.21679121255874633789e-01) (142, -2.16362982988357543945e-01) (143, 2.95887768268585205078e-01) (144, -1.24011812731623649597e-02) (145, -4.15549397468566894531e-01) (146, 1.13013178110122680664e-01) (147, -4.68274876475334167480e-02) (148, 2.16236934065818786621e-01) (149, 2.69318133592605590820e-01) (150, 3.66396307945251464844e-01) (151, -2.07500129938125610352e-01) (152, -6.27356529235839843750e-01) (153, 3.45493823289871215820e-01) (154, 2.74398744106292724609e-01) (155, -1.20153672993183135986e-01) (156, -8.14213529229164123535e-02) (157, -2.00229093432426452637e-01) (158, 9.71147269010543823242e-02) (159, 9.47592779994010925293e-02) (160, 2.81196057796478271484e-01) (161, -5.91369345784187316895e-02) (162, -1.73844680190086364746e-01) (163, 1.48178413510322570801e-01) (164, -2.16879863291978836060e-02) (165, 5.45326285064220428467e-02) (166, 1.62496924400329589844e-01) (167, 8.03852304816246032715e-02) (168, 1.69452950358390808105e-01) (169, 2.38240376114845275879e-01) (170, 2.73637861013412475586e-01) (171, -3.46755571663379669189e-02) (172, -5.58850347995758056641e-01) (173, 3.58638197183609008789e-01) (174, 1.81010618805885314941e-01) (175, -9.91472974419593811035e-02) (176, -6.26041293144226074219e-02) (177, -7.36608877778053283691e-02) (178, -7.75780603289604187012e-02) (179, -5.90603873133659362793e-02) (180, 3.04371327161788940430e-01) (181, -1.11680679023265838623e-01) (182, -3.39837580919265747070e-01) (183, 4.06414233148097991943e-02) (184, -1.46688103675842285156e-01) (185, -1.89483568072319030762e-01) (186, -3.06762047111988067627e-02) (187, -1.34063050150871276855e-01) (188, 2.61461585760116577148e-01) (189, 8.89540016651153564453e-02) (190, 2.96633929014205932617e-01) (191, -1.24547056853771209717e-01) (192, -6.39853298664093017578e-01) (193, 2.86341756582260131836e-01) (194, 2.91436076164245605469e-01) (195, -2.18815311789512634277e-01) (196, -2.21540778875350952148e-01) (197, -1.89829289913177490234e-01) (198, 1.88068989664316177368e-02) (199, -9.77262929081916809082e-02) (200, 2.13757187128067016602e-01) (201, -2.11932808160781860352e-01) (202, -1.06659404933452606201e-01) (203, 7.39235803484916687012e-02) (204, -1.48984774947166442871e-01) (205, -1.46389231085777282715e-01) (206, -9.76300314068794250488e-02) (207, -1.33663639426231384277e-01) (208, 1.32290497422218322754e-01) (209, 9.26769450306892395020e-02) (210, 1.59877479076385498047e-01) (211, -2.93133277446031570435e-02) (212, -4.04204517602920532227e-01) (213, 7.58682265877723693848e-02) (214, 1.06289967894554138184e-01) (215, -8.07349979877471923828e-02) (216, -1.68585687875747680664e-01) (217, -2.90555030107498168945e-01) (218, -9.77937057614326477051e-02) (219, -6.54000341892242431641e-02) (220, 2.27714657783508300781e-01) (221, 1.76996202208101749420e-03) (222, -2.24301233887672424316e-01) (223, 1.01967630907893180847e-02) (224, 7.08216875791549682617e-02) (225, -2.18841686844825744629e-01) (226, 1.42442649230360984802e-02) (227, 8.85964855551719665527e-02) (228, 8.67005735635757446289e-02) (229, 3.22654157876968383789e-01) (230, 2.65127688646316528320e-01) (231, -6.66953846812248229980e-02) (232, -3.33771646022796630859e-01) (233, 9.82131138443946838379e-02) (234, 7.55143314599990844727e-02) (235, -1.58299013972282409668e-01) (236, -1.72678083181381225586e-01) (237, -8.98433327674865722656e-02) (238, 9.98179465532302856445e-02) (239, 1.59026007167994976044e-03) (240, 1.67061701416969299316e-01) (241, 2.72289272397756576538e-02) (242, -1.46785199642181396484e-01) (243, -1.60977710038423538208e-02) (244, 1.34087204933166503906e-01) (245, -8.01496356725692749023e-02) (246, -6.80242255330085754395e-02) (247, 1.71633601188659667969e-01) (248, 3.61093543469905853271e-02) (249, 2.52110004425048828125e-01) (250, 1.54292076826095581055e-01) (251, -4.30984534323215484619e-02) (252, -2.37325355410575866699e-01) (253, 2.61182058602571487427e-02) (254, 7.64983743429183959961e-02) (255, -1.20662473142147064209e-01) (256, -1.19947500526905059814e-01) (257, 2.14441847056150436401e-02) (258, -1.19189091026782989502e-01) (259, 8.82333591580390930176e-02) (260, 8.87367781251668930054e-03) (261, -1.43107879161834716797e+00) (262, -5.79546630382537841797e-01) (263, 6.09100535511970520020e-02) (264, 2.16387200355529785156e+00) (265, 7.76363909244537353516e-01) (266, 1.18299150466918945312e+00) (267, 1.96324080228805541992e-01) (268, -5.22739887237548828125e-01) (0, 1.03027951717376708984e+00) (1, 1.72053885459899902344e+00) (2, 3.78111749887466430664e-01) (3, 4.66873884201049804688e-01) (4, 9.88292157649993896484e-01) (5, -1.40391767024993896484e-01) (6, 3.48104208707809448242e-01) (7, 1.46441948413848876953e+00) (8, 2.78395503759384155273e-01) (9, 1.40595996379852294922e+00) (10, 1.20761036872863769531e+00) (11, 3.21314007043838500977e-01) (12, 9.15956720709800720215e-02) (13, 6.04086101055145263672e-01) (14, -2.90352463722229003906e+00) (15, -4.05535173416137695312e+00) (16, -1.33118379116058349609e+00) (17, -1.49442803859710693359e+00) (18, -1.41138863563537597656e+00) (19, -1.43877863883972167969e+00) (20, 5.03157258033752441406e-01) (21, 1.11567664146423339844e+00) (22, -5.66015124320983886719e-01) (23, -3.99306535720825195312e-01) (24, 2.52984523773193359375e-01) (25, -7.83657848834991455078e-01) (26, -1.11041687428951263428e-01) (27, 4.83697026968002319336e-01) (28, -5.67792832851409912109e-01) (29, 7.07357645034790039062e-01) (30, 3.76320481300354003906e-01) (31, -4.60825681686401367188e-01) (32, -6.13782346248626708984e-01) (33, -3.49291592836380004883e-01) (34, -2.20063418149948120117e-01) (35, -2.60514587163925170898e-01) (36, -3.36722224950790405273e-01) (37, 1.20286129415035247803e-01) (38, 3.87563765048980712891e-01) (39, -4.32126969099044799805e-02) (40, 3.80092889070510864258e-01) (41, 5.93235135078430175781e-01) (42, -2.02989995479583740234e-01) (43, 1.10553288832306861877e-02) (44, -2.80992805957794189453e-01) (45, -8.16483974456787109375e-01) (46, -1.97827205061912536621e-01) (47, -2.70885109901428222656e-01) (48, -5.19425451755523681641e-01) (49, 3.55592876672744750977e-01) (50, 2.94705361127853393555e-01) (51, -2.40554451942443847656e-01) (52, -2.51175224781036376953e-01) (53, -1.75738409161567687988e-01) (54, -1.89696475863456726074e-01) (55, -3.10335189104080200195e-01) (56, -5.95376253128051757812e-01) (57, -5.82597672939300537109e-01) (58, 2.44030073285102844238e-01) (59, -4.39621359109878540039e-01) (60, 4.69973683357238769531e-01) (61, -4.29649174213409423828e-01) (62, 7.13074684143066406250e-01) (63, 5.94536602497100830078e-01) (64, -6.99207484722137451172e-01) (65, -1.03419929742813110352e-01) (66, 2.38909363746643066406e-01) (67, -1.19483411312103271484e+00) (68, 2.72413730621337890625e-01) (69, -3.79518657922744750977e-01) (70, -9.33581441640853881836e-02) (71, 7.25664734840393066406e-01) (72, 4.61748600006103515625e-01) (73, 3.55161666870117187500e-01) (74, 3.86188626289367675781e-01) (75, 7.47645080089569091797e-01) (76, -5.88293038308620452881e-02) (77, -1.19110512733459472656e+00) (78, -4.18908715248107910156e-01) (79, -7.36251175403594970703e-01) (80, 5.53653776645660400391e-01) (81, -2.74469703435897827148e-01) (82, 3.20416718721389770508e-01) (83, -2.53559231758117675781e-01) (84, -3.76005381345748901367e-01) (85, -1.45414605736732482910e-01) (86, -1.17670595645904541016e-01) (87, -1.36533832550048828125e+00) (88, -5.29075205326080322266e-01) (89, -2.27807268500328063965e-01) (90, 1.58087342977523803711e-01) (91, -2.09224633872509002686e-02) (92, 4.68293458223342895508e-01) (93, -2.99653768539428710938e-01) (94, -2.58711963891983032227e-01) (95, 3.71454209089279174805e-02) (96, -3.08327913284301757812e-01) (97, -1.52539718151092529297e+00) (98, -8.51653814315795898438e-02) (99, -3.48552495241165161133e-01) (100, 4.96233701705932617188e-01) (101, -1.04732014238834381104e-01) (102, 1.19250261783599853516e+00) (103, 5.36927521228790283203e-01) (104, -9.71956670284271240234e-01) (105, 5.49567282199859619141e-01) (106, 1.46527528762817382812e-01) (107, -1.57999479770660400391e+00) (108, 3.11885066330432891846e-02) (109, -3.92962694168090820312e-01) (110, -1.32510736584663391113e-01) (111, 1.28025066852569580078e+00) (112, 1.83369243144989013672e+00) (113, 1.59922316670417785645e-01) (114, 4.78180199861526489258e-02) (115, 1.16751611232757568359e+00) (116, -2.11381062865257263184e-01) (117, -1.58956563472747802734e+00) (118, -5.35493433475494384766e-01) (119, -6.37651264667510986328e-01) (120, 9.30569350719451904297e-01) (121, 1.64446508884429931641e+00) (122, 1.13398420810699462891e+00) (123, 4.00394797325134277344e-01) (124, -6.22124075889587402344e-01) (125, 1.46959531307220458984e+00) (126, 1.24400541186332702637e-01) (127, -1.99616706371307373047e+00) (128, 7.92905241250991821289e-02) (129, -3.73900562524795532227e-01) (130, 2.81593412160873413086e-01) (131, 1.33410227298736572266e+00) (132, 2.32869529724121093750e+00) (133, 1.13462992012500762939e-01) (134, -1.47852450609207153320e-01) (135, 4.01709318161010742188e-01) (136, 1.56063944101333618164e-01) (137, -1.83718729019165039062e+00) (138, -8.59827846288681030273e-02) (139, -3.11012178659439086914e-01) (140, 7.75703966617584228516e-01) (141, -2.24326327443122863770e-02) (142, 9.34584617614746093750e-01) (143, 1.12141811847686767578e+00) (144, -8.49319279193878173828e-01) (145, 9.66541409492492675781e-01) (146, 9.15082871913909912109e-01) (147, -1.90493810176849365234e+00) (148, 8.97472560405731201172e-01) (149, -8.97644221782684326172e-01) (150, -1.63889572024345397949e-01) (151, 1.14385700225830078125e+00) (152, 1.40596318244934082031e+00) (153, 1.30371499061584472656e+00) (154, 8.52224111557006835938e-01) (155, 8.76897513866424560547e-01) (156, 2.56545990705490112305e-01) (157, -1.96909332275390625000e+00) (158, -4.15590792894363403320e-01) (159, -3.69478553533554077148e-01) (160, 4.42000120878219604492e-01) (161, 9.45086255669593811035e-02) (162, -3.44975918531417846680e-01) (163, 1.01187504827976226807e-01) (164, 7.41250067949295043945e-02) (165, 7.99749732017517089844e-01) (166, 7.13954150676727294922e-01) (167, -7.12680578231811523438e-01) (168, 5.76487220823764801025e-02) (169, 3.80532331764698028564e-02) (170, 3.44228833913803100586e-01) (171, -6.80568665266036987305e-02) (172, 2.77249626815319061279e-02) (173, 7.44005799293518066406e-01) (174, 3.13172899186611175537e-02) (175, -1.48857414722442626953e-01) (176, 1.32862761616706848145e-01) (177, -8.30765306949615478516e-01) (178, 3.50077897310256958008e-01) (179, 5.30628720298409461975e-03) (180, 8.67599025368690490723e-02) (181, -2.92252540588378906250e-01) (182, -9.18514370918273925781e-01) (183, -2.48094037175178527832e-01) (184, 1.71271637082099914551e-02) (185, -1.30637764930725097656e-01) (186, -4.27814424037933349609e-01) (187, -2.37823009490966796875e-01) (188, -6.23251572251319885254e-02) (189, 4.39183153212070465088e-02) (190, 5.68654596805572509766e-01) (191, -4.60394442081451416016e-01) (192, -1.46614417433738708496e-01) (193, 2.31636062264442443848e-01) (194, 6.13289065659046173096e-02) (195, -4.89267915487289428711e-01) (196, -4.62223947048187255859e-01) (197, -3.12315285205841064453e-01) (198, 3.37865017354488372803e-02) (199, -4.11796011030673980713e-02) (200, 3.80193263292312622070e-01) (201, 