FANN_FLO_2.0
num_layers=42
learning_rate=0.700000
connection_rate=1.000000
shortcut_connections=1
learning_momentum=0.000000
training_algorithm=2
train_error_function=1
train_stop_function=0
cascade_output_change_fraction=0.010000
quickprop_decay=-0.000100
quickprop_mu=1.750000
rprop_increase_factor=1.200000
rprop_decrease_factor=0.500000
rprop_delta_min=0.000000
rprop_delta_max=50.000000
rprop_delta_zero=0.500000
cascade_output_stagnation_epochs=12
cascade_candidate_change_fraction=0.010000
cascade_candidate_stagnation_epochs=12
cascade_max_out_epochs=150
cascade_max_cand_epochs=150
cascade_num_candidate_groups=2
bit_fail_limit=3.49999994039535522461e-01
cascade_candidate_limit=1.00000000000000000000e+03
cascade_weight_multiplier=4.00000005960464477539e-01
cascade_activation_functions_count=6
cascade_activation_functions=3 5 7 8 10 11 
cascade_activation_steepnesses_count=4
cascade_activation_steepnesses=2.50000000000000000000e-01 5.00000000000000000000e-01 7.50000000000000000000e-01 1.00000000000000000000e+00 
layer_sizes=261 1 1 1 1 1 1 1 1 1 1 1 1 1 1 1 1 1 1 1 1 1 1 1 1 1 1 1 1 1 1 1 1 1 1 1 1 1 1 1 1 3 
neurons (num_inputs, activation_function, activation_steepness)=(0, 0, 0.00000000000000000000e+00) (0, 0, 0.00000000000000000000e+00) (0, 0, 0.00000000000000000000e+00) (0, 0, 0.00000000000000000000e+00) (0, 0, 0.00000000000000000000e+00) (0, 0, 0.00000000000000000000e+00) (0, 0, 0.00000000000000000000e+00) (0, 0, 0.00000000000000000000e+00) (0, 0, 0.00000000000000000000e+00) (0, 0, 0.00000000000000000000e+00) (0, 0, 0.00000000000000000000e+00) (0, 0, 0.00000000000000000000e+00) (0, 0, 0.00000000000000000000e+00) (0, 0, 0.00000000000000000000e+00) (0, 0, 0.00000000000000000000e+00) (0, 0, 0.00000000000000000000e+00) (0, 0, 0.00000000000000000000e+00) (0, 0, 0.00000000000000000000e+00) (0, 0, 0.00000000000000000000e+00) (0, 0, 0.00000000000000000000e+00) (0, 0, 0.00000000000000000000e+00) (0, 0, 0.00000000000000000000e+00) (0, 0, 0.00000000000000000000e+00) (0, 0, 0.00000000000000000000e+00) (0, 0, 0.00000000000000000000e+00) (0, 0, 0.00000000000000000000e+00) (0, 0, 0.00000000000000000000e+00) (0, 0, 0.00000000000000000000e+00) (0, 0, 0.00000000000000000000e+00) (0, 0, 0.00000000000000000000e+00) (0, 0, 0.00000000000000000000e+00) (0, 0, 0.00000000000000000000e+00) (0, 0, 0.00000000000000000000e+00) (0, 0, 0.00000000000000000000e+00) (0, 0, 0.00000000000000000000e+00) (0, 0, 0.00000000000000000000e+00) (0, 0, 0.00000000000000000000e+00) (0, 0, 0.00000000000000000000e+00) (0, 0, 0.00000000000000000000e+00) (0, 0, 0.00000000000000000000e+00) (0, 0, 0.00000000000000000000e+00) (0, 0, 0.00000000000000000000e+00) (0, 0, 0.00000000000000000000e+00) (0, 0, 0.00000000000000000000e+00) (0, 0, 0.00000000000000000000e+00) (0, 0, 0.00000000000000000000e+00) (0, 0, 0.00000000000000000000e+00) (0, 0, 0.00000000000000000000e+00) (0, 0, 0.00000000000000000000e+00) (0, 0, 0.00000000000000000000e+00) (0, 0, 0.00000000000000000000e+00) (0, 0, 0.00000000000000000000e+00) (0, 0, 0.00000000000000000000e+00) (0, 0, 0.00000000000000000000e+00) (0, 0, 0.00000000000000000000e+00) (0, 0, 0.00000000000000000000e+00) (0, 0, 0.00000000000000000000e+00) (0, 0, 0.00000000000000000000e+00) (0, 0, 0.00000000000000000000e+00) (0, 0, 0.00000000000000000000e+00) (0, 0, 0.00000000000000000000e+00) (0, 0, 0.00000000000000000000e+00) (0, 0, 0.00000000000000000000e+00) (0, 0, 0.00000000000000000000e+00) (0, 0, 0.00000000000000000000e+00) (0, 0, 0.00000000000000000000e+00) (0, 0, 0.00000000000000000000e+00) (0, 0, 0.00000000000000000000e+00) (0, 0, 0.00000000000000000000e+00) (0, 0, 0.00000000000000000000e+00) (0, 0, 0.00000000000000000000e+00) (0, 0, 0.00000000000000000000e+00) (0, 0, 0.00000000000000000000e+00) (0, 0, 0.00000000000000000000e+00) (0, 0, 0.00000000000000000000e+00) (0, 0, 0.00000000000000000000e+00) (0, 0, 0.00000000000000000000e+00) (0, 0, 0.00000000000000000000e+00) (0, 0, 0.00000000000000000000e+00) (0, 0, 0.00000000000000000000e+00) (0, 0, 0.00000000000000000000e+00) (0, 0, 0.00000000000000000000e+00) (0, 0, 0.00000000000000000000e+00) (0, 0, 0.00000000000000000000e+00) (0, 0, 0.00000000000000000000e+00) (0, 0, 0.00000000000000000000e+00) (0, 0, 0.00000000000000000000e+00) (0, 0, 0.00000000000000000000e+00) (0, 0, 0.00000000000000000000e+00) (0, 0, 0.00000000000000000000e+00) (0, 0, 0.00000000000000000000e+00) (0, 0, 0.00000000000000000000e+00) (0, 0, 0.00000000000000000000e+00) (0, 0, 0.00000000000000000000e+00) (0, 0, 0.00000000000000000000e+00) (0, 0, 0.00000000000000000000e+00) (0, 0, 0.00000000000000000000e+00) (0, 0, 0.00000000000000000000e+00) (0, 0, 0.00000000000000000000e+00) (0, 0, 0.00000000000000000000e+00) (0, 0, 0.00000000000000000000e+00) (0, 0, 0.00000000000000000000e+00) (0, 0, 0.00000000000000000000e+00) (0, 0, 0.00000000000000000000e+00) (0, 0, 0.00000000000000000000e+00) (0, 0, 0.00000000000000000000e+00) (0, 0, 0.00000000000000000000e+00) (0, 0, 0.00000000000000000000e+00) (0, 0, 0.00000000000000000000e+00) (0, 0, 0.00000000000000000000e+00) (0, 0, 0.00000000000000000000e+00) (0, 0, 0.00000000000000000000e+00) (0, 0, 0.00000000000000000000e+00) (0, 0, 0.00000000000000000000e+00) (0, 0, 0.00000000000000000000e+00) (0, 0, 0.00000000000000000000e+00) (0, 0, 0.00000000000000000000e+00) (0, 0, 0.00000000000000000000e+00) (0, 0, 0.00000000000000000000e+00) (0, 0, 0.00000000000000000000e+00) (0, 0, 0.00000000000000000000e+00) (0, 0, 0.00000000000000000000e+00) (0, 0, 0.00000000000000000000e+00) (0, 0, 0.00000000000000000000e+00) (0, 0, 0.00000000000000000000e+00) (0, 0, 0.00000000000000000000e+00) (0, 0, 0.00000000000000000000e+00) (0, 0, 0.00000000000000000000e+00) (0, 0, 0.00000000000000000000e+00) (0, 0, 0.00000000000000000000e+00) (0, 0, 0.00000000000000000000e+00) (0, 0, 0.00000000000000000000e+00) (0, 0, 0.00000000000000000000e+00) (0, 0, 0.00000000000000000000e+00) (0, 0, 0.00000000000000000000e+00) (0, 0, 0.00000000000000000000e+00) (0, 0, 0.00000000000000000000e+00) (0, 0, 0.00000000000000000000e+00) (0, 0, 0.00000000000000000000e+00) (0, 0, 0.00000000000000000000e+00) (0, 0, 0.00000000000000000000e+00) (0, 0, 0.00000000000000000000e+00) (0, 0, 0.00000000000000000000e+00) (0, 0, 0.00000000000000000000e+00) (0, 0, 0.00000000000000000000e+00) (0, 0, 0.00000000000000000000e+00) (0, 0, 0.00000000000000000000e+00) (0, 0, 0.00000000000000000000e+00) (0, 0, 0.00000000000000000000e+00) (0, 0, 0.00000000000000000000e+00) (0, 0, 0.00000000000000000000e+00) (0, 0, 0.00000000000000000000e+00) (0, 0, 0.00000000000000000000e+00) (0, 0, 0.00000000000000000000e+00) (0, 0, 0.00000000000000000000e+00) (0, 0, 0.00000000000000000000e+00) (0, 0, 0.00000000000000000000e+00) (0, 0, 0.00000000000000000000e+00) (0, 0, 0.00000000000000000000e+00) (0, 0, 0.00000000000000000000e+00) (0, 0, 0.00000000000000000000e+00) (0, 0, 0.00000000000000000000e+00) (0, 0, 0.00000000000000000000e+00) (0, 0, 0.00000000000000000000e+00) (0, 0, 0.00000000000000000000e+00) (0, 0, 0.00000000000000000000e+00) (0, 0, 0.00000000000000000000e+00) (0, 0, 0.00000000000000000000e+00) (0, 0, 0.00000000000000000000e+00) (0, 0, 0.00000000000000000000e+00) (0, 0, 0.00000000000000000000e+00) (0, 0, 0.00000000000000000000e+00) (0, 0, 0.00000000000000000000e+00) (0, 0, 0.00000000000000000000e+00) (0, 0, 0.00000000000000000000e+00) (0, 0, 0.00000000000000000000e+00) (0, 0, 0.00000000000000000000e+00) (0, 0, 0.00000000000000000000e+00) (0, 0, 0.00000000000000000000e+00) (0, 0, 0.00000000000000000000e+00) (0, 0, 0.00000000000000000000e+00) (0, 0, 0.00000000000000000000e+00) (0, 0, 0.00000000000000000000e+00) (0, 0, 0.00000000000000000000e+00) (0, 0, 0.00000000000000000000e+00) (0, 0, 0.00000000000000000000e+00) (0, 0, 0.00000000000000000000e+00) (0, 0, 0.00000000000000000000e+00) (0, 0, 0.00000000000000000000e+00) (0, 0, 0.00000000000000000000e+00) (0, 0, 0.00000000000000000000e+00) (0, 0, 0.00000000000000000000e+00) (0, 0, 0.00000000000000000000e+00) (0, 0, 0.00000000000000000000e+00) (0, 0, 0.00000000000000000000e+00) (0, 0, 0.00000000000000000000e+00) (0, 0, 0.00000000000000000000e+00) (0, 0, 0.00000000000000000000e+00) (0, 0, 0.00000000000000000000e+00) (0, 0, 0.00000000000000000000e+00) (0, 0, 0.00000000000000000000e+00) (0, 0, 0.00000000000000000000e+00) (0, 0, 0.00000000000000000000e+00) (0, 0, 0.00000000000000000000e+00) (0, 0, 0.00000000000000000000e+00) (0, 0, 0.00000000000000000000e+00) (0, 0, 0.00000000000000000000e+00) (0, 0, 0.00000000000000000000e+00) (0, 0, 0.00000000000000000000e+00) (0, 0, 0.00000000000000000000e+00) (0, 0, 0.00000000000000000000e+00) (0, 0, 0.00000000000000000000e+00) (0, 0, 0.00000000000000000000e+00) (0, 0, 0.00000000000000000000e+00) (0, 0, 0.00000000000000000000e+00) (0, 0, 0.00000000000000000000e+00) (0, 0, 0.00000000000000000000e+00) (0, 0, 0.00000000000000000000e+00) (0, 0, 0.00000000000000000000e+00) (0, 0, 0.00000000000000000000e+00) (0, 0, 0.00000000000000000000e+00) (0, 0, 0.00000000000000000000e+00) (0, 0, 0.00000000000000000000e+00) (0, 0, 0.00000000000000000000e+00) (0, 0, 0.00000000000000000000e+00) (0, 0, 0.00000000000000000000e+00) (0, 0, 0.00000000000000000000e+00) (0, 0, 0.00000000000000000000e+00) (0, 0, 0.00000000000000000000e+00) (0, 0, 0.00000000000000000000e+00) (0, 0, 0.00000000000000000000e+00) (0, 0, 0.00000000000000000000e+00) (0, 0, 0.00000000000000000000e+00) (0, 0, 0.00000000000000000000e+00) (0, 0, 0.00000000000000000000e+00) (0, 0, 0.00000000000000000000e+00) (0, 0, 0.00000000000000000000e+00) (0, 0, 0.00000000000000000000e+00) (0, 0, 0.00000000000000000000e+00) (0, 0, 0.00000000000000000000e+00) (0, 0, 0.00000000000000000000e+00) (0, 0, 0.00000000000000000000e+00) (0, 0, 0.00000000000000000000e+00) (0, 0, 0.00000000000000000000e+00) (0, 0, 0.00000000000000000000e+00) (0, 0, 0.00000000000000000000e+00) (0, 0, 0.00000000000000000000e+00) (0, 0, 0.00000000000000000000e+00) (0, 0, 0.00000000000000000000e+00) (0, 0, 0.00000000000000000000e+00) (0, 0, 0.00000000000000000000e+00) (0, 0, 0.00000000000000000000e+00) (0, 0, 0.00000000000000000000e+00) (0, 0, 0.00000000000000000000e+00) (0, 0, 0.00000000000000000000e+00) (0, 0, 0.00000000000000000000e+00) (0, 0, 0.00000000000000000000e+00) (0, 0, 0.00000000000000000000e+00) (0, 0, 0.00000000000000000000e+00) (0, 0, 0.00000000000000000000e+00) (0, 0, 0.00000000000000000000e+00) (261, 8, 2.50000000000000000000e-01) (262, 8, 1.00000000000000000000e+00) (263, 8, 1.00000000000000000000e+00) (264, 8, 7.50000000000000000000e-01) (265, 8, 5.00000000000000000000e-01) (266, 8, 7.50000000000000000000e-01) (267, 3, 5.00000000000000000000e-01) (268, 8, 5.00000000000000000000e-01) (269, 8, 1.00000000000000000000e+00) (270, 8, 7.50000000000000000000e-01) (271, 8, 1.00000000000000000000e+00) (272, 8, 1.00000000000000000000e+00) (273, 8, 1.00000000000000000000e+00) (274, 8, 1.00000000000000000000e+00) (275, 8, 5.00000000000000000000e-01) (276, 8, 5.00000000000000000000e-01) (277, 8, 5.00000000000000000000e-01) (278, 8, 1.00000000000000000000e+00) (279, 8, 2.50000000000000000000e-01) (280, 3, 1.00000000000000000000e+00) (281, 3, 1.00000000000000000000e+00) (282, 8, 5.00000000000000000000e-01) (283, 8, 1.00000000000000000000e+00) (284, 8, 7.50000000000000000000e-01) (285, 8, 2.50000000000000000000e-01) (286, 3, 1.00000000000000000000e+00) (287, 3, 1.00000000000000000000e+00) (288, 8, 2.50000000000000000000e-01) (289, 8, 5.00000000000000000000e-01) (290, 8, 2.50000000000000000000e-01) (291, 8, 7.50000000000000000000e-01) (292, 8, 5.00000000000000000000e-01) (293, 8, 5.00000000000000000000e-01) (294, 8, 5.00000000000000000000e-01) (295, 5, 1.00000000000000000000e+00) (296, 8, 2.50000000000000000000e-01) (297, 8, 5.00000000000000000000e-01) (298, 8, 7.50000000000000000000e-01) (299, 8, 7.50000000000000000000e-01) (300, 8, 7.50000000000000000000e-01) (301, 5, 5.00000000000000000000e-01) (301, 5, 5.00000000000000000000e-01) (301, 5, 5.00000000000000000000e-01) 
connections (connected_to_neuron, weight)=(0, 3.23114424943923950195e-01) (1, 3.15043240785598754883e-01) (2, 3.23931694030761718750e-01) (3, 3.10252696275711059570e-01) (4, 3.09373617172241210938e-01) (5, 3.26497822999954223633e-01) (6, 3.16816449165344238281e-01) (7, 3.09231996536254882812e-01) (8, 3.16235333681106567383e-01) (9, 3.14124703407287597656e-01) (10, 3.02062004804611206055e-01) (11, 3.25257062911987304688e-01) (12, 3.03914308547973632812e-01) (13, 3.29350024461746215820e-01) (14, 3.38667482137680053711e-01) (15, 3.07394474744796752930e-01) (16, 3.28587323427200317383e-01) (17, 3.41092139482498168945e-01) (18, 3.42048287391662597656e-01) (19, 3.14892381429672241211e-01) (20, 2.69728481769561767578e-01) (21, 2.73776948451995849609e-01) (22, 2.66027122735977172852e-01) (23, 2.74613529443740844727e-01) (24, 2.72199541330337524414e-01) (25, 2.78096377849578857422e-01) (26, 2.60105848312377929688e-01) (27, 2.74923175573348999023e-01) (28, 2.82749265432357788086e-01) (29, 2.69512057304382324219e-01) (30, 2.86551654338836669922e-01) (31, 2.67421454191207885742e-01) (32, 2.62871533632278442383e-01) (33, 2.71091014146804809570e-01) (34, 2.73850589990615844727e-01) (35, 2.71674036979675292969e-01) (36, 2.67792195081710815430e-01) (37, 2.67627179622650146484e-01) (38, 2.79068738222122192383e-01) (39, 2.71846711635589599609e-01) (40, 2.88404583930969238281e-01) (41, 2.80592590570449829102e-01) (42, 2.68619298934936523438e-01) (43, 2.81889081001281738281e-01) (44, 2.76414453983306884766e-01) (45, 2.70835191011428833008e-01) (46, 2.68538206815719604492e-01) (47, 2.81742215156555175781e-01) (48, 2.94471502304077148438e-01) (49, 2.78746515512466430664e-01) (50, 3.33040684461593627930e-01) (51, 2.81788229942321777344e-01) (52, 2.80021756887435913086e-01) (53, 2.77241021394729614258e-01) (54, 2.83897787332534790039e-01) (55, 2.84642428159713745117e-01) (56, 2.82928615808486938477e-01) (57, 2.78490304946899414062e-01) (58, 2.95009881258010864258e-01) (59, 2.77206003665924072266e-01) (60, 2.79296815395355224609e-01) (61, 2.76191055774688720703e-01) (62, 2.68773823976516723633e-01) (63, 2.76126295328140258789e-01) (64, 2.72603064775466918945e-01) (65, 2.77709037065505981445e-01) (66, 2.62018114328384399414e-01) (67, 2.81435787677764892578e-01) (68, 2.82596230506896972656e-01) (69, 2.78238236904144287109e-01) (70, 3.48321288824081420898e-01) (71, 2.69833445549011230469e-01) (72, 2.62349039316177368164e-01) (73, 2.74819195270538330078e-01) (74, 2.70010948181152343750e-01) (75, 2.83940613269805908203e-01) (76, 2.73050338029861450195e-01) (77, 2.79982984066009521484e-01) (78, 2.78161823749542236328e-01) (79, 2.67996370792388916016e-01) (80, 2.18599691987037658691e-01) (81, 2.23946034908294677734e-01) (82, 1.93685203790664672852e-01) (83, 2.15103730559349060059e-01) (84, 2.13591188192367553711e-01) (85, 2.07824230194091796875e-01) (86, 2.02156797051429748535e-01) (87, 2.16780304908752441406e-01) (88, 2.12212368845939636230e-01) (89, 2.14773848652839660645e-01) (90, 3.20022642612457275391e-01) (91, 2.00851351022720336914e-01) (92, 1.96913674473762512207e-01) (93, 2.09773227572441101074e-01) (94, 2.12842866778373718262e-01) (95, 2.19536229968070983887e-01) (96, 2.08603650331497192383e-01) (97, 2.21891000866889953613e-01) (98, 2.18094080686569213867e-01) (99, 2.04696089029312133789e-01) (100, 1.97505071759223937988e-01) (101, 1.88234835863113403320e-01) (102, 1.65112331509590148926e-01) (103, 1.89686208963394165039e-01) (104, 1.89862892031669616699e-01) (105, 1.57109737396240234375e-01) (106, 1.94690167903900146484e-01) (107, 1.89729750156402587891e-01) (108, 1.98782518506050109863e-01) (109, 1.91760256886482238770e-01) (110, 3.02649974822998046875e-01) (111, 1.58050462603569030762e-01) (112, 1.55271023511886596680e-01) (113, 1.85452744364738464355e-01) (114, 1.89365431666374206543e-01) (115, 2.08606421947479248047e-01) (116, 1.89776152372360229492e-01) (117, 1.84453696012496948242e-01) (118, 1.87039032578468322754e-01) (119, 1.78001880645751953125e-01) (120, 1.54439687728881835938e-01) (121, 1.59873262047767639160e-01) (122, 1.17309942841529846191e-01) (123, 1.46196722984313964844e-01) (124, 1.37427628040313720703e-01) (125, 8.32990109920501708984e-02) (126, 1.50640711188316345215e-01) (127, 1.45274519920349121094e-01) (128, 1.63116678595542907715e-01) (129, 1.49333536624908447266e-01) (130, 2.73087620735168457031e-01) (131, 1.12149752676486968994e-01) (132, 7.75756761431694030762e-02) (133, 1.58089846372604370117e-01) (134, 1.38758882880210876465e-01) (135, 1.37634277343750000000e-01) (136, 1.37750461697578430176e-01) (137, 1.32283449172973632812e-01) (138, 1.43514111638069152832e-01) (139, 1.36035934090614318848e-01) (140, 2.22859054803848266602e-01) (141, 2.32476457953453063965e-01) (142, 1.78645759820938110352e-01) (143, 2.17159628868103027344e-01) (144, 2.10222914814949035645e-01) (145, 1.71426028013229370117e-01) (146, 2.12528750300407409668e-01) (147, 2.16496139764785766602e-01) (148, 2.12292090058326721191e-01) (149, 2.13712230324745178223e-01) (150, 2.36375197768211364746e-01) (151, 1.93979382514953613281e-01) (152, 1.59769222140312194824e-01) (153, 2.17610076069831848145e-01) (154, 2.02923268079757690430e-01) (155, 2.19980105757713317871e-01) (156, 2.04630210995674133301e-01) (157, 2.10067570209503173828e-01) (158, 2.14656814932823181152e-01) (159, 2.09472030401229858398e-01) (160, 2.24472746253013610840e-01) (161, 2.26209565997123718262e-01) (162, 1.87807530164718627930e-01) (163, 2.14533150196075439453e-01) (164, 2.16095849871635437012e-01) (165, 1.93203911185264587402e-01) (166, 2.16014191508293151855e-01) (167, 2.17892140150070190430e-01) (168, 2.24249035120010375977e-01) (169, 2.23392605781555175781e-01) (170, 2.28080302476882934570e-01) (171, 2.01831504702568054199e-01) (172, 1.79579898715019226074e-01) (173, 2.22971811890602111816e-01) (174, 2.15741679072380065918e-01) (175, 2.12959542870521545410e-01) (176, 2.06986472010612487793e-01) (177, 2.09763437509536743164e-01) (178, 2.09024503827095031738e-01) (179, 2.18123748898506164551e-01) (180, 2.72707402706146240234e-01) (181, 2.72052288055419921875e-01) (182, 2.49032557010650634766e-01) (183, 2.64130949974060058594e-01) (184, 2.69584983587265014648e-01) (185, 2.63275861740112304688e-01) (186, 2.67896205186843872070e-01) (187, 2.80225992202758789062e-01) (188, 2.78297781944274902344e-01) (189, 2.79701411724090576172e-01) (190, 2.82245844602584838867e-01) (191, 2.64021575450897216797e-01) (192, 2.48007073998451232910e-01) (193, 2.73856133222579956055e-01) (194, 2.75915324687957763672e-01) (195, 2.71376341581344604492e-01) (196, 2.60695874691009521484e-01) (197, 2.69575029611587524414e-01) (198, 2.66072034835815429688e-01) (199, 2.66147881746292114258e-01) (200, 2.33830794692039489746e-01) (201, 2.34487369656562805176e-01) (202, 2.23306551575660705566e-01) (203, 2.32446134090423583984e-01) (204, 2.28616327047348022461e-01) (205, 2.30291828513145446777e-01) (206, 2.27121114730834960938e-01) (207, 2.30966225266456604004e-01) (208, 2.42873653769493103027e-01) (209, 2.32125580310821533203e-01) (210, 2.26987481117248535156e-01) (211, 2.33199596405029296875e-01) (212, 2.18636453151702880859e-01) (213, 2.34654366970062255859e-01) (214, 2.35522940754890441895e-01) (215, 2.32723683118820190430e-01) (216, 2.29879900813102722168e-01) (217, 2.23103150725364685059e-01) (218, 2.22580522298812866211e-01) (219, 2.29373276233673095703e-01) (220, 2.64266997575759887695e-01) (221, 2.58951246738433837891e-01) (222, 2.43105694651603698730e-01) (223, 2.52891749143600463867e-01) (224, 2.57133603096008300781e-01) (225, 2.55761116743087768555e-01) (226, 2.50276356935501098633e-01) (227, 2.53202706575393676758e-01) (228, 2.70354390144348144531e-01) (229, 2.64362871646881103516e-01) (230, 2.58451104164123535156e-01) (231, 2.63606101274490356445e-01) (232, 2.54746437072753906250e-01) (233, 2.55646616220474243164e-01) (234, 2.64043897390365600586e-01) (235, 2.57564067840576171875e-01) (236, 2.52858877182006835938e-01) (237, 2.47538715600967407227e-01) (238, 2.48495802283287048340e-01) (239, 2.48735278844833374023e-01) (240, 2.71034419536590576172e-01) (241, 2.68623322248458862305e-01) (242, 2.60001987218856811523e-01) (243, 2.67378419637680053711e-01) (244, 2.72742867469787597656e-01) (245, 2.68794029951095581055e-01) (246, 2.63124287128448486328e-01) (247, 2.69912153482437133789e-01) (248, 2.75543391704559326172e-01) (249, 2.79156595468521118164e-01) (250, 2.69451469182968139648e-01) (251, 2.75256901979446411133e-01) (252, 2.70658850669860839844e-01) (253, 2.71706998348236083984e-01) (254, 2.77610421180725097656e-01) (255, 2.67178893089294433594e-01) (256, 2.64744579792022705078e-01) (257, 2.78481185436248779297e-01) (258, 2.65238672494888305664e-01) (259, 2.67619252204895019531e-01) (260, 2.34278157353401184082e-01) (0, -1.36693283915519714355e-01) (1, -3.13001304864883422852e-01) (2, 1.03604987263679504395e-01) (3, -8.47167335450649261475e-03) (4, -2.35740780830383300781e-01) (5, 1.05638422071933746338e-01) (6, -5.04175573587417602539e-02) (7, -3.12614381313323974609e-01) (8, 7.51437917351722717285e-02) (9, -2.53113448619842529297e-01) (10, -2.52007663249969482422e-01) (11, 4.41571660339832305908e-02) (12, 4.57513257861137390137e-02) (13, -3.27735207974910736084e-02) (14, 3.66898536682128906250e-01) (15, 5.52286803722381591797e-01) (16, -1.69559121131896972656e+00) (17, -1.62598776817321777344e+00) (18, -1.69404339790344238281e+00) (19, -1.62018167972564697266e+00) (20, -1.80447652935981750488e-01) (21, -2.13437303900718688965e-01) (22, 4.52269800007343292236e-02) (23, -1.14640861749649047852e-01) (24, -2.65529870986938476562e-01) (25, 2.71725356578826904297e-01) (26, -6.53272941708564758301e-02) (27, -3.17069977521896362305e-01) (28, 5.40159456431865692139e-02) (29, -2.66856968402862548828e-01) (30, -1.66732966899871826172e-01) (31, 1.95651337504386901855e-01) (32, 2.38273903727531433105e-01) (33, 3.36196757853031158447e-02) (34, 1.88119802623987197876e-02) (35, 1.09498508274555206299e-01) (36, 3.93703430891036987305e-02) (37, -1.53029903769493103027e-01) (38, -2.50703245401382446289e-01) (39, -7.99401625990867614746e-02) (40, -1.65765926241874694824e-01) (41, -1.78926378488540649414e-01) (42, 1.46767050027847290039e-01) (43, -3.47727686166763305664e-02) (44, -2.75342941284179687500e-01) (45, 4.38364148139953613281e-01) (46, 4.40675355494022369385e-02) (47, -3.37751656770706176758e-01) (48, 2.06112340092658996582e-01) (49, -3.86791020631790161133e-01) (50, -2.46539399027824401855e-01) (51, 2.03685581684112548828e-01) (52, 1.93614065647125244141e-01) (53, 7.20220655202865600586e-02) (54, 8.19443315267562866211e-02) (55, 7.13094696402549743652e-02) (56, 4.21756356954574584961e-02) (57, -1.62178456783294677734e-01) (58, -2.36134231090545654297e-01) (59, -9.65593457221984863281e-02) (60, -1.62376895546913146973e-01) (61, -1.83414593338966369629e-01) (62, 7.86645933985710144043e-02) (63, -6.39676302671432495117e-02) (64, -1.12851135432720184326e-01) (65, 4.67307806015014648438e-01) (66, 1.64027530699968338013e-02) (67, -1.70910488814115524292e-02) (68, 1.07019260525703430176e-01) (69, -2.43891626596450805664e-01) (70, -1.86078071594238281250e-01) (71, 1.78792819380760192871e-01) (72, 9.14285853505134582520e-02) (73, -4.03372161090373992920e-02) (74, 3.37090604007244110107e-02) (75, 9.89070236682891845703e-02) (76, 1.93103700876235961914e-01) (77, 1.48002162575721740723e-01) (78, -1.14102303981781005859e-01) (79, 1.45780295133590698242e-02) (80, -1.70214265584945678711e-01) (81, 1.45215675234794616699e-01) (82, -2.36286833882331848145e-01) (83, -2.84027040004730224609e-01) (84, 2.08574414253234863281e-01) (85, 2.18257814645767211914e-01) (86, -4.91356886923313140869e-02) (87, 3.86413455009460449219e-01) (88, -5.01342527568340301514e-02) (89, 1.35366439819335937500e-01) (90, 1.71525459736585617065e-02) (91, -1.10600486397743225098e-01) (92, -6.24405108392238616943e-02) (93, -1.56863719224929809570e-01) (94, -6.71615153551101684570e-02) (95, -1.43214300274848937988e-01) (96, 1.85053959488868713379e-01) (97, 4.78993684053421020508e-01) (98, 1.53218448162078857422e-01) (99, 2.61148810386657714844e-01) (100, -2.25354060530662536621e-01) (101, 1.86740010976791381836e-01) (102, -4.03136670589447021484e-01) (103, -1.82333245873451232910e-01) (104, 1.31865918636322021484e-01) (105, -3.58975321054458618164e-01) (106, -1.97275150567293167114e-02) (107, 4.24738764762878417969e-01) (108, -6.05043582618236541748e-02) (109, 1.27215415239334106445e-01) (110, -8.53727012872695922852e-02) (111, -2.59857594966888427734e-01) (112, -2.80092835426330566406e-01) (113, -1.81527927517890930176e-01) (114, -3.41927483677864074707e-02) (115, -1.76562264561653137207e-01) (116, 1.72865554690361022949e-01) (117, 4.84603345394134521484e-01) (118, 1.84046506881713867188e-01) (119, 2.25209757685661315918e-01) (120, -2.69555777311325073242e-01) (121, 4.44068223237991333008e-01) (122, -9.08790111541748046875e-01) (123, -5.48774778842926025391e-01) (124, 4.66309428215026855469e-01) (125, -7.37175881862640380859e-01) (126, -2.89493918418884277344e-01) (127, 5.78635692596435546875e-01) (128, -5.32032608985900878906e-01) (129, 3.42761158943176269531e-01) (130, 6.73321932554244995117e-02) (131, -7.72465884685516357422e-01) (132, -9.03467178344726562500e-01) (133, -5.96420884132385253906e-01) (134, -3.34295570850372314453e-01) (135, -6.03912651538848876953e-01) (136, 8.56865942478179931641e-02) (137, 6.05285704135894775391e-01) (138, 3.30519139766693115234e-01) (139, 4.29988473653793334961e-01) (140, -7.51288831233978271484e-02) (141, 3.89258772134780883789e-01) (142, -1.10287614166736602783e-01) (143, -9.01385992765426635742e-02) (144, 3.13429504632949829102e-01) (145, -2.36801370978355407715e-01) (146, 1.17321692407131195068e-01) (147, 5.64527392387390136719e-01) (148, -1.05361193418502807617e-01) (149, 2.45292603969573974609e-01) (150, 9.23765003681182861328e-02) (151, -1.32499068975448608398e-01) (152, -5.32326221466064453125e-01) (153, -9.37616601586341857910e-02) (154, 1.29139283671975135803e-02) (155, -4.18481677770614624023e-02) (156, 2.12894201278686523438e-01) (157, 6.24683916568756103516e-01) (158, 2.50387758016586303711e-01) (159, 3.73750001192092895508e-01) (160, -2.06108726561069488525e-02) (161, 3.03195714950561523438e-01) (162, -5.66425509750843048096e-02) (163, -2.31159612536430358887e-01) (164, 3.52121621370315551758e-01) (165, 7.72791579365730285645e-02) (166, -3.73719483613967895508e-02) (167, 4.71226543188095092773e-01) (168, -2.04583093523979187012e-01) (169, 2.05251321196556091309e-01) (170, 8.17953944206237792969e-02) (171, -1.17893487215042114258e-01) (172, 9.91320982575416564941e-02) (173, -1.73231035470962524414e-01) (174, -8.78040492534637451172e-02) (175, -3.17934006452560424805e-02) (176, 1.49182111024856567383e-01) (177, 5.51365554332733154297e-01) (178, 2.66774028539657592773e-01) (179, 2.66607820987701416016e-01) (180, -1.13158114254474639893e-01) (181, 5.77061064541339874268e-02) (182, 1.71203449368476867676e-01) (183, -1.16524398326873779297e-01) (184, -8.95289108157157897949e-02) (185, 2.17731878161430358887e-01) (186, -8.96298959851264953613e-02) (187, 2.87855956703424453735e-02) (188, -7.64542371034622192383e-02) (189, -2.33110442757606506348e-01) (190, -2.09224224090576171875e-01) (191, 4.55403253436088562012e-02) (192, 2.10990339517593383789e-01) (193, -1.39167115092277526855e-01) (194, -4.54530715942382812500e-02) (195, 1.04263216257095336914e-01) (196, 8.61313715577125549316e-02) (197, 1.74694418907165527344e-01) (198, -3.99638302624225616455e-02) (199, -4.70552593469619750977e-03) (200, -6.06475919485092163086e-02) (201, 3.53824347257614135742e-02) (202, 3.62389266490936279297e-01) (203, 8.39807391166687011719e-02) (204, -1.49621769785881042480e-01) (205, 3.38480681180953979492e-01) (206, -9.92552377283573150635e-05) (207, -2.37325310707092285156e-01) (208, -1.60137563943862915039e-02) (209, -3.21063697338104248047e-01) (210, -2.72820740938186645508e-01) (211, 1.58446326851844787598e-01) (212, 3.15127342939376831055e-01) (213, -3.12490034848451614380e-02) (214, -2.27094348520040512085e-02) (215, 2.00638830661773681641e-01) (216, 1.51374667882919311523e-01) (217, -5.88283501565456390381e-02) (218, -1.09294280409812927246e-01) (219, -4.78225909173488616943e-02) (220, -1.18938401341438293457e-01) (221, -6.58889561891555786133e-02) (222, 2.21835300326347351074e-01) (223, -7.90419615805149078369e-03) (224, -1.31616637110710144043e-01) (225, 2.94608354568481445312e-01) (226, -7.17095937579870223999e-03) (227, -2.36544877290725708008e-01) (228, -4.31508459150791168213e-02) (229, -2.95230984687805175781e-01) (230, -1.95337027311325073242e-01) (231, 1.54452070593833923340e-01) (232, 1.71252772212028503418e-01) (233, -4.66946475207805633545e-02) (234, -6.11487664282321929932e-02) (235, 1.47982761263847351074e-01) (236, 1.01620458066463470459e-01) (237, -1.15294128656387329102e-01) (238, -1.55017435550689697266e-01) (239, -9.71367657184600830078e-02) (240, -7.92908817529678344727e-02) (241, -1.40675634145736694336e-01) (242, 1.34875938296318054199e-01) (243, 2.86964680999517440796e-02) (244, -1.45700246095657348633e-01) (245, 2.21547931432723999023e-01) (246, -1.76662649028003215790e-03) (247, -2.31164515018463134766e-01) (248, -1.07022160664200782776e-02) (249, -2.67042785882949829102e-01) (250, -1.95905432105064392090e-01) (251, 9.95915383100509643555e-02) (252, 1.44426658749580383301e-01) (253, -2.23410557955503463745e-02) (254, -4.79458719491958618164e-02) (255, 1.39490783214569091797e-01) (256, 1.25639081001281738281e-01) (257, -1.13152295351028442383e-01) (258, -1.54913127422332763672e-01) (259, -5.86722493171691894531e-02) (260, 8.08513462543487548828e-02) (261, -6.45463049411773681641e-01) (0, -3.29499095678329467773e-01) (1, -1.48612827062606811523e-01) (2, -2.43563190102577209473e-01) (3, -3.32157909870147705078e-01) (4, -2.81576424837112426758e-01) (5, 3.47343571484088897705e-02) (6, -1.54293134808540344238e-01) (7, -2.89760142564773559570e-01) (8, -1.72425284981727600098e-01) (9, -3.39315295219421386719e-01) (10, -3.43604594469070434570e-01) (11, -1.83457538485527038574e-01) (12, -1.51009216904640197754e-01) (13, -2.93194919824600219727e-01) (14, -7.06657528877258300781e-01) (15, -4.53222632408142089844e-01) (16, 6.23199999332427978516e-01) (17, 6.23056292533874511719e-01) (18, 5.77742338180541992188e-01) (19, 6.15302622318267822266e-01) (20, -2.42814451456069946289e-01) (21, 2.07269378006458282471e-02) (22, -1.14301197230815887451e-01) (23, -2.23994404077529907227e-01) (24, -1.62462636828422546387e-01) (25, 2.35888570547103881836e-01) (26, 1.56050855293869972229e-02) (27, -1.79395452141761779785e-01) (28, -6.50283396244049072266e-02) (29, -2.25324556231498718262e-01) (30, -1.31773754954338073730e-01) (31, 2.67306789755821228027e-02) (32, 1.37503653764724731445e-01) (33, -9.52583476901054382324e-02) (34, -7.45082572102546691895e-02) (35, -2.62120440602302551270e-02) (36, -5.11920973658561706543e-02) (37, -2.74558532983064651489e-02) (38, -1.28170117735862731934e-01) (39, 1.88192985951900482178e-02) (40, -2.13056072592735290527e-01) (41, 9.46132019162178039551e-02) (42, -8.12405645847320556641e-02) (43, -2.02203422784805297852e-01) (44, -1.07340075075626373291e-01) (45, 3.86783003807067871094e-01) (46, 7.74796903133392333984e-02) (47, -1.60378709435462951660e-01) (48, -2.60409098118543624878e-02) (49, -2.51562029123306274414e-01) (50, -1.61531880497932434082e-01) (51, 6.43925592303276062012e-02) (52, 2.08520293235778808594e-01) (53, -1.51797190308570861816e-01) (54, -9.00492146611213684082e-02) (55, -2.65582520514726638794e-02) (56, -1.14436484873294830322e-02) (57, -1.47626604884862899780e-02) (58, -8.56785103678703308105e-02) (59, 2.02939566224813461304e-02) (60, -2.11389526724815368652e-01) (61, 2.15804114937782287598e-01) (62, -5.79780526459217071533e-02) (63, -1.57705500721931457520e-01) (64, -3.32189258188009262085e-03) (65, 6.02408885955810546875e-01) (66, 1.32997244596481323242e-01) (67, -7.93671756982803344727e-02) (68, 1.86486430466175079346e-02) (69, -2.05910220742225646973e-01) (70, -9.03858393430709838867e-02) (71, 1.18915140628814697266e-01) (72, 3.12038302421569824219e-01) (73, -1.06918498873710632324e-01) (74, -4.66066226363182067871e-02) (75, 7.66996070742607116699e-02) (76, 5.39024248719215393066e-02) (77, 8.52920114994049072266e-02) (78, -1.01107798516750335693e-01) (79, 6.89586699008941650391e-02) (80, -3.13496708869934082031e-01) (81, 2.33566045761108398438e-01) (82, -1.20259515941143035889e-01) (83, -2.54136949777603149414e-01) (84, -1.70679558068513870239e-02) (85, 7.36210107803344726562e-01) (86, 1.31780996918678283691e-01) (87, -6.77105113863945007324e-02) (88, -4.30659204721450805664e-02) (89, -2.57907986640930175781e-01) (90, -1.65229499340057373047e-01) (91, 9.32039096951484680176e-02) (92, 2.78233766555786132812e-01) (93, -1.87658548355102539062e-01) (94, -1.01475574076175689697e-01) (95, 3.83602902293205261230e-02) (96, 9.15160179138183593750e-02) (97, 1.01603120565414428711e-01) (98, -1.28854200243949890137e-01) (99, 2.55330633372068405151e-02) (100, -3.06621640920639038086e-01) (101, 2.93902516365051269531e-01) (102, -7.30892494320869445801e-02) (103, -2.72355377674102783203e-01) (104, 1.70952714979648590088e-02) (105, 7.27654337882995605469e-01) (106, 9.79429632425308227539e-02) (107, -4.38701137900352478027e-02) (108, -8.56132134795188903809e-02) (109, -2.20183268189430236816e-01) (110, -1.48398116230964660645e-01) (111, 1.44727915525436401367e-01) (112, 3.39182138442993164062e-01) (113, -2.02489450573921203613e-01) (114, -1.10318399965763092041e-01) (115, 6.59165009856224060059e-02) (116, 1.65200054645538330078e-01) (117, 1.42314791679382324219e-01) (118, -1.51307299733161926270e-01) (119, 8.38004425168037414551e-02) (120, -2.11606636643409729004e-01) (121, 4.00455951690673828125e-01) (122, 3.81813496351242065430e-02) (123, -2.21500456333160400391e-01) (124, 6.99207633733749389648e-02) (125, 7.30978906154632568359e-01) (126, 2.45165586471557617188e-01) (127, -1.36604150757193565369e-02) (128, -5.19755110144615173340e-02) (129, -1.89843639731407165527e-01) (130, -9.46964621543884277344e-02) (131, 2.04833075404167175293e-01) (132, 5.34285724163055419922e-01) (133, -1.61618635058403015137e-01) (134, -5.76522052288055419922e-02) (135, 2.63111859560012817383e-01) (136, 5.09328663349151611328e-01) (137, 1.64090245962142944336e-01) (138, -1.29516609013080596924e-02) (139, 1.58305123448371887207e-01) (140, -2.48856216669082641602e-01) (141, 2.43351101875305175781e-01) (142, 2.49503940343856811523e-01) (143, -1.70265436172485351562e-01) (144, 1.96242947131395339966e-02) (145, 6.07831060886383056641e-01) (146, 1.10495284199714660645e-01) (147, 1.48211121559143066406e-02) (148, -1.28068894147872924805e-01) (149, -2.08892911672592163086e-01) (150, -1.99219211935997009277e-01) (151, 2.17227682471275329590e-01) (152, 8.98096323013305664062e-01) (153, -2.03646793961524963379e-01) (154, -1.09518662095069885254e-01) (155, 2.75645434856414794922e-01) (156, 3.80234122276306152344e-01) (157, 2.18428522348403930664e-01) (158, 3.95702570676803588867e-02) (159, 8.55730324983596801758e-02) (160, -2.74167001247406005859e-01) (161, 1.43591389060020446777e-01) (162, 2.89346694946289062500e-01) (163, -1.15965954959392547607e-01) (164, -7.63447508215904235840e-02) (165, 3.39554876089096069336e-01) (166, 3.54827456176280975342e-02) (167, -9.40952152013778686523e-02) (168, -1.74588739871978759766e-01) (169, -3.18506777286529541016e-01) (170, -2.93169617652893066406e-01) (171, 1.09337136149406433105e-01) (172, 9.04246866703033447266e-01) (173, -2.60092794895172119141e-01) (174, -1.81491643190383911133e-01) (175, 2.21498101949691772461e-01) (176, 2.83377856016159057617e-01) (177, 1.44480869174003601074e-01) (178, -1.57992150634527206421e-02) (179, -2.05686166882514953613e-02) (180, -2.53575652837753295898e-01) (181, 8.03801864385604858398e-02) (182, 3.23818325996398925781e-01) (183, -6.10775500535964965820e-02) (184, -7.72188082337379455566e-02) (185, 2.57792949676513671875e-01) (186, 1.82829406112432479858e-02) (187, -7.80266150832176208496e-02) (188, -1.85531288385391235352e-01) (189, -3.20376276969909667969e-01) (190, -3.00887942314147949219e-01) (191, 6.69048726558685302734e-02) (192, 7.87437856197357177734e-01) (193, -1.92058414220809936523e-01) (194, -1.93609923124313354492e-01) (195, 1.90169185400009155273e-01) (196, 2.61895537376403808594e-01) (197, 1.70199558138847351074e-01) (198, -4.22439314424991607666e-02) (199, -5.88633045554161071777e-02) (200, -2.15336456894874572754e-01) (201, 1.09175667166709899902e-01) (202, 2.09662914276123046875e-01) (203, -8.50774645805358886719e-02) (204, -2.88790725171566009521e-02) (205, 1.84522166848182678223e-01) (206, 5.51653169095516204834e-02) (207, -9.08972918987274169922e-02) (208, -2.06215158104896545410e-01) (209, -2.76774555444717407227e-01) (210, -2.80945241451263427734e-01) (211, 3.71296890079975128174e-02) (212, 5.20529568195343017578e-01) (213, -1.51668056845664978027e-01) (214, -1.82153642177581787109e-01) (215, 1.35500624775886535645e-01) (216, 2.20551982522010803223e-01) (217, 1.59037202596664428711e-01) (218, -2.54340674728155136108e-02) (219, -5.88126927614212036133e-02) (220, -1.17517672479152679443e-01) (221, 1.24624088406562805176e-01) (222, 2.32078701257705688477e-01) (223, -1.00586907938122749329e-02) (224, -1.58166568726301193237e-02) (225, 2.18437775969505310059e-01) (226, 9.73040312528610229492e-02) (227, -4.04855981469154357910e-02) (228, -1.01629212498664855957e-01) (229, -1.96192204952239990234e-01) (230, -1.66061028838157653809e-01) (231, 1.05548158288002014160e-01) (232, 4.26345854997634887695e-01) (233, -6.36392310261726379395e-02) (234, -6.83769509196281433105e-02) (235, 1.61153092980384826660e-01) (236, 2.14998081326484680176e-01) (237, 1.26553595066070556641e-01) (238, 5.01685477793216705322e-02) (239, -1.03680342435836791992e-02) (240, -1.31565690040588378906e-01) (241, 2.69369613379240036011e-02) (242, 1.58106535673141479492e-01) (243, -2.78669577091932296753e-02) (244, -1.06479436159133911133e-01) (245, 1.20712205767631530762e-01) (246, 3.74724008142948150635e-02) (247, -1.25745087862014770508e-01) (248, -1.10432259738445281982e-01) (249, -2.33438238501548767090e-01) (250, -2.26733863353729248047e-01) (251, 4.00415360927581787109e-02) (252, 2.57391750812530517578e-01) (253, -7.01496899127960205078e-02) (254, -7.99161419272422790527e-02) (255, 1.01636573672294616699e-01) (256, 1.39955952763557434082e-01) (257, 2.03468576073646545410e-02) (258, 4.22445088624954223633e-02) (259, -6.32785558700561523438e-02) (260, -1.38523116707801818848e-01) (261, 1.58773899078369140625e+00) (262, -3.89813303947448730469e-01) (0, -2.33781769871711730957e-01) (1, -1.26853734254837036133e-02) (2, -1.36619746685028076172e-01) (3, -2.04891219735145568848e-01) (4, -1.58133536577224731445e-01) (5, 1.38317406177520751953e-01) (6, -1.32163435220718383789e-01) (7, -2.02434226870536804199e-01) (8, -1.06701992452144622803e-01) (9, -2.13803231716156005859e-01) (10, -1.89897581934928894043e-01) (11, -1.02744974195957183838e-01) (12, -1.81112978607416152954e-02) (13, -1.90465584397315979004e-01) (14, 1.23992219567298889160e-01) (15, 2.34271019697189331055e-01) (16, -1.26266288757324218750e+00) (17, -1.00791239738464355469e+00) (18, -3.38827013969421386719e-01) (19, -1.03160381317138671875e+00) (20, -2.47837677597999572754e-01) (21, -1.35411038994789123535e-01) (22, -1.71582866460084915161e-02) (23, -6.19822815060615539551e-02) (24, -3.23811650276184082031e-01) (25, 1.52661725878715515137e-01) (26, -7.39527717232704162598e-02) (27, -3.62212419509887695312e-01) (28, 3.97458299994468688965e-02) (29, -3.34843486547470092773e-01) (30, -1.13284908235073089600e-01) (31, 1.11283525824546813965e-01) (32, 1.57806947827339172363e-01) (33, 4.60010915994644165039e-02) (34, 6.55938908457756042480e-02) (35, 4.40961085259914398193e-02) (36, -1.74099151045083999634e-02) (37, -5.66714443266391754150e-02) (38, -1.88845813274383544922e-01) (39, -3.47717776894569396973e-02) (40, -2.04290255904197692871e-01) (41, -1.37762933969497680664e-01) (42, 9.38664898276329040527e-02) (43, -6.03078529238700866699e-02) (44, -1.05544120073318481445e-01) (45, 3.15386742353439331055e-01) (46, 7.29289948940277099609e-02) (47, 1.64789985865354537964e-02) (48, 5.62943443655967712402e-02) (49, -2.62102723121643066406e-01) (50, -1.99008524417877197266e-01) (51, 1.44093707203865051270e-01) (52, 3.63459177315235137939e-02) (53, -1.41493439674377441406e-01) (54, 2.58010830730199813843e-02) (55, 6.72936439514160156250e-02) (56, 1.88148647546768188477e-01) (57, 1.05402775108814239502e-01) (58, -1.04125760495662689209e-01) (59, -1.67896095663309097290e-02) (60, 1.21721856296062469482e-01) (61, 6.65150225162506103516e-01) (62, -3.08345258235931396484e-01) (63, -3.83453458547592163086e-01) (64, 6.22063636779785156250e-01) (65, 1.97401978075504302979e-02) (66, 4.83156964182853698730e-02) (67, 6.64599716663360595703e-01) (68, -1.84251248836517333984e-01) (69, 5.75343251228332519531e-01) (70, 4.63124454021453857422e-01) (71, -2.23842754960060119629e-01) (72, 9.32803303003311157227e-02) (73, -1.78403198719024658203e-01) (74, -1.56963974237442016602e-01) (75, -2.43687734007835388184e-01) (76, 5.05825541913509368896e-02) (77, 7.09519743919372558594e-01) (78, 5.69594800472259521484e-01) (79, 6.07558846473693847656e-01) (80, -2.23827794194221496582e-01) (81, 5.83802051842212677002e-02) (82, -1.57242715358734130859e-01) (83, 1.24620586633682250977e-01) (84, -4.24650274217128753662e-02) (85, -2.78512805700302124023e-01) (86, 1.90598532557487487793e-01) (87, 3.79151314496994018555e-01) (88, 8.05028676986694335938e-02) (89, 8.91290903091430664062e-02) (90, -4.94517385959625244141e-02) (91, -5.92608936131000518799e-02) (92, 1.66711568832397460938e-01) (93, -8.25726166367530822754e-02) (94, 1.67954295873641967773e-01) (95, 9.26533564925193786621e-02) (96, 2.85061866044998168945e-01) (97, 3.69616836309432983398e-01) (98, 8.06902125477790832520e-02) (99, 1.20856277644634246826e-01) (100, 2.35629379749298095703e-02) (101, 7.46210992336273193359e-01) (102, -1.34217321872711181641e+00) (103, -1.26028525829315185547e+00) (104, 9.23316419124603271484e-01) (105, -4.86683905124664306641e-01) (106, -1.00051498413085937500e+00) (107, 9.27756726741790771484e-01) (108, -1.30690824985504150391e+00) (109, 9.34288561344146728516e-01) (110, 7.56156384944915771484e-01) (111, -1.29206597805023193359e+00) (112, -1.16031968593597412109e+00) (113, -1.22318673133850097656e+00) (114, -1.16521811485290527344e+00) (115, -1.19145107269287109375e+00) (116, -8.14867496490478515625e-01) (117, 9.19641792774200439453e-01) (118, 6.53902649879455566406e-01) (119, 7.91535377502441406250e-01) (120, -2.16384410858154296875e-01) (121, -3.93900364637374877930e-01) (122, 6.25384211540222167969e-01) (123, 4.29056733846664428711e-01) (124, -4.86235290765762329102e-01) (125, -1.77750304341316223145e-01) (126, 1.58193200826644897461e-01) (127, -2.21868768334388732910e-01) (128, 2.62859582901000976562e-01) (129, -4.47731047868728637695e-01) (130, -3.71945708990097045898e-01) (131, 1.99470758438110351562e-01) (132, 5.48027753829956054688e-01) (133, 2.97523379325866699219e-01) (134, 2.33583122491836547852e-01) (135, 3.29381614923477172852e-01) (136, 1.31136998534202575684e-01) (137, -2.33143776655197143555e-01) (138, -2.59675800800323486328e-01) (139, -8.85148718953132629395e-02) (140, 1.07661657035350799561e-01) (141, 4.75413411855697631836e-01) (142, -2.62368410825729370117e-01) (143, -3.95866662263870239258e-01) (144, 4.84511196613311767578e-01) (145, 2.83607155084609985352e-01) (146, -3.61246019601821899414e-01) (147, 4.24704670906066894531e-01) (148, -5.45286118984222412109e-01) (149, 3.99881124496459960938e-01) (150, 2.66027033329010009766e-01) (151, -3.59365761280059814453e-01) (152, -7.75581747293472290039e-02) (153, -4.64542090892791748047e-01) (154, -4.40768629312515258789e-01) (155, -3.58218103647232055664e-01) (156, -1.98390334844589233398e-01) (157, 4.37943309545516967773e-01) (158, 4.53632950782775878906e-01) (159, 1.03088118135929107666e-01) (160, -1.15461826324462890625e-01) (161, -4.76911336183547973633e-01) (162, 7.61239886283874511719e-01) (163, 4.66938972473144531250e-01) (164, -5.85820317268371582031e-01) (165, 1.85089588165283203125e-01) (166, 9.88828092813491821289e-02) (167, -5.51378786563873291016e-01) (168, 3.00259828567504882812e-01) (169, -6.67702555656433105469e-01) (170, -4.64768230915069580078e-01) (171, 3.97874295711517333984e-01) (172, 2.93134123086929321289e-01) (173, 3.18400233983993530273e-01) (174, 2.95676916837692260742e-01) (175, 3.16798299551010131836e-01) (176, 3.12909662723541259766e-01) (177, -3.85946780443191528320e-01) (178, -4.50216203927993774414e-01) (179, -2.86255240440368652344e-01) (180, 6.71794861555099487305e-02) (181, -2.40721002221107482910e-01) (182, 4.10317778587341308594e-01) (183, 1.36428177356719970703e-01) (184, -1.86926424503326416016e-01) (185, 2.33160793781280517578e-01) (186, -2.44692079722881317139e-02) (187, -3.28315019607543945312e-01) (188, -6.03088811039924621582e-02) (189, -3.13802272081375122070e-01) (190, -1.80289015173912048340e-01) (191, 1.72543078660964965820e-01) (192, 2.79681712388992309570e-01) (193, 9.54166725277900695801e-02) (194, 6.49113580584526062012e-03) (195, 9.66642871499061584473e-02) (196, 7.32144457288086414337e-04) (197, -2.37535744905471801758e-01) (198, 7.71466419100761413574e-02) (199, -1.36682912707328796387e-01) (200, -6.70817419886589050293e-02) (201, -1.94742158055305480957e-01) (202, 9.85017418861389160156e-02) (203, 1.33511833846569061279e-02) (204, -1.19916610419750213623e-01) (205, 1.75623461604118347168e-01) (206, 4.01251763105392456055e-02) (207, -9.35731157660484313965e-02) (208, 6.88444599509239196777e-02) (209, 2.78153195977210998535e-02) (210, 3.80706973373889923096e-02) (211, 1.52469515800476074219e-01) (212, 5.98686374723911285400e-02) (213, 9.51294042170047760010e-03) (214, 6.76357224583625793457e-02) (215, 1.00986450910568237305e-01) (216, 6.85393735766410827637e-02) (217, -1.13448381423950195312e-01) (218, -2.96212397515773773193e-02) (219, -1.22173376381397247314e-01) (220, 3.54589112102985382080e-02) (221, -1.82490587234497070312e-01) (222, 1.13609448075294494629e-01) (223, 1.07322894036769866943e-01) (224, -1.36322304606437683105e-01) (225, 1.63100183010101318359e-01) (226, 5.59183843433856964111e-02) (227, -2.07273125648498535156e-01) (228, 6.87903240323066711426e-02) (229, -8.29202681779861450195e-02) (230, -4.42101657390594482422e-02) (231, 4.79274094104766845703e-02) (232, 5.97673244774341583252e-02) (233, 5.00123910605907440186e-02) (234, 6.94614574313163757324e-02) (235, 6.44621476531028747559e-02) (236, 8.25752094388008117676e-02) (237, -1.33929118514060974121e-01) (238, -7.25162029266357421875e-02) (239, -7.13593736290931701660e-02) (240, 2.33128331601619720459e-02) (241, -1.37684931978583335876e-02) (242, 9.30169224739074707031e-02) (243, 1.72902703285217285156e-01) (244, -5.11145144701004028320e-02) (245, 5.64700476825237274170e-02) (246, -1.81159917265176773071e-02) (247, -3.87868098914623260498e-02) (248, 4.86408919095993041992e-02) (249, -1.01737398654222488403e-02) (250, 4.79368492960929870605e-02) (251, 7.10677281022071838379e-02) (252, 1.48594304919242858887e-02) (253, 1.17053709924221038818e-01) (254, 2.34788060188293457031e-02) (255, 1.88185889273881912231e-02) (256, 5.26531711220741271973e-02) (257, -5.11567443609237670898e-02) (258, 2.68172770738601684570e-02) (259, -1.05949733406305313110e-02) (260, 4.02044020593166351318e-02) (261, -1.54472172260284423828e-01) (262, 2.42695808410644531250e-02) (263, 1.34153822436928749084e-02) (0, 3.42138744890689849854e-02) (1, 2.66003459692001342773e-01) (2, -2.46653333306312561035e-01) (3, -4.15292412042617797852e-01) (4, 3.71222317218780517578e-01) (5, -5.44339567422866821289e-02) (6, -5.42046595364809036255e-03) (7, 4.08529400825500488281e-01) (8, -2.67648249864578247070e-01) (9, 4.78546857833862304688e-01) (10, 2.11283564567565917969e-01) (11, -7.02347084879875183105e-02) (12, -6.57720491290092468262e-02) (13, -2.28277832269668579102e-01) (14, -4.51247662305831909180e-01) (15, -2.60360777378082275391e-01) (16, 2.95133423805236816406e+00) (17, 3.07559037208557128906e+00) (18, 1.61967885494232177734e+00) (19, 3.16840219497680664062e+00) (20, -1.70658156275749206543e-01) (21, -1.71213909983634948730e-01) (22, -1.79180219769477844238e-01) (23, 4.13717925548553466797e-02) (24, -2.48641014099121093750e-01) (25, -6.25181347131729125977e-02) (26, -5.15315756201744079590e-02) (27, -2.61995494365692138672e-01) (28, 9.44727212190628051758e-02) (29, -2.80666708946228027344e-01) (30, -2.79852449893951416016e-01) (31, -9.87714082002639770508e-02) (32, -9.69047471880912780762e-03) (33, 5.75348995625972747803e-02) (34, 1.05652563273906707764e-01) (35, -8.36635977029800415039e-02) (36, -1.65906369686126708984e-01) (37, -1.76287382841110229492e-01) (38, -4.25666794180870056152e-02) (39, -1.04036800563335418701e-01) (40, 6.05951771140098571777e-02) (41, -4.99780178070068359375e-01) (42, 3.61057639122009277344e-01) (43, 5.24073302745819091797e-01) (44, -3.89194577932357788086e-01) (45, -5.00112138688564300537e-02) (46, 4.42693047225475311279e-02) (47, -5.46991765499114990234e-01) (48, 2.87024199962615966797e-01) (49, -5.81645250320434570312e-01) (50, -3.26813220977783203125e-01) (51, 1.51883035898208618164e-01) (52, 5.50015410408377647400e-03) (53, 3.61233204603195190430e-01) (54, 1.36698707938194274902e-01) (55, 1.10140308737754821777e-01) (56, 2.49448642134666442871e-02) (57, -4.70787793397903442383e-01) (58, -2.05452680587768554688e-01) (59, -3.91154110431671142578e-01) (60, -4.81862276792526245117e-02) (61, -1.77988540381193161011e-02) (62, -3.01480174064636230469e-01) (63, -6.49728715419769287109e-01) (64, 4.21123087406158447266e-01) (65, -5.17512679100036621094e-01) (66, -2.02112197875976562500e-01) (67, 4.49025124311447143555e-01) (68, -6.51726722717285156250e-01) (69, 4.94767725467681884766e-01) (70, 2.15596392750740051270e-01) (71, -3.85245949029922485352e-01) (72, -3.92532348632812500000e-01) (73, -5.99101662635803222656e-01) (74, -5.80801069736480712891e-01) (75, -1.83846369385719299316e-01) (76, 2.20629628747701644897e-02) (77, 3.44013541936874389648e-01) (78, 2.48358547687530517578e-01) (79, 9.73464399576187133789e-02) (80, 5.65394386649131774902e-02) (81, 7.30496466159820556641e-01) (82, -6.01688086986541748047e-01) (83, -5.33198118209838867188e-01) (84, 4.89285081624984741211e-01) (85, -3.22741836309432983398e-01) (86, -1.62983924150466918945e-01) (87, 7.11057424545288085938e-01) (88, -2.21495240926742553711e-01) (89, 7.67320215702056884766e-01) (90, 3.50526005029678344727e-01) (91, -4.17090237140655517578e-01) (92, 1.22121877968311309814e-01) (93, -2.37327292561531066895e-01) (94, -8.39270353317260742188e-02) (95, -1.54324561357498168945e-01) (96, -2.00074419379234313965e-01) (97, 5.10623633861541748047e-01) (98, 4.64902848005294799805e-01) (99, 3.18905562162399291992e-01) (100, 6.05030581355094909668e-02) (101, -1.55074492096900939941e-01) (102, 1.74573764204978942871e-01) (103, 6.19583666324615478516e-01) (104, -6.28883481025695800781e-01) (105, 1.69056236743927001953e-01) (106, -6.85081407427787780762e-02) (107, -7.33851432800292968750e-01) (108, 5.83934068679809570312e-01) (109, -7.14341163635253906250e-01) (110, -3.03216099739074707031e-01) (111, 2.18616694211959838867e-01) (112, -1.02591522037982940674e-01) (113, 4.76004332304000854492e-01) (114, 4.66268748044967651367e-01) (115, 1.01566545665264129639e-01) (116, -2.11054310202598571777e-01) (117, -5.41991710662841796875e-01) (118, -8.51972922682762145996e-02) (119, -1.48806795477867126465e-01) (120, 6.52894526720046997070e-02) (121, -1.23771108686923980713e-01) (122, 5.63840508460998535156e-01) (123, 3.44496548175811767578e-01) (124, -1.06119476258754730225e-01) (125, 1.18717245757579803467e-01) (126, 2.47855648398399353027e-01) (127, -4.16235625743865966797e-01) (128, 7.70398788154125213623e-03) (129, -4.59839314222335815430e-01) (130, -1.96390569210052490234e-01) (131, 1.73861429095268249512e-01) (132, -5.49658060073852539062e-01) (133, 9.74863916635513305664e-02) (134, -1.34970381855964660645e-01) (135, 1.78599610924720764160e-01) (136, 2.14146032929420471191e-01) (137, -3.63236218690872192383e-01) (138, -1.38289794325828552246e-01) (139, -7.19625726342201232910e-02) (140, 3.25820654630661010742e-01) (141, 1.45785570144653320312e+00) (142, -8.99230003356933593750e-01) (143, -9.31477129459381103516e-01) (144, 1.69473564624786376953e+00) (145, -2.71726012229919433594e-01) (146, 1.38113096356391906738e-01) (147, 1.63180863857269287109e+00) (148, -8.35034012794494628906e-01) (149, 1.74890434741973876953e+00) (150, 1.48362207412719726562e+00) (151, -7.77132272720336914062e-01) (152, -4.70057755708694458008e-01) (153, -7.07339882850646972656e-01) (154, -6.69355213642120361328e-01) (155, -6.92406833171844482422e-01) (156, -1.02191559970378875732e-01) (157, 1.54777479171752929688e+00) (158, 1.13097465038299560547e+00) (159, 1.27269196510314941406e+00) (160, -6.05644956231117248535e-02) (161, 6.56391978263854980469e-02) (162, -3.31312388181686401367e-01) (163, -3.46063435077667236328e-01) (164, 2.45389297604560852051e-01) (165, 3.04089158773422241211e-01) (166, -2.97860771417617797852e-01) (167, 1.59174442291259765625e-01) (168, -7.90360942482948303223e-02) (169, 2.50009030103683471680e-01) (170, 8.94485041499137878418e-02) (171, -1.25208199024200439453e-01) (172, 5.27318358421325683594e-01) (173, -1.74692779779434204102e-01) (174, 9.89443808794021606445e-03) (175, -1.38109356164932250977e-01) (176, -1.38533502817153930664e-01) (177, 2.26821333169937133789e-01) (178, 1.53368264436721801758e-01) (179, -1.30523532629013061523e-01) (180, 1.33032584562897682190e-02) (181, -7.30224072933197021484e-01) (182, 1.09431958198547363281e+00) (183, 1.29597187042236328125e+00) (184, -8.72633934020996093750e-01) (185, 2.76573687791824340820e-01) (186, 4.53493356704711914062e-01) (187, -9.08368408679962158203e-01) (188, 1.23178386688232421875e+00) (189, -1.06277740001678466797e+00) (190, -7.00120210647583007812e-01) (191, 9.58231747150421142578e-01) (192, 6.71778023242950439453e-01) (193, 1.12514805793762207031e+00) (194, 1.07745361328125000000e+00) (195, 8.75254929065704345703e-01) (196, 5.35459816455841064453e-01) (197, -7.87795543670654296875e-01) (198, -3.07158052921295166016e-01) (199, -5.00626504421234130859e-01) (200, 1.20433151721954345703e-01) (201, 5.60845658183097839355e-02) (202, -2.19292156398296356201e-02) (203, 6.46113697439432144165e-03) (204, 1.15403831005096435547e-01) (205, -1.41528666019439697266e-01) (206, 2.11690723896026611328e-01) (207, 1.04176864027976989746e-01) (208, -3.63043658435344696045e-02) (209, 8.94061475992202758789e-02) (210, 1.70762211084365844727e-01) (211, 1.81692931801080703735e-02) (212, -2.31464691460132598877e-02) (213, 6.55134767293930053711e-02) (214, -1.10814161598682403564e-01) (215, 1.67613402009010314941e-01) (216, 2.17329621315002441406e-01) (217, -2.70560197532176971436e-02) (218, 2.51487493515014648438e-01) (219, 3.79244416952133178711e-01) (220, -9.73013639450073242188e-02) (221, 6.89919471740722656250e-01) (222, -5.08482456207275390625e-01) (223, -6.66689634323120117188e-01) (224, 7.58449673652648925781e-01) (225, 3.78530770540237426758e-02) (226, -7.20515698194503784180e-02) (227, 8.66340279579162597656e-01) (228, -5.02957820892333984375e-01) (229, 9.52417254447937011719e-01) (230, 5.63146412372589111328e-01) (231, -3.42223495244979858398e-01) (232, -5.17235547304153442383e-02) (233, -4.87424135208129882812e-01) (234, -3.89720410108566284180e-01) (235, -3.31095188856124877930e-01) (236, -1.62923082709312438965e-01) (237, 6.87919855117797851562e-01) (238, 2.33131065964698791504e-01) (239, 3.34469765424728393555e-01) (240, -1.66945949196815490723e-01) (241, -2.02721059322357177734e-01) (242, 3.49127650260925292969e-02) (243, 9.66253206133842468262e-02) (244, -1.98321402072906494141e-01) (245, 7.73459374904632568359e-02) (246, -1.80859237909317016602e-01) (247, -2.46902734041213989258e-01) (248, 1.17154948413372039795e-01) (249, -3.68040382862091064453e-01) (250, -3.30987006425857543945e-01) (251, 1.97126138955354690552e-02) (252, 1.17465443909168243408e-01) (253, -2.61125210672616958618e-02) (254, 5.58702349662780761719e-02) (255, -3.53220850229263305664e-02) (256, -1.26008123159408569336e-01) (257, -8.82583558559417724609e-02) (258, -2.20308765769004821777e-01) (259, -3.55632454156875610352e-01) (260, -2.12752252817153930664e-01) (261, 4.02615994215011596680e-01) (262, -1.51341542601585388184e-01) (263, -3.07318456470966339111e-02) (264, -8.80068466067314147949e-02) (0, 6.43670558929443359375e-01) (1, 5.35499155521392822266e-01) (2, 5.78865289688110351562e-01) (3, 6.84137761592864990234e-01) (4, 5.05550444126129150391e-01) (5, 4.37746942043304443359e-01) (6, 7.23020613193511962891e-01) (7, 5.86765408515930175781e-01) (8, 7.12069571018218994141e-01) (9, 6.04104042053222656250e-01) (10, 5.97661733627319335938e-01) (11, 5.47222495079040527344e-01) (12, 6.42919182777404785156e-01) (13, 6.55326724052429199219e-01) (14, -8.88004660606384277344e-01) (15, -9.50626909732818603516e-01) (16, -8.37559998035430908203e-01) (17, -9.03387963771820068359e-01) (18, -1.11379086971282958984e+00) (19, -8.89999151229858398438e-01) (20, 3.25678847730159759521e-02) (21, 1.55454516410827636719e-01) (22, -9.04577150940895080566e-02) (23, -6.37318007647991180420e-05) (24, -3.44069786369800567627e-02) (25, -1.20432756841182708740e-01) (26, 8.74170064926147460938e-02) (27, -9.72979236394166946411e-03) (28, 7.62059465050697326660e-02) (29, 1.99180580675601959229e-02) (30, 2.02315926551818847656e-01) (31, -5.62917180359363555908e-02) (32, 1.06106504797935485840e-01) (33, 4.16844673454761505127e-02) (34, 1.08830623328685760498e-01) (35, 8.87212529778480529785e-02) (36, -6.40984177589416503906e-02) (37, 4.11335229873657226562e-02) (38, -4.18292880058288574219e-02) (39, 1.82105414569377899170e-02) (40, 4.05326858162879943848e-02) (41, 1.28684401512145996094e-01) (42, 1.49179920554161071777e-02) (43, 1.54527537524700164795e-02) (44, -6.70362561941146850586e-02) (45, -4.67586927115917205811e-02) (46, 1.45603701472282409668e-01) (47, -9.06910374760627746582e-02) (48, 1.08630150556564331055e-01) (49, -5.17279002815485000610e-03) (50, 1.09149023890495300293e-01) (51, 5.25354593992233276367e-03) (52, 1.82505726814270019531e-01) (53, -2.27240398526191711426e-02) (54, 7.35214948654174804688e-02) (55, 6.07235766947269439697e-02) (56, -9.18609648942947387695e-02) (57, -9.34053957462310791016e-02) (58, -1.17570877075195312500e-01) (59, -2.38642059266567230225e-02) (60, -1.72758102416992187500e-02) (61, -1.22165633365511894226e-02) (62, 7.17122703790664672852e-02) (63, 3.28008010983467102051e-02) (64, -2.00402453541755676270e-01) (65, 2.53361724317073822021e-02) (66, 1.66581526398658752441e-01) (67, -3.84756416082382202148e-01) (68, 1.62800297141075134277e-01) (69, -1.61435276269912719727e-01) (70, -6.88553526997566223145e-02) (71, 6.85513541102409362793e-02) (72, 2.68758207559585571289e-01) (73, 3.12699079513549804688e-02) (74, 1.23202696442604064941e-01) (75, 8.34014192223548889160e-02) (76, -1.12314797937870025635e-01) (77, -2.76313245296478271484e-01) (78, -3.82366031408309936523e-01) (79, -1.26632377505302429199e-01) (80, -1.29208832979202270508e-01) (81, -1.76991134881973266602e-01) (82, 2.67824530601501464844e-01) (83, 9.31292548775672912598e-02) (84, -3.79995197057723999023e-01) (85, 2.32745900750160217285e-01) (86, 2.14950993657112121582e-01) (87, -6.13026976585388183594e-01) (88, 2.27130159735679626465e-01) (89, -4.14089798927307128906e-01) (90, -1.93753466010093688965e-01) (91, 2.50289112329483032227e-01) (92, 3.98887008428573608398e-01) (93, 6.20000027120113372803e-02) (94, 7.92837664484977722168e-02) (95, 1.66316598653793334961e-01) (96, 1.61063931882381439209e-02) (97, -4.36196833848953247070e-01) (98, -5.77736377716064453125e-01) (99, -2.23588392138481140137e-01) (100, -1.78674444556236267090e-01) (101, -1.15017600357532501221e-01) (102, 3.94240289926528930664e-01) (103, -6.40927813947200775146e-03) (104, -4.26851958036422729492e-01) (105, 6.25767350196838378906e-01) (106, 1.64655968546867370605e-01) (107, -7.32746541500091552734e-01) (108, 9.85258519649505615234e-02) (109, -4.19070929288864135742e-01) (110, -1.43342211842536926270e-01) (111, 3.96161407232284545898e-01) (112, 6.03607714176177978516e-01) (113, -5.37034496665000915527e-02) (114, -5.21789640188217163086e-02) (115, 2.04368576407432556152e-01) (116, 2.79091857373714447021e-02) (117, -5.90266108512878417969e-01) (118, -8.05876255035400390625e-01) (119, -3.63420903682708740234e-01) (120, -1.04839354753494262695e-03) (121, -6.86178207397460937500e-02) (122, 7.92238652706146240234e-01) (123, 1.05780944228172302246e-01) (124, -6.04905068874359130859e-01) (125, 9.19882953166961669922e-01) (126, 2.91958898305892944336e-01) (127, -7.99877882003784179688e-01) (128, 2.45383307337760925293e-01) (129, -5.46725451946258544922e-01) (130, 1.44461886957287788391e-02) (131, 7.72092282772064208984e-01) (132, 1.04149699211120605469e+00) (133, 6.76931366324424743652e-02) (134, 5.42560629546642303467e-02) (135, 4.74617868661880493164e-01) (136, 2.31080755591392517090e-01) (137, -6.40010476112365722656e-01) (138, -7.27895617485046386719e-01) (139, -5.72672724723815917969e-01) (140, -2.96305596828460693359e-01) (141, -4.33029055595397949219e-01) (142, 5.17586052417755126953e-01) (143, 9.07508358359336853027e-02) (144, -5.48466145992279052734e-01) (145, 6.06256961822509765625e-01) (146, 1.53016552329063415527e-01) (147, -6.71380043029785156250e-01) (148, 1.97369098663330078125e-01) (149, -6.33959352970123291016e-01) (150, -3.71293187141418457031e-01) (151, 4.27259176969528198242e-01) (152, 1.12327671051025390625e+00) (153, -7.00691342353820800781e-02) (154, 1.64678413420915603638e-02) (155, 3.40197592973709106445e-01) (156, 1.75109729170799255371e-01) (157, -5.89369356632232666016e-01) (158, -5.00092685222625732422e-01) (159, -5.12842297554016113281e-01) (160, -2.34442204236984252930e-01) (161, -1.19733601808547973633e-01) (162, 4.46973890066146850586e-01) (163, 2.64524102210998535156e-01) (164, -3.98473709821701049805e-01) (165, 2.76083320379257202148e-01) (166, 1.60813122987747192383e-01) (167, -4.20944988727569580078e-01) (168, 1.41799703240394592285e-01) (169, -5.23133993148803710938e-01) (170, -3.21308642625808715820e-01) (171, 2.67729133367538452148e-01) (172, 9.08277273178100585938e-01) (173, -1.89564377069473266602e-02) (174, -1.28882965072989463806e-02) (175, 2.46283710002899169922e-01) (176, 1.87437921762466430664e-01) (177, -2.30480656027793884277e-01) (178, -2.81679868698120117188e-01) (179, -3.03776502609252929688e-01) (180, -2.97960221767425537109e-01) (181, -4.00288738310337066650e-02) (182, 2.91830033063888549805e-01) (183, 2.09131047129631042480e-01) (184, -2.71310240030288696289e-01) (185, 2.45171524584293365479e-02) (186, 7.18548744916915893555e-02) (187, -2.87394583225250244141e-01) (188, -5.57616241276264190674e-02) (189, -3.94385248422622680664e-01) (190, -3.21007877588272094727e-01) (191, -9.41057223826646804810e-03) (192, 6.05022668838500976562e-01) (193, -3.85638512670993804932e-02) (194, -1.45836248993873596191e-01) (195, 1.09141930937767028809e-01) (196, 9.13197547197341918945e-02) (197, -9.85679626464843750000e-02) (198, -2.15821340680122375488e-01) (199, -1.75646618008613586426e-01) (200, -1.25378519296646118164e-01) (201, 1.19805596768856048584e-01) (202, 2.19127371907234191895e-01) (203, 1.49447754025459289551e-01) (204, -9.56948008388280868530e-03) (205, -7.84588530659675598145e-02) (206, 2.39340692758560180664e-01) (207, 6.50808885693550109863e-02) (208, -1.20702050626277923584e-02) (209, -8.66944566369056701660e-02) (210, -8.46022665500640869141e-02) (211, -2.20810621976852416992e-02) (212, 4.53606843948364257812e-01) (213, 6.18641413748264312744e-02) (214, 1.06851402670145034790e-02) (215, 1.79008647799491882324e-01) (216, 1.82293832302093505859e-01) (217, 1.40275597572326660156e-01) (218, 1.18173891678452491760e-02) (219, 1.78221799433231353760e-02) (220, -3.31873446702957153320e-02) (221, 1.86791941523551940918e-01) (222, 1.76133513450622558594e-01) (223, 1.44304573535919189453e-01) (224, -2.06493400037288665771e-02) (225, -2.76846215128898620605e-02) (226, 1.20362244546413421631e-01) (227, 4.46753986179828643799e-02) (228, -1.98309309780597686768e-02) (229, -6.16682283580303192139e-02) (230, -8.71512219309806823730e-02) (231, -1.42661975696682929993e-02) (232, 3.28487187623977661133e-01) (233, 6.54932036995887756348e-02) (234, 2.05508898943662643433e-03) (235, 9.23032909631729125977e-02) (236, 1.13292127847671508789e-01) (237, 8.75243619084358215332e-02) (238, 3.03969942033290863037e-02) (239, -1.73811670392751693726e-02) (240, -6.73591867089271545410e-02) (241, 1.58435180783271789551e-01) (242, 1.66668832302093505859e-01) (243, 1.03225596249103546143e-01) (244, -3.17708104848861694336e-02) (245, -3.58835309743881225586e-02) (246, 1.31391495466232299805e-01) (247, -3.57238156720995903015e-03) (248, -1.45075879991054534912e-02) (249, -1.50485366582870483398e-01) (250, -8.79196897149085998535e-02) (251, 1.06479797977954149246e-03) (252, 2.10125684738159179688e-01) (253, 8.75104665756225585938e-02) (254, -2.33313571661710739136e-02) (255, 4.89812009036540985107e-02) (256, 8.10831412672996520996e-02) (257, 5.56206293404102325439e-02) (258, 4.37526823952794075012e-03) (259, -4.39502857625484466553e-02) (260, 2.67924424260854721069e-02) (261, 2.89871454238891601562e+00) (262, -6.55115246772766113281e-02) (263, 2.03155755996704101562e-01) (264, -6.75550699234008789062e-02) (265, 2.57163584232330322266e-01) (0, -6.85967579483985900879e-02) (1, -4.76238280534744262695e-01) (2, -5.67402467131614685059e-02) (3, 1.16773180663585662842e-01) (4, -4.76361006498336791992e-01) (5, -2.31687232851982116699e-01) (6, -1.00250624120235443115e-01) (7, -5.86869597434997558594e-01) (8, 1.94306761026382446289e-01) (9, -4.85832720994949340820e-01) (10, -3.93905282020568847656e-01) (11, -6.37280344963073730469e-02) (12, 1.58357158303260803223e-01) (13, 1.24717190861701965332e-01) (14, 8.38421046733856201172e-01) (15, 7.69003987312316894531e-01) (16, -5.04006576538085937500e+00) (17, -5.35106849670410156250e+00) (18, -5.00219202041625976562e+00) (19, -4.82003259658813476562e+00) (20, 2.03265044838190078735e-02) (21, -9.52597737312316894531e-01) (22, 4.08047676086425781250e-01) (23, 5.11411547660827636719e-01) (24, -8.79929780960083007812e-01) (25, -2.68328368663787841797e-01) (26, -6.90759271383285522461e-02) (27, -1.16108655929565429688e+00) (28, 2.60974705219268798828e-01) (29, -9.70544338226318359375e-01) (30, -5.84128379821777343750e-01) (31, -1.57733466476202011108e-02) (32, -3.25419336557388305664e-01) (33, 2.19769924879074096680e-01) (34, 3.88611368834972381592e-02) (35, -6.69962093234062194824e-02) (36, -2.32998251914978027344e-01) (37, -1.14309585094451904297e+00) (38, -7.21913516521453857422e-01) (39, -8.57201933860778808594e-01) (40, 3.61001938581466674805e-02) (41, -2.05405175685882568359e-01) (42, -2.40688264369964599609e-01) (43, -7.64761924743652343750e-01) (44, 1.51594817638397216797e-01) (45, -6.82955503463745117188e-01) (46, -5.98817646503448486328e-01) (47, 1.99978426098823547363e-01) (48, -1.03494453430175781250e+00) (49, 4.48597460985183715820e-01) (50, -4.78225313127040863037e-02) (51, -7.52462565898895263672e-01) (52, -9.40845549106597900391e-01) (53, -5.80550074577331542969e-01) (54, -9.20666813850402832031e-01) (55, -3.06174635887145996094e-01) (56, -7.86675438284873962402e-02) (57, 9.49477702379226684570e-02) (58, -4.63655106723308563232e-02) (59, -2.31374487280845642090e-01) (60, -1.96244060993194580078e-01) (61, -2.72623866796493530273e-01) (62, -1.10693931579589843750e+00) (63, -1.17620861530303955078e+00) (64, 1.75756484270095825195e-01) (65, -9.75654244422912597656e-01) (66, -6.93630933761596679688e-01) (67, 5.62663137912750244141e-01) (68, -7.80961453914642333984e-01) (69, 5.79401433467864990234e-01) (70, 7.63770267367362976074e-02) (71, -1.08493769168853759766e+00) (72, -5.67790865898132324219e-01) (73, -8.85441958904266357422e-01) (74, -5.79145431518554687500e-01) (75, -6.93328201770782470703e-01) (76, -6.05934560298919677734e-01) (77, 2.93547630310058593750e-01) (78, 3.31697672605514526367e-01) (79, 9.82113257050514221191e-02) (80, -3.92794251441955566406e-01) (81, -2.54931068420410156250e+00) (82, 3.06302666664123535156e-01) (83, 7.08941996097564697266e-01) (84, -2.47765755653381347656e+00) (85, -5.35024821758270263672e-01) (86, -3.07458370923995971680e-01) (87, -2.34947133064270019531e+00) (88, 6.32477343082427978516e-01) (89, -2.01137328147888183594e+00) (90, -1.84573519229888916016e+00) (91, 2.26167023181915283203e-01) (92, -4.30680692195892333984e-01) (93, 6.78958117961883544922e-01) (94, 3.89168798923492431641e-01) (95, -2.30662390589714050293e-01) (96, -5.51605761051177978516e-01) (97, -2.17362022399902343750e+00) (98, -1.65737283229827880859e+00) (99, -1.56055760383605957031e+00) (100, -1.62847101688385009766e-01) (101, -1.46731209754943847656e+00) (102, 4.14151102304458618164e-01) (103, 3.34474682807922363281e-01) (104, -8.55180859565734863281e-01) (105, -9.02792632579803466797e-01) (106, -2.20865920186042785645e-01) (107, -1.14987432956695556641e+00) (108, -8.00562575459480285645e-02) (109, -1.14262878894805908203e+00) (110, -9.05650317668914794922e-01) (111, -2.39882171154022216797e-01) (112, -1.46026277542114257812e+00) (113, 1.13569840788841247559e-01) (114, -1.80808052420616149902e-01) (115, -3.52981925010681152344e-01) (116, -1.73731952905654907227e-01) (117, -1.16816079616546630859e+00) (118, -2.70047575235366821289e-01) (119, -4.09689128398895263672e-01) (120, 1.06227822601795196533e-01) (121, 1.06232389807701110840e-01) (122, -3.04542589187622070312e+00) (123, -2.15856599807739257812e+00) (124, 8.08887600898742675781e-01) (125, -1.57004570960998535156e+00) (126, -1.37821447849273681641e+00) (127, 1.02745771408081054688e+00) (128, -2.25839924812316894531e+00) (129, 1.01152098178863525391e+00) (130, 4.05713826417922973633e-01) (131, -2.64398312568664550781e+00) (132, -3.22767305374145507812e+00) (133, -1.68505203723907470703e+00) (134, -2.05276203155517578125e+00) (135, -2.19684290885925292969e+00) (136, -1.62159585952758789062e+00) (137, 6.87536001205444335938e-01) (138, 1.09950155019760131836e-01) (139, 1.36522322893142700195e-01) (140, -1.50285780429840087891e-01) (141, -1.87972739338874816895e-01) (142, -1.63590359687805175781e+00) (143, -8.54080379009246826172e-01) (144, 1.34348552674055099487e-02) (145, -1.30660593509674072266e+00) (146, -8.92438054084777832031e-01) (147, 4.35725033283233642578e-01) (148, -3.52562695741653442383e-01) (149, 6.29857480525970458984e-01) (150, 3.68505358695983886719e-01) (151, -1.12714982032775878906e+00) (152, -3.60775208473205566406e+00) (153, -5.68536102771759033203e-01) (154, -1.44009098410606384277e-01) (155, -1.24213910102844238281e+00) (156, -7.99661755561828613281e-01) (157, 3.02553981542587280273e-01) (158, 1.56204834580421447754e-01) (159, -2.06405967473983764648e-02) (160, 1.16044364869594573975e-01) (161, -2.87079811096191406250e+00) (162, 1.12798964977264404297e+00) (163, 1.20859694480895996094e+00) (164, -3.27915906906127929688e+00) (165, -3.68620723485946655273e-01) (166, -5.93175832182168960571e-03) (167, -3.40546870231628417969e+00) (168, 1.21713757514953613281e+00) (169, -2.99795579910278320312e+00) (170, -1.85570275783538818359e+00) (171, 1.03779244422912597656e+00) (172, -6.18976354598999023438e-01) (173, 9.48497176170349121094e-01) (174, 9.46517407894134521484e-01) (175, 6.78038597106933593750e-01) (176, 9.57875773310661315918e-02) (177, -4.22703456878662109375e+00) (178, -2.26380300521850585938e+00) (179, -1.90409243106842041016e+00) (180, 1.47448077797889709473e-01) (181, -4.32007133960723876953e-01) (182, -5.90486466884613037109e-01) (183, -1.75406798720359802246e-01) (184, -2.50245302915573120117e-01) (185, -7.55452752113342285156e-01) (186, 2.82546967267990112305e-01) (187, -5.97087085247039794922e-01) (188, -1.63955837488174438477e-01) (189, -1.83959722518920898438e-01) (190, 3.96382920444011688232e-02) (191, -2.99055039882659912109e-01) (192, -2.23188354492187500000e+03) (193, 7.85448327660560607910e-02) (194, -1.45500808954238891602e-01) (195, -2.24835693836212158203e-01) (196, -1.52604147791862487793e-01) (197, -6.45580947399139404297e-01) (198, -5.14387488365173339844e-02) (199, 1.45914986729621887207e-01) (200, -4.99364405870437622070e-01) (201, 3.49200636148452758789e-01) (202, -2.32135963439941406250e+00) (203, -2.28160953521728515625e+00) (204, 3.34313243627548217773e-01) (205, -5.92191159725189208984e-01) (206, -1.02088534832000732422e+00) (207, 5.36114573478698730469e-01) (208, -1.91391289234161376953e+00) (209, 7.51027762889862060547e-01) (210, 3.33794713020324707031e-01) (211, -1.47991943359375000000e+00) (212, -3.33173193359375000000e+03) (213, -1.72779715061187744141e+00) (214, -1.59553515911102294922e+00) (215, -1.50375342369079589844e+00) (216, -1.23623931407928466797e+00) (217, 2.28851407766342163086e-01) (218, -2.16464832425117492676e-01) (219, -7.91190937161445617676e-03) (220, -2.36509725451469421387e-01) (221, -6.17047548294067382812e-01) (222, -1.75710931420326232910e-01) (223, -3.68333943188190460205e-02) (224, -7.17743456363677978516e-01) (225, -9.48039814829826354980e-02) (226, -5.25982975959777832031e-01) (227, -5.54632484912872314453e-01) (228, 1.65106430649757385254e-01) (229, -4.61148917675018310547e-01) (230, -4.35843676328659057617e-01) (231, -6.75375759601593017578e-02) (232, -5.40727734565734863281e-01) (233, 9.39945727586746215820e-02) (234, 1.77278220653533935547e-01) (235, -3.98342519998550415039e-01) (236, -4.48406845331192016602e-01) (237, -6.01426959037780761719e-01) (238, -6.44733965396881103516e-01) (239, -8.17665278911590576172e-01) (240, -1.02246664464473724365e-01) (241, -1.94234120845794677734e+00) (242, 3.44507992267608642578e-01) (243, 3.75582993030548095703e-01) (244, -1.26477551460266113281e+00) (245, -4.17341053485870361328e-01) (246, -2.31675937771797180176e-01) (247, -1.39725244045257568359e+00) (248, 3.05515766143798828125e-01) (249, -1.37219035625457763672e+00) (250, -1.00903987884521484375e+00) (251, 1.34026691317558288574e-01) (252, -6.04630291461944580078e-01) (253, 3.31292718648910522461e-01) (254, 1.36047989130020141602e-01) (255, 1.25992059707641601562e-01) (256, -1.27855226397514343262e-01) (257, -1.46476340293884277344e+00) (258, -1.33402585983276367188e+00) (259, -8.38035285472869873047e-01) (260, -4.79041337966918945312e-01) (261, -6.43782663345336914062e+00) (262, 1.81226432323455810547e-01) (263, 6.80946171283721923828e-01) (264, 2.03881919384002685547e-01) (265, -4.78610277175903320312e-01) (266, 2.89971500635147094727e-01) (0, -7.38676264882087707520e-02) (1, 8.13619270920753479004e-02) (2, -1.36731475591659545898e-01) (3, 5.02673387527465820312e-02) (4, -2.30181410908699035645e-01) (5, -8.98018255829811096191e-02) (6, 5.60857504606246948242e-02) (7, -1.89285278320312500000e-01) (8, 2.15740919113159179688e-01) (9, -2.09552824497222900391e-01) (10, -1.41621425747871398926e-01) (11, 5.02881444990634918213e-02) (12, 5.98984099924564361572e-02) (13, 1.16226717829704284668e-01) (14, -5.82244694232940673828e-01) (15, -3.82911592721939086914e-01) (16, 2.48665213584899902344e+00) (17, 2.50560641288757324219e+00) (18, 1.92675137519836425781e+00) (19, 2.53080368041992187500e+00) (20, -1.81200578808784484863e-01) (21, -2.90671557188034057617e-01) (22, 9.10562574863433837891e-02) (23, 1.80909052491188049316e-01) (24, -3.56125384569168090820e-01) (25, 2.12938599288463592529e-02) (26, -2.56233550608158111572e-02) (27, -4.11415755748748779297e-01) (28, 2.07179382443428039551e-01) (29, -4.33453977108001708984e-01) (30, -2.67776310443878173828e-01) (31, 1.46382242441177368164e-01) (32, 5.27669191360473632812e-02) (33, 1.20939187705516815186e-01) (34, 1.65771350264549255371e-01) (35, 9.46545153856277465820e-02) (36, -2.79822554439306259155e-02) (37, -1.97789847850799560547e-01) (38, -3.00763398408889770508e-01) (39, -2.54300922155380249023e-01) (40, -1.87645837664604187012e-01) (41, 1.57435774803161621094e-01) (42, -1.30663454532623291016e-01) (43, -2.83867716789245605469e-01) (44, 1.85523107647895812988e-01) (45, -8.46566781401634216309e-02) (46, -8.45196396112442016602e-02) (47, 2.24579751491546630859e-01) (48, -1.84773340821266174316e-01) (49, 1.83337584137916564941e-01) (50, -3.70305292308330535889e-02) (51, -8.48075300455093383789e-02) (52, -3.32578048110008239746e-02) (53, -2.59861230850219726562e-01) (54, -1.91992342472076416016e-01) (55, -1.54602006077766418457e-01) (56, -9.10473167896270751953e-02) (57, 2.52661317586898803711e-01) (58, -1.46759584546089172363e-01) (59, 1.28652244806289672852e-01) (60, -2.71894305944442749023e-01) (61, 2.17748820781707763672e-01) (62, -3.35036933422088623047e-01) (63, -4.95507359504699707031e-01) (64, 1.76256835460662841797e-01) (65, 1.26547381281852722168e-01) (66, -7.72518962621688842773e-02) (67, 2.41101801395416259766e-01) (68, -2.20226824283599853516e-01) (69, 1.64508730173110961914e-01) (70, -2.11143437772989273071e-02) (71, -1.97323217988014221191e-01) (72, 1.66424989700317382812e-01) (73, -3.56341749429702758789e-01) (74, -8.19957181811332702637e-02) (75, -1.63421630859375000000e-01) (76, -1.86962276697158813477e-01) (77, 2.47989222407341003418e-01) (78, 2.13669881224632263184e-01) (79, 3.11687797307968139648e-01) (80, -2.76071548461914062500e-01) (81, -1.00681759417057037354e-01) (82, 3.32460165023803710938e-01) (83, 3.87365281581878662109e-01) (84, -5.62486588954925537109e-01) (85, 6.71874403953552246094e-01) (86, 2.29702636599540710449e-01) (87, -5.88677644729614257812e-01) (88, 6.27510070800781250000e-01) (89, -7.28114485740661621094e-01) (90, -3.80165517330169677734e-01) (91, 5.11987864971160888672e-01) (92, 5.04826664924621582031e-01) (93, 4.08094763755798339844e-01) (94, 4.53436970710754394531e-01) (95, 2.09615036845207214355e-01) (96, -7.15411677956581115723e-02) (97, -3.35579216480255126953e-01) (98, -4.31085526943206787109e-01) (99, -1.98957189917564392090e-01) (100, -3.30502212047576904297e-01) (101, -2.55685523152351379395e-02) (102, -1.72283321619033813477e-01) (103, -1.73561111092567443848e-01) (104, -1.89192205667495727539e-01) (105, 3.97337675094604492188e-01) (106, 7.44344815611839294434e-02) (107, -4.24568653106689453125e-01) (108, -7.07343071699142456055e-02) (109, -5.85381090641021728516e-01) (110, -1.20793752372264862061e-01) (111, -2.50203371047973632812e-01) (112, -2.07797482609748840332e-01) (113, -1.99401453137397766113e-01) (114, -1.61712199449539184570e-01) (115, -1.85518145561218261719e-01) (116, 1.40293333679437637329e-02) (117, -1.73850625753402709961e-01) (118, -2.46601298451423645020e-01) (119, 5.35497702658176422119e-02) (120, -4.02062416076660156250e-01) (121, 7.64083743095397949219e-01) (122, -3.82204502820968627930e-01) (123, -7.50583350658416748047e-01) (124, 6.59781515598297119141e-01) (125, 4.13612008094787597656e-01) (126, 1.03596039116382598877e-01) (127, 6.83537423610687255859e-01) (128, -5.33417105674743652344e-01) (129, 4.93016004562377929688e-01) (130, 3.52933526039123535156e-01) (131, -7.15030282735824584961e-02) (132, 8.89747440814971923828e-02) (133, -6.22529268264770507812e-01) (134, -4.68711763620376586914e-01) (135, -2.86194868385791778564e-02) (136, 1.30446061491966247559e-01) (137, 7.14351296424865722656e-01) (138, 1.46537587046623229980e-01) (139, 3.84298712015151977539e-01) (140, -8.52441191673278808594e-01) (141, 3.93346995115280151367e-01) (142, -3.99633407592773437500e-01) (143, -6.81199967861175537109e-01) (144, 2.24017560482025146484e-01) (145, 7.38349676132202148438e-01) (146, -1.98769137263298034668e-01) (147, 1.00894220173358917236e-01) (148, -2.30460017919540405273e-01) (149, -9.46181342005729675293e-02) (150, -4.49467636644840240479e-02) (151, 7.19171762466430664062e-02) (152, 8.22378754615783691406e-01) (153, -4.83440756797790527344e-01) (154, -1.63834348320960998535e-01) (155, 3.37913399562239646912e-03) (156, 2.95852795243263244629e-02) (157, 3.44908773899078369141e-01) (158, 8.25891643762588500977e-02) (159, 1.04931913316249847412e-01) (160, -4.07279819250106811523e-01) (161, -1.09961763024330139160e-01) (162, 1.31145679950714111328e+00) (163, 5.88983535766601562500e-01) (164, -5.13059616088867187500e-01) (165, 1.07760465145111083984e+00) (166, 4.72250461578369140625e-01) (167, -4.84621167182922363281e-01) (168, 6.35258138179779052734e-01) (169, -9.21330869197845458984e-01) (170, -6.47655725479125976562e-01) (171, 1.22454214096069335938e+00) (172, 1.89713549613952636719e+00) (173, 2.40763902664184570312e-01) (174, 3.49636554718017578125e-01) (175, 1.07188534736633300781e+00) (176, 6.33256494998931884766e-01) (177, -2.57667988538742065430e-01) (178, -1.86268448829650878906e-01) (179, -1.62689194083213806152e-01) (180, -7.30580627918243408203e-01) (181, 3.94895114004611968994e-02) (182, 3.33741366863250732422e-01) (183, 1.03907827287912368774e-02) (184, -1.19478516280651092529e-01) (185, 9.48660001158714294434e-02) (186, 2.46145889163017272949e-01) (187, -2.72711724042892456055e-01) (188, -2.00375884771347045898e-01) (189, -4.61517453193664550781e-01) (190, -4.02889966964721679688e-01) (191, 1.45632728934288024902e-01) (192, 9.59014713764190673828e-01) (193, -2.05538928508758544922e-01) (194, -3.43964189291000366211e-01) (195, 2.10568055510520935059e-01) (196, 2.41245433688163757324e-01) (197, -1.98486959561705589294e-03) (198, -1.01642780005931854248e-01) (199, 6.99677616357803344727e-02) (200, -5.67823290824890136719e-01) (201, 4.81454014778137207031e-01) (202, -7.38011747598648071289e-02) (203, -4.63713616132736206055e-01) (204, 4.78722304105758666992e-01) (205, 2.96503037214279174805e-01) (206, -6.11230283975601196289e-02) (207, 5.61678409576416015625e-01) (208, -5.96838712692260742188e-01) (209, 2.09089264273643493652e-01) (210, -1.46435737609863281250e-01) (211, -2.75935262441635131836e-01) (212, 8.28338384628295898438e-01) (213, -5.96666932106018066406e-01) (214, -5.57389736175537109375e-01) (215, -5.43419830501079559326e-02) (216, 6.69350326061248779297e-02) (217, 7.25132584571838378906e-01) (218, 7.53243044018745422363e-02) (219, 3.04191768169403076172e-01) (220, -5.32010614871978759766e-01) (221, -1.04308709502220153809e-01) (222, 2.28252708911895751953e-01) (223, 1.85954757034778594971e-03) (224, -3.53470444679260253906e-01) (225, 9.32244434952735900879e-02) (226, -1.99526965618133544922e-01) (227, -2.76987224817276000977e-01) (228, -2.17420294880867004395e-01) (229, -5.88842213153839111328e-01) (230, -6.27258419990539550781e-01) (231, 4.96005639433860778809e-02) (232, 7.06310451030731201172e-01) (233, -2.20149770379066467285e-01) (234, -1.64295211434364318848e-01) (235, 2.66794618219137191772e-02) (236, 4.02369722723960876465e-02) (237, 3.58081646263599395752e-02) (238, -2.62387782335281372070e-01) (239, -3.39011102914810180664e-01) (240, -1.92912191152572631836e-01) (241, -1.47732317447662353516e-01) (242, 7.10861563682556152344e-01) (243, 4.69753116369247436523e-01) (244, -2.92933464050292968750e-01) (245, 2.76854515075683593750e-01) (246, 2.45041728019714355469e-01) (247, -4.39691066741943359375e-01) (248, 2.53382682800292968750e-01) (249, -6.26325666904449462891e-01) (250, -5.18443644046783447266e-01) (251, 4.08919185400009155273e-01) (252, 6.80588245391845703125e-01) (253, 2.47072771191596984863e-01) (254, 9.68101397156715393066e-02) (255, 4.78735715150833129883e-01) (256, 4.44520473480224609375e-01) (257, -1.97802335023880004883e-01) (258, -8.51826369762420654297e-02) (259, -4.76269535720348358154e-02) (260, -1.89494848251342773438e-01) (261, 2.44878244400024414062e+00) (262, -7.49573186039924621582e-02) (263, 4.72272396087646484375e-01) (264, -5.84512948989868164062e-01) (265, 1.32366716861724853516e+00) (266, -3.15698189660906791687e-03) (267, -6.34363937377929687500e+00) (0, -3.03444921970367431641e-01) (1, 2.48683616518974304199e-04) (2, -2.14746609330177307129e-01) (3, -3.23224037885665893555e-01) (4, -8.71262848377227783203e-02) (5, 3.86803328990936279297e-01) (6, -4.24496829509735107422e-02) (7, -1.78677678108215332031e-01) (8, -1.78572505712509155273e-01) (9, -3.21446776390075683594e-01) (10, -2.11787804961204528809e-01) (11, -1.12521998584270477295e-01) (12, 1.25617861747741699219e-01) (13, -3.33546489477157592773e-01) (14, -2.37637996673583984375e-01) (15, -5.10043762624263763428e-02) (16, 1.01225423812866210938e+00) (17, 1.00925779342651367188e+00) (18, 1.17117273807525634766e+00) (19, 1.02644562721252441406e+00) (20, -3.59449416399002075195e-01) (21, 2.22854949533939361572e-02) (22, -2.20468699932098388672e-01) (23, -3.51807624101638793945e-01) (24, -1.63916513323783874512e-01) (25, 4.92026448249816894531e-01) (26, -1.72618834767490625381e-03) (27, -2.50552743673324584961e-01) (28, -1.78703561425209045410e-01) (29, -3.51572722196578979492e-01) (30, -1.48012667894363403320e-01) (31, -4.86769899725914001465e-02) (32, 2.83229082822799682617e-01) (33, -3.80692392587661743164e-01) (34, -2.61769413948059082031e-01) (35, -7.29336217045783996582e-02) (36, -1.20728768408298492432e-01) (37, -1.16678506135940551758e-01) (38, -3.24597179889678955078e-01) (39, -8.37492123246192932129e-02) (40, -3.12492787837982177734e-01) (41, 2.29130879044532775879e-01) (42, -1.50763303041458129883e-01) (43, -3.30022782087326049805e-01) (44, -1.00971750915050506592e-01) (45, 6.13257586956024169922e-01) (46, -4.42679338157176971436e-02) (47, -1.66461005806922912598e-01) (48, -2.32597053050994873047e-01) (49, -2.62061715126037597656e-01) (50, -1.33417457342147827148e-01) (51, -2.22128797322511672974e-02) (52, 2.99592018127441406250e-01) (53, -3.57703059911727905273e-01) (54, -2.72655665874481201172e-01) (55, 4.35200743377208709717e-02) (56, 3.83782982826232910156e-02) (57, -4.18048053979873657227e-02) (58, -1.73710197210311889648e-01) (59, -4.93938736617565155029e-02) (60, -3.78927677869796752930e-01) (61, 1.67971581220626831055e-01) (62, -1.87565311789512634277e-01) (63, -3.82253617048263549805e-01) (64, -7.23272636532783508301e-02) (65, 5.92443645000457763672e-01) (66, 2.48060356825590133667e-02) (67, -6.96893259882926940918e-02) (68, -2.85532772541046142578e-01) (69, -2.00359210371971130371e-01) (70, -1.61925002932548522949e-01) (71, -2.23747305572032928467e-02) (72, 4.41287815570831298828e-01) (73, -3.71826022863388061523e-01) (74, -3.61510962247848510742e-01) (75, 1.37234162539243698120e-02) (76, 1.09211653470993041992e-01) (77, -3.63202579319477081299e-02) (78, -2.02095344662666320801e-01) (79, -1.17851965129375457764e-01) (80, -2.54595339298248291016e-01) (81, 2.44364485144615173340e-01) (82, 2.56325513124465942383e-01) (83, -1.93975105881690979004e-01) (84, -7.10441824048757553101e-03) (85, 7.95168399810791015625e-01) (86, 1.25060021877288818359e-01) (87, 8.53645894676446914673e-03) (88, -1.28301143646240234375e-01) (89, -4.76799756288528442383e-02) (90, -9.06477421522140502930e-02) (91, 3.32245767116546630859e-01) (92, 8.50166738033294677734e-01) (93, -2.00097739696502685547e-01) (94, -2.06858992576599121094e-01) (95, 3.12857329845428466797e-01) (96, 3.87907028198242187500e-01) (97, 8.63881856203079223633e-02) (98, -1.37371063232421875000e-01) (99, -3.16020511090755462646e-02) (100, -1.50126039981842041016e-01) (101, 6.26321583986282348633e-02) (102, 3.90709310770034790039e-01) (103, -1.83367013931274414062e-01) (104, -6.82925060391426086426e-02) (105, 7.29036748409271240234e-01) (106, 2.26692501455545425415e-02) (107, -1.94412380456924438477e-01) (108, -2.88932681083679199219e-01) (109, -2.58378535509109497070e-01) (110, -2.08091065287590026855e-01) (111, 1.91379845142364501953e-01) (112, 8.11761200428009033203e-01) (113, -3.23786884546279907227e-01) (114, -3.38994324207305908203e-01) (115, 3.30587655305862426758e-01) (116, 2.60303467512130737305e-01) (117, -9.08263772726058959961e-02) (118, -4.83177825808525085449e-02) (119, -4.79525364935398101807e-02) (120, -1.20484061539173126221e-01) (121, -8.44227671623229980469e-02) (122, 1.86251878738403320312e-01) (123, -4.47268318384885787964e-03) (124, -2.00895383954048156738e-01) (125, 5.41941285133361816406e-01) (126, -2.29169189929962158203e-01) (127, -1.50799900293350219727e-01) (128, -3.25392365455627441406e-01) (129, -2.72782951593399047852e-01) (130, -2.98657536506652832031e-01) (131, -1.56204819679260253906e-01) (132, 8.48022699356079101562e-01) (133, -2.55255430936813354492e-01) (134, -3.84531527757644653320e-01) (135, -1.16258986294269561768e-01) (136, -1.19302026927471160889e-01) (137, -1.26618444919586181641e-02) (138, -4.51062917709350585938e-02) (139, -2.25983530282974243164e-01) (140, -7.50403329730033874512e-02) (141, -4.59082946181297302246e-02) (142, 1.62193253636360168457e-01) (143, 1.56445309519767761230e-01) (144, -1.04397222399711608887e-01) (145, -1.71589180827140808105e-01) (146, -1.51842951774597167969e-01) (147, -4.76724915206432342529e-02) (148, -1.97622060775756835938e-01) (149, -1.48613214492797851562e-01) (150, -1.52058020234107971191e-01) (151, -2.21604555845260620117e-01) (152, 7.16639399528503417969e-01) (153, -1.06588125228881835938e-01) (154, -2.33536764979362487793e-01) (155, -5.95703162252902984619e-02) (156, -4.99035306274890899658e-02) (157, 5.22517859935760498047e-02) (158, 1.00412204861640930176e-01) (159, -1.46905049681663513184e-01) (160, 4.33450564742088317871e-02) (161, -2.20044180750846862793e-02) (162, 2.04659476876258850098e-01) (163, 1.17635697126388549805e-01) (164, -1.05363778769969940186e-01) (165, -2.25845620036125183105e-01) (166, -1.34226143360137939453e-01) (167, -7.74759054183959960938e-02) (168, -5.06211407482624053955e-02) (169, -1.41172200441360473633e-01) (170, -2.00477093458175659180e-01) (171, -1.53454482555389404297e-01) (172, 5.88527694344520568848e-02) (173, 3.03396787494421005249e-02) (174, -9.43860560655593872070e-02) (175, -3.19063141942024230957e-02) (176, 9.23178344964981079102e-03) (177, -2.13418696075677871704e-02) (178, -7.84447565674781799316e-02) (179, -1.52606934309005737305e-01) (180, 3.00552576780319213867e-01) (181, 8.42278003692626953125e-02) (182, -5.31316809356212615967e-02) (183, -2.83178756944835186005e-03) (184, 1.10449329018592834473e-01) (185, -1.20560579001903533936e-01) (186, -6.74878954887390136719e-02) (187, 6.77776485681533813477e-02) (188, 7.53796026110649108887e-02) (189, 1.01741090416908264160e-01) (190, 7.10925459861755371094e-02) (191, -8.95052105188369750977e-02) (192, -2.05528706312179565430e-01) (193, 9.99949052929878234863e-02) (194, 1.20619095861911773682e-01) (195, 1.15698883309960365295e-02) (196, 4.36016470193862915039e-02) (197, 1.02496117353439331055e-01) (198, 7.97962471842765808105e-02) (199, 2.02516485005617141724e-02) (200, 3.25956106185913085938e-01) (201, 1.61009758710861206055e-01) (202, -5.61439469456672668457e-02) (203, 9.13431420922279357910e-02) (204, 1.38934344053268432617e-01) (205, 7.08652809262275695801e-02) (206, 1.20017446577548980713e-01) (207, 1.94534301757812500000e-01) (208, 9.17718783020973205566e-02) (209, 2.76239663362503051758e-01) (210, 2.99010813236236572266e-01) (211, 2.90024131536483764648e-02) (212, -1.80760294198989868164e-01) (213, 1.26834809780120849609e-01) (214, 1.31712198257446289062e-01) (215, 3.67292091250419616699e-02) (216, 8.28026235103607177734e-02) (217, 1.30718797445297241211e-01) (218, 1.39233067631721496582e-01) (219, 2.15589608997106552124e-02) (220, 3.03405374288558959961e-01) (221, 5.21602481603622436523e-02) (222, -5.00264205038547515869e-02) (223, 8.33337232470512390137e-02) (224, 9.29409861564636230469e-02) (225, 6.70881494879722595215e-02) (226, 1.04453697800636291504e-01) (227, 1.67677596211433410645e-01) (228, 1.69265970587730407715e-01) (229, 2.46125012636184692383e-01) (230, 2.60467827320098876953e-01) (231, -1.38564165681600570679e-02) (232, -1.41474410891532897949e-01) (233, 1.96052953600883483887e-01) (234, 2.31958642601966857910e-01) (235, 3.63480709493160247803e-02) (236, 1.93980447947978973389e-02) (237, 7.73613005876541137695e-02) (238, 2.31552988290786743164e-01) (239, 3.23017463088035583496e-02) (240, 2.25506260991096496582e-01) (241, 1.06398016214370727539e-01) (242, -1.01765371859073638916e-01) (243, 4.73231337964534759521e-02) (244, 1.41619607806205749512e-01) (245, -1.55643010511994361877e-02) (246, -1.99943576008081436157e-02) (247, 1.63362517952919006348e-01) (248, 5.50413876771926879883e-02) (249, 2.34567418694496154785e-01) (250, 3.03088992834091186523e-01) (251, -5.02595901489257812500e-02) (252, -1.83205038309097290039e-01) (253, 9.97153148055076599121e-02) (254, 1.19685232639312744141e-01) (255, 2.76560820639133453369e-02) (256, 3.48077863454818725586e-02) (257, 5.87140284478664398193e-02) (258, 2.06787213683128356934e-01) (259, 5.53504005074501037598e-02) (260, -1.05817817151546478271e-01) (261, 9.61225450038909912109e-01) (262, -8.57616215944290161133e-02) (263, 1.61640450358390808105e-01) (264, -1.74413755536079406738e-01) (265, 2.62853115797042846680e-01) (266, 1.63791418075561523438e-01) (267, -2.18279123306274414062e-01) (268, 8.91022235155105590820e-02) (0, -3.55358809232711791992e-01) (1, -6.85407221317291259766e-01) (2, -8.92045125365257263184e-02) (3, -8.30700844526290893555e-02) (4, -3.46161097288131713867e-01) (5, 1.08671158552169799805e-01) (6, -1.41621246933937072754e-01) (7, -4.73899811506271362305e-01) (8, -1.11277781426906585693e-01) (9, -4.47546660900115966797e-01) (10, -5.00934481620788574219e-01) (11, -2.04761371016502380371e-01) (12, -3.63297052681446075439e-02) (13, -1.55447170138359069824e-01) (14, 1.45282733440399169922e+00) (15, 1.69295024871826171875e+00) (16, -1.37917053699493408203e+00) (17, -1.31614315509796142578e+00) (18, -1.44038927555084228516e+00) (19, -1.29894518852233886719e+00) (20, -2.51447826623916625977e-01) (21, -4.86445695161819458008e-01) (22, 5.01456595957279205322e-02) (23, 6.02199211716651916504e-02) (24, -2.16965347528457641602e-01) (25, 1.99799612164497375488e-01) (26, -1.79452970623970031738e-02) (27, -2.74300575256347656250e-01) (28, 1.02081760764122009277e-01) (29, -3.10187339782714843750e-01) (30, -2.49155879020690917969e-01) (31, 5.07915504276752471924e-02) (32, 1.07777155935764312744e-01) (33, 7.05583915114402770996e-02) (34, 8.22737067937850952148e-02) (35, 5.64934052526950836182e-02) (36, 6.99555128812789916992e-02) (37, -1.20249077677726745605e-01) (38, -2.10162296891212463379e-01) (39, 6.84353662654757499695e-03) (40, -1.66068509221076965332e-01) (41, -2.64542549848556518555e-01) (42, -9.96406301856040954590e-02) (43, -1.32288709282875061035e-01) (44, 1.92810762673616409302e-02) (45, 1.31736174225807189941e-01) (46, -9.79728102684020996094e-02) (47, 2.00994368642568588257e-02) (48, -3.20921428501605987549e-02) (49, -1.57651588320732116699e-01) (50, -1.04667603969573974609e-01) (51, -1.71200275421142578125e-01) (52, -5.22513948380947113037e-02) (53, -7.78336599469184875488e-02) (54, -8.15367400646209716797e-02) (55, -1.08361855149269104004e-01) (56, 2.39510345272719860077e-03) (57, 1.26712977886199951172e-01) (58, -9.30095836520195007324e-02) (59, 7.64059498906135559082e-02) (60, -5.55169545114040374756e-02) (61, -9.11587700247764587402e-02) (62, -1.25247970223426818848e-01) (63, -1.95732954889535903931e-02) (64, 2.40253537893295288086e-01) (65, 2.06978976726531982422e-01) (66, 1.02879293262958526611e-01) (67, 4.24274951219558715820e-01) (68, 1.22582428157329559326e-01) (69, 1.56695112586021423340e-01) (70, 5.63673824071884155273e-02) (71, -1.06715813279151916504e-01) (72, 6.09541498124599456787e-02) (73, 8.76251049339771270752e-03) (74, 9.55944731831550598145e-02) (75, -7.37791135907173156738e-02) (76, 1.26790821552276611328e-01) (77, 4.57186818122863769531e-01) (78, 1.44361674785614013672e-01) (79, 3.00750315189361572266e-01) (80, -1.22531667351722717285e-01) (81, 2.27080166339874267578e-01) (82, -2.29255437850952148438e-01) (83, -6.27851709723472595215e-02) (84, 1.19451217353343963623e-01) (85, 2.26902663707733154297e-01) (86, 2.70602777600288391113e-02) (87, 4.18888241052627563477e-01) (88, 6.84398338198661804199e-02) (89, 3.45862545073032379150e-02) (90, 8.48445575684309005737e-03) (91, -1.83442890644073486328e-01) (92, -2.16395184397697448730e-01) (93, 6.18850439786911010742e-02) (94, 1.66595578193664550781e-02) (95, -1.16970703005790710449e-01) (96, 6.47788643836975097656e-02) (97, 4.64189440011978149414e-01) (98, -6.31175097078084945679e-03) (99, 1.31094157695770263672e-01) (100, 2.11471728980541229248e-02) (101, 1.14016227424144744873e-01) (102, -5.13545572757720947266e-01) (103, -2.02778980135917663574e-01) (104, 3.36392313241958618164e-01) (105, -7.70439058542251586914e-02) (106, -4.49028760194778442383e-02) (107, 5.98001897335052490234e-01) (108, -3.95526327192783355713e-02) (109, 1.53034910559654235840e-01) (110, 1.51738166809082031250e-01) (111, -5.12192904949188232422e-01) (112, -4.13230538368225097656e-01) (113, -1.73780113458633422852e-01) (114, -1.34081374853849411011e-02) (115, -2.27836892008781433105e-01) (116, 2.70313173532485961914e-01) (117, 6.39055907726287841797e-01) (118, 2.47039705514907836914e-01) (119, 2.86956518888473510742e-01) (120, -2.41003960371017456055e-01) (121, -3.16921956837177276611e-02) (122, -6.13572239875793457031e-01) (123, -3.61019819974899291992e-01) (124, 3.28823387622833251953e-01) (125, -2.49103814363479614258e-01) (126, -1.32948635146021842957e-02) (127, 7.44887888431549072266e-01) (128, -1.81753918528556823730e-01) (129, 1.90592244267463684082e-01) (130, 1.24937914311885833740e-01) (131, -4.92991954088211059570e-01) (132, -6.61280691623687744141e-01) (133, -2.52001702785491943359e-01) (134, -1.47578850388526916504e-01) (135, -1.31887316703796386719e-01) (136, -5.40857948362827301025e-02) (137, 7.66041696071624755859e-01) (138, 1.17232993245124816895e-01) (139, 2.27940484881401062012e-01) (140, -3.27940106391906738281e-01) (141, 9.28202830255031585693e-03) (142, -1.96956887841224670410e-01) (143, -2.10036560893058776855e-01) (144, 3.42042118310928344727e-01) (145, -1.86422392725944519043e-01) (146, -1.68359234929084777832e-01) (147, 7.57232546806335449219e-01) (148, -1.14319153130054473877e-01) (149, 3.77115309238433837891e-01) (150, 1.50752514600753784180e-01) (151, -1.47000700235366821289e-01) (152, -1.55035600066184997559e-01) (153, -3.00720661878585815430e-01) (154, -1.48596212267875671387e-01) (155, -4.96303141117095947266e-02) (156, 1.24301493167877197266e-01) (157, 7.79299259185791015625e-01) (158, 9.35236364603042602539e-02) (159, 1.18634030222892761230e-01) (160, -1.89515948295593261719e-01) (161, -2.04495377838611602783e-02) (162, 1.22705042362213134766e-01) (163, -4.47845906019210815430e-02) (164, -9.80510637164115905762e-02) (165, -2.00465247035026550293e-02) (166, -2.55583226680755615234e-02) (167, 1.63071736693382263184e-01) (168, 1.47666651755571365356e-02) (169, -1.31260469555854797363e-01) (170, -2.14388966560363769531e-01) (171, 1.09878495335578918457e-01) (172, 2.91097521781921386719e-01) (173, -2.03019663691520690918e-01) (174, -3.16984355449676513672e-02) (175, 2.14373424649238586426e-01) (176, 1.54328584671020507812e-01) (177, 2.20968306064605712891e-01) (178, -1.54640078544616699219e-01) (179, -7.16620087623596191406e-02) (180, -1.58687949180603027344e-01) (181, 9.60163655690848827362e-04) (182, 2.03102305531501770020e-01) (183, 6.05069100856781005859e-02) (184, 8.10879543423652648926e-02) (185, -9.13847889751195907593e-03) (186, 1.29709899425506591797e-01) (187, 9.61920097470283508301e-02) (188, -1.75900645554065704346e-02) (189, -9.20938327908515930176e-03) (190, -1.34938523173332214355e-01) (191, 1.41468450427055358887e-01) (192, 1.87340438365936279297e-01) (193, -1.34042441844940185547e-01) (194, -1.01136952638626098633e-01) (195, 2.35583901405334472656e-01) (196, 2.45792284607887268066e-01) (197, 1.89669504761695861816e-01) (198, -5.85235506296157836914e-02) (199, 